#define classifier_weight {\
0.0025630288291722536, \
0.011198010295629501, \
-0.002931591821834445, \
-0.03901704400777817, \
-0.012268148362636566, \
0.0487682931125164, \
2.8774111565654792e-11, \
1.5813418283161518e-11, \
-0.045888666063547134, \
-0.00697699561715126, \
0.01133771426975727, \
0.010675313882529736, \
-0.09871987998485565, \
-0.018680322915315628, \
0.03015081025660038, \
0.005718276370316744, \
-0.14874742925167084, \
4.654361271394514e-11, \
-0.004664083477109671, \
0.012970855459570885, \
0.0007128274301066995, \
0.2529265582561493, \
0.019625578075647354, \
7.9901127381099e-11, \
-0.24396564066410065, \
0.01801077090203762, \
0.0574057511985302, \
0.003249549074098468, \
0.007498462218791246, \
0.09904532134532928, \
0.03405871242284775, \
-0.01027501467615366, \
-0.28616663813591003, \
-0.009854667820036411, \
-0.006782929878681898, \
-0.025755146518349648, \
0.045843638479709625, \
0.06672775745391846, \
0.005576389841735363, \
-0.0009517135331407189, \
-4.428860056471251e-12, \
0.0006345377769321203, \
-0.02535255439579487, \
-0.03560548648238182, \
0.009595178999006748, \
-0.021141542121767998, \
0.04289461672306061, \
0.008023460395634174, \
-0.007704197894781828, \
0.003317662514746189, \
-0.0057072420604527, \
-0.013799329288303852, \
-0.0057217879220843315, \
-0.08651207387447357, \
8.047901754737463e-12, \
0.00867815688252449, \
2.0026669125122742e-12, \
0.04946841299533844, \
0.16742657124996185, \
-0.20739109814167023, \
0.019517220556735992, \
-0.021279051899909973, \
0.024521667510271072, \
3.138830514948232e-11, \
-0.04437008127570152, \
0.002745081437751651, \
-0.0565079040825367, \
3.035502058046369e-11, \
0.010501611046493053, \
-0.007004159037023783, \
-0.12117356806993484, \
0.010576138272881508, \
0.01489211618900299, \
0.03509015589952469, \
0.013583962805569172, \
-0.010710462927818298, \
0.021856438368558884, \
0.026096129789948463, \
0.012730543501675129, \
0.021846171468496323, \
-0.008592664264142513, \
0.005544600076973438, \
0.02194041758775711, \
-0.012092456221580505, \
0.01579592563211918, \
-0.15933263301849365, \
0.12371256202459335, \
2.0029007966049228e-11, \
0.03421634063124657, \
-0.17544755339622498, \
-0.01084599643945694, \
3.144227586626691e-11, \
-0.002556886523962021, \
-0.006230042316019535, \
0.07130508869886398, \
0.055220961570739746, \
-0.14300532639026642, \
-0.024548271670937538, \
0.026238443329930305, \
0.033370137214660645, \
-0.12822048366069794, \
0.006175839342176914, \
0.014285965822637081, \
-0.03226061910390854, \
0.39519962668418884, \
-0.027312403544783592, \
-0.05112116411328316, \
-0.02028387412428856, \
-0.008453842252492905, \
-0.03624836727976799, \
0.04303085058927536, \
-0.00020398823835421354, \
-0.017837487161159515, \
0.051056575030088425, \
-0.04277154803276062, \
0.021931985393166542, \
9.321364860537251e-12, \
0.013788185082376003, \
0.018710274249315262, \
0.02138504944741726, \
-0.0940028503537178, \
3.0503537196135966e-11, \
4.206354708991e-11, \
0.009648462757468224, \
0.001385379466228187, \
-0.005112943239510059, \
0.031127098947763443, \
0.17404502630233765, \
-0.01060257013887167, \
0.019578570500016212, \
0.09762992709875107, \
-0.0004474280576687306, \
0.049614690244197845, \
0.02078590914607048, \
0.17419178783893585, \
0.019815590232610703, \
0.03413255140185356, \
0.11015516519546509, \
0.0061867088079452515, \
0.04911962151527405, \
0.002937647979706526, \
0.0007034748559817672, \
-0.008923779241740704, \
0.0052843098528683186, \
0.004774792585521936, \
0.013597844168543816, \
0.04112120345234871, \
-0.028380457311868668, \
0.035921137779951096, \
-0.029047556221485138, \
-1.6288826190646866e-11, \
0.09629234671592712, \
-0.053850192576646805, \
0.03332025185227394, \
-0.0864485651254654, \
-0.14226475358009338, \
2.6751238377253905e-11, \
-0.09113728255033493, \
0.011156237684190273, \
-0.22918052971363068, \
-0.00887735653668642, \
0.012641931883990765, \
-0.1362418532371521, \
0.06953339278697968, \
0.03455919772386551, \
0.3146761953830719, \
-0.05665033310651779, \
0.03294045478105545, \
9.26853298971464e-12, \
-9.597047549020354e-13, \
0.03609365597367287, \
-0.03842535987496376, \
0.027411453425884247, \
-0.0500207245349884, \
0.08525656908750534, \
-9.522029296776466e-14, \
-0.09745820611715317, \
0.05266224220395088, \
-0.0028424181509763002, \
1.1423379603359152e-11, \
0.03594289720058441, \
0.010841195471584797, \
0.06712031364440918, \
-0.018569208681583405, \
-0.039139389991760254, \
-0.04556988924741745, \
-0.15179747343063354, \
0.06549757719039917, \
-0.06620968133211136, \
-0.1494104117155075, \
8.181903939086244e-12, \
0.0008055215585045516, \
0.017500190064311028, \
-0.010307344608008862, \
0.023248309269547462, \
0.05528033897280693, \
0.13357272744178772, \
1.651770734079072e-11, \
2.303524732072404e-11, \
-0.03719235584139824, \
0.0983106940984726, \
0.12185251712799072, \
-0.0014441298553720117, \
0.0855114609003067, \
0.1854931265115738, \
0.017848392948508263, \
0.15709707140922546, \
0.01908191293478012, \
-0.08447802066802979, \
0.023495430126786232, \
0.02176485024392605, \
0.013944451697170734, \
-0.009932036511600018, \
1.1050605742968234e-11, \
0.016465825960040092, \
-0.011868296191096306, \
0.04809148982167244, \
0.01640171930193901, \
3.273203236231481e-11, \
-0.08431383967399597, \
-0.03336775302886963, \
0.02705233171582222, \
0.0012929465156048536, \
0.06544087082147598, \
0.023090176284313202, \
-0.01748759113252163, \
-0.017873074859380722, \
0.0588349923491478, \
8.765985333447635e-12, \
0.056485701352357864, \
0.03833901882171631, \
0.015152554959058762, \
-0.05811500549316406, \
1.061604623653345e-11, \
0.023658862337470055, \
2.299639298430911e-11, \
-0.08221867680549622, \
0.02643646113574505, \
0.1147560328245163, \
0.0320110060274601, \
-0.057406261563301086, \
-0.023541303351521492, \
0.07243336737155914, \
0.06282784789800644, \
-1.720108257219355e-11, \
0.024607200175523758, \
0.004255686420947313, \
-0.13877220451831818, \
0.1087513118982315, \
-0.05110142007470131, \
-0.23769697546958923, \
-0.0049905963242053986, \
1.061512770045292e-11, \
0.024764688685536385, \
0.0191347636282444, \
-0.004811199847608805, \
0.007388954516500235, \
3.289056874078433e-11, \
-0.035937871783971786, \
0.025062063708901405, \
0.06775179505348206, \
0.11005127429962158, \
0.18050016462802887, \
-0.28351718187332153, \
0.014689836651086807, \
0.022643692791461945, \
1.0026058976098096e-11, \
0.13801947236061096, \
-0.09975886344909668, \
0.05812428891658783, \
-0.0068253749050199986, \
-0.001556640723720193, \
3.897894930560142e-05, \
0.02867000363767147, \
-0.16481152176856995, \
0.04146687686443329, \
0.02401479333639145, \
-0.009525865316390991, \
-0.03473805636167526, \
0.011445494368672371, \
-0.014598424546420574, \
0.05941231921315193, \
0.0024496037513017654, \
0.013011850416660309, \
0.02849734015762806, \
-0.05434071272611618, \
-0.23514223098754883, \
7.51410565713595e-12, \
0.016544729471206665, \
-0.01815098710358143, \
-0.0975964292883873, \
0.05204927548766136, \
-0.20950652658939362, \
0.04116177186369896, \
0.16334658861160278, \
0.004155520815402269, \
2.3015922501201658e-11, \
-0.09750756621360779, \
0.013961716555058956, \
-0.08947136253118515, \
-0.001122481538914144, \
-0.04843912646174431, \
0.13702231645584106, \
0.050142016261816025, \
0.004282643552869558, \
0.0021768484730273485, \
-0.009115227498114109, \
0.008983613923192024, \
0.03149000555276871, \
-0.1433665007352829, \
0.02175566554069519, \
-0.05759713798761368, \
0.026043454185128212, \
-0.03870782256126404, \
-0.017980143427848816, \
-0.014260288327932358, \
-0.021758994087576866, \
-0.02106470800936222, \
0.12473559379577637, \
0.041731346398591995, \
0.022099100053310394, \
5.266554553573499e-12, \
0.005774415098130703, \
0.019301358610391617, \
-0.22433732450008392, \
0.005310788284987211, \
0.07331385463476181, \
0.01462834607809782, \
0.1232723817229271, \
-0.1274392157793045, \
-0.05805157870054245, \
0.024002864956855774, \
0.03427490219473839, \
0.000270791380899027, \
0.00782457459717989, \
-0.07329932600259781, \
0.1724657267332077, \
0.05226803943514824, \
-0.2423655092716217, \
-0.2116328626871109, \
0.09906715899705887, \
-0.22950051724910736, \
3.151721505306737e-12, \
0.012305275537073612, \
-0.0025398016441613436, \
-0.020466793328523636, \
0.11392615735530853, \
-4.72511179488988e-12, \
-0.08797580003738403, \
0.01818070188164711, \
-0.02164626494050026, \
-0.03871900588274002, \
0.04484599828720093, \
2.941217755458858e-11, \
0.008354611694812775, \
0.02614503540098667, \
0.03955359384417534, \
0.023979604244232178, \
-4.712900772574358e-05, \
0.05057740956544876, \
-0.011828702874481678, \
-0.02144947089254856, \
0.04624940827488899, \
0.025294572114944458, \
0.0006574903964065015, \
-0.08283813297748566, \
0.04476213455200195, \
-0.080414779484272, \
-0.06897865980863571, \
-0.10141272842884064, \
6.815521237657496e-12, \
0.004215691238641739, \
2.699978695480665e-12, \
-0.023757386952638626, \
0.3387978672981262, \
2.575231174140047e-11, \
0.0165665652602911, \
0.04035688564181328, \
0.004956443794071674, \
-0.04040374606847763, \
-0.11967813223600388, \
0.0007753876852802932, \
0.13148072361946106, \
-0.010193755850195885, \
-4.359547445265122e-12, \
0.00278271920979023, \
0.03048393316566944, \
-0.048308201134204865, \
0.06914481520652771, \
-0.09156381338834763, \
0.017144447192549706, \
1.745842359568428e-11, \
-0.0660962462425232, \
-0.006853635422885418, \
-0.011435698717832565, \
0.031308796256780624, \
0.015926256775856018, \
-0.06421566754579544, \
1.4012165559795786e-11, \
-0.03625113517045975, \
0.019641656428575516, \
0.0641539916396141, \
0.06154048815369606, \
0.07636502385139465, \
0.0041476828046143055, \
0.01374239195138216, \
-0.10025996714830399, \
-0.04739443212747574, \
-0.011163541115820408, \
0.03687818720936775, \
-0.11805891245603561, \
0.0032313866540789604, \
2.2113920070121473e-11, \
0.011688075959682465, \
-0.003999857231974602, \
-0.013090451247990131, \
0.011015491560101509, \
0.005444149952381849, \
0.029552649706602097, \
3.331534700889982e-11, \
0.0052905455231666565, \
-0.0028751783538609743, \
-0.18971095979213715, \
0.013851395808160305, \
0.02533867582678795, \
0.27873292565345764, \
4.137148956750991e-11, \
0.22222007811069489, \
-0.09693470597267151, \
0.05029730126261711, \
0.013015953823924065, \
-0.07373999804258347, \
-0.04398170858621597, \
0.016986915841698647, \
0.002041563158854842, \
-0.017809681594371796, \
0.013222858309745789, \
0.010640695691108704, \
-0.17687490582466125, \
0.006611800752580166, \
1.758319878586434e-11, \
-0.01743294857442379, \
-0.15122634172439575, \
-0.05538475513458252, \
0.04023240879178047, \
-0.06585575640201569, \
-0.0020417035557329655, \
0.042721085250377655, \
-0.1639941930770874, \
0.00213433476164937, \
0.07130526751279831, \
-0.3620164096355438, \
0.03991929069161415, \
0.24132035672664642, \
0.016523512080311775, \
-0.03239988163113594, \
0.2333526760339737, \
-0.21234849095344543, \
0.04699345678091049, \
0.016355330124497414, \
0.12098263204097748, \
0.00810881145298481, \
-0.003590427804738283, \
0.02676086686551571, \
1.203311755793024e-11, \
-0.0011759225744754076, \
0.07201932370662689, \
0.019685033708810806, \
0.2243243157863617, \
-0.05807102099061012, \
0.005740871652960777, \
0.4290550947189331, \
-0.005218349397182465, \
3.2708384611890295e-11, \
0.06794612854719162, \
0.001431538606993854, \
0.009152057580649853, \
0.04594096541404724, \
0.0323270708322525, \
-0.030004290863871574, \
-0.1262548267841339, \
0.00906381942331791, \
0.04069194942712784, \
0.13167808949947357, \
0.0015018443809822202, \
-0.0010600289097055793, \
-0.03169282153248787, \
-0.06340279430150986, \
-0.04639878123998642, \
-0.01799517497420311, \
-0.015355211682617664, \
0.016811413690447807, \
0.019102247431874275, \
-0.01679924502968788, \
0.004046498332172632, \
0.0019543347880244255, \
0.03990624099969864, \
0.037595052272081375, \
-0.022588524967432022, \
-0.00460214214399457, \
0.06497986614704132, \
0.02596460096538067, \
0.023543745279312134, \
0.024714352563023567, \
0.052684590220451355, \
0.08997847139835358, \
0.014540217816829681, \
-0.002155499067157507, \
-0.00309385871514678, \
0.025623489171266556, \
-0.015082386322319508, \
0.04253583401441574, \
-0.00396912032738328, \
-0.03930967301130295, \
-0.003848737571388483, \
0.19635647535324097, \
-0.08216828852891922, \
-0.026372771710157394, \
1.2263069032458773e-11, \
1.662178207573195e-11, \
-0.07573086023330688, \
-0.0009075462003238499, \
-0.007788743823766708, \
0.01700437068939209, \
-0.12257546186447144, \
-0.01935514062643051, \
-0.03032481111586094, \
-0.020364338532090187, \
-0.015348559245467186, \
2.173024780949273e-11, \
-0.023630866780877113, \
-0.0047208815813064575, \
-0.006369022186845541, \
-0.18316729366779327, \
-0.13043151795864105, \
-3.823502847666305e-09, \
-0.1337607353925705, \
-0.0060012731701135635, \
-0.02335968427360058, \
-0.037621185183525085, \
-0.025614576414227486, \
-0.17311066389083862, \
-0.0885334461927414, \
-0.033462490886449814, \
-0.18969199061393738, \
-0.0261073037981987, \
-0.001973868580535054, \
-0.021060751751065254, \
-0.037762340158224106, \
-0.016689475625753403, \
-0.003201431594789028, \
-0.013041808269917965, \
1.1305649992576772e-11, \
-0.06915221363306046, \
-0.028143294155597687, \
-0.01068104337900877, \
-0.019275611266493797, \
-0.017163343727588654, \
-0.05554540455341339, \
-0.014887122437357903, \
-0.0017213650280609727, \
0.05248584970831871, \
-0.03985815495252609, \
-0.030391544103622437, \
-0.03724615275859833, \
0.1715782880783081, \
2.5190667260477362e-11, \
0.009651725180447102, \
2.119113912124604e-12, \
-0.04377233237028122, \
-0.05792343243956566, \
0.2069256454706192, \
-0.027558226138353348, \
-0.05114356055855751, \
-0.04323619231581688, \
8.90081758297967e-12, \
-0.05991406366229057, \
-0.015004740096628666, \
0.13472583889961243, \
3.089591082972021e-11, \
-0.01940559409558773, \
-0.013567295856773853, \
0.03811018168926239, \
-0.0002770360151771456, \
0.011480472050607204, \
0.31816864013671875, \
0.029360685497522354, \
-0.03614058345556259, \
-0.047881465405225754, \
0.07395105808973312, \
-0.049468934535980225, \
0.006475207395851612, \
-0.012961309403181076, \
0.00661048386245966, \
-0.004600460175424814, \
-0.02314440719783306, \
-0.0070461188443005085, \
0.06427852064371109, \
-0.06285993754863739, \
1.7861614964864714e-11, \
0.014164270833134651, \
-0.01628256030380726, \
-0.05268300324678421, \
2.094462450696888e-11, \
-0.024496426805853844, \
-0.019044270738959312, \
-0.047342460602521896, \
0.029198259115219116, \
0.1611006259918213, \
-0.021181905642151833, \
-0.040744245052337646, \
-0.06356167793273926, \
0.05206088721752167, \
-0.009413249790668488, \
-0.00833333469927311, \
-0.03841957077383995, \
0.3492857813835144, \
-0.01932574063539505, \
-0.044168148189783096, \
-0.01938675530254841, \
-0.023312125355005264, \
0.017007509246468544, \
-0.005780623760074377, \
-0.009330172091722488, \
-0.0846884474158287, \
-0.07267916947603226, \
-0.024429356679320335, \
-0.03165937960147858, \
1.6454124521225744e-11, \
-0.014891688711941242, \
-0.01123481523245573, \
-0.0602409690618515, \
-0.04969719797372818, \
6.453219035529312e-12, \
3.171491541609228e-11, \
-0.02004843018949032, \
-0.03826030343770981, \
0.035843756049871445, \
0.03512795269489288, \
-0.15740926563739777, \
-0.027947193011641502, \
-0.1354334056377411, \
-0.10659188032150269, \
-0.00332950078882277, \
-0.016868075355887413, \
-0.09369584918022156, \
0.00708710215985775, \
-0.07147390395402908, \
0.017984451726078987, \
-0.05535874143242836, \
-0.053720634430646896, \
-0.012435498647391796, \
-0.0363130196928978, \
-0.005572777707129717, \
0.15180160105228424, \
-0.007709149736911058, \
-0.0014061988331377506, \
-0.026253188028931618, \
-0.04407509043812752, \
-0.035196952521800995, \
-0.05531247332692146, \
-0.03428780287504196, \
-1.6481153247704938e-11, \
-0.06654778867959976, \
-0.1167946383357048, \
-0.02225775271654129, \
-0.14815491437911987, \
0.13301311433315277, \
1.304988062056367e-11, \
-0.05822914093732834, \
-0.030208729207515717, \
-0.13806936144828796, \
0.00010946976544801146, \
-0.03854052722454071, \
-0.0245526060461998, \
0.27956780791282654, \
-0.028095507994294167, \
0.04503804072737694, \
-0.04777343198657036, \
0.1763569563627243, \
2.821600939006963e-11, \
1.310689144023991e-11, \
-0.08000864088535309, \
-0.06430073082447052, \
-0.007982644252479076, \
-0.060658492147922516, \
0.023271508514881134, \
1.056323518239255e-11, \
0.005255713127553463, \
-0.03144131600856781, \
-0.28360357880592346, \
1.164020789479192e-11, \
-0.054008591920137405, \
-0.05780115723609924, \
-2.5377248675795272e-05, \
-0.07636503130197525, \
-0.04948049411177635, \
0.18140897154808044, \
-0.06153383105993271, \
-0.02360297366976738, \
-0.016211839392781258, \
-0.05836843326687813, \
6.664038244841297e-12, \
-0.023075327277183533, \
-0.016284944489598274, \
0.6736536622047424, \
-0.03163311257958412, \
-0.07100369781255722, \
-0.08909547328948975, \
2.825401718142828e-11, \
3.6043494577864266e-11, \
-0.00446249870583415, \
0.1683015674352646, \
-0.11301334202289581, \
-0.01983107067644596, \
0.0837082713842392, \
0.04916226491332054, \
-0.10021720081567764, \
-0.22916167974472046, \
0.023879876360297203, \
0.00042555350228212774, \
-0.02055169641971588, \
-0.028155555948615074, \
-0.022189456969499588, \
0.142247274518013, \
1.8392396980426717e-11, \
-0.016769859939813614, \
-0.0006324174464680254, \
-0.013750296086072922, \
-0.03822494298219681, \
1.8746379448764117e-11, \
0.0013827873626723886, \
-0.023484988138079643, \
-0.009980054572224617, \
-0.0026412704028189182, \
-0.07014936208724976, \
-0.07186207920312881, \
0.12135324627161026, \
0.002602146938443184, \
-0.044887054711580276, \
1.3151579651704548e-11, \
-0.07745283842086792, \
-0.04285053536295891, \
-0.024598855525255203, \
-0.0553412102162838, \
3.078671692580137e-11, \
-0.02683859132230282, \
1.6586426676568067e-11, \
-0.06847283989191055, \
-0.053212445229291916, \
0.09662534296512604, \
-0.03758279234170914, \
-0.04877813905477524, \
-0.0075485482811927795, \
0.007184154354035854, \
-0.05482790619134903, \
-6.840616940083366e-13, \
0.015795402228832245, \
-0.002044066321104765, \
0.10363159328699112, \
-0.12963303923606873, \
-0.01327487826347351, \
-0.11539147049188614, \
0.0015937126008793712, \
1.66138786755754e-11, \
-0.02221033349633217, \
0.012379603460431099, \
-0.03239869326353073, \
-0.03193734958767891, \
2.947300042910328e-11, \
-0.05057242140173912, \
-0.1592540144920349, \
0.20090021193027496, \
-0.07206474244594574, \
-0.21837414801120758, \
-0.08211153000593185, \
-0.028396138921380043, \
-0.04628030210733414, \
2.2257373027967375e-11, \
-0.07296571880578995, \
-0.03783779591321945, \
-0.06438698619604111, \
-0.010768774896860123, \
-0.003158964216709137, \
-0.0008188283536583185, \
-0.031003139913082123, \
-0.012246827594935894, \
0.021528197452425957, \
-0.03500792756676674, \
-0.005883125122636557, \
-0.011137458495795727, \
-0.007548613473773003, \
0.059225670993328094, \
0.1315627247095108, \
-0.003622583579272032, \
-0.030576352030038834, \
-0.027516784146428108, \
0.03587963432073593, \
0.02838740684092045, \
1.7079056918722912e-11, \
-0.1361212134361267, \
-0.04526142403483391, \
-0.14046591520309448, \
-0.025816651061177254, \
-0.09837520867586136, \
0.13786566257476807, \
-0.10522288829088211, \
-0.007431036327034235, \
3.341055210270838e-11, \
-0.05026599392294884, \
-0.057880282402038574, \
-0.0066710831597447395, \
-0.050752680748701096, \
-0.16662918031215668, \
-0.009432635270059109, \
-0.029043935239315033, \
-0.004723184742033482, \
-0.0013507038820534945, \
-0.0571746826171875, \
-0.03942964971065521, \
-0.0567220076918602, \
-0.08941544592380524, \
-0.042420338839292526, \
0.011463144794106483, \
-0.014024617150425911, \
-0.0373547337949276, \
-0.030265962705016136, \
0.033601317554712296, \
-0.012359271757304668, \
0.023918164893984795, \
-0.058437779545784, \
-0.03119141422212124, \
-0.03377518802881241, \
3.484024874156333e-11, \
0.03981902077794075, \
-0.04657986760139465, \
0.11153236031532288, \
-0.036986883729696274, \
-0.07010272145271301, \
-0.026615165174007416, \
-0.09600640833377838, \
0.028822338208556175, \
-0.09670145064592361, \
-0.021304627880454063, \
0.00048543684533797204, \
-0.012398818507790565, \
-0.03038700670003891, \
-0.025474097579717636, \
-0.1424240916967392, \
-0.025658221915364265, \
-0.042885541915893555, \
-0.10035493969917297, \
-0.105176642537117, \
-0.24377606809139252, \
2.9982856475374575e-11, \
-0.040816355496644974, \
-0.02976103499531746, \
-0.011926669627428055, \
-0.03864414244890213, \
9.869612939417127e-12, \
0.20228168368339539, \
0.017148440703749657, \
-0.04645751416683197, \
-0.05466562137007713, \
-0.023028381168842316, \
1.8131274259758356e-11, \
-0.026906786486506462, \
-0.004155787639319897, \
0.006183866411447525, \
-0.029520947486162186, \
-0.021007774397730827, \
-0.03683215379714966, \
-0.02851608768105507, \
0.7567688226699829, \
-0.05150932818651199, \
-0.024279018864035606, \
-0.01380955521017313, \
0.15778906643390656, \
0.011094685643911362, \
-0.05952947586774826, \
-0.05385133624076843, \
-0.09283663332462311, \
2.195090463563698e-11, \
-0.0020584077574312687, \
1.8331286141815006e-11, \
-0.03141612932085991, \
-0.11907725781202316, \
6.659253010132815e-12, \
0.0189938023686409, \
0.25531336665153503, \
0.01125126238912344, \
-0.04414529353380203, \
0.04094909131526947, \
-0.03695137798786163, \
-0.08519002050161362, \
-0.038809701800346375, \
1.1877839857510342e-11, \
-0.021873585879802704, \
0.02827622927725315, \
-0.05110221728682518, \
-0.030588511377573013, \
-0.052340317517519, \
-0.030897310003638268, \
1.037333413611563e-12, \
-0.0623931959271431, \
-0.004350293893367052, \
-0.051066577434539795, \
-0.05309572070837021, \
-0.016443969681859016, \
-0.06412005424499512, \
2.876060847811779e-11, \
-0.03426924720406532, \
-0.0401437021791935, \
-0.06367716193199158, \
0.09310296922922134, \
-0.05193549767136574, \
-0.015148824080824852, \
-0.019133400171995163, \
-0.08850550651550293, \
-0.04024786874651909, \
-0.011556143872439861, \
-0.042848244309425354, \
-0.09911717474460602, \
-0.0013184371637180448, \
4.3590124565451305e-11, \
-0.028624152764678, \
-0.036843910813331604, \
0.1381419599056244, \
-0.022360144183039665, \
-0.02642015926539898, \
-0.04361093044281006, \
5.2636918261572685e-12, \
-0.01135278306901455, \
-0.037968482822179794, \
-0.06251922249794006, \
-0.026197701692581177, \
-0.06266944110393524, \
-0.09489849209785461, \
2.6724794252586115e-11, \
-0.11821316927671432, \
-0.1323925107717514, \
-0.014725967310369015, \
-0.02705133706331253, \
-0.10406115651130676, \
0.01919056661427021, \
-0.050846803933382034, \
-0.031745295971632004, \
-0.017346521839499474, \
-0.021873721852898598, \
-0.020380986854434013, \
0.11599859595298767, \
-0.028056051582098007, \
-1.7254699188548606e-12, \
-0.01420528907328844, \
0.28361666202545166, \
-0.033685434609651566, \
-0.04709358140826225, \
0.0022016684524714947, \
-0.0009106494835577905, \
-0.05436227470636368, \
-0.048073675483465195, \
-0.037588875740766525, \
-0.10098711401224136, \
-0.1761431097984314, \
-0.07617770880460739, \
-0.12041507661342621, \
-0.022042354568839073, \
-0.056302376091480255, \
-0.12032939493656158, \
-0.11545790731906891, \
-0.07547637075185776, \
-0.03896800056099892, \
-0.17218303680419922, \
-0.05305934324860573, \
-0.0056818095035851, \
-0.032316144555807114, \
-2.4357521208329125e-11, \
-0.026097852736711502, \
-0.043936848640441895, \
-0.05670104920864105, \
0.2213553488254547, \
-0.020864082500338554, \
-0.04066945239901543, \
-0.1724088042974472, \
-0.01063191331923008, \
4.6771562317582394e-11, \
-0.07797492295503616, \
-0.0024850976187735796, \
-0.046884018927812576, \
-0.010262854397296906, \
-0.020201867446303368, \
-0.040313661098480225, \
0.03159681335091591, \
0.005246110260486603, \
-0.03427783399820328, \
0.03566719964146614, \
-0.02455337531864643, \
-0.002057954901829362, \
-0.04089194908738136, \
-0.05528351292014122, \
-0.058124955743551254, \
-0.020220551639795303, \
-0.02606409601867199, \
0.012717158533632755, \
-0.028318023309111595, \
-0.01847323589026928, \
-0.031706541776657104, \
-0.013455926440656185, \
0.032575760036706924, \
0.12971869111061096, \
-0.03107518143951893, \
-0.011436942033469677, \
-0.09737517684698105, \
-0.05823158845305443, \
0.48015695810317993, \
-0.04009420797228813, \
-0.09340544790029526, \
-0.062170304358005524, \
-0.02654755674302578, \
-0.013568154536187649, \
-0.005429273471236229, \
-0.05435682088136673, \
-0.04337983578443527, \
0.014578782021999359, \
0.005246496293693781, \
0.06310180574655533, \
-0.005105305928736925, \
-0.049533549696207047, \
-0.064057856798172, \
-0.01180666871368885, \
3.0087306344267484e-12, \
-1.6197641101653448e-12, \
0.11598305404186249, \
-0.025351962074637413, \
0.008621708489954472, \
-0.025374790653586388, \
-0.0867471843957901, \
-0.014271504245698452, \
0.048478737473487854, \
0.028913946822285652, \
0.09091604501008987, \
2.2939025678958558e-11, \
-0.022232070565223694, \
-0.004810224752873182, \
-0.014148595742881298, \
0.2735099196434021, \
0.09433078020811081, \
1.916169001248136e-09, \
0.21765141189098358, \
0.04272807016968727, \
0.02667107991874218, \
-0.0037076498847454786, \
0.04791456460952759, \
0.17862184345722198, \
0.002946829190477729, \
-0.05993574112653732, \
0.16317862272262573, \
-0.025588208809494972, \
-0.0005765084060840309, \
-0.005432214122265577, \
0.06418905407190323, \
0.02025567926466465, \
-0.015246015042066574, \
-0.031222475692629814, \
-1.0610474304728612e-11, \
-0.038755953311920166, \
-0.012044258415699005, \
-0.004756697919219732, \
0.027874767780303955, \
-0.006094696465879679, \
-0.10106213390827179, \
0.016746463254094124, \
-0.017119407653808594, \
0.061468396335840225, \
-0.017060788348317146, \
-0.010627327486872673, \
-0.03141701966524124, \
0.15446986258029938, \
6.403413389810542e-12, \
0.02294566109776497, \
1.1361559262845766e-11, \
-0.00226330803707242, \
0.0046633463352918625, \
-0.06060957536101341, \
0.016019446775317192, \
-0.04743263125419617, \
0.031056895852088928, \
7.0875800887992835e-12, \
-0.00976597424596548, \
0.02845226228237152, \
-0.05797545984387398, \
2.1771457900388036e-11, \
-0.019439365714788437, \
-0.041402075439691544, \
0.006147002335637808, \
0.01086807157844305, \
0.019959602504968643, \
0.1490718126296997, \
0.03770514577627182, \
-0.025111908093094826, \
-0.021030914038419724, \
0.06197560578584671, \
0.04963136836886406, \
0.12361426651477814, \
-0.005812044721096754, \
0.0005932532367296517, \
-0.013753177598118782, \
0.062304411083459854, \
0.025278955698013306, \
0.052191562950611115, \
-0.009310203604400158, \
3.417438901309744e-11, \
-0.0359756276011467, \
0.11269351094961166, \
-0.042438704520463943, \
1.9077879900852857e-11, \
-0.046696703881025314, \
-0.03682151809334755, \
0.060559291392564774, \
-0.17852768301963806, \
-0.002982292091473937, \
-0.011796357110142708, \
0.011312831193208694, \
0.1209886372089386, \
0.06663361191749573, \
0.0070997788570821285, \
-0.027173256501555443, \
-0.03725302964448929, \
-0.050001516938209534, \
-0.02119985967874527, \
-0.021524490788578987, \
-0.04462491720914841, \
-0.03516053035855293, \
-0.0054382625967264175, \
-0.013938705436885357, \
-0.010165958665311337, \
-0.17770090699195862, \
-0.16788354516029358, \
-0.028479915112257004, \
0.031840577721595764, \
-2.909059928710156e-12, \
0.029384324327111244, \
-0.00963983777910471, \
0.0833979919552803, \
0.02245241031050682, \
1.5477712427686141e-12, \
3.97049546019268e-11, \
-0.06269288063049316, \
-0.07008737325668335, \
0.015118308365345001, \
0.02126055397093296, \
-0.1783602237701416, \
-0.02029462344944477, \
0.2065916359424591, \
0.014041369780898094, \
-0.0015551171964034438, \
0.027300450950860977, \
-0.16339963674545288, \
-0.07326962053775787, \
-0.12936817109584808, \
0.013084317557513714, \
-0.0923127606511116, \
0.09478121995925903, \
0.062386736273765564, \
0.0511331744492054, \
-0.004590730182826519, \
-0.0747050940990448, \
-0.0011400640942156315, \
-0.02868146263062954, \
0.023822065442800522, \
0.04704517126083374, \
0.011066989973187447, \
-0.036586977541446686, \
0.00022500935301650316, \
-6.0950415721461315e-12, \
0.05462747812271118, \
0.14937804639339447, \
-0.04952607303857803, \
-0.002753815148025751, \
0.014022805728018284, \
1.670055933822301e-11, \
0.001606933306902647, \
0.04413190111517906, \
0.17856143414974213, \
0.0016588530270382762, \
-0.031674422323703766, \
0.09631195664405823, \
-0.12447968870401382, \
-0.013004003092646599, \
0.04675030708312988, \
-0.008783819153904915, \
-0.09031837433576584, \
6.397557722297165e-13, \
-4.310603523433043e-12, \
0.08916285634040833, \
-0.15856193006038666, \
0.02396150678396225, \
-0.04761873930692673, \
-0.19484607875347137, \
9.665591244045757e-12, \
-0.08995475620031357, \
-0.007987377233803272, \
0.4212663769721985, \
-7.56708064264533e-12, \
-0.019774967804551125, \
0.04194216802716255, \
0.04996132478117943, \
-0.13678140938282013, \
-0.012650220654904842, \
0.030894674360752106, \
0.11800733953714371, \
0.06650730222463608, \
-0.003037362825125456, \
0.09279301017522812, \
-5.513080877234122e-12, \
-0.013170918449759483, \
-0.034176915884017944, \
-0.21468272805213928, \
-0.03411121293902397, \
0.08406505733728409, \
-0.23408958315849304, \
3.027056903748271e-12, \
2.4334603776487995e-11, \
0.022053441032767296, \
0.08636820316314697, \
0.11602474004030228, \
-0.01607421226799488, \
0.03856256976723671, \
-0.029917605221271515, \
-0.16087554395198822, \
0.0871807113289833, \
0.05726825073361397, \
0.01621321029961109, \
0.026403773576021194, \
0.0009404761367477477, \
-0.0008080915431492031, \
0.026693537831306458, \
-1.3145774616432626e-12, \
-0.0007677091634832323, \
0.002516241976991296, \
-0.02839883230626583, \
0.06626281142234802, \
2.246065096064842e-12, \
0.00899660587310791, \
-0.0012983736814931035, \
0.01758715882897377, \
0.006380952894687653, \
-0.054385874420404434, \
0.11523372679948807, \
0.029273351654410362, \
-0.0023968962486833334, \
0.21220463514328003, \
-2.5309140633950067e-12, \
0.1914009153842926, \
-0.020522162318229675, \
0.016368186101317406, \
-0.030467186123132706, \
6.165624434617545e-12, \
-0.13400675356388092, \
-3.2014473537456123e-12, \
-0.045717645436525345, \
-0.039361968636512756, \
-0.18403556942939758, \
-0.006995402742177248, \
-0.012796495109796524, \
-0.033257149159908295, \
-0.25566941499710083, \
0.07247255742549896, \
1.8566469542347086e-11, \
0.015860097482800484, \
0.00562036270275712, \
0.06160330772399902, \
0.19941957294940948, \
-0.0949372947216034, \
0.0887153297662735, \
-0.0027589495293796062, \
-3.0166528997011e-12, \
0.019532551988959312, \
0.019341731444001198, \
-0.02344139665365219, \
-0.014921370893716812, \
2.849832869689095e-11, \
-0.009052857756614685, \
0.07445266097784042, \
0.16617709398269653, \
0.05785289406776428, \
0.12195762991905212, \
0.17700538039207458, \
0.0574219636619091, \
0.07292427867650986, \
7.0824114802026106e-12, \
-0.016762221232056618, \
0.029162494465708733, \
0.043422989547252655, \
-0.004533118102699518, \
-0.027116157114505768, \
0.0012984283966943622, \
0.04908699169754982, \
-0.12493451684713364, \
-0.08688463270664215, \
0.031132245436310768, \
-0.023087630048394203, \
0.00846134778112173, \
0.03561437502503395, \
-0.006377357989549637, \
-0.17096826434135437, \
0.0015845370944589376, \
0.04611416906118393, \
0.045017655938863754, \
0.01402235310524702, \
0.04353732243180275, \
1.5125406135907404e-11, \
0.24409429728984833, \
-0.036085087805986404, \
0.12558548152446747, \
0.03856956213712692, \
0.05278211459517479, \
-0.06059432774782181, \
-0.10018140077590942, \
0.005048255901783705, \
2.5576494047663267e-11, \
0.04517394304275513, \
0.10023185610771179, \
0.011957431212067604, \
0.1240319162607193, \
-0.06433044373989105, \
0.118272565305233, \
0.08968881517648697, \
0.006054244469851255, \
0.003758493810892105, \
-0.05035463720560074, \
-0.0554126612842083, \
-0.05658421665430069, \
0.21042512357234955, \
0.037013206630945206, \
0.016265682876110077, \
-0.11295406520366669, \
-0.01384228840470314, \
-0.02410898171365261, \
0.024847013875842094, \
-0.008434692397713661, \
-0.011437986046075821, \
-0.021018102765083313, \
-0.004288792610168457, \
-0.08868573606014252, \
-3.1666554795029e-11, \
0.03016219101846218, \
0.06805926561355591, \
0.09169209003448486, \
0.04480437934398651, \
0.13272236287593842, \
0.01929544098675251, \
0.1521204262971878, \
0.10463458299636841, \
-0.09883337467908859, \
0.009102510288357735, \
-0.11954951286315918, \
-0.006896094884723425, \
0.048578567802906036, \
-0.027309879660606384, \
0.15989728271961212, \
-0.043690118938684464, \
0.044815290719270706, \
0.18370066583156586, \
0.0004318395513109863, \
-0.09168907254934311, \
2.656198178074831e-12, \
0.05597694590687752, \
-0.032893989235162735, \
-0.0028942872304469347, \
-0.004999359603971243, \
1.8058029030432188e-12, \
0.10186551511287689, \
-0.06162495166063309, \
-0.06771523505449295, \
-0.008240929804742336, \
0.04054917022585869, \
1.6509552405730155e-11, \
-0.02351716347038746, \
0.06274835765361786, \
0.03437352925539017, \
-0.057335127145051956, \
-0.0344039686024189, \
0.03001021407544613, \
-0.02877647802233696, \
-0.19543008506298065, \
0.03316710144281387, \
-0.03032688796520233, \
-0.01756863109767437, \
-0.017353344708681107, \
0.0797308012843132, \
-0.045594826340675354, \
0.07571534812450409, \
-0.0046596587635576725, \
-3.73610387419121e-12, \
0.009711695834994316, \
-6.98151185842856e-14, \
0.01031418051570654, \
0.14947398006916046, \
2.6362455621264935e-11, \
0.009502042084932327, \
-0.17566180229187012, \
-0.018722981214523315, \
-0.016448652371764183, \
-0.02721729502081871, \
0.046932153403759, \
0.05144442245364189, \
-0.010922119952738285, \
1.0663969707280785e-11, \
-0.057585589587688446, \
0.018974706530570984, \
-0.007071458734571934, \
-0.10185938328504562, \
0.061706267297267914, \
0.0262143611907959, \
-1.0157376242186933e-12, \
-0.017081448808312416, \
-0.003362304763868451, \
-0.07589107006788254, \
0.03957875072956085, \
0.013107103295624256, \
-0.014387298375368118, \
1.4923950963918742e-11, \
-0.013353854417800903, \
0.06635087728500366, \
-0.16598159074783325, \
0.003735376987606287, \
0.048141784965991974, \
0.02729976363480091, \
0.03934735804796219, \
-0.19426913559436798, \
-0.021089231595396996, \
-0.0036801386158913374, \
-0.07036039233207703, \
0.17168429493904114, \
0.012152686715126038, \
1.915027858512275e-11, \
0.06609277427196503, \
-0.06158727779984474, \
0.08829163759946823, \
-0.01972651295363903, \
0.06072735786437988, \
-0.05913581699132919, \
1.6064068478205407e-11, \
-0.026400834321975708, \
-0.013379762880504131, \
0.13274964690208435, \
-0.026094704866409302, \
0.11294570565223694, \
-0.034951623529195786, \
3.008352247868551e-11, \
0.18015950918197632, \
-0.09053228795528412, \
0.028310412541031837, \
0.03147321194410324, \
-0.06621291488409042, \
-0.007006053812801838, \
-0.04196302592754364, \
0.05968475714325905, \
0.02599022351205349, \
-0.003963295370340347, \
0.05111900344491005, \
0.15319553017616272, \
0.0645090788602829, \
-1.1219657147787387e-11, \
-0.0089946947991848, \
-0.04544157534837723, \
0.04421025142073631, \
-0.02232598140835762, \
0.06174466386437416, \
-0.006717856973409653, \
0.025072604417800903, \
-0.04535728693008423, \
0.06478988379240036, \
-0.06802342087030411, \
0.08651333302259445, \
-0.03549882024526596, \
-0.00175757787656039, \
0.013628178276121616, \
0.11267650127410889, \
-0.05579156428575516, \
0.03406243026256561, \
0.034077130258083344, \
0.07108940929174423, \
0.20110900700092316, \
0.08214234560728073, \
-0.009611556306481361, \
0.019112473353743553, \
8.301353528195055e-12, \
-0.01344279758632183, \
0.0567140132188797, \
0.07155364751815796, \
0.007292537484318018, \
-0.018581291660666466, \
-0.09120666235685349, \
0.06535299867391586, \
-0.006302890367805958, \
3.3139737481979736e-11, \
-0.13570675253868103, \
-0.001142507535405457, \
0.025757741183042526, \
-0.10753458738327026, \
0.021587034687399864, \
-0.10562394559383392, \
-0.0750768855214119, \
0.011580409482121468, \
-0.06012943759560585, \
-0.006959616672247648, \
-0.021740054711699486, \
-0.0014463025145232677, \
-0.01804632693529129, \
-0.009284173138439655, \
-0.03714357316493988, \
-0.030081642791628838, \
-0.013262391090393066, \
0.029762880876660347, \
0.042149122804403305, \
-0.02222204953432083, \
-0.046061091125011444, \
0.014046482741832733, \
0.019384196028113365, \
0.056014809757471085, \
-0.02852582186460495, \
0.015621941536664963, \
0.15467385947704315, \
0.10405423492193222, \
-0.3050200641155243, \
0.015819860622286797, \
0.1525212675333023, \
0.04482900723814964, \
0.04134414717555046, \
-0.018243057653307915, \
-0.0024428789038211107, \
0.12057709693908691, \
-0.07047101110219955, \
0.009336709976196289, \
-0.0008203154429793358, \
-0.00638887844979763, \
0.018629971891641617, \
0.11186244338750839, \
-0.1446165144443512, \
-0.017917294055223465, \
1.1295954623069537e-11, \
1.4311072292494398e-11, \
-0.02126946859061718, \
-0.037098973989486694, \
-0.0016397573053836823, \
0.037261832505464554, \
0.14853842556476593, \
0.03806804493069649, \
-0.08020510524511337, \
0.006779302377253771, \
0.0509231835603714, \
8.37383721391527e-12, \
0.07010494917631149, \
-0.061684343963861465, \
0.0018315714551135898, \
-0.14155986905097961, \
0.5389998555183411, \
2.526821196724427e-09, \
-0.06549115478992462, \
-0.0011875438503921032, \
0.026383565738797188, \
0.09349921345710754, \
0.012985572218894958, \
0.06623400002717972, \
0.030386503785848618, \
-0.027525922283530235, \
0.15289141237735748, \
0.05870542675256729, \
0.005049456376582384, \
-0.015574903227388859, \
0.010283447802066803, \
0.024774817749857903, \
0.011167422868311405, \
0.06554602831602097, \
7.703927773494712e-12, \
0.09376377612352371, \
0.005402454640716314, \
0.01930413767695427, \
-0.0055130659602582455, \
0.021319175139069557, \
0.04612649604678154, \
-0.0037411379162222147, \
-0.005984305404126644, \
0.07448071241378784, \
0.03935086727142334, \
0.021443933248519897, \
0.012510659173130989, \
-0.029354970902204514, \
2.1403438049683032e-11, \
0.016353927552700043, \
1.932074118748961e-11, \
0.026334214955568314, \
-0.14147379994392395, \
0.1361810564994812, \
0.053344909101724625, \
0.06904172897338867, \
0.038795001804828644, \
1.659216861127355e-11, \
-0.053485073149204254, \
-0.010861670598387718, \
-0.040906623005867004, \
-5.669437141975209e-12, \
0.032553866505622864, \
0.048765458166599274, \
0.007765904068946838, \
-0.03642534837126732, \
0.0014077821979299188, \
-0.17645005881786346, \
-0.030560867860913277, \
0.008398566395044327, \
0.10494748502969742, \
-0.0002500647387932986, \
0.061397451907396317, \
0.05283588171005249, \
0.014541057869791985, \
0.0018345701973885298, \
-0.025840073823928833, \
-0.04716603457927704, \
0.0023787422105669975, \
0.1097111850976944, \
-0.06876911967992783, \
2.0397178737696642e-11, \
0.040341515094041824, \
-0.005599890369921923, \
0.10439488291740417, \
-7.38107318321024e-12, \
0.10352169722318649, \
-0.05492401868104935, \
-0.037907522171735764, \
0.06800468266010284, \
0.09730738401412964, \
0.03820372000336647, \
0.013121936470270157, \
0.009701085276901722, \
0.09929953515529633, \
-0.00221249763853848, \
-0.019982844591140747, \
-0.00869655329734087, \
-0.09302696585655212, \
0.009325087070465088, \
0.05099344998598099, \
-0.058106549084186554, \
-0.056204427033662796, \
0.04258294403553009, \
-0.05860687792301178, \
-0.00443708011880517, \
-0.07476051151752472, \
0.10443857312202454, \
0.01174441259354353, \
0.01355796679854393, \
2.092487121074793e-11, \
0.005737343803048134, \
0.012026545591652393, \
0.07881966233253479, \
0.03821275383234024, \
-5.0775963295057736e-12, \
-8.929157760406703e-12, \
0.10867645591497421, \
0.03449900820851326, \
-0.0019186274148523808, \
0.006975272204726934, \
0.11381077021360397, \
0.07905053347349167, \
0.014987309463322163, \
0.020080631598830223, \
0.005129314959049225, \
-0.046359870582818985, \
-0.0610496923327446, \
0.07050039619207382, \
0.07720127701759338, \
0.024965979158878326, \
-0.16085083782672882, \
0.015311956405639648, \
0.0007971966406330466, \
-0.03710170462727547, \
0.009089617058634758, \
-0.048054762184619904, \
0.005418304819613695, \
0.04321451857686043, \
0.0191122367978096, \
-0.0033964039757847786, \
0.025652095675468445, \
0.043018169701099396, \
-0.12957757711410522, \
3.310741871626055e-12, \
-0.17525266110897064, \
0.09803901612758636, \
-0.005188350565731525, \
-0.1025247797369957, \
0.08640917390584946, \
2.6077948828140407e-11, \
0.04875040799379349, \
0.034435730427503586, \
0.23862002789974213, \
0.004143047612160444, \
0.03141610324382782, \
-0.03407498076558113, \
0.0351470485329628, \
-0.026733523234725, \
0.0021294376347213984, \
0.04015849530696869, \
0.0068298690021038055, \
2.070259415287712e-11, \
1.3955394999320969e-11, \
0.009812962263822556, \
-0.0031029083766043186, \
-0.0026456890627741814, \
0.02103850618004799, \
0.07150860130786896, \
5.130413455178839e-12, \
0.14352375268936157, \
0.07130687683820724, \
0.001662402879446745, \
5.695830525981327e-12, \
0.029687415808439255, \
0.02237900160253048, \
-0.05255720764398575, \
-0.033076412975788116, \
0.03968491777777672, \
-0.16804282367229462, \
-0.14089259505271912, \
0.02338794432580471, \
-0.045609358698129654, \
0.07698817551136017, \
2.5389820454413403e-11, \
-0.002357044257223606, \
-0.00198410009033978, \
-0.19534935057163239, \
0.023725703358650208, \
-0.0018137902952730656, \
-0.038860369473695755, \
5.1521061722459294e-11, \
1.1161645392665509e-11, \
0.024104826152324677, \
-0.022766318172216415, \
-0.06215442344546318, \
0.04891326650977135, \
0.006495484616607428, \
-0.07700151205062866, \
-0.11735560745000839, \
0.079317107796669, \
0.00922970287501812, \
0.05116429179906845, \
-0.00733954319730401, \
0.01747784949839115, \
0.055210817605257034, \
-0.057282138615846634, \
7.012548527973728e-12, \
0.03368334099650383, \
0.013921939767897129, \
-0.14132045209407806, \
0.01918650232255459, \
1.5256436738941836e-11, \
0.06594999879598618, \
0.06301559507846832, \
0.0010130637092515826, \
0.0005399672081694007, \
0.02857358381152153, \
0.15179337561130524, \
0.030321193858981133, \
0.051848892122507095, \
0.1156807392835617, \
2.2409964509084723e-11, \
0.023995405063033104, \
-0.0022434620186686516, \
0.023058611899614334, \
0.10035069286823273, \
1.9933115921744182e-11, \
0.03917916119098663, \
-4.325282753486759e-12, \
0.25484392046928406, \
0.09708011150360107, \
-0.10114530473947525, \
-0.012144927866756916, \
0.032900620251894, \
0.07642721384763718, \
0.07232741266489029, \
0.013577815145254135, \
2.6654594330322023e-12, \
0.005023404024541378, \
0.001842193421907723, \
-0.030027560889720917, \
-0.011751300655305386, \
0.053994953632354736, \
0.07294629514217377, \
0.005788388196378946, \
2.0656041113675805e-11, \
0.03798910975456238, \
0.01529666967689991, \
0.013656237162649632, \
0.05756721273064613, \
-1.6371808422843692e-12, \
0.03503664955496788, \
-0.12984110414981842, \
-0.17373870313167572, \
-0.21005961298942566, \
0.1689630001783371, \
0.21304598450660706, \
-9.581546328263357e-05, \
0.07613261044025421, \
2.5304498080247484e-12, \
-0.07558247447013855, \
0.05024178698658943, \
-0.005704520270228386, \
-0.06572579592466354, \
-0.020467014983296394, \
0.0003541532496456057, \
-0.042114485055208206, \
0.22935226559638977, \
-0.06463968753814697, \
0.006232085172086954, \
0.062143776565790176, \
0.01318033691495657, \
0.027252543717622757, \
-0.00810721330344677, \
0.03531568869948387, \
0.0017674824921414256, \
-0.014678159728646278, \
-0.023412520065903664, \
0.01733294129371643, \
0.10010813176631927, \
2.5425604330275853e-11, \
0.015197387896478176, \
0.12926065921783447, \
-0.03840618208050728, \
-0.0029826483223587275, \
0.08908955007791519, \
-0.06941429525613785, \
0.15920694172382355, \
0.007206841837614775, \
3.0958485774945643e-11, \
0.0388885959982872, \
0.03159508854150772, \
0.059604085981845856, \
-0.007215401623398066, \
0.0499238558113575, \
0.0013917252654209733, \
-0.014576928690075874, \
0.006969963666051626, \
-0.00036341071245260537, \
0.010387314483523369, \
0.033527545630931854, \
0.026529105380177498, \
-0.05679548159241676, \
0.049561940133571625, \
0.025490058586001396, \
-0.1312287598848343, \
0.028838498517870903, \
0.04960283264517784, \
-0.003989686723798513, \
0.019367404282093048, \
-0.02061837539076805, \
-0.05394819751381874, \
0.012525664642453194, \
0.07685228437185287, \
9.415994026151786e-12, \
-0.041080377995967865, \
0.005563057493418455, \
0.07744873315095901, \
-0.03137020394206047, \
0.04833197966217995, \
0.005950559861958027, \
0.023752255365252495, \
0.06685639172792435, \
-0.05553608760237694, \
0.014375178143382072, \
0.04570048674941063, \
0.016744166612625122, \
-0.004604233428835869, \
0.007726483047008514, \
0.0998770073056221, \
0.04900031164288521, \
0.17293906211853027, \
-0.10412577539682388, \
0.09122245013713837, \
-0.021104983985424042, \
1.620464526452814e-11, \
0.00976998545229435, \
-0.011071219108998775, \
0.0038891122676432133, \
-0.02180372178554535, \
2.045875621692339e-11, \
-0.03916877508163452, \
-0.03900095820426941, \
0.11299393326044083, \
0.05423777550458908, \
-0.00673725176602602, \
-7.812114670435744e-13, \
0.022691521793603897, \
-0.09157637506723404, \
-0.0020386693067848682, \
0.006160936783999205, \
0.01415205653756857, \
0.016258547082543373, \
0.017474645748734474, \
-0.21578899025917053, \
0.013128460384905338, \
0.028019515797495842, \
-0.007145915646106005, \
-0.10130982846021652, \
0.09386137127876282, \
0.03767680376768112, \
-0.04436020180583, \
0.2583875060081482, \
1.1428754644049466e-11, \
0.0027520700823515654, \
1.8531147102929246e-11, \
0.012500501237809658, \
-0.02372257225215435, \
-6.9252008641496055e-12, \
0.004894448444247246, \
-0.10948839783668518, \
0.033605530858039856, \
0.07169098407030106, \
0.10815583914518356, \
0.0356842577457428, \
0.028807606548070908, \
0.06341138482093811, \
1.8446097080349055e-11, \
-0.02399580366909504, \
0.0028733587823808193, \
-0.024546291679143906, \
0.04908306151628494, \
0.09282560646533966, \
0.013081707991659641, \
1.6452473064476614e-11, \
0.161158487200737, \
0.003453957848250866, \
0.0352562814950943, \
-0.004988037049770355, \
0.0010971232550218701, \
0.04116523265838623, \
2.8426445225493424e-11, \
0.06819958984851837, \
-0.018541837111115456, \
0.06935746967792511, \
0.018004100769758224, \
0.0800740197300911, \
-0.0005543941515497863, \
-0.021394072100520134, \
0.1649560034275055, \
0.021174585446715355, \
0.02016233094036579, \
0.039111945778131485, \
-0.11464716494083405, \
0.0025800077710300684, \
4.343438803067201e-11, \
-0.05832880362868309, \
0.09036576747894287, \
0.009665969759225845, \
0.016618652269244194, \
0.05248546600341797, \
0.03370646387338638, \
2.642937778352117e-11, \
-0.018379995599389076, \
0.014978649094700813, \
0.0691908523440361, \
0.025370731949806213, \
0.08937962353229523, \
-0.16156069934368134, \
-1.067405712429359e-11, \
-0.03058009035885334, \
0.15168166160583496, \
0.019387513399124146, \
0.03229030966758728, \
0.17147500813007355, \
0.07293331623077393, \
0.045229531824588776, \
-0.05440569296479225, \
-0.04350372031331062, \
0.009587528184056282, \
-0.047581885010004044, \
0.05563318356871605, \
-0.1045675277709961, \
1.3735456348695774e-11, \
0.009374243207275867, \
0.01689041405916214, \
0.02639673836529255, \
0.023972418159246445, \
-0.06919322907924652, \
-0.0053308280184865, \
0.016762739047408104, \
0.01308977697044611, \
-0.02665599435567856, \
0.051427192986011505, \
0.24203062057495117, \
0.037520524114370346, \
-0.14184187352657318, \
0.022166283801198006, \
0.002215046901255846, \
-0.018056824803352356, \
0.057274606078863144, \
0.09314904361963272, \
0.015771059319376945, \
-0.000406179140554741, \
0.08121941983699799, \
-0.0012903527822345495, \
0.009739675559103489, \
1.1996720457319032e-11, \
0.0563291572034359, \
0.050612207502126694, \
0.026715930551290512, \
-0.08070894330739975, \
0.009248800575733185, \
-0.03768822178244591, \
-0.21893063187599182, \
0.012724092230200768, \
-9.071157019979736e-12, \
0.0933273658156395, \
0.003977585583925247, \
0.060918811708688736, \
-0.12711232900619507, \
0.003141791559755802, \
0.1032785028219223, \
0.10435827821493149, \
0.00887620635330677, \
0.0560108982026577, \
0.03615967556834221, \
0.06427884846925735, \
0.00397880095988512, \
0.009122303687036037, \
0.04280153661966324, \
0.08687977492809296, \
-0.010714244097471237, \
0.018612021580338478, \
0.019595112651586533, \
-0.07639874517917633, \
0.03358034789562225, \
-0.01673266291618347, \
-0.038655005395412445, \
0.004054906312376261, \
-0.26733750104904175, \
0.051931027323007584, \
0.010827030055224895, \
0.09871384501457214, \
0.10267321765422821, \
0.05519992858171463, \
0.038971662521362305, \
-0.04633786156773567, \
-0.0032912425231188536, \
-0.0288089569658041, \
0.04554462060332298, \
0.006803340744227171, \
0.018054746091365814, \
0.09355713427066803, \
0.0040041073225438595, \
0.006583041977137327, \
-0.03240220248699188, \
-0.0031648895237594843, \
-0.19718320667743683, \
0.11997322738170624, \
-0.10299418866634369, \
3.5705984609973873e-12, \
-1.663296236853462e-11, \
-0.0861445739865303, \
0.049652986228466034, \
0.004010824952274561, \
-0.036057278513908386, \
0.24441859126091003, \
0.03571614250540733, \
0.06456433981657028, \
0.03853612765669823, \
0.08732134848833084, \
2.0448035625841854e-11, \
0.007391506340354681, \
0.035917289555072784, \
0.017871210351586342, \
0.0789089947938919, \
-0.13791802525520325, \
2.529558340569338e-09, \
0.06534715741872787, \
0.03668336942791939, \
0.0361652597784996, \
-0.02503873221576214, \
-0.017883623018860817, \
0.08390884101390839, \
0.11723857372999191, \
0.0946723222732544, \
0.02818540669977665, \
-0.02793722413480282, \
0.01368314865976572, \
0.04276624321937561, \
0.07659284770488739, \
0.048886626958847046, \
-0.007296702358871698, \
-0.02704288251698017, \
-1.659479498261618e-11, \
0.10369609296321869, \
0.03940825164318085, \
0.036111749708652496, \
0.026378145441412926, \
0.02863050065934658, \
0.05819099396467209, \
0.019712351262569427, \
0.019276881590485573, \
-0.11122236400842667, \
0.05047270283102989, \
0.04987180978059769, \
0.0907890722155571, \
-0.14628884196281433, \
-2.5369760112137207e-11, \
0.01842041127383709, \
-3.144353050502091e-12, \
-0.0335506908595562, \
-0.05230196192860603, \
-0.2050044685602188, \
-0.019522301852703094, \
0.08562765270471573, \
0.06993253529071808, \
-1.7034392993386938e-11, \
0.12982337176799774, \
0.028124988079071045, \
-0.02588849887251854, \
1.7392452061892882e-11, \
-0.03485608473420143, \
-0.004321231972426176, \
0.11838294565677643, \
0.017950264737010002, \
0.010790391825139523, \
-0.16658209264278412, \
0.01403532549738884, \
0.0743870809674263, \
0.0847562775015831, \
-0.06037302315235138, \
0.06025303527712822, \
-0.16101843118667603, \
0.02310675010085106, \
-0.0006049795774742961, \
-0.02829608879983425, \
-0.14982354640960693, \
0.02301185019314289, \
0.08221301436424255, \
0.11346379667520523, \
2.688784264681665e-11, \
-0.08454491943120956, \
0.10100768506526947, \
0.04899214953184128, \
1.672180276190982e-11, \
-0.0012907187920063734, \
0.05858578905463219, \
0.043568409979343414, \
0.0400368869304657, \
-0.17375773191452026, \
0.03912416473031044, \
-0.011048626154661179, \
-0.05608971789479256, \
0.052241094410419464, \
0.010577795095741749, \
-0.02465628832578659, \
0.0580705963075161, \
0.0013263426953926682, \
-0.015917519107460976, \
0.08376048505306244, \
0.05575042963027954, \
0.07328221946954727, \
-0.015687838196754456, \
0.03661896288394928, \
0.02248186059296131, \
0.02842126600444317, \
0.09859145432710648, \
-0.0221334807574749, \
0.0585666261613369, \
-2.0018705443325402e-11, \
0.04197840392589569, \
-0.010789981111884117, \
0.07870850712060928, \
-0.009743617847561836, \
9.627259059397097e-12, \
2.0123964994400723e-11, \
-0.030766379088163376, \
0.07456029206514359, \
0.019341319799423218, \
0.006466719787567854, \
0.07336030900478363, \
-0.00311833037994802, \
-0.045139335095882416, \
-0.04622090235352516, \
0.007005847059190273, \
0.05465535819530487, \
0.26032885909080505, \
0.06408217549324036, \
0.06589924544095993, \
0.04435065761208534, \
0.10509076714515686, \
0.00386829418130219, \
-0.008721953257918358, \
0.05520958825945854, \
0.01649080216884613, \
-0.06091523915529251, \
0.017356090247631073, \
-0.025178566575050354, \
0.03849772736430168, \
-0.05746914818882942, \
-0.013614802621304989, \
0.07660011202096939, \
0.10714448988437653, \
-2.6329143726355753e-11, \
0.07783807814121246, \
-0.03616071864962578, \
0.006635278929024935, \
-0.04633677750825882, \
0.10322738438844681, \
1.029590735585062e-11, \
-0.042916130274534225, \
-0.07644806802272797, \
0.03507125377655029, \
0.010186688974499702, \
0.043199535459280014, \
-0.010497473180294037, \
-0.12767891585826874, \
-0.03936067223548889, \
-0.04559642821550369, \
-0.029018469154834747, \
-0.047017425298690796, \
-3.0763811637024574e-11, \
-1.150964219764905e-11, \
-0.04847387224435806, \
0.21595102548599243, \
0.01573220081627369, \
-0.132579043507576, \
0.09997563809156418, \
-2.919934780076794e-11, \
0.038394276052713394, \
-0.03619919344782829, \
0.4014553427696228, \
-3.150950680930187e-11, \
0.06884141266345978, \
-0.022635135799646378, \
-0.06052985042333603, \
0.1557788848876953, \
-0.04057782515883446, \
0.055183395743370056, \
0.17555657029151917, \
0.0404655784368515, \
-0.06803808361291885, \
0.05653826892375946, \
-2.5712057483140427e-11, \
0.047003619372844696, \
-0.026257116347551346, \
-0.3597336411476135, \
0.028416365385055542, \
-0.04884318262338638, \
0.06116532161831856, \
-1.7391222142948415e-11, \
1.2054492820601226e-11, \
0.05159331113100052, \
-0.09981423616409302, \
0.10465611517429352, \
0.020652946084737778, \
-0.03630610555410385, \
-0.053519539535045624, \
-0.13058099150657654, \
-0.08953432738780975, \
-0.04650595039129257, \
0.03738929331302643, \
0.022117897868156433, \
0.03203636780381203, \
-0.02125137858092785, \
-0.06012266129255295, \
-1.3138963007863769e-11, \
0.03471558913588524, \
0.022813819348812103, \
0.10122951120138168, \
0.020313076674938202, \
-3.829555162565557e-12, \
0.005762477405369282, \
0.003939121961593628, \
0.010343028232455254, \
-0.0019365085754543543, \
-0.05202057585120201, \
0.15386073291301727, \
-0.101453997194767, \
-0.03979705274105072, \
-0.1350170224905014, \
-3.386276675731992e-11, \
-0.12010809034109116, \
-0.010157865472137928, \
0.0366470143198967, \
0.10406184941530228, \
-2.414359727767601e-12, \
0.06747941672801971, \
-6.563051751368176e-12, \
0.06465107947587967, \
0.09654002636671066, \
-0.0053151859901845455, \
0.0011877636425197124, \
-0.012775709852576256, \
-0.03591976687312126, \
0.06264141947031021, \
0.0817498117685318, \
-3.127453851448081e-11, \
0.015999045222997665, \
0.004825818818062544, \
0.1264123022556305, \
0.14486610889434814, \
-0.03061627596616745, \
0.13512611389160156, \
-0.0020249944645911455, \
-1.4447034714371032e-11, \
0.03246958553791046, \
0.02241593599319458, \
0.06614859402179718, \
0.046729546040296555, \
3.425250014177372e-11, \
-0.001403704285621643, \
-0.2293616682291031, \
-0.1755668669939041, \
0.13655570149421692, \
-0.3816260099411011, \
-0.025376535952091217, \
-0.0259865652769804, \
0.037329643964767456, \
1.3707755633710073e-12, \
-0.008236166089773178, \
0.06973619014024734, \
-0.05496462434530258, \
-0.014177622273564339, \
-0.044117845594882965, \
0.001994944643229246, \
0.04490980878472328, \
-0.20815403759479523, \
0.009974380023777485, \
-0.022401025518774986, \
-0.02876916155219078, \
0.0831608772277832, \
-0.02096075937151909, \
-0.035435259342193604, \
0.0716911181807518, \
0.007390707731246948, \
0.04288085177540779, \
0.04420577362179756, \
0.035230156034231186, \
0.15728633105754852, \
-8.799599070241637e-12, \
-0.0672522708773613, \
0.026037102565169334, \
0.10846062004566193, \
-0.03503881394863129, \
-0.13941869139671326, \
-0.09698055684566498, \
-0.14707709848880768, \
0.011651336215436459, \
5.4371468265201894e-12, \
0.0771680474281311, \
0.021223559975624084, \
0.05088583752512932, \
-0.003766628447920084, \
-0.16130131483078003, \
0.04069126024842262, \
-0.07026997953653336, \
0.012748505920171738, \
-0.0006686366978101432, \
0.12598392367362976, \
0.0611715093255043, \
0.06184171140193939, \
-0.0297324750572443, \
0.06233358383178711, \
0.032485269010066986, \
0.1259785294532776, \
-0.02065473608672619, \
0.05594502389431, \
0.03821348026394844, \
-0.007424387149512768, \
0.016185695305466652, \
0.0029026248957961798, \
0.02537309005856514, \
-0.021840687841176987, \
-3.2268632210730175e-11, \
0.021437868475914, \
-0.0831843912601471, \
-0.10550971329212189, \
0.0694349929690361, \
-0.14605356752872467, \
0.048271093517541885, \
-0.127283975481987, \
0.008244899101555347, \
0.18221689760684967, \
-0.05300706624984741, \
0.0339188389480114, \
0.02205953374505043, \
-0.014024880714714527, \
-0.03891134262084961, \
0.13653433322906494, \
-0.06500986218452454, \
0.15443046391010284, \
-0.003458554157987237, \
-0.1787547618150711, \
0.3599056005477905, \
-2.3541351160116797e-11, \
-0.014665945433080196, \
0.07116515189409256, \
-0.015860669314861298, \
-0.06454591453075409, \
-4.4158825901474685e-12, \
-0.1316899210214615, \
-0.09045165032148361, \
-0.05372830107808113, \
-0.054299063980579376, \
0.01924692466855049, \
3.240421472816557e-11, \
0.039957113564014435, \
0.05322015658020973, \
0.030874919146299362, \
0.042002420872449875, \
0.049809783697128296, \
-0.07761682569980621, \
0.079523965716362, \
-0.31356024742126465, \
0.03584414720535278, \
-0.011698203161358833, \
0.037226732820272446, \
0.15092985332012177, \
-0.11445873975753784, \
0.1956833451986313, \
-0.008408433757722378, \
-0.07412528246641159, \
-2.146326519292252e-11, \
0.003647878300398588, \
-1.9064704676052813e-11, \
-0.02984655648469925, \
-0.18621626496315002, \
2.0962804408997116e-11, \
-0.009505822323262691, \
-0.10308504104614258, \
-0.015432493761181831, \
0.07703369855880737, \
-0.10302199423313141, \
-0.06711151450872421, \
-0.21066634356975555, \
0.03410384804010391, \
-6.800407459373048e-12, \
0.103148452937603, \
0.013289478607475758, \
0.060733240097761154, \
0.04830104485154152, \
-0.04139021784067154, \
-0.006203625816851854, \
-3.044243676586511e-11, \
-0.03579805791378021, \
0.012738192453980446, \
0.0477476641535759, \
-0.07660707086324692, \
0.014162149280309677, \
-0.014203837141394615, \
-8.087783914811908e-12, \
0.002596538746729493, \
0.05656443536281586, \
-0.12789510190486908, \
0.03561343252658844, \
0.027747206389904022, \
-0.048483457416296005, \
0.055474646389484406, \
0.14411738514900208, \
0.07180135697126389, \
0.019874541088938713, \
0.03423154726624489, \
-0.03873516246676445, \
0.002035120502114296, \
1.8933719175828756e-11, \
0.05698784440755844, \
-0.015609793365001678, \
-0.08823754638433456, \
0.026276061311364174, \
-0.02924748696386814, \
0.04625270888209343, \
2.6105062556069925e-11, \
-0.03570561483502388, \
0.017105674371123314, \
0.004053862765431404, \
0.03887435421347618, \
-0.09773869067430496, \
0.016249042004346848, \
1.0694166906188851e-11, \
-0.16368304193019867, \
-0.20920611917972565, \
0.038819074630737305, \
0.03928101435303688, \
0.10454676300287247, \
-0.07400484383106232, \
0.06666167825460434, \
0.04713631421327591, \
0.03575214743614197, \
-0.004527414217591286, \
0.05485053360462189, \
-0.11064053326845169, \
0.04874817281961441, \
-2.5045122226119432e-11, \
-0.0026864921674132347, \
-0.09892881661653519, \
0.05741705372929573, \
-0.0005225428030826151, \
-0.02347436547279358, \
-0.011644148267805576, \
0.044650040566921234, \
-0.08096665889024734, \
-0.014255343936383724, \
0.08381740003824234, \
0.057574301958084106, \
0.07321829348802567, \
-0.030842993408441544, \
0.034529123455286026, \
-0.05150722712278366, \
0.053457535803318024, \
0.12631340324878693, \
0.12217901647090912, \
-0.02351352386176586, \
-0.2233867198228836, \
-0.03728901594877243, \
0.011345142498612404, \
-0.018131472170352936, \
1.2132944822440539e-11, \
0.017108792439103127, \
-0.10214919596910477, \
0.0808374285697937, \
-0.04469960182905197, \
-0.02581595815718174, \
0.17529860138893127, \
-0.23168760538101196, \
0.017564602196216583, \
2.0893311386549485e-11, \
-0.029660487547516823, \
0.0059602647088468075, \
0.06863100081682205, \
0.055023130029439926, \
-0.06936532258987427, \
-0.17991964519023895, \
-0.06614046543836594, \
0.01346507202833891, \
-0.052262477576732635, \
-0.021103912964463234, \
-0.019145455211400986, \
0.0042915744706988335, \
0.057449083775281906, \
-0.049624741077423096, \
0.10475776344537735, \
0.06359943747520447, \
-0.012004878371953964, \
0.027974369004368782, \
0.06592514365911484, \
0.034814585000276566, \
0.08001206815242767, \
0.04512065276503563, \
-0.03866768255829811, \
0.06538485735654831, \
-0.034107908606529236, \
-0.005085845943540335, \
0.17579543590545654, \
0.05366300791501999, \
-0.008679285645484924, \
0.0599571168422699, \
0.13383300602436066, \
-0.062284089624881744, \
0.03149697184562683, \
-0.014216811396181583, \
0.009109835140407085, \
-0.05756022408604622, \
-0.04006326198577881, \
0.034387920051813126, \
-0.0004521369410213083, \
-0.0021722400560975075, \
0.011314157396554947, \
0.02526003308594227, \
-0.008184735663235188, \
-0.007044446188956499, \
-1.2638777177609306e-11, \
8.125827268001817e-12, \
0.08739165216684341, \
0.017100438475608826, \
-0.0064166695810854435, \
0.028142541646957397, \
0.034582044929265976, \
0.048929691314697266, \
-0.008731488138437271, \
-0.011460898444056511, \
0.07845298200845718, \
-1.1944918144879413e-11, \
0.04563615843653679, \
0.026574769988656044, \
-0.000548700918443501, \
-0.1089051142334938, \
0.3865368962287903, \
1.6558135973454569e-09, \
0.2451256364583969, \
-0.03596201166510582, \
0.041603460907936096, \
0.0048421453684568405, \
-0.006273039150983095, \
-0.2948276996612549, \
0.13115841150283813, \
0.1028963252902031, \
0.015680426731705666, \
0.04559165984392166, \
-0.010530220344662666, \
0.05540403351187706, \
-0.02554713934659958, \
0.002132885158061981, \
-0.012853097170591354, \
0.013049118220806122, \
1.2617749726995253e-11, \
0.04004517197608948, \
0.05130550265312195, \
-0.018401607871055603, \
-0.005193161778151989, \
0.03568706661462784, \
0.0789584144949913, \
-0.005031058099120855, \
0.0031350222416222095, \
0.048061173409223557, \
0.030522488057613373, \
0.019388016313314438, \
-0.013262156397104263, \
-0.07614538073539734, \
3.3537432813507406e-12, \
-0.04597245156764984, \
7.380413120927631e-12, \
-0.024550478905439377, \
-0.021629689261317253, \
0.1703001707792282, \
-0.0036891228519380093, \
0.03012123890221119, \
-0.017920857295393944, \
2.442784906644957e-12, \
0.08156079798936844, \
-0.012220404110848904, \
-0.03590964525938034, \
6.147943265588651e-12, \
0.02001645602285862, \
0.03633914515376091, \
-0.08584333956241608, \
0.016722578555345535, \
-0.031800396740436554, \
-0.01988464966416359, \
-0.05097276717424393, \
-0.013082104735076427, \
0.024025341495871544, \
-0.052181221544742584, \
0.049780864268541336, \
0.16660244762897491, \
0.0002400992379989475, \
-0.003205310320481658, \
-0.04570949822664261, \
0.08121275156736374, \
0.009896224364638329, \
-0.01494182925671339, \
-0.08152300864458084, \
-2.4925441485107447e-12, \
0.028523843735456467, \
0.13474364578723907, \
0.06939776241779327, \
-7.605732016413569e-12, \
0.08381138741970062, \
0.04555491730570793, \
0.008493493311107159, \
-0.051508575677871704, \
-0.031229251995682716, \
0.052710942924022675, \
-0.03406146913766861, \
-0.013853505253791809, \
0.000764377589803189, \
-0.00498605752363801, \
-0.023871127516031265, \
0.037116166204214096, \
-0.15176427364349365, \
0.0029606453608721495, \
0.10874010622501373, \
0.05106709152460098, \
0.055084478110075, \
0.0004498672788031399, \
-0.022827664390206337, \
-0.0010259251575917006, \
-0.14903348684310913, \
0.12209289520978928, \
0.17972490191459656, \
-0.02666657045483589, \
3.793790368661343e-12, \
-0.03158397972583771, \
-0.007487986236810684, \
0.0327984094619751, \
0.15193279087543488, \
1.692574726208651e-11, \
2.9302302771705424e-12, \
0.08607321232557297, \
0.010605673305690289, \
-0.03271514177322388, \
-0.009532556869089603, \
-0.12097092717885971, \
0.05459820479154587, \
-0.02018657885491848, \
-0.08754921704530716, \
0.0032186624594032764, \
-0.005305733066052198, \
0.031047837808728218, \
0.044039301574230194, \
0.10446224361658096, \
-0.044060759246349335, \
0.042184505611658096, \
0.03813844546675682, \
-0.06433102488517761, \
0.04935150593519211, \
0.0018323123222216964, \
-0.05364326015114784, \
0.014261102303862572, \
0.04337482899427414, \
-0.003352082334458828, \
-0.02501906082034111, \
0.04129881039261818, \
0.05727148428559303, \
0.12412228435277939, \
8.50428668458525e-12, \
-0.06827156245708466, \
-0.09326708316802979, \
0.0003991994890384376, \
-0.08845113217830658, \
0.04273803532123566, \
3.466689088571506e-11, \
0.1591237634420395, \
0.012265912257134914, \
0.023026203736662865, \
-0.005083672236651182, \
0.0054513816721737385, \
0.05301106348633766, \
0.08134423941373825, \
-0.050030190497636795, \
-0.200526624917984, \
0.08510745316743851, \
0.042239710688591, \
8.726137000480971e-12, \
1.0564909190546867e-11, \
-0.041288770735263824, \
-0.15913209319114685, \
-0.018702413886785507, \
0.16671988368034363, \
0.01843218132853508, \
-3.5078550307543477e-12, \
0.15988413989543915, \
-0.01860412023961544, \
-0.118752621114254, \
-9.785183947841336e-12, \
0.07730919122695923, \
0.07476355880498886, \
-0.05701104551553726, \
0.18264994025230408, \
0.14898520708084106, \
-0.056993961334228516, \
0.06583495438098907, \
0.02785623073577881, \
-0.036079585552215576, \
-0.048022858798503876, \
3.5195162756407328e-12, \
0.04999621957540512, \
-0.018712259829044342, \
-0.042549457401037216, \
0.005327046383172274, \
0.035892680287361145, \
-0.18962614238262177, \
2.920187008870201e-11, \
-7.76690690929005e-12, \
-0.044545259326696396, \
-0.032491445541381836, \
-0.07783430069684982, \
0.042039573192596436, \
-0.03212551400065422, \
-0.10090722888708115, \
-0.14507845044136047, \
-0.18676027655601501, \
-0.006981512997299433, \
0.020785899832844734, \
-0.015715552493929863, \
-0.005015801638364792, \
-0.003488321788609028, \
0.02855929546058178, \
7.206891333710885e-12, \
0.017739873379468918, \
-0.009032053872942924, \
-0.037780988961458206, \
0.02273859642446041, \
-7.214741824801418e-12, \
0.0056257364340126514, \
0.013691623695194721, \
-0.02705911174416542, \
-0.0012001222930848598, \
-0.008548002690076828, \
0.08846660703420639, \
0.030717790126800537, \
0.033367820084095, \
0.1654813587665558, \
1.0489482546449658e-11, \
0.11520984768867493, \
-0.02741730771958828, \
-0.009095587767660618, \
0.13632240891456604, \
1.567528919166339e-11, \
0.09121152013540268, \
7.028741304260233e-12, \
0.2473163604736328, \
0.1074567660689354, \
-0.169932559132576, \
-0.034708421677351, \
0.1278398185968399, \
0.06974426656961441, \
-0.06180766224861145, \
0.03961891680955887, \
4.328186246904675e-12, \
-0.04577241837978363, \
-0.006524236407130957, \
-0.11045686900615692, \
-0.0205485038459301, \
-0.025501135736703873, \
0.06564280390739441, \
-0.0015055735129863024, \
2.2019875506318343e-11, \
0.0321892648935318, \
-0.014875047840178013, \
-0.004612990655004978, \
0.02142784185707569, \
-7.391462116847214e-13, \
0.1299508661031723, \
0.11471886932849884, \
-0.12641695141792297, \
0.01261619571596384, \
0.029432110488414764, \
0.09228276461362839, \
-0.0008926225709728897, \
0.02041967585682869, \
1.5294756780526164e-11, \
-0.04308714717626572, \
0.018238527700304985, \
-0.049210041761398315, \
0.01662793569266796, \
-0.034108810126781464, \
-0.00034866525675170124, \
-0.009901703335344791, \
0.11691015958786011, \
-0.04134388267993927, \
-0.0233145821839571, \
0.03180783987045288, \
-0.06278446316719055, \
0.0034850353840738535, \
0.010790173895657063, \
0.07842890173196793, \
-0.0030405980069190264, \
-0.006250183563679457, \
0.041888345032930374, \
-0.0018002346623688936, \
0.011416120454668999, \
1.2806226565298395e-11, \
-0.052152931690216064, \
0.08076661080121994, \
0.15239667892456055, \
-0.052426036447286606, \
0.42746710777282715, \
-0.04056986793875694, \
0.10725558549165726, \
-0.0014082561247050762, \
1.4183584862159648e-12, \
-0.017080899327993393, \
0.05953510105609894, \
0.022190162912011147, \
-0.00033744395477697253, \
-0.1393253058195114, \
-0.19289778172969818, \
0.07646109908819199, \
-0.00829829927533865, \
-0.0007462105131708086, \
-0.02190518006682396, \
0.0005273873684927821, \
0.03613460063934326, \
0.026978356763720512, \
-0.02945062145590782, \
0.02670079469680786, \
0.057379357516765594, \
0.10921669006347656, \
0.06847323477268219, \
-0.08673831820487976, \
0.03382199630141258, \
-0.02724575810134411, \
-0.027536191046237946, \
0.006046167109161615, \
0.01657504215836525, \
1.0582703983963437e-11, \
-0.021584639325737953, \
0.07907508313655853, \
0.07345809042453766, \
0.0008352859294973314, \
0.10180177539587021, \
-0.006685543339699507, \
0.02275017462670803, \
0.004691754467785358, \
0.02477947808802128, \
0.04018739238381386, \
0.07201030850410461, \
0.0024204023648053408, \
-0.003749566152691841, \
-0.0026959707029163837, \
0.16540449857711792, \
0.04692345857620239, \
-0.27617955207824707, \
0.1419055014848709, \
0.02584025263786316, \
0.4292847216129303, \
1.533243497442438e-11, \
0.045293621718883514, \
-0.004210592247545719, \
0.05862124636769295, \
-0.08615075796842575, \
1.6453245016423423e-11, \
0.09003409743309021, \
0.047691717743873596, \
0.030728699639439583, \
0.19271869957447052, \
-0.03804929926991463, \
1.7964230363681777e-12, \
0.000616824661847204, \
-0.0520579069852829, \
-0.02688531205058098, \
0.03914225473999977, \
-0.0034941809717565775, \
0.03126079589128494, \
-0.02867448702454567, \
-0.2930987775325775, \
-0.07906947284936905, \
0.023891892284154892, \
-0.0013021582271903753, \
-0.035277772694826126, \
0.07435882091522217, \
-0.04911774396896362, \
0.016453366726636887, \
0.034721847623586655, \
5.21767134706308e-12, \
-0.009387768805027008, \
8.096046402727985e-12, \
0.07859096676111221, \
-0.09919906407594681, \
-1.4840736278776134e-11, \
-0.003779124701395631, \
-0.07241981476545334, \
0.0060255397111177444, \
0.09809581190347672, \
0.10016971081495285, \
0.009412327781319618, \
0.16049645841121674, \
0.014939230866730213, \
1.3769878466629581e-11, \
-0.004971001762896776, \
-0.009361754171550274, \
0.06579162925481796, \
0.061052437871694565, \
0.030057091265916824, \
0.04908553883433342, \
-7.249971564933511e-13, \
0.041408587247133255, \
-0.0019980743527412415, \
0.06114417687058449, \
-0.010029902681708336, \
-0.014757360331714153, \
0.16929477453231812, \
1.561803637806225e-11, \
0.02904234454035759, \
-0.010314383544027805, \
0.15910296142101288, \
-0.041038043797016144, \
0.10261441022157669, \
0.04384171590209007, \
-0.01670512929558754, \
0.09898490458726883, \
0.08335025608539581, \
0.02393421344459057, \
0.024772219359874725, \
0.1153714582324028, \
-0.009471660479903221, \
2.7664762841661528e-11, \
-0.02467842772603035, \
0.04863997921347618, \
0.07197083532810211, \
0.008259579539299011, \
-0.0006563187926076353, \
-0.01216167863458395, \
2.996615108830092e-11, \
-0.022149989381432533, \
0.04322216287255287, \
0.020620251074433327, \
0.013643109239637852, \
-0.029439130797982216, \
-0.008108428679406643, \
1.2473328793449756e-11, \
-0.17197419703006744, \
-0.008211617358028889, \
0.024355676025152206, \
-0.006545571610331535, \
0.1081119179725647, \
0.06723928451538086, \
0.01568414829671383, \
-0.009928782470524311, \
0.06946700811386108, \
0.000816811341792345, \
0.013932369649410248, \
-0.0827852413058281, \
0.005277564749121666, \
-2.321974860650111e-12, \
0.04103326052427292, \
-0.1535029411315918, \
0.0066574555821716785, \
-0.027236156165599823, \
0.09076453745365143, \
-0.02280842512845993, \
-0.05505850166082382, \
0.011747531592845917, \
0.0005699102184735239, \
0.04419558495283127, \
-0.15791651606559753, \
0.0660230740904808, \
-0.07957760989665985, \
-0.00574358319863677, \
0.042067840695381165, \
-0.04491778090596199, \
0.23599280416965485, \
-0.012567560188472271, \
-0.010366016998887062, \
0.1429995447397232, \
-0.009821710176765919, \
0.0037341646384447813, \
-0.027398400008678436, \
1.2599042902711188e-12, \
0.04998539760708809, \
0.07551427185535431, \
0.0005717194871976972, \
-0.10807103663682938, \
0.006974349729716778, \
-0.01642283983528614, \
-0.08751918375492096, \
0.00258212024345994, \
-1.0530207782133427e-11, \
-0.0030337481293827295, \
0.0006833092193119228, \
0.0467851348221302, \
0.0038877290207892656, \
0.04716205596923828, \
0.022581791505217552, \
-0.015064575709402561, \
-0.02436555176973343, \
0.009944822639226913, \
-0.01846023090183735, \
0.03873202204704285, \
0.005467729177325964, \
0.07097795605659485, \
0.15935826301574707, \
0.1411040872335434, \
0.008433735929429531, \
0.06623101979494095, \
-0.05466998368501663, \
0.006073238328099251, \
0.048335544764995575, \
-0.009062297642230988, \
-0.011288612149655819, \
-0.022781934589147568, \
-0.09608016908168793, \
0.10985242575407028, \
0.03272869810461998, \
-0.006152618210762739, \
0.02584110200405121, \
-0.20865289866924286, \
-0.0033364053815603256, \
-0.022455912083387375, \
-0.0903954803943634, \
-0.027771566063165665, \
0.026755545288324356, \
0.003626324934884906, \
-0.03627528250217438, \
-0.02025502175092697, \
-0.03257124125957489, \
-0.0034700711257755756, \
0.10293222218751907, \
0.012557856738567352, \
-0.0365779846906662, \
-0.0056750597432255745, \
0.06998882442712784, \
2.3811699140230402e-12, \
4.35501201073718e-12, \
0.041386496275663376, \
-0.0020555341616272926, \
-0.009005192667245865, \
0.01609788089990616, \
0.1879710704088211, \
-0.012966979295015335, \
-0.000764757685828954, \
-0.009114122949540615, \
-0.17148397862911224, \
-9.703566943020103e-12, \
0.04634672775864601, \
-0.019141558557748795, \
0.0009800572879612446, \
-0.0954890102148056, \
-0.09665068238973618, \
-2.312729452391693e-10, \
-0.07115145027637482, \
-0.007447930984199047, \
0.0185483917593956, \
0.061437252908945084, \
0.03822498023509979, \
0.08031464368104935, \
-0.1461634486913681, \
0.003607007907703519, \
-0.021560128778219223, \
-0.014643097296357155, \
0.0011013105977326632, \
-0.0039512659423053265, \
-0.034167736768722534, \
-0.07540825009346008, \
0.024526797235012054, \
0.02111198566854, \
2.5125708805195934e-11, \
0.07892307639122009, \
-0.009176131337881088, \
0.003773922100663185, \
-0.005994175095111132, \
-0.010433937422931194, \
-0.07252370566129684, \
-0.0160660520195961, \
-0.00038827036041766405, \
0.01738300733268261, \
0.06549973785877228, \
0.07948245108127594, \
-0.012700974941253662, \
0.016665374860167503, \
1.4456768247794738e-11, \
-0.016752446070313454, \
2.0147184268126672e-11, \
0.06418439745903015, \
0.01419153530150652, \
0.1135503351688385, \
0.06383156776428223, \
-0.020640909671783447, \
-0.026988618075847626, \
-3.1538922948964876e-12, \
0.08290401101112366, \
-0.010988046415150166, \
0.03445374220609665, \
5.397706153570381e-12, \
-0.023142769932746887, \
-0.016822118312120438, \
0.07848363369703293, \
-0.018277393653988838, \
-0.017187170684337616, \
-0.02372383326292038, \
-0.015676390379667282, \
-0.0014226579805836082, \
0.0603100061416626, \
-0.0059522842057049274, \
-0.05115589126944542, \
-0.11089722067117691, \
-0.0024242133367806673, \
-0.004946879576891661, \
0.0921705812215805, \
0.07667063176631927, \
-0.040156323462724686, \
-0.09440267086029053, \
0.07630758732557297, \
-4.692825988916738e-12, \
0.008315885439515114, \
0.03845556080341339, \
0.07574094831943512, \
-1.45410801455359e-11, \
-0.014838611707091331, \
0.011683011427521706, \
-0.040016256272792816, \
0.04124334082007408, \
0.05763901025056839, \
-0.017148921266198158, \
0.024969853460788727, \
0.1493421345949173, \
-0.07948001474142075, \
-0.00669065909460187, \
0.07383599132299423, \
0.007603232283145189, \
-0.18989405035972595, \
0.05239180475473404, \
-0.033091649413108826, \
0.004696390125900507, \
-0.0016099419444799423, \
0.002955932402983308, \
-0.007977599278092384, \
0.0016415921272709966, \
0.009853231720626354, \
0.06411901116371155, \
-0.012061553075909615, \
-0.01872539147734642, \
4.211477954568776e-12, \
-0.00031123869121074677, \
0.016891315579414368, \
-0.06848091632127762, \
-0.0809878334403038, \
2.947024915767038e-11, \
-1.2170240509812302e-11, \
-0.006927197333425283, \
0.040105387568473816, \
-0.04375694319605827, \
-0.037899479269981384, \
-0.14860281348228455, \
0.04767443612217903, \
0.2559928596019745, \
0.07366640120744705, \
-0.002124188467860222, \
-0.06573676317930222, \
7.002993515925482e-05, \
-0.05715891718864441, \
-0.046383559703826904, \
-0.04152747988700867, \
-0.03891817852854729, \
-0.044049687683582306, \
0.033606864511966705, \
-0.014435718767344952, \
-0.008927966468036175, \
0.0762070044875145, \
-0.020414505153894424, \
-0.017551014199852943, \
-0.015932414680719376, \
0.013849134556949139, \
0.08325411379337311, \
-0.06673109531402588, \
-0.07192210108041763, \
1.2767668866597859e-11, \
-0.05520160123705864, \
-0.025830700993537903, \
0.017909379675984383, \
-0.1636987030506134, \
-0.23043690621852875, \
3.150963864828604e-11, \
-0.057953521609306335, \
-0.02798346057534218, \
0.09148547798395157, \
-0.001735671074129641, \
-0.016729017719626427, \
0.014870637096464634, \
-0.10022195428609848, \
0.10997967422008514, \
0.22086328268051147, \
0.140371173620224, \
-0.015741968527436256, \
9.902591767418922e-12, \
9.699891931336246e-12, \
0.06768034398555756, \
0.26887625455856323, \
-0.040939606726169586, \
-0.08938772231340408, \
0.013116869144141674, \
1.4971031359056752e-11, \
-0.1433313488960266, \
0.07336278259754181, \
0.049544818699359894, \
7.402233340170206e-12, \
-0.10398174077272415, \
0.1255158632993698, \
0.07372384518384933, \
-0.0018640101188793778, \
-0.02964889071881771, \
-0.07017859071493149, \
0.1652531772851944, \
-0.039953552186489105, \
0.226503387093544, \
-0.02483716793358326, \
2.048336847360055e-11, \
0.0073119658045470715, \
0.08144685626029968, \
-0.14202411472797394, \
-0.03062872216105461, \
0.08003709465265274, \
-0.2083609700202942, \
2.4823636202153665e-11, \
3.935865956067319e-12, \
0.00978533923625946, \
-0.03247959911823273, \
-0.05445503816008568, \
0.024529671296477318, \
-0.0869998186826706, \
0.03232889622449875, \
-0.15139392018318176, \
0.09652818739414215, \
0.00972712878137827, \
-0.02697620540857315, \
-0.009850597009062767, \
-0.02773812785744667, \
0.04276927188038826, \
-0.041091784834861755, \
7.641828142501694e-12, \
-0.03263598680496216, \
-0.013424201868474483, \
-0.08488144725561142, \
-0.02751208283007145, \
-5.5328046831559785e-12, \
-0.013150209560990334, \
0.03692590072751045, \
-0.025377629324793816, \
-0.0003144627553410828, \
0.022430742159485817, \
-0.1756591647863388, \
-0.09187160432338715, \
-0.01969331130385399, \
-0.016724560409784317, \
8.726268839465146e-12, \
0.17159703373908997, \
-0.012157388031482697, \
-0.01585981994867325, \
-0.03553246706724167, \
5.707787541220366e-12, \
-0.08255700021982193, \
-4.000452746844019e-12, \
-0.05316987633705139, \
-0.04954272508621216, \
0.08418355882167816, \
-0.033441077917814255, \
-0.030878892168402672, \
-0.021023232489824295, \
0.047351717948913574, \
-0.07914767414331436, \
1.921713656261037e-11, \
-0.03333337604999542, \
-0.0026532297488301992, \
0.035355616360902786, \
-0.06268728524446487, \
0.10292123258113861, \
0.0010787523351609707, \
0.005041605792939663, \
1.3353537893501244e-11, \
-0.005751218181103468, \
-0.025251716375350952, \
-0.010061320848762989, \
0.0494120754301548, \
-1.1530409439741707e-11, \
-0.047355085611343384, \
-0.036066934466362, \
0.09268303960561752, \
-0.13517363369464874, \
-0.3023478090763092, \
0.14299483597278595, \
0.09445621818304062, \
-0.03829042613506317, \
1.765736688807973e-11, \
-0.027772001922130585, \
-0.035558246076107025, \
0.001381762558594346, \
-0.021555164828896523, \
0.1422591358423233, \
-0.0006773137138225138, \
-0.009310605935752392, \
0.043615251779556274, \
0.05365883558988571, \
0.03296632692217827, \
-0.007152047008275986, \
0.04128274694085121, \
0.002522260881960392, \
-0.000356293807271868, \
-0.11277297884225845, \
-0.001022407435812056, \
-0.009712711907923222, \
-0.0469122976064682, \
-0.04308512061834335, \
-0.13491986691951752, \
1.5804050776391243e-11, \
0.223117858171463, \
0.09050243347883224, \
-0.15429896116256714, \
0.06551441550254822, \
0.47586527466773987, \
0.05286633223295212, \
0.023842575028538704, \
-0.004753993824124336, \
1.4901496703245698e-11, \
-0.018831174820661545, \
-0.04669298231601715, \
-0.039753034710884094, \
-0.016483791172504425, \
0.3154020607471466, \
-0.08230762928724289, \
-0.0439099557697773, \
-0.005553893744945526, \
-0.0008386772824451327, \
-0.0010483530350029469, \
-0.0072045354172587395, \
-0.05191457271575928, \
0.021963929757475853, \
-0.023314403370022774, \
-0.060489363968372345, \
-0.06800082325935364, \
-0.024913456290960312, \
-0.02260877937078476, \
-0.05703260377049446, \
0.02759302407503128, \
0.03389302268624306, \
-0.03636415675282478, \
-0.060197874903678894, \
0.040704935789108276, \
-9.776780947323704e-12, \
0.004891863092780113, \
0.09049519151449203, \
0.14395469427108765, \
-0.02244102582335472, \
-0.07345742732286453, \
-0.03766508772969246, \
-0.0876798927783966, \
-0.05891827493906021, \
0.021041391417384148, \
-0.004352955147624016, \
0.026120170950889587, \
0.026077358052134514, \
0.06352116167545319, \
0.14166373014450073, \
-0.22463394701480865, \
-0.04302717372775078, \
0.05823618918657303, \
-0.009484503418207169, \
0.03527826815843582, \
-0.08250095695257187, \
1.162664799506108e-12, \
-0.036216285079717636, \
0.008293207734823227, \
0.04452015832066536, \
0.09641626477241516, \
1.6365450661304237e-11, \
-0.033162519335746765, \
0.03610394895076752, \
0.05207424238324165, \
-0.050024621188640594, \
-0.04147137701511383, \
-6.697360981772205e-12, \
-0.017889508977532387, \
0.04457838088274002, \
0.00586725352331996, \
-0.05436231568455696, \
0.004540731199085712, \
0.010730049572885036, \
0.10808053612709045, \
-0.2562003433704376, \
-0.05811263248324394, \
-0.02691531553864479, \
0.0017498903907835484, \
-0.16337484121322632, \
-0.09368249028921127, \
0.2902088761329651, \
0.023005297407507896, \
0.19526739418506622, \
1.0431390126686146e-11, \
-0.008054762147367, \
1.9679912213743656e-11, \
0.10855661332607269, \
-0.08482149243354797, \
-2.0550334003943682e-11, \
-0.011483232490718365, \
0.0649985745549202, \
-0.01892457716166973, \
-0.031310148537158966, \
0.0857163593173027, \
-0.0187238696962595, \
-0.03239744156599045, \
0.0592975839972496, \
1.4286040232736053e-11, \
0.0025475420989096165, \
-0.02738324925303459, \
-0.021934762597084045, \
0.02248140424489975, \
0.06789401173591614, \
0.06838273257017136, \
-4.2540715280937544e-14, \
0.1184445470571518, \
0.0012241521617397666, \
-0.014209491200745106, \
0.060765672475099564, \
-0.01772141270339489, \
-0.039881639182567596, \
1.907207898554919e-11, \
0.05641121417284012, \
-0.009031976573169231, \
0.012343570590019226, \
-0.057623591274023056, \
0.04632019251585007, \
-0.018292848020792007, \
-0.02299237623810768, \
-0.13824895024299622, \
-0.00247423117980361, \
-0.008588999509811401, \
-0.06543102115392685, \
-0.011701645329594612, \
-0.0030544225592166185, \
2.5551612908847332e-11, \
0.04364156723022461, \
-0.033659566193819046, \
-0.07433672249317169, \
-0.012562857940793037, \
-0.005529151763767004, \
-0.011197244748473167, \
2.356815263782064e-11, \
0.11352813988924026, \
0.09873779863119125, \
0.13372521102428436, \
-0.03057105652987957, \
0.025689085945487022, \
-0.031797874718904495, \
-7.79934884037603e-12, \
0.1292419135570526, \
-0.02041277103126049, \
-0.05666767805814743, \
-0.020116498693823814, \
0.1520741730928421, \
-0.04049486294388771, \
-0.034844934940338135, \
0.03477374464273453, \
-0.04441456124186516, \
0.03113030083477497, \
-0.02844102494418621, \
0.03404704108834267, \
-0.006221369840204716, \
1.8826639466146267e-12, \
-0.009509731084108353, \
0.21906475722789764, \
-0.012238454073667526, \
-0.014544143341481686, \
-0.06386470049619675, \
0.05080230534076691, \
-0.05503328517079353, \
0.27797386050224304, \
0.05913577228784561, \
-0.1229899600148201, \
0.17921534180641174, \
-0.09929975122213364, \
-0.06818509101867676, \
-0.019094960764050484, \
0.11456252634525299, \
-0.164799302816391, \
-0.10867168754339218, \
-0.04541069269180298, \
0.09251139312982559, \
0.11134347319602966, \
0.028455520048737526, \
-0.000493934319820255, \
0.023442832753062248, \
-3.4497591415438844e-12, \
0.010170514695346355, \
-0.0222108643501997, \
-0.03146378695964813, \
-0.10220972448587418, \
0.09427940845489502, \
0.015338352881371975, \
-0.061203211545944214, \
-0.0046967556700110435, \
-2.5175965479018458e-11, \
0.06514610350131989, \
-0.0007448572432622313, \
-0.03826633095741272, \
0.006972095463424921, \
0.0017007715068757534, \
0.17909379303455353, \
0.14279893040657043, \
-0.011836652643978596, \
0.020719096064567566, \
-0.04028943181037903, \
-0.031067224219441414, \
-0.002491746097803116, \
-0.008349893614649773, \
-0.043201711028814316, \
-0.05544525384902954, \
0.06711319833993912, \
-0.015478537417948246, \
-0.02483208291232586, \
-0.04360717162489891, \
-0.018045106902718544, \
0.01640425994992256, \
0.012403780594468117, \
0.0021950185764580965, \
-0.004637549165636301, \
-0.02323032356798649, \
-0.026721486821770668, \
-0.105644591152668, \
-0.06654873490333557, \
-0.18567770719528198, \
-0.026242658495903015, \
-0.01622091419994831, \
0.1149183064699173, \
0.006708217319101095, \
-0.028701120987534523, \
-0.004849175922572613, \
0.12469650059938431, \
0.08530087023973465, \
-0.0873633399605751, \
0.0008474159403704107, \
-0.02957223728299141, \
-0.008714597672224045, \
-0.07721053063869476, \
0.14556920528411865, \
0.054316651076078415, \
4.500397624007668e-11, \
1.2542360379452777e-11, \
0.02863016352057457, \
0.05280458554625511, \
0.018347201868891716, \
-0.006946498528122902, \
-0.09315923601388931, \
-0.009162993170320988, \
0.05607476085424423, \
-0.0009199694613926113, \
0.124916672706604, \
4.432646610874613e-11, \
-0.041573163121938705, \
0.033958613872528076, \
0.019791394472122192, \
-0.02203414961695671, \
-0.20388750731945038, \
1.1573406677456433e-09, \
0.09715781360864639, \
0.010423408821225166, \
-0.0985531210899353, \
-0.011576573364436626, \
-0.005281008780002594, \
-0.2232682704925537, \
0.1113118976354599, \
-0.006037832237780094, \
0.2793719172477722, \
0.07281278818845749, \
0.01403182651847601, \
-0.0009428607299923897, \
-0.011615511029958725, \
-0.04554351791739464, \
0.0300301481038332, \
0.02291776053607464, \
6.300040350515346e-12, \
-0.08214174211025238, \
0.030550377443432808, \
0.029857465997338295, \
-0.0004869765543844551, \
0.007372920401394367, \
0.043024782091379166, \
0.033064473420381546, \
0.020934222266077995, \
-0.03503943607211113, \
-0.057291701436042786, \
-0.05569562315940857, \
0.09343171864748001, \
0.041034597903490067, \
1.1726391559163662e-11, \
0.0276773814111948, \
6.701202960590624e-12, \
-0.004517529159784317, \
-0.08107995986938477, \
-0.03267662972211838, \
-0.03514847159385681, \
0.0588354617357254, \
-0.006817087065428495, \
2.727570773408683e-11, \
-0.04081881418824196, \
0.0493517741560936, \
0.037741564214229584, \
3.156890027167236e-11, \
0.04091407731175423, \
0.05690302327275276, \
-0.019434494897723198, \
0.023402851074934006, \
0.03893309831619263, \
-0.08433636277914047, \
0.06913965940475464, \
0.07137379050254822, \
-0.09976387023925781, \
0.004111445974558592, \
-0.03871854394674301, \
-0.10651307553052902, \
0.023180237039923668, \
-0.005344427190721035, \
0.0796952173113823, \
-0.07950793206691742, \
0.04242493957281113, \
0.09940832108259201, \
-0.12063157558441162, \
3.2195267285484164e-11, \
0.026701977476477623, \
-0.15309248864650726, \
-0.06217541918158531, \
2.8731177159624366e-11, \
-0.004849552176892757, \
0.035528670996427536, \
-0.03205868601799011, \
0.052118703722953796, \
0.07191406935453415, \
-0.004315855447202921, \
0.008584714494645596, \
-0.03536384552717209, \
-0.011374334804713726, \
0.010424776002764702, \
0.05732966586947441, \
0.04310319572687149, \
-0.22263988852500916, \
0.04770468920469284, \
-0.011441965587437153, \
0.04260093718767166, \
0.05773278325796127, \
0.053926803171634674, \
0.04389292746782303, \
0.023089241236448288, \
-0.16416510939598083, \
-0.15608231723308563, \
0.053108371794223785, \
-0.002283994574099779, \
4.81214785900963e-13, \
-0.0031507418025285006, \
0.0052412706427276134, \
-0.026121536269783974, \
0.13919697701931, \
2.4903780426743793e-11, \
4.485687862820775e-11, \
-0.006950249429792166, \
-0.03177806735038757, \
0.010032772086560726, \
-0.028546255081892014, \
0.13253283500671387, \
-0.03418705239892006, \
-0.13450190424919128, \
0.028248462826013565, \
-0.0007756861159577966, \
0.0585610531270504, \
0.26705050468444824, \
-0.14753961563110352, \
0.06687261909246445, \
0.012521632947027683, \
0.08566366136074066, \
0.09521135687828064, \
-0.032355062663555145, \
-0.013561898842453957, \
0.014473991468548775, \
0.018234776332974434, \
0.023052675649523735, \
0.03539828956127167, \
-0.009422902949154377, \
0.036731164902448654, \
-0.03385322913527489, \
0.05701025575399399, \
0.08371143043041229, \
6.488775228935539e-12, \
0.0869428887963295, \
0.0257559921592474, \
0.06613028794527054, \
0.4546613097190857, \
0.00037659870577044785, \
2.7703898203279564e-11, \
0.1543421447277069, \
0.044076185673475266, \
-0.04325602203607559, \
0.008151454851031303, \
0.053574077785015106, \
0.16627974808216095, \
-0.021033670753240585, \
0.10843828320503235, \
-0.24350902438163757, \
-0.04462676867842674, \
-0.08117232471704483, \
6.54191924156361e-13, \
2.4819154977734348e-12, \
0.06531316787004471, \
-0.04353562369942665, \
0.024263789877295494, \
0.18668223917484283, \
-0.1053490862250328, \
2.7753526473522916e-12, \
-0.17008545994758606, \
-0.01614956744015217, \
-0.13881465792655945, \
1.9085847485778018e-11, \
0.0753447487950325, \
-0.07885222882032394, \
-0.007624614052474499, \
0.05205780267715454, \
0.13629494607448578, \
0.12520290911197662, \
-0.1117786169052124, \
-0.08994989097118378, \
-0.1569986343383789, \
0.0439615435898304, \
1.8433303494713726e-11, \
-0.018089571967720985, \
0.08624103665351868, \
-0.23731663823127747, \
0.03454525023698807, \
-0.04950771480798721, \
0.10912671685218811, \
1.2663896840903188e-11, \
3.827614614149155e-11, \
0.00583687424659729, \
-0.05325087159872055, \
-0.0287705659866333, \
-0.03329509124159813, \
-0.03834014758467674, \
-0.006530364044010639, \
-0.13317391276359558, \
0.0899386778473854, \
-0.01762428507208824, \
0.06720812618732452, \
-0.006981201469898224, \
0.0343695692718029, \
-0.006269569508731365, \
-0.011570395901799202, \
2.5190570115962707e-12, \
-0.02532905898988247, \
0.03527796268463135, \
0.11646462976932526, \
0.050723738968372345, \
3.0315201737796116e-11, \
0.11699583381414413, \
-0.02047288976609707, \
0.007483947090804577, \
0.00018207014363724738, \
0.054258983582258224, \
-0.029583144932985306, \
0.03666512668132782, \
0.05037514120340347, \
-0.11282893270254135, \
1.370179577436792e-11, \
-0.12022192031145096, \
0.06821850687265396, \
-0.004256220534443855, \
-0.021938947960734367, \
-1.5158359593578363e-12, \
0.07441658526659012, \
-5.978990306326759e-12, \
-0.052217695862054825, \
-0.02953398786485195, \
0.0010569806909188628, \
0.10068988800048828, \
0.1258423924446106, \
0.07750401645898819, \
0.046403735876083374, \
-0.04138386622071266, \
6.902268253478061e-12, \
0.05396324396133423, \
0.015469754114747047, \
-0.02659420110285282, \
-0.11321258544921875, \
0.13097809255123138, \
0.19829273223876953, \
0.008371415548026562, \
2.8865351948959006e-12, \
-0.05699053034186363, \
-0.003648195182904601, \
0.07049652189016342, \
-0.06838931888341904, \
4.1273321566004384e-11, \
0.12793700397014618, \
-0.10514082759618759, \
-0.0015753793995827436, \
0.1534588634967804, \
0.16150911152362823, \
-0.09905809909105301, \
-0.039298973977565765, \
-0.029999108985066414, \
1.516744368990075e-11, \
0.11826783418655396, \
0.07409505546092987, \
0.04160594567656517, \
0.07065015286207199, \
0.11453620344400406, \
-0.0004967363202013075, \
0.004590810276567936, \
-0.08038698881864548, \
0.03768204525113106, \
0.018893100321292877, \
0.05119337886571884, \
6.872070662211627e-05, \
-0.008810644038021564, \
-0.004136445466428995, \
-0.09916674345731735, \
-0.0004122237442061305, \
-0.00672908267006278, \
-0.00322800618596375, \
0.0014916369691491127, \
0.14613983035087585, \
2.3631055445783034e-11, \
-0.07213778048753738, \
-0.08458343893289566, \
-0.08688712865114212, \
-0.012202531099319458, \
-0.2047068029642105, \
0.023241141811013222, \
-0.08466215431690216, \
-0.004606857430189848, \
3.434118614475956e-11, \
0.01006475742906332, \
0.06268680840730667, \
0.09525542706251144, \
0.13931934535503387, \
-0.03846343979239464, \
-0.025033695623278618, \
-0.03503100201487541, \
0.00254381587728858, \
-0.00045321567449718714, \
0.1321985125541687, \
0.049772780388593674, \
0.04829024896025658, \
0.23393169045448303, \
-0.01320648193359375, \
0.0617925301194191, \
0.13060466945171356, \
0.1033858209848404, \
-0.006476454436779022, \
0.06698157638311386, \
0.003453550860285759, \
0.02257627807557583, \
0.09725181758403778, \
0.03869740664958954, \
0.0766420066356659, \
-3.168142763648567e-14, \
0.007515561766922474, \
-0.04884960874915123, \
-0.15114529430866241, \
0.06897468864917755, \
0.0345921590924263, \
0.05242062732577324, \
0.030818291008472443, \
0.12498898059129715, \
0.18616190552711487, \
0.035059262067079544, \
-0.09460736811161041, \
-0.019784698262810707, \
-0.02872869186103344, \
0.11395219713449478, \
-0.309637188911438, \
0.054529666900634766, \
-0.005974927451461554, \
0.1602858155965805, \
0.11314645409584045, \
0.2878756821155548, \
-4.156148949302496e-12, \
0.04843045771121979, \
0.07568078488111496, \
-0.00661372859030962, \
-0.006085235625505447, \
4.353114223254462e-12, \
-0.09481417387723923, \
-0.02555365487933159, \
0.015313243493437767, \
0.1779242753982544, \
0.013733980245888233, \
2.5601260694729788e-11, \
0.04497000575065613, \
0.046060554683208466, \
-0.046960312873125076, \
0.03989296779036522, \
0.052560895681381226, \
0.06848709285259247, \
-0.04604862257838249, \
-0.26018795371055603, \
0.031598933041095734, \
0.040700364857912064, \
0.038945797830820084, \
0.19832868874073029, \
-0.029729539528489113, \
-0.09829235821962357, \
0.10037624835968018, \
-0.038840048015117645, \
1.2448027851552634e-11, \
0.021242376416921616, \
1.134410794467744e-11, \
-0.039215706288814545, \
-0.20432521402835846, \
2.8381253944220752e-11, \
-0.013814805075526237, \
0.06626808643341064, \
0.04547420144081116, \
-0.010814602486789227, \
-0.07159632444381714, \
0.04930534586310387, \
0.05631989613175392, \
-0.05767419934272766, \
1.112235130384942e-11, \
0.1084168329834938, \
-0.031027643010020256, \
0.0534125417470932, \
-0.09465907514095306, \
-0.02943732775747776, \
-0.052622079849243164, \
2.0896808589077054e-11, \
-0.034970108419656754, \
0.01432658452540636, \
0.054511070251464844, \
0.05119703710079193, \
0.020784737542271614, \
0.16411183774471283, \
8.05634118444809e-12, \
-0.025980433449149132, \
-0.010294151492416859, \
0.059699032455682755, \
-0.09402992576360703, \
-0.14136245846748352, \
-0.012500327080488205, \
0.07698109745979309, \
-0.00750946206972003, \
-0.015079866163432598, \
-0.004028061404824257, \
0.06689582020044327, \
0.1956324428319931, \
0.019706903025507927, \
1.1743163733091144e-11, \
0.004540350753813982, \
0.11760539561510086, \
-0.08051781356334686, \
0.03855974227190018, \
-0.0019216377986595035, \
0.021575571969151497, \
2.53125628096873e-11, \
0.09340929985046387, \
-0.04715707525610924, \
-0.056765589863061905, \
0.054663848131895065, \
0.04736064746975899, \
-0.11618763208389282, \
3.815843474530567e-11, \
-0.023478031158447266, \
0.24195729196071625, \
-0.06004490330815315, \
-0.009892233647406101, \
-0.15177729725837708, \
0.06981685757637024, \
0.08416624367237091, \
-0.006635614670813084, \
0.02030198462307453, \
-0.018421411514282227, \
0.04082530736923218, \
0.07755067199468613, \
0.0730861946940422, \
1.6634313718122407e-11, \
0.03907901793718338, \
-0.007324243430048227, \
-0.0029003603849560022, \
0.053762707859277725, \
0.07493655383586884, \
0.05331795662641525, \
0.04259251803159714, \
0.21763832867145538, \
-0.029513441026210785, \
0.07851942628622055, \
-0.01484088134020567, \
0.05059489235281944, \
-0.054875344038009644, \
-0.007039631251245737, \
-0.06065709516406059, \
0.16159923374652863, \
0.2034279704093933, \
-0.0186939537525177, \
-0.03756571561098099, \
-0.004208587575703859, \
-0.009561116807162762, \
0.010766739957034588, \
0.01604633219540119, \
3.15760681490751e-11, \
-0.02562873251736164, \
-0.05624939128756523, \
-0.020038969814777374, \
-0.12372160702943802, \
0.08833904564380646, \
0.18553508818149567, \
-0.12452864646911621, \
0.016113152727484703, \
5.057338922642707e-11, \
0.12702053785324097, \
-0.0013958358904346824, \
-0.025065192952752113, \
0.06868276000022888, \
0.00626977626234293, \
-0.02946104295551777, \
0.11634482443332672, \
0.013228273950517178, \
0.03149515762925148, \
-0.0811302438378334, \
0.0846499651670456, \
-0.0007625510334037244, \
0.03641585633158684, \
0.15153424441814423, \
-0.005171533208340406, \
-0.009369607083499432, \
0.06737660616636276, \
0.025189591571688652, \
0.05586191266775131, \
0.012052362784743309, \
0.09398630261421204, \
0.0486237108707428, \
-0.03416862338781357, \
0.017270399257540703, \
0.09891343861818314, \
0.03524135425686836, \
-0.04597403481602669, \
-0.034854598343372345, \
-0.15634694695472717, \
-0.009521439671516418, \
-0.02941710688173771, \
-0.012279262766242027, \
0.010813971050083637, \
0.06600624322891235, \
0.009018274955451488, \
-0.029198121279478073, \
0.07925888150930405, \
0.04360601305961609, \
-0.003987074363976717, \
-0.07153259217739105, \
-0.010136183351278305, \
0.17725908756256104, \
0.10737913846969604, \
-0.09311852604150772, \
-7.751457808957696e-11, \
-9.568842246343578e-11, \
0.005563090555369854, \
-0.029686734080314636, \
-0.01322640385478735, \
-0.010096456855535507, \
-0.13177035748958588, \
-0.02780410833656788, \
-0.02938127890229225, \
-0.022515740245580673, \
-0.039899054914712906, \
-9.62064802823015e-11, \
-0.04256097972393036, \
0.007953604683279991, \
-0.015011454001069069, \
0.007775532081723213, \
-0.1149192601442337, \
-3.072795795588945e-09, \
-0.008426541462540627, \
-0.03305484727025032, \
-0.0573849156498909, \
-0.04071034863591194, \
-0.024467121809720993, \
0.2138291299343109, \
-0.15483476221561432, \
-0.03854266554117203, \
-0.03464308753609657, \
-0.02738412283360958, \
-0.007328204344958067, \
-0.005423817317932844, \
-0.05017755925655365, \
-0.0013281042920425534, \
-0.02148399129509926, \
-0.016394874081015587, \
-8.127538919655564e-11, \
-0.10149272531270981, \
-0.029987435787916183, \
-0.008446368388831615, \
-0.013588865287601948, \
-0.02324061654508114, \
-0.08161424100399017, \
-0.025149568915367126, \
-0.0044276718981564045, \
-0.028141316026449203, \
-0.041863638907670975, \
-0.04488081485033035, \
-0.06029896065592766, \
-0.03845274820923805, \
-7.470008639431924e-11, \
-0.030354605987668037, \
-2.877227622821721e-11, \
