#define conv2_weight {\
-0.10382464528083801, 0.0771302729845047, 0.04256571829319, 0.1297055333852768, 0.11548325419425964, -0.023091113194823265, -0.10082529485225677, 0.05842706188559532, 0.11329570412635803, 0.09857149422168732, 0.06306374073028564, 0.0908319354057312, 0.17518027126789093, -0.13938553631305695, 0.06646604835987091, 0.09550683945417404, -0.13414663076400757, 0.13642165064811707, -0.008511672727763653, -0.18639177083969116, 0.053660135716199875, 0.09338224679231644, -0.12704837322235107, 0.0957471951842308, 0.16185356676578522, -0.07709085941314697, 0.1494825780391693, 0.07517077028751373, -0.13520412147045135, 0.14101162552833557, 0.0341891311109066, -0.03847099468111992, 0.04343278706073761, -0.03898291662335396, -0.023054389283061028, 0.10852555185556412, \
-0.05917396768927574, 0.09519820660352707, -0.0056732394732534885, 0.10272067040205002, 0.16143423318862915, 0.0159080121666193, -0.1995716691017151, 0.06546874344348907, 0.09469889104366302, 0.16713234782218933, -0.08873903006315231, 0.006476379465311766, 0.12877157330513, -0.07900925725698471, -0.03958122804760933, 0.1776093989610672, 0.1573386937379837, 0.09616842120885849, 0.03588826209306717, -0.28192368149757385, 0.023220999166369438, 0.13334427773952484, -0.17654965817928314, -0.06612163782119751, 0.024879325181245804, -0.1630721390247345, 0.27799445390701294, 0.1008102148771286, -0.06409723311662674, -0.014056001789867878, 0.02713288925588131, -0.04406590759754181, -0.07904288172721863, 0.015214037150144577, 0.005688773933798075, -0.013863341882824898, \
-0.12935203313827515, 0.08912136405706406, -0.11571015417575836, 0.11412354558706284, 0.15949584543704987, -0.0408395454287529, -0.13964293897151947, -0.01659444533288479, 0.08157007396221161, 0.058061689138412476, -0.17749838531017303, 0.015545186586678028, 0.03985298424959183, -0.2364656925201416, -0.0294918492436409, 0.02645261399447918, 0.5886633396148682, 0.06356269866228104, 0.16626398265361786, -0.38038527965545654, -0.16283828020095825, 0.07096301764249802, -0.2719631493091583, -0.1110401451587677, -0.1847304254770279, -0.1940542608499527, 0.27636048197746277, 0.009980001486837864, 0.056473877280950546, -0.14907261729240417, -0.037593573331832886, 0.01096493098884821, -0.18274952471256256, 0.05993757024407387, -0.04521619901061058, -0.07624953985214233, \
0.006172561086714268, 0.10196889191865921, -0.045920297503471375, -0.015145067125558853, 0.11144967377185822, -0.0875585600733757, -0.0005783734959550202, -0.0311085507273674, 0.13295522332191467, -0.013783665373921394, -0.3152477741241455, -0.05968242138624191, -0.2381245493888855, -0.17600306868553162, -0.06003940850496292, -0.016424644738435745, 0.6440296173095703, 0.08431699126958847, 0.12234693765640259, -0.25343236327171326, -0.10418855398893356, -0.012029726058244705, -0.14902864396572113, -0.06134245917201042, -0.17011210322380066, -0.22465647757053375, 0.31250572204589844, -0.0037885461933910847, 0.1323002725839615, -0.052531905472278595, 0.024989677593111992, 0.08839350938796997, -0.16229543089866638, 0.06317568570375443, 0.007099780719727278, -0.08830533921718597, \
-0.1429753452539444, 0.14849340915679932, -0.13660331070423126, 0.010791839100420475, 0.0712282732129097, -0.07094915211200714, 0.12944060564041138, 0.13315263390541077, 0.14277012646198273, -0.020436275750398636, -0.26872360706329346, -0.056441936641931534, -0.20295988023281097, -0.0006632159347645938, -0.09584105014801025, -0.045051414519548416, 0.48108696937561035, 0.1195535957813263, 0.2389606535434723, -0.10800030827522278, 0.010585031472146511, -0.18282471597194672, -0.08849050104618073, 0.0240508820861578, -0.07591512799263, 0.052926529198884964, 0.2886355519294739, -0.02629862353205681, 0.03798244148492813, -0.11335492879152298, -0.0899023786187172, 0.2013089507818222, -0.106987364590168, 0.08793197572231293, -0.11098837852478027, -0.09552545845508575, \
-0.1605120152235031, 0.11999839544296265, -0.2592719495296478, -0.043779656291007996, 0.019468113780021667, -0.026762226596474648, 0.07065767794847488, 0.05634967237710953, -0.1694977730512619, -0.08985239267349243, -0.15850712358951569, -0.03739166259765625, -0.12834183871746063, -0.03670533001422882, -0.17275607585906982, -0.13764990866184235, 0.23619593679904938, 0.033187393099069595, 0.1449231207370758, -0.06659647077322006, -0.009888027794659138, -0.19637832045555115, -0.011480585671961308, -0.03635851666331291, -0.018510596826672554, -0.08209296315908432, 0.15691587328910828, -0.0828985869884491, -0.10667829215526581, -0.060484275221824646, -0.2409929782152176, 0.06042998284101486, -0.1221340224146843, -0.026373639702796936, -0.1119152307510376, 0.018030470237135887, \
-0.0149220060557127, -0.01087997853755951, -0.08971654623746872, 0.03905867412686348, 0.08988714218139648, 0.068824402987957, -0.001459984458051622, 0.02162599191069603, -0.07216708362102509, -0.05074992775917053, -0.04938685894012451, 0.03348025307059288, -0.04274718463420868, -0.003811886999756098, 0.04433858394622803, -0.036271750926971436, 0.06776131689548492, 0.10013404488563538, -0.0686609148979187, 0.10685985535383224, 0.047512881457805634, -0.017875254154205322, 0.13159608840942383, 0.06092672422528267, -0.13695785403251648, 0.019334550946950912, -0.053152330219745636, 0.11330311745405197, 0.21289022266864777, 0.012384929694235325, 0.02469995617866516, 0.04290824756026268, -0.17232295870780945, 0.08887742459774017, 0.08120931684970856, -0.006972962059080601, \
-0.02309904433786869, -0.1019163727760315, 0.0874723345041275, -0.02900734543800354, -0.02004535123705864, 0.015422692522406578, 0.004820908419787884, -0.04445711150765419, 0.036026228219270706, -0.12813441455364227, -0.039948850870132446, -0.03244898468255997, -0.1328897476196289, 0.056663788855075836, -0.017702903598546982, -0.13146446645259857, 0.16181322932243347, -0.018370987847447395, -0.13668936491012573, -0.03765073046088219, 0.027636827901005745, 0.07452032715082169, 0.11382313817739487, 0.006878378801047802, -0.034458354115486145, -0.008750825189054012, 0.03916756808757782, 0.17746806144714355, 0.013915572315454483, -0.03148619085550308, -0.024883262813091278, 0.012336819432675838, 0.14166313409805298, 0.004671227186918259, -0.12152005732059479, -0.0602695569396019, \
-0.04006296396255493, -0.0028022185433655977, 0.12431452423334122, -0.10707420110702515, -0.034397516399621964, -0.0022880120668560266, -0.04019869491457939, 0.027822231873869896, -0.017202138900756836, -0.15320713818073273, 0.16949400305747986, 0.04334596171975136, -0.08469008654356003, 0.05422664061188698, -0.014394789934158325, 0.0030016526579856873, 0.22004111111164093, -0.0028958357870578766, -0.12096335738897324, 0.1374501734972, 0.14276617765426636, 0.06845937669277191, 0.0650842934846878, -0.014293859712779522, -0.05997162684798241, 0.14444643259048462, 0.18409311771392822, 0.03419193625450134, -0.03329768031835556, -0.1303260624408722, 0.005953739397227764, -0.10808483511209488, 0.3458337187767029, -0.03668694570660591, -0.21303029358386993, -0.07980724424123764, \
-0.037139564752578735, -0.14936545491218567, 0.019625652581453323, -0.08910907804965973, 0.21572773158550262, 0.07698936760425568, 0.03309302777051926, 0.05483383312821388, 0.018903052434325218, 0.05216343328356743, 0.21136562526226044, 0.05123354494571686, -0.1710766702890396, 0.1294810175895691, 0.00902551133185625, 0.19731678068637848, -0.03671278804540634, -0.1167549416422844, -0.08383698761463165, 0.09408828616142273, 0.15181678533554077, 0.02194543182849884, -0.20337197184562683, -0.12430915236473083, -0.14334189891815186, 0.08694466948509216, 0.336570143699646, -0.08842004090547562, -0.2651335299015045, -0.13882023096084595, -0.14275653660297394, -0.19357584416866302, 0.4200698137283325, -0.1770167052745819, -0.144167959690094, -0.0772048607468605, \
0.06695669889450073, 0.016745775938034058, -0.03425319120287895, 0.10921168327331543, 0.09468718618154526, 0.0924849808216095, -0.17078468203544617, 0.2166101634502411, 0.01622006855905056, 0.18347840011119843, -0.156743586063385, -0.06055912375450134, -0.20639224350452423, 0.14071738719940186, 0.23420846462249756, 0.042746808379888535, -0.31994256377220154, -0.03907627984881401, -0.23672932386398315, 0.04180871322751045, 0.09100385010242462, -0.07344581931829453, -0.3262370526790619, -0.027597051113843918, -0.09829472005367279, -0.06525371968746185, 0.10868392884731293, -0.12216096371412277, -0.149667888879776, -0.07020655274391174, -0.089082732796669, -0.3188231289386749, 0.033052366226911545, -0.14504171907901764, -0.059493519365787506, 0.09687766432762146, \
-0.2323226034641266, 0.22369003295898438, 0.04446985572576523, 0.1306668221950531, -0.19806353747844696, 0.04403914138674736, -0.2735792100429535, 0.11470673978328705, 0.21857108175754547, -0.01100271288305521, -0.29600241780281067, -0.030450619757175446, -0.23364318907260895, -0.046081721782684326, -0.05657415837049484, -0.06972581148147583, -0.2898562550544739, 0.038243599236011505, -0.16069626808166504, 0.007446498144418001, -0.23783841729164124, -0.09647832065820694, -0.2149263322353363, 0.022947808727622032, -0.19427286088466644, -0.09125968813896179, -0.3132539987564087, -0.12182783335447311, -0.11788547784090042, 0.03757677227258682, -0.13487231731414795, -0.1226816326379776, -0.22933636605739594, -0.175413116812706, -0.041968367993831635, 0.02387792430818081, \
0.01325400173664093, 0.009194874204695225, 0.06619160622358322, 0.05639784410595894, -0.2149956077337265, 0.2617313265800476, -0.00823074672371149, 0.02049916423857212, -0.06463572382926941, -0.047236714512109756, -0.2725117802619934, 0.20068112015724182, -0.0394974946975708, -0.07035886496305466, -0.15547646582126617, 0.04769647866487503, -0.32528963685035706, 0.2610822319984436, -0.020037099719047546, -0.10633641481399536, -0.08355448395013809, -0.030622368678450584, -0.3160182237625122, 0.13126416504383087, 0.036538008600473404, -0.07688385248184204, -0.0439397431910038, 0.016752110794186592, -0.25679174065589905, 0.24810482561588287, -0.07510066032409668, -0.03964545205235481, 0.01679418794810772, 0.0025123937521129847, 0.030568648129701614, 0.2635745108127594, \
0.03830231353640556, 0.15750910341739655, -0.012164083309471607, 0.022609582170844078, -0.055260442197322845, 0.09197231382131577, -0.14762479066848755, 0.2205711007118225, -0.07582062482833862, -0.056164469569921494, -0.21831585466861725, 0.005951776634901762, -0.07253772020339966, 0.12657800316810608, -0.13963168859481812, -0.042941171675920486, -0.2467435747385025, 0.011175128631293774, -0.10906676203012466, 0.13734231889247894, -0.09510664641857147, -0.021479425951838493, -0.3051300346851349, -0.038681965321302414, 0.013401021249592304, 0.09536586701869965, -0.1376245766878128, -0.05174655839800835, -0.12896877527236938, 0.005089425481855869, 0.1036391407251358, 0.1995217204093933, -0.021903514862060547, 0.01456824317574501, 0.051143646240234375, 0.015964269638061523, \
0.0003539645695127547, 0.11123129725456238, 0.015519298613071442, -0.12228745222091675, 0.024497326463460922, 0.004352622199803591, -0.07644284516572952, 0.15079228579998016, -0.0666772723197937, -0.1790509670972824, -0.1262052357196808, -0.021398643031716347, -0.12407363206148148, 0.2170298546552658, -0.07378095388412476, -0.13889440894126892, -0.11808796226978302, -0.0321333073079586, -0.19144536554813385, 0.17208009958267212, -0.14681001007556915, -0.07414987683296204, -0.10731484740972519, -0.03340602293610573, -0.09983492642641068, 0.15144114196300507, -0.12857867777347565, -0.11553122103214264, -0.09516303986310959, -0.04487171769142151, 0.051477573812007904, 0.14838860929012299, 0.032652392983436584, -0.08554081618785858, 0.016866585239768028, -0.016105344519019127, \
0.05975162982940674, -0.0051198857836425304, 0.09158505499362946, 0.06004007160663605, 0.05766037851572037, -0.082706980407238, -0.0322844460606575, 0.08767718821763992, 0.006638345308601856, 0.054311603307724, -0.0476362369954586, 0.026751715689897537, -0.08002492040395737, 0.08988210558891296, -0.08526498079299927, 0.06771990656852722, -0.09449253976345062, 0.06711316108703613, -0.0478539764881134, 0.10380173474550247, -0.1276429444551468, 0.09172363579273224, -0.04606958106160164, 0.053040407598018646, -0.011213473975658417, 0.0969664677977562, -0.17797522246837616, 0.10966120660305023, 0.09182149916887283, 0.028162728995084763, 0.17530709505081177, -0.025060422718524933, 0.007040595170110464, -0.007107645273208618, 0.09906218200922012, -0.09191740304231644, \
0.1049860417842865, 0.02868743985891342, 0.19428806006908417, 0.09113498032093048, 0.08073121309280396, -0.06757655739784241, 0.027600722387433052, 0.03323826938867569, 0.02352491207420826, 0.029418183490633965, -0.020375417545437813, -0.04422140493988991, -0.08344513177871704, -0.018788954243063927, -0.018024202436208725, 0.03242906183004379, -0.0594966746866703, -0.024183237925171852, -0.2494213879108429, 0.0019067148678004742, -0.11999581009149551, -0.03247576579451561, -0.03932316228747368, 0.04523899033665657, -0.09729601442813873, -0.06991662085056305, -0.16275674104690552, -0.028856296092271805, 0.060238298028707504, -0.008214366622269154, 0.15645936131477356, -0.07154262810945511, -0.0009288782603107393, -0.1482410430908203, 0.11971829831600189, -0.13676460087299347, \
0.019397957250475883, 0.0992191731929779, 0.15133056044578552, -0.09624037891626358, 0.1744224727153778, -0.15272019803524017, 0.0405438095331192, 0.0660175159573555, 0.04755975306034088, -0.029260842129588127, 0.09104857593774796, -0.10850504040718079, 0.04897138848900795, 0.02204708941280842, 0.02698827162384987, -0.014692004770040512, -0.10097203403711319, -0.03567425161600113, -0.006872537545859814, 0.10359252244234085, -0.06945868581533432, 0.09989993274211884, -0.0956617221236229, -0.06934986263513565, -0.04443740472197533, 0.12889695167541504, -0.15983854234218597, 0.0734495148062706, 0.06432381272315979, -0.10717852413654327, 0.09630636870861053, 0.09310338646173477, 0.010119050741195679, -0.041624102741479874, 0.04507597163319588, -0.15466782450675964, \
-0.3416377305984497, -0.09575056284666061, -0.12430332601070404, -0.1486549973487854, -0.22345401346683502, 0.1291433572769165, -0.19249071180820465, -0.042134180665016174, -0.06803187727928162, -0.06172511726617813, -0.040519263595342636, 0.1501782089471817, 0.02713201195001602, 0.0038289453368633986, -0.12435378134250641, -0.1287093162536621, 0.09888099879026413, 0.009992300532758236, 0.34991100430488586, 0.13511082530021667, -0.15917256474494934, -0.005321976263076067, 0.12397986650466919, -0.1320306360721588, 0.3380950093269348, 0.06620454043149948, 0.026717953383922577, 0.15470610558986664, 0.07371203601360321, -0.19099342823028564, 0.061376456171274185, 0.052064165472984314, 0.0300096794962883, -0.01936037465929985, -0.07267236709594727, -0.21154440939426422, \
-0.3253619372844696, -0.014062972739338875, -0.11069123446941376, -0.06669623404741287, -0.0889132022857666, -0.02725028246641159, -0.22858071327209473, -0.06736709922552109, -0.06898986548185349, 0.019892271608114243, 0.02279791794717312, 0.05243191868066788, -0.18934088945388794, -0.20708799362182617, -0.11720132827758789, -0.011221093125641346, 0.022878127172589302, -0.007448890246450901, 0.10944385826587677, -0.13677436113357544, -0.13283246755599976, 0.07373923063278198, 0.06308739632368088, 0.03437514975667, 0.413356214761734, 0.06227654218673706, -0.006169227417558432, 0.11711666733026505, 0.07663512229919434, -0.08239833265542984, 0.24643920361995697, 0.11125003546476364, -0.025795700028538704, 0.08265512436628342, -0.07192187011241913, -0.29460546374320984, \
-0.3149167597293854, 0.060094594955444336, -0.06581538915634155, -0.0022617678623646498, -0.004158985801041126, 0.03318292275071144, -0.2656913697719574, 0.010488135740160942, -0.05611661821603775, -0.01423643995076418, -0.01907726563513279, 0.08075913041830063, -0.23694558441638947, -0.03992767259478569, -0.07671118527650833, -0.05881085246801376, -0.01690455712378025, 0.10716774314641953, -0.1203356608748436, -0.23108209669589996, -0.06809669733047485, 0.032881513237953186, 0.030967306345701218, 0.06844163686037064, 0.1477842479944229, -0.16156253218650818, -0.030899930745363235, 0.007806897629052401, 0.1644253134727478, -0.008893425576388836, 0.33419501781463623, -0.062403589487075806, -0.0011810117866843939, 0.027246393263339996, 0.03145002946257591, -0.05412470921874046, \
-0.23854027688503265, 0.10033278167247772, 0.01267483364790678, -0.037251897156238556, 0.027391403913497925, 0.006116625852882862, -0.18838432431221008, 0.024324612691998482, -0.022870440036058426, -0.005803968291729689, 0.024710727855563164, 0.0445837639272213, -0.08103107661008835, -0.09839782863855362, 0.05681440234184265, 0.016123471781611443, -0.034446317702531815, 0.06897594779729843, -0.16295412182807922, -0.15580518543720245, -0.012073585763573647, -0.03338181972503662, -0.02459324337542057, 0.01621914468705654, -0.10594205558300018, -0.08167745918035507, -0.09174952656030655, -0.04315293952822685, 0.052730076014995575, 0.0752955973148346, 0.17543669044971466, -0.09900008141994476, -0.040612783282995224, -0.025781303644180298, 0.050405677407979965, 0.0023114695213735104, \
-0.2643051743507385, 0.06572631001472473, -0.08991511911153793, 0.018632275983691216, 0.048161350190639496, 0.04509368911385536, -0.1467968076467514, 0.02990827150642872, 0.049762047827243805, -0.04288097470998764, 0.07098500430583954, 0.056940335780382156, -0.03132041543722153, -0.005464989226311445, 0.0483044870197773, -0.010954740457236767, 0.021657031029462814, 0.1111549362540245, -0.04886572062969208, -0.022716635838150978, 0.029543578624725342, 0.01571018435060978, 0.052182238548994064, 0.04098653420805931, -0.025490781292319298, 0.021850617602467537, 0.01854252815246582, -0.026363132521510124, -0.0436413511633873, -0.007082649972289801, 0.0400230772793293, -0.11925353109836578, 0.03531164675951004, -0.012789917178452015, 0.0005420297384262085, -0.020840199664235115, \
-0.25303375720977783, 0.12667153775691986, -0.03102552890777588, -0.01391999889165163, 0.06836828589439392, 0.04453165456652641, -0.11954385787248611, 0.015738463029265404, -0.048425640910863876, 0.005896131973713636, 0.07068673521280289, 0.07425794005393982, -0.06236764043569565, 0.03231272101402283, 0.04509921371936798, 0.005632140673696995, 0.056270573288202286, 0.07799337804317474, -0.0356622189283371, 0.0432601235806942, -0.0026470378506928682, -0.04074391350150108, -0.01455055084079504, 0.0644555389881134, -0.02854474075138569, 0.02921026200056076, 0.03351106122136116, -0.06467071175575256, 0.012598042376339436, 0.073244608938694, -0.02386629767715931, -0.03210829943418503, -0.040670596063137054, -0.0014096979284659028, 0.025684887543320656, -0.011845829896628857, \
0.0064652287401258945, -0.016958754509687424, 0.06848001480102539, 0.10518329590559006, 0.045545291155576706, 0.09569722414016724, -0.0014259499730542302, 0.022999512031674385, 0.1883198469877243, 0.11360535025596619, 0.007416718639433384, -0.14385096728801727, -0.02052375115454197, -0.050602301955223083, -0.019920436665415764, -0.009736595675349236, -0.07076364010572433, -0.12010551989078522, -0.007722095586359501, -0.12962175905704498, -0.01843920163810253, -0.1502128392457962, -0.056169502437114716, -0.08791359513998032, 0.006293924525380135, -0.08979862183332443, 0.01944386400282383, -0.11952640861272812, 0.021925149485468864, -0.0382714606821537, -0.10511625558137894, 0.014134830795228481, -0.07364046573638916, 0.017256125807762146, -0.02532656490802765, 0.020814159885048866, \
0.0016452304553240538, -0.023938056081533432, -0.06677265465259552, 0.13659755885601044, 0.05593487620353699, 0.073451928794384, -0.0830758586525917, -0.01874624192714691, 0.15506747364997864, 0.07112600654363632, -0.09758038073778152, -0.12121915072202682, -0.13129550218582153, 0.046527013182640076, 0.06352263689041138, -0.08686372637748718, -0.08265801519155502, -0.13982166349887848, 0.024453911930322647, 0.067202128469944, 0.023588910698890686, -0.09528642147779465, 0.041356783360242844, -0.09135746955871582, 0.07432428747415543, -0.023881202563643456, -0.020978635177016258, -0.08253838121891022, -0.005755755119025707, 0.0034013325348496437, -0.057618629187345505, 0.043264761567115784, -0.0756017342209816, 0.001876307651400566, -0.001075558247976005, 0.08850081264972687, \
0.19815050065517426, -0.050403255969285965, -0.17359663546085358, 0.17937268316745758, 0.0392245315015316, 0.10246653109788895, 0.01046184916049242, -0.07765510678291321, 0.1090690940618515, -0.017598608508706093, -0.1329708993434906, -0.16393527388572693, -0.1242498829960823, 0.000345328968251124, 0.17746610939502716, -0.10795653611421585, -0.050391361117362976, -0.18357111513614655, -0.043049875646829605, -0.04870344698429108, -0.06938645988702774, -0.12623600661754608, 0.0857495367527008, 0.012499584816396236, 0.09668046236038208, 0.017178339883685112, -0.15978850424289703, -0.023380501195788383, 0.05497933179140091, 0.05526963621377945, 0.10267665237188339, 0.1374931037425995, -0.10228463262319565, 0.06644555181264877, -0.13285647332668304, 0.024268025532364845, \
0.1875821053981781, -0.09939716756343842, -0.16002951562404633, 0.12281114608049393, 0.0272488035261631, 0.10645575821399689, 0.07147395610809326, -0.036235276609659195, 0.07034509629011154, -0.021956438198685646, -0.08808143436908722, -0.14164547622203827, -0.24813784658908844, -0.16547775268554688, 0.20518270134925842, -0.12092597782611847, -0.17909052968025208, -0.1451137214899063, -0.1736956387758255, -0.14535680413246155, -0.012010397389531136, -0.052733611315488815, 0.07795152813196182, -0.01792171597480774, 0.11244978755712509, 0.025778785347938538, -0.10171063989400864, 0.0012077691499143839, 0.04352612793445587, 0.15572315454483032, 0.12380114942789078, 0.1917177438735962, -0.1758832484483719, 0.10144250839948654, -0.10367020964622498, 0.023989252746105194, \
0.1174614354968071, -0.023009108379483223, -0.23674710094928741, 0.13033057749271393, 0.08389892429113388, 0.1189919039607048, 0.04925909638404846, -0.1597931683063507, 0.075686015188694, -0.07431619614362717, -0.03943842276930809, -0.12986361980438232, -0.1921885460615158, -0.1578345000743866, 0.15942609310150146, -0.0880696028470993, -0.12641119956970215, -0.11193063855171204, -0.22085818648338318, -0.15853330492973328, -0.047240376472473145, -0.08823658525943756, 0.07421388477087021, -0.09028372168540955, 0.026137912645936012, 0.01656627655029297, -0.14346365630626678, 0.012479269877076149, 0.09556112438440323, 0.08744307607412338, 0.10979149490594864, 0.05606738477945328, -0.19186273217201233, 0.0061861490830779076, -0.1503826081752777, 0.0031901849433779716, \
0.0004396242438815534, -0.11170945316553116, -0.18907269835472107, 0.18265171349048615, 0.20646539330482483, 0.13336670398712158, 0.03867514431476593, -0.12518982589244843, 0.1112852618098259, -0.07724215090274811, -0.03656676784157753, -0.08945902436971664, -0.16426075994968414, -0.16461913287639618, 0.2461129128932953, -0.07075142115354538, -0.06510055065155029, -0.13634811341762543, -0.2151739001274109, -0.17774085700511932, -0.009857510216534138, -0.002101939870044589, 0.045227378606796265, -0.005700543988496065, -0.0778403952717781, -0.057117052376270294, -0.1291344314813614, 0.054672688245773315, 0.03193548321723938, 0.030824679881334305, 0.06507517397403717, -0.03592846170067787, -0.22493498027324677, -0.012598284520208836, -0.0824442133307457, -0.07518530637025833, \
0.15630239248275757, -0.016370777040719986, -0.022167131304740906, -0.00029444738174788654, 0.0903620570898056, -0.12764231860637665, 0.06384888291358948, 0.04914024472236633, -0.028302408754825592, 0.009599626064300537, -0.0025804974138736725, -0.03041710890829563, 0.12303661555051804, -0.0194847509264946, -0.10404972732067108, 0.032833535224199295, 0.042730800807476044, -0.04041315242648125, 0.03167617693543434, -0.00871580932289362, -0.06204879656434059, 0.0606301873922348, 0.1258634626865387, -0.11310455203056335, -0.0250730998814106, -0.09112624824047089, -0.12143468111753464, 0.06622061878442764, -0.030667712911963463, 0.00949202012270689, 0.13084277510643005, -0.12497959285974503, -0.17788676917552948, 0.04182058200240135, 0.2638814449310303, -0.0587143674492836, \
0.034091267734766006, 0.08874291181564331, -0.027731744572520256, 0.05964123457670212, -0.029306579381227493, -0.10729077458381653, 0.048520345240831375, 0.020157650113105774, -0.03371530398726463, 0.008924310095608234, -0.00023515240172855556, 0.04577317833900452, -0.016094928607344627, -0.11663223803043365, -0.05173265188932419, -0.05751313269138336, 0.018485048785805702, -0.05371810495853424, -0.08148900419473648, -0.10213254392147064, -0.14563462138175964, -0.05781030282378197, 0.013389132916927338, -0.06218327581882477, 0.020718256011605263, -0.07974696159362793, -0.13265360891819, 0.06342803686857224, 0.0462498664855957, -0.06090700998902321, 0.1229122206568718, -0.08206633478403091, -0.24026694893836975, 0.0018929707584902644, 0.2617083489894867, -0.08798692375421524, \
0.12812983989715576, -0.022160500288009644, -0.037057336419820786, -0.05298103392124176, -0.0054352558217942715, -0.02491096407175064, 0.03910825029015541, -0.0207043644040823, 0.005667296703904867, 0.07277323305606842, -0.025505924597382545, -0.018718404695391655, -0.006149738561362028, 0.057051267474889755, -0.07927968353033066, 0.14174598455429077, -0.03849397227168083, 0.006867384538054466, -0.09432819485664368, 0.0595625638961792, -0.10805533826351166, 0.06302539259195328, -0.09893722087144852, -0.00547030009329319, 0.06625209748744965, 0.03842192515730858, 0.06257873773574829, 0.17969460785388947, 0.14940229058265686, -0.00587323447689414, 0.07173965871334076, -0.15974676609039307, -0.11587663739919662, 0.10334116965532303, 0.12020865827798843, -0.044425878673791885, \
0.042949553579092026, -0.10220475494861603, 0.09520314633846283, 0.030236082151532173, -0.03809693828225136, -0.0823616087436676, 0.03447193279862404, -0.0394669771194458, 0.035328209400177, 0.035331401973962784, 0.034736622124910355, -0.04893764480948448, -0.11919508129358292, -0.03592938929796219, -0.003629611572250724, -0.0616270937025547, 0.04480305314064026, -0.0024090425577014685, 0.07518985122442245, -0.044095635414123535, 0.0593116469681263, -0.06630237400531769, 0.10664860904216766, -0.060671284794807434, 0.11977583914995193, -0.10799191892147064, -0.09527914226055145, -0.004190524108707905, 0.28176113963127136, -0.012872382067143917, 0.20996969938278198, -0.024355826899409294, 0.12118233740329742, 0.015496065840125084, -0.11220088601112366, -0.2265084683895111, \
0.09012046456336975, -0.09161562472581863, 0.07968505471944809, 0.012474944815039635, -0.0373777337372303, -0.10194549709558487, 0.14404922723770142, 0.016047822311520576, 0.06660034507513046, -0.0038134444039314985, 0.006952229887247086, 0.02049039863049984, 0.09896080195903778, 0.008277831599116325, 0.11745148152112961, 0.17522849142551422, 0.05700177699327469, -0.012723750434815884, 0.2000652551651001, 0.08973564207553864, 0.03046572022140026, 0.16002386808395386, 0.122261181473732, -0.048197343945503235, 0.059143587946891785, 0.19863773882389069, 0.08075529336929321, 0.08818337321281433, -0.04496249556541443, -0.05286628007888794, -0.05482738837599754, -0.0758812204003334, 0.37567201256752014, -0.14710354804992676, -0.2469153255224228, -0.255748450756073, \
0.07780681550502777, 0.06888988614082336, 0.05893605574965477, -0.036701977252960205, -0.09416145831346512, -0.024824874475598335, -0.06096240133047104, 0.09119882434606552, 0.10048668831586838, -0.05271125212311745, -0.1433836966753006, -0.1017090454697609, 0.004956657532602549, 0.15663200616836548, 0.05430986359715462, -0.029736265540122986, -0.17489756643772125, -0.06586933881044388, -0.08006677031517029, 0.14297239482402802, 0.014245417900383472, 0.04835179075598717, -0.2016453593969345, -0.10746917128562927, 0.006444980856031179, -0.012000355869531631, 0.21021918952465057, -0.22314517199993134, -0.23528917133808136, -0.18986935913562775, -0.10823039710521698, -0.2668841481208801, 0.09139320254325867, -0.2047416716814041, -0.13622097671031952, -0.20420114696025848, \
-0.15634776651859283, 0.04506070539355278, 0.22405993938446045, 0.012277444824576378, -0.056125953793525696, 0.06061530485749245, 0.0019155154004693031, 0.05420594662427902, 0.0880768671631813, -0.027138173580169678, 0.029557213187217712, 0.19181537628173828, 0.06559247523546219, 0.0042633190751075745, 0.10440097004175186, -0.01159106008708477, -0.06593169271945953, 0.1050843819975853, -0.06061813607811928, 0.024726340547204018, 0.006486943922936916, -0.04148183390498161, 0.023004237562417984, 0.1546981930732727, -0.07802829146385193, -0.07529416680335999, -0.1324964016675949, -0.036480505019426346, 0.17407068610191345, 0.06082448735833168, -0.14827291667461395, -0.194092258810997, -0.16657410562038422, 0.04797728732228279, 0.2481866180896759, 0.08694127202033997, \
-0.09250049293041229, 0.1297656148672104, 0.1627550572156906, 0.08028452098369598, -0.054769180715084076, 0.009516964666545391, -0.05515535548329353, -0.014023215509951115, 0.16665035486221313, 0.07594703882932663, -0.12044091522693634, 0.0685887485742569, -0.0642988532781601, -0.13321255147457123, 0.13791300356388092, -0.026628030464053154, -0.009731248021125793, 0.010429290123283863, -0.05495569482445717, -0.14152491092681885, -0.04856744781136513, -0.02390269562602043, 0.1339186728000641, 0.11014176160097122, -0.10920153558254242, -0.06792896240949631, -0.10720834136009216, 0.09583160281181335, 0.18091674149036407, 0.027168061584234238, -0.18754369020462036, -0.09907523542642593, -0.19330118596553802, 0.047383349388837814, 0.1418798863887787, -0.06494177877902985, \
-0.0664326399564743, -0.0142437182366848, 0.17385581135749817, 0.12552569806575775, -0.05234729126095772, 0.04386752098798752, -0.11684507131576538, 0.015286902897059917, 0.16540232300758362, 0.04034129157662392, -0.09932256489992142, 0.06460489332675934, -0.12400615960359573, -0.19151529669761658, 0.06652812659740448, -0.03124094009399414, 0.07690893858671188, 0.10909973084926605, -0.13975565135478973, -0.07013682276010513, -0.04728187248110771, 0.035297997295856476, 0.09156332910060883, -0.012214544229209423, -0.12405473738908768, -0.08893416821956635, -0.09832829236984253, 0.1267506331205368, 0.12966085970401764, -0.02200176753103733, -0.10930843651294708, -0.1250920295715332, -0.0870312750339508, 0.11539532244205475, 0.08951528370380402, -0.0775601789355278, \
-0.0923413410782814, 0.10027071833610535, 0.11835019290447235, 0.060568392276763916, -0.08801864087581635, -0.04413536563515663, -0.16521447896957397, -0.044630859047174454, 0.15094900131225586, -0.05084956809878349, -0.048676345497369766, 0.049792658537626266, -0.14859603345394135, -0.19324947893619537, 0.0051537551917135715, -0.010891249403357506, 0.19536466896533966, 0.07839711010456085, -0.07298406213521957, -0.1862761676311493, -0.0006914032273925841, 0.030256221070885658, 0.04514453932642937, 0.003954964689910412, -0.0204042699187994, -0.07888046652078629, -0.1189044788479805, 0.02246870845556259, 0.057721298187971115, -0.02615552581846714, 0.013426031917333603, -0.19748608767986298, -0.19439652562141418, 0.006021047011017799, 0.18983709812164307, -0.03161070495843887, \
-0.06118157505989075, -0.03943467512726784, 0.17129866778850555, 0.04187031835317612, -0.1174277514219284, -0.014824633486568928, -0.06429637968540192, -0.12532168626785278, 0.09964954107999802, -0.11982868611812592, -0.09349197149276733, -0.026552807539701462, -0.1320938915014267, -0.1885458379983902, 0.07042403519153595, -0.07813817262649536, 0.07588022947311401, 0.07476435601711273, -0.04835626482963562, -0.16145853698253632, -0.022028982639312744, -0.018134474754333496, -0.025855619460344315, 0.01165454089641571, -0.04897427186369896, -0.22952045500278473, -0.10190444439649582, -0.08624313026666641, -0.029748983681201935, -0.009914958849549294, 0.005420526955276728, -0.19476759433746338, -0.07737512141466141, -0.024823933839797974, 0.1410740613937378, -0.048471368849277496, \
-0.0460977628827095, 0.04509013518691063, 0.12364912033081055, -0.01577146351337433, -0.0229672659188509, 0.027862902730703354, -0.06304072588682175, -0.10192659497261047, 0.10898863524198532, -0.014626235701143742, -0.0752110555768013, 0.09696189314126968, -0.10235340893268585, -0.09926818311214447, 0.08334426581859589, -0.10981860756874084, 0.07358739525079727, 0.026123128831386566, -0.044904690235853195, -0.13179904222488403, 0.013563519343733788, -0.09323158115148544, -0.0011046213330700994, 0.009981079027056694, -0.07344655692577362, -0.08804704248905182, -0.0851246565580368, -0.07526852190494537, -0.036125876009464264, -0.06021184101700783, -0.0642159953713417, -0.17560097575187683, -0.1755625158548355, -0.11937317252159119, 0.19854599237442017, 0.07261690497398376, \
0.1556902527809143, -0.0036054805386811495, -0.02934844233095646, 0.06552797555923462, 0.07151516526937485, 0.09645559638738632, 0.040326077491045, -0.033214714378118515, -0.031130902469158173, 0.08954603970050812, 0.15814165771007538, 0.042178310453891754, 0.08416236191987991, -0.06259053200483322, 0.0014948833268135786, 0.07272526621818542, 0.0812935084104538, -0.004295330494642258, 0.0009622425423003733, 0.04890554025769234, -0.045606955885887146, 0.07921023666858673, 0.18134360015392303, 0.042946044355630875, 0.09232965111732483, -0.0037355192471295595, 0.04116365313529968, 0.0653812363743782, 0.03690524399280548, 0.013322821818292141, 0.07245601713657379, -0.03553899750113487, 0.02670438587665558, 0.0017100430559366941, 0.21287046372890472, 0.05942276492714882, \
0.11396712064743042, 0.03747919574379921, 0.06798671931028366, 0.1506020873785019, -0.07349810749292374, -0.06127538904547691, -0.018887190148234367, 0.06591150909662247, -0.010418828576803207, 0.14508458971977234, 0.08424574881792068, -0.06315448135137558, 0.08864037692546844, 0.10227259993553162, -0.0031610955484211445, 0.13151951134204865, -0.033107295632362366, -0.04285040870308876, -0.03608870878815651, 0.10477728396654129, -0.07392202317714691, 0.1290217787027359, 0.15411926805973053, -0.026334505528211594, 0.00047443900257349014, 0.09110627323389053, 0.028174681589007378, 0.09029659628868103, 0.01609627529978752, -0.07203911989927292, -0.05006406828761101, 0.0441870242357254, 5.8946621720679104e-05, 0.08510473370552063, 0.2025023102760315, -0.04587642475962639, \
-0.03182090073823929, 0.01078058686107397, 0.07376135140657425, 0.03554176911711693, -0.115960992872715, -0.06643033772706985, -0.1320646107196808, -0.03864429518580437, -0.0058325608260929585, -0.05719245970249176, -0.04829670861363411, 0.03810727223753929, -0.12951670587062836, -0.1316446214914322, -0.09535877406597137, -0.11603265255689621, -0.06745439022779465, -0.06560327112674713, -0.13374477624893188, -0.10582239925861359, -0.04462052881717682, -0.013748625293374062, -0.07481273263692856, -0.06762614846229553, 0.05814376100897789, -0.0789489597082138, -0.09650231152772903, -0.013832739554345608, -0.13037024438381195, 0.002435780828818679, -0.03360658138990402, -0.016678517684340477, 0.0005284958751872182, -0.02596186473965645, 0.08865653723478317, 0.003552315989509225, \
0.08665874600410461, 0.11602696776390076, -0.0012419329723343253, 0.11467913538217545, -0.021406708285212517, 0.08886120468378067, -0.03775778040289879, 0.12230654060840607, -0.08126983046531677, 0.2243715226650238, -0.16988301277160645, 0.018000289797782898, -0.04372837394475937, 0.18087917566299438, -0.02978934720158577, 0.29482388496398926, -0.23382841050624847, -0.07664790749549866, -0.14437440037727356, 0.11222250014543533, -0.12551894783973694, 0.2994495630264282, -0.1509537547826767, -0.07857899367809296, -0.11769505590200424, 0.17284220457077026, -0.00496855890378356, 0.22640377283096313, -0.19011977314949036, 0.006205085199326277, -0.14214421808719635, 0.14169979095458984, 0.016219645738601685, 0.2107815146446228, -0.018312063068151474, 0.017191966995596886, \
-0.0857289507985115, 0.04414643347263336, 0.06231193244457245, -0.07731648534536362, -0.15199100971221924, 0.04515776038169861, -0.14403805136680603, -0.017550379037857056, -0.0019293207442387938, -0.005219900049269199, -0.1824169009923935, 0.04700317606329918, -0.24090348184108734, -0.0032745080534368753, -0.011561541818082333, -0.016719572246074677, -0.20945845544338226, 0.11256550997495651, -0.12716490030288696, 0.031215185299515724, 0.00740744499489665, -0.04716968163847923, -0.1586945652961731, 0.01925303041934967, -0.09752451628446579, 0.010151364840567112, -0.007162279915064573, -0.03614254668354988, -0.21301579475402832, 0.05036081373691559, -0.08193698525428772, -0.02689848095178604, 0.02756517380475998, 0.051474276930093765, -0.14820407330989838, 0.005019861739128828, \
-0.12212812155485153, 0.08482631295919418, 0.0014315532753244042, -0.1167960986495018, -0.17966702580451965, 0.05499127507209778, -0.19978965818881989, 0.0272257998585701, -0.13516995310783386, -0.02968164160847664, -0.17575225234031677, -0.001322592026554048, -0.2328856885433197, -0.010120092891156673, -0.06333783268928528, 0.027403786778450012, -0.25641024112701416, 0.03176477923989296, -0.1732705980539322, 0.03631912171840668, -0.08732064813375473, 0.05668957531452179, -0.22120638191699982, -0.07616951316595078, -0.20196692645549774, -0.00385406450368464, -0.04032473266124725, 0.04014023393392563, -0.2218581736087799, -0.06200621277093887, -0.19700703024864197, 0.019210586324334145, -0.11844233423471451, 0.05250691995024681, -0.1843232363462448, -0.019317639991641045, \
0.04536830261349678, -0.021732142195105553, -0.15770947933197021, 0.18408656120300293, 0.005224650260061026, 0.08266987651586533, -0.04093002527952194, 0.06806690990924835, 0.1560668796300888, 0.09293452650308609, -0.17705538868904114, -0.15247730910778046, 0.08451187610626221, 0.15372085571289062, 0.12062524259090424, 0.044235508888959885, -0.15796899795532227, -0.19933223724365234, 0.038781460374593735, 0.24572287499904633, 0.05716148018836975, 0.07666707783937454, -0.0883307084441185, -0.07975848019123077, 0.0876975879073143, 0.2185399979352951, -0.10877335071563721, 0.008374799974262714, 0.05225580930709839, -0.13132137060165405, 0.09010966867208481, 0.2508207857608795, 0.019214196130633354, 0.0822456032037735, -0.0600113607943058, -0.10378705710172653, \
0.08642403781414032, -0.08143995702266693, 0.037970446050167084, 0.08352283388376236, 0.006805981043726206, 0.05302666500210762, -0.008867128752171993, -0.05021923407912254, 0.29354187846183777, -0.09733109176158905, -0.05185608193278313, -0.1782950609922409, 0.008135824464261532, -0.03753560781478882, 0.09881903976202011, -0.0029082971159368753, -0.03250104933977127, -0.04850124940276146, 0.050320979207754135, 0.09692385047674179, -0.012423383072018623, -0.09790917485952377, -0.1174812987446785, -0.04501715302467346, -0.05492306873202324, 0.004063483793288469, -0.09242374449968338, -0.06852471828460693, 0.10141579806804657, -0.04051147773861885, 0.009988237172365189, -0.02930475026369095, -0.035383421927690506, -0.03483488783240318, -0.05248835310339928, -0.09450241178274155, \
0.021899309009313583, -0.1334162950515747, 0.20829495787620544, 0.04336714744567871, -0.024799412116408348, 0.026169201359152794, 0.013421009294688702, -0.1675911247730255, 0.1878136694431305, -0.11975647509098053, -0.017465727403759956, -0.12017891556024551, -0.10879448801279068, -0.06462237238883972, 0.023750921711325645, -0.1054222360253334, -0.015671730041503906, -0.08285282552242279, -0.002330823102965951, -0.03787050396203995, -0.10833795368671417, -0.07564938813447952, -0.0061497013084590435, -0.143145352602005, -0.09189897775650024, -0.06330124288797379, -0.11366549134254456, -0.10216746479272842, -0.030202120542526245, -0.01712329313158989, 0.07196871936321259, -0.060271669179201126, -0.06866507232189178, -0.18200832605361938, 0.03413161262869835, -0.05957397073507309, \
0.015438919886946678, -0.08486922830343246, 0.23272337019443512, 0.015069783665239811, 0.11876696348190308, -0.06571025401353836, -0.022210562601685524, -0.09967624396085739, 0.07363830506801605, -0.14893005788326263, -0.07944539934396744, -0.048495806753635406, -0.13455891609191895, 0.02566535957157612, 0.028721308335661888, -0.1404472291469574, -0.04793457314372063, -0.10363996773958206, -0.11994466930627823, -0.022301368415355682, -0.016227012500166893, -0.08872314542531967, -0.033975064754486084, -0.07051204890012741, -0.0842745378613472, -0.04273661598563194, -0.10924637317657471, -0.058014221489429474, 0.009736359119415283, -0.08755002915859222, -0.11553727835416794, 0.010938004590570927, -0.043874822556972504, -0.06004570797085762, -0.0018647772958502173, -0.10346393287181854, \
0.03129217401146889, -0.07649031281471252, 0.1059243232011795, -0.06804607063531876, 0.147990882396698, 0.022726789116859436, -0.09447918832302094, -0.08042767643928528, 0.08181025087833405, -0.1482369303703308, -0.01019110158085823, -0.08260109275579453, 0.04769246280193329, -0.042121224105358124, -0.08951696753501892, -0.08688923716545105, -0.0427161268889904, -0.07372548431158066, -0.08966215699911118, 0.024252155795693398, -0.048261042684316635, -0.04128236323595047, -0.005146688781678677, -0.06536132097244263, -0.036109670996665955, -0.01921861059963703, -0.03753295913338661, -0.03784232959151268, -0.038050033152103424, -0.04526049643754959, -0.05247382074594498, -0.026728758588433266, -0.09634703397750854, -0.0034945234656333923, -0.0308365598320961, -0.0833394005894661, \
0.0645371824502945, -0.13976019620895386, 0.0789904072880745, -0.06882726401090622, 0.034981656819581985, -0.013537012040615082, -0.0214400514960289, -0.0553177185356617, -0.00882267951965332, -0.13153968751430511, -0.06307245790958405, -0.10486709326505661, -0.04530876874923706, -0.04164569079875946, -0.10481030493974686, -0.0473228357732296, -0.14943572878837585, -0.12295830249786377, 0.007385749835520983, -0.01102528627961874, -0.1066051721572876, -0.03811245411634445, -0.0775054395198822, -0.08863281458616257, -0.060025595128536224, 0.08163988590240479, -0.227268248796463, -0.08219129592180252, -0.07219696044921875, -0.06254719197750092, -0.09963704645633698, 0.07147148251533508, -0.13854670524597168, -0.051191940903663635, 0.026670508086681366, -0.12962397933006287, \
0.1786181479692459, 0.03938509523868561, 0.19082793593406677, 0.1657760590314865, 0.16943110525608063, -0.17742270231246948, 0.11427237093448639, 0.11936637759208679, 0.1524641364812851, 0.13642631471157074, -0.026741981506347656, -0.0876411497592926, 0.12287219613790512, 0.06305505335330963, 0.023147961124777794, 0.13471807539463043, 0.10943958163261414, 0.0022046524100005627, 0.13890670239925385, 0.060697101056575775, -0.09999482333660126, 0.02425803802907467, 0.012168771587312222, 0.06024317815899849, 0.14453695714473724, 0.03327549993991852, 0.02377309463918209, 0.09722301363945007, 0.09030227363109589, 0.03709683194756508, 0.07982386648654938, -0.013735407032072544, 0.03633428364992142, 0.0510716438293457, -0.04524024575948715, 0.03053363785147667, \
0.17538808286190033, -0.15736590325832367, 0.09466885775327682, 0.025717122480273247, 0.22378918528556824, -0.024909963831305504, 0.09818621724843979, -0.01848965883255005, 0.04898199811577797, 0.08264046162366867, -0.0661206990480423, -0.02236582525074482, 0.1024966835975647, 0.02071092091500759, 0.06878609955310822, 0.091498464345932, 0.10237818211317062, 0.11892245709896088, 0.12199320644140244, 0.01837947778403759, -0.055338867008686066, -0.01381277572363615, -0.02658274956047535, 0.030551409348845482, 0.00456190574914217, -0.060976363718509674, -0.026600204408168793, 0.04494897276163101, 0.11397486180067062, 0.10966356843709946, 0.06991177052259445, -0.11736560612916946, 0.01884669065475464, -0.1191505566239357, 0.006978772114962339, 0.03680770844221115, \
0.1598624736070633, -0.08739936351776123, -0.1297025829553604, -0.07872648537158966, 0.22878530621528625, -0.08210062980651855, 0.21264168620109558, 0.04755347967147827, -0.044767312705516815, 0.04015086963772774, -0.16967414319515228, 0.03919080272316933, 0.06811302900314331, 0.08967050164937973, 0.03201092779636383, 0.06574757397174835, 0.06430027633905411, 0.004019491840153933, 0.04839343950152397, 0.04344387724995613, -0.05689512565732002, -0.08682714402675629, -0.04095004126429558, 0.09534544497728348, -0.04331129416823387, 0.062045589089393616, -0.04940519109368324, -0.053941357880830765, 0.08424747735261917, 0.0517047680914402, 0.011201524175703526, -0.06657840311527252, 0.04252462834119797, -0.12038810551166534, -0.05022279918193817, 0.05374360829591751, \
0.17313730716705322, -0.05419674888253212, -0.2163902074098587, -0.18612553179264069, 0.1406126469373703, -0.05086557939648628, 0.07255357503890991, 0.08121282607316971, 0.027733881026506424, 0.03435007482767105, -0.08502652496099472, 0.035309866070747375, -0.044937700033187866, 0.1614285409450531, -0.014998084865510464, -0.04278220608830452, 0.05521291494369507, 0.10015948861837387, -0.07603514939546585, 0.1043267771601677, -0.010875355452299118, -0.040493905544281006, -0.05989006906747818, 0.020027518272399902, -0.17137782275676727, -0.01125507801771164, -0.06295795738697052, -0.02588445506989956, -0.0006301887333393097, 0.11259014159440994, -0.1987430453300476, -0.13433679938316345, -0.06135048717260361, 0.008648835122585297, 0.05124841257929802, 0.04945775866508484, \
0.05385490134358406, -0.1320817619562149, -0.30536139011383057, -0.16019971668720245, -0.02245115488767624, -0.08000443875789642, 0.05174224451184273, 0.008025430142879486, -0.056395985186100006, -0.13310597836971283, -0.13888674974441528, -0.09188606590032578, -0.11099599301815033, 0.04830365628004074, -0.09837356209754944, -0.007907586172223091, -0.045722730457782745, 0.06833656877279282, -0.09565329551696777, 0.03714822977781296, -0.09985999763011932, 0.02472819946706295, -0.02057352103292942, -0.01515597477555275, -0.07015561312437057, 0.02250748500227928, -0.11542350053787231, -0.03591182455420494, -0.0487520731985569, -0.00524244224652648, -0.08883906155824661, -0.004771186970174313, -0.1354731172323227, -0.04234075918793678, 0.10772083699703217, 0.0795520693063736, \
-0.07726290822029114, -0.15672428905963898, -0.21127678453922272, -0.28321748971939087, -0.08563720434904099, -0.15257906913757324, -0.14835070073604584, -0.15796378254890442, -0.1703038364648819, -0.12858986854553223, -0.07233800739049911, -0.014541920274496078, -0.1823754459619522, -0.1408109962940216, -0.1996932476758957, -0.03854222968220711, -0.0940074771642685, 0.038455914705991745, -0.2614566683769226, -0.08709032088518143, -0.21763579547405243, -0.04719342291355133, -0.10426453500986099, 0.045562706887722015, -0.1746084988117218, -0.0817856639623642, -0.31379082798957825, 0.08073154836893082, -0.039415013045072556, 0.02449101023375988, -0.20194683969020844, -0.21203652024269104, -0.19327312707901, -0.048196371644735336, 0.01615004986524582, 0.057156987488269806, \
0.021009789779782295, 0.08669436722993851, 0.10816068202257156, 0.16291774809360504, -0.03787347301840782, -0.1200469434261322, -0.03963816538453102, -0.07496284693479538, 0.07910513877868652, -0.0546267032623291, -0.08233390003442764, -0.028724662959575653, 0.028064904734492302, -0.09913720190525055, -0.045017365366220474, -0.0797654241323471, -0.005258671473711729, -0.03412606194615364, 0.13449250161647797, -0.05926361307501793, -0.1104370504617691, -0.03785589337348938, 0.021365147083997726, 0.08912328630685806, 0.03724049776792526, -0.1178436428308487, -0.0884152352809906, -0.07451998442411423, 0.027573570609092712, -0.004878442734479904, -0.10878299921751022, -0.06253870576620102, -0.05651610717177391, -0.0342244915664196, 0.11860699951648712, 0.02620619721710682, \
-0.031653378158807755, -0.06049617379903793, 0.03795205429196358, 0.041186004877090454, -0.12006822973489761, -0.19781115651130676, 0.15281884372234344, -0.06218911334872246, 0.13056229054927826, 0.08976267278194427, -0.1020464301109314, -0.1917748898267746, -0.0684170052409172, -0.14361822605133057, 0.06193581968545914, -0.03054504469037056, -0.11190215498209, -0.17324328422546387, -0.12293203175067902, -0.14849433302879333, -0.0009083542390726507, -0.13900279998779297, -0.02494305558502674, 0.04995513707399368, 0.12871041893959045, -0.05208549648523331, -0.02379995584487915, -0.1035226508975029, 0.09941691160202026, 0.11367153376340866, -0.03856084123253822, 0.06321029365062714, 0.023663202300667763, 0.0564488060772419, 0.03385861963033676, 0.11013163626194, \
-0.14621229469776154, -0.06716516613960266, 0.038057856261730194, 0.03676515445113182, -0.007896731607615948, -0.10301928967237473, 0.14675110578536987, 0.0021822000853717327, 0.052286479622125626, 0.036011308431625366, 0.014629318378865719, -0.18601858615875244, 0.20991884171962738, -0.019736384972929955, 0.1679103672504425, -0.006667866371572018, -0.14224332571029663, -0.16674157977104187, -0.07083407044410706, -0.09138814359903336, 0.16122181713581085, -0.06403137743473053, -0.19256584346294403, -0.14184947311878204, 0.07212032377719879, -0.18277700245380402, 0.011149589903652668, -0.19089286029338837, 0.14304311573505402, -0.001927678706124425, 0.12446130812168121, -0.07679801434278488, -0.009003578685224056, -0.03905262425541878, 0.08633296191692352, 0.07994309067726135, \
-0.0317588709294796, 0.00026635301765054464, 0.031482454389333725, -0.013243281282484531, -0.06173507496714592, -0.0832260251045227, 0.049551088362932205, -0.03470725566148758, -0.019152551889419556, -0.08690475672483444, -0.04691808298230171, -0.08707589656114578, 0.21588575839996338, 0.13495522737503052, 0.049381691962480545, -0.031258825212717056, -0.15665355324745178, -0.13382786512374878, 0.01061256229877472, 0.09278108924627304, 0.21349729597568512, -0.10112304985523224, -0.2227698266506195, -0.17692017555236816, -0.09307587146759033, -0.07805849611759186, 0.1281489133834839, -0.10522331297397614, 0.12953141331672668, 0.03153197467327118, 0.12049048393964767, -0.049445074051618576, -0.1402055025100708, -0.023813214153051376, 0.04372800514101982, 0.18221895396709442, \
0.13299591839313507, 0.03384248539805412, -0.03499980643391609, -0.0567295216023922, -0.02143968641757965, 0.12016256153583527, 0.031745653599500656, -0.003461037762463093, -0.14948952198028564, -0.03455986827611923, -0.1056838408112526, 0.05159062147140503, -0.015762170776724815, 0.008052222430706024, -0.09526344388723373, -0.07607094198465347, -0.16263334453105927, 0.01799650862812996, 0.15990814566612244, -0.022289378568530083, 0.09174878895282745, -0.10717064887285233, -0.19191043078899384, -0.08905509859323502, -0.05958923324942589, -0.05645401030778885, 0.10099879652261734, -0.04025481641292572, -0.058376796543598175, -0.0139471972361207, -0.04986674711108208, -0.11138036102056503, -0.07295318692922592, 0.07922357320785522, -0.022720251232385635, 0.09491581469774246, \
0.06128976494073868, -0.030902154743671417, -0.07552109658718109, 0.014231150969862938, -0.09618876129388809, 0.15980468690395355, -0.006092853844165802, -0.0704747661948204, -0.056225113570690155, -0.08201994746923447, -0.13769136369228363, 0.1911134421825409, 0.01202116534113884, -0.05745985358953476, 0.005355528090149164, -0.07803258299827576, -0.20986182987689972, 0.0756722018122673, 0.0634719580411911, 0.024763230234384537, 0.005668117664754391, -0.06541962176561356, -0.13300499320030212, 0.06292832642793655, 0.006663327571004629, 0.011683841235935688, 0.10632447153329849, 0.08044236153364182, -0.15168370306491852, 0.05121081694960594, -0.1326678991317749, -0.017433535307645798, 0.05517830327153206, 0.08764854073524475, -0.04165847226977348, 0.07008618861436844, \
-0.09665797650814056, -0.1418008655309677, -0.05214889347553253, -0.027950460091233253, -0.10686380416154861, -0.02130163088440895, -0.1322115659713745, -0.1585095077753067, -0.012668365612626076, -0.14415423572063446, -0.10254257917404175, -0.07236244529485703, -0.11354729533195496, -0.08591321110725403, 0.008153253234922886, -0.172599658370018, 0.01472485065460205, 0.0026963460259139538, -0.173420712351799, -0.1485258787870407, 0.010257910005748272, -0.17273934185504913, -0.04552433639764786, -0.048734452575445175, -0.2391349971294403, -0.0890914723277092, -0.06284796446561813, -0.10963568836450577, -0.02804187685251236, -0.08909144252538681, -0.19347481429576874, -0.06732171028852463, 0.002534014405682683, -0.1128266453742981, 0.18310189247131348, -0.003179664257913828, \
0.06563358753919601, -0.08931416273117065, 0.02230253256857395, -0.054938796907663345, -0.036727726459503174, -0.031014543026685715, -0.08606743067502975, -0.10552594810724258, 0.047489650547504425, 0.04954953119158745, -0.08091940730810165, -0.07959622144699097, -0.10867810249328613, -0.08341743052005768, -0.009928184561431408, -0.02874172478914261, -0.11998043954372406, -0.022521117702126503, -0.19722332060337067, -0.013500168919563293, 0.014754458330571651, 0.03941374644637108, -0.10274140536785126, 0.048821646720170975, -0.17924834787845612, 0.046503711491823196, -0.08549606055021286, -0.044490981847047806, -0.051809731870889664, 0.03107668273150921, -0.08723127096891403, -0.021139301359653473, -0.04999162629246712, -0.0856076031923294, 0.18312670290470123, -0.021873973309993744, \
-0.06695310771465302, 0.020228462293744087, -0.07253611087799072, -0.12607163190841675, -0.06777378916740417, -0.02252468466758728, 0.008799673989415169, -0.0613047294318676, -0.04338350147008896, -0.15965132415294647, -0.12173086404800415, -0.0566224530339241, -0.06655935943126678, -0.02153780870139599, -0.011931845918297768, -0.13428419828414917, -0.11400847136974335, 0.049557946622371674, -0.09853017330169678, 0.05253549665212631, -0.05213354900479317, -0.16510158777236938, 0.03940686956048012, -0.050044719129800797, -0.1670866310596466, 0.07025443017482758, 0.006490742787718773, -0.05028672516345978, 0.06050014868378639, -0.010871636681258678, 0.026796381920576096, 0.046962518244981766, -0.058592312037944794, 0.007452507968991995, 0.15091636776924133, 0.0776452049612999, \
-0.009325790219008923, 0.13335782289505005, -0.015365470200777054, 0.0089405607432127, -0.15716411173343658, -0.0019087855471298099, -0.008204381912946701, 0.12667639553546906, 0.013176916167140007, -0.05418063700199127, -0.15136544406414032, 0.08013273775577545, -0.07176315784454346, 0.09494473785161972, 0.003991703502833843, -0.045766714960336685, -0.08866306394338608, 0.06311895698308945, 0.0456356517970562, 0.004163097590208054, -0.0403466634452343, -0.03230119124054909, 0.001934285624884069, 0.05743105709552765, 0.05407567322254181, 0.022292912006378174, -0.06967136263847351, -0.09623385220766068, 0.1446477770805359, 0.009965680539608002, -0.03005914017558098, -0.008929240517318249, -0.029023922979831696, 0.02611358091235161, 0.11947657912969589, -0.00035600163391791284, \
0.08619165420532227, 0.15776003897190094, 0.06041468307375908, 0.1738806664943695, -0.09352508932352066, 0.09985232353210449, 0.07701709121465683, 0.035459939390420914, -0.0013576643541455269, 0.1735357642173767, -0.12979532778263092, 0.14468301832675934, 0.04676944389939308, -0.016023140400648117, 0.004508608020842075, 0.1833113729953766, -0.06273762881755829, 0.043026868253946304, 0.13666225969791412, 0.013556260615587234, 0.07735508680343628, 0.08702851831912994, -0.1101357489824295, 0.005475825630128384, -0.07261645048856735, 0.04299517720937729, 0.10869666188955307, 0.12713517248630524, 0.03311510384082794, -0.03684334084391594, 0.04723844304680824, -0.03819487988948822, 0.12523828446865082, 0.09379500895738602, -0.07828490436077118, -0.008193899877369404, \
0.02326100319623947, 0.22053766250610352, -0.09151563048362732, 0.11083702743053436, -0.15418465435504913, -0.06995346397161484, 0.00545339984819293, 0.2741313874721527, -0.049273792654275894, 0.214263454079628, -0.14212897419929504, -0.019442308694124222, 0.08711125701665878, 0.11379693448543549, -0.006255874875932932, 0.2159098982810974, -0.09852760285139084, -0.006843679118901491, 0.0821894109249115, 0.06941720843315125, 0.13309355080127716, 0.22431114315986633, -0.09400811791419983, -0.03716827556490898, -0.011607002466917038, 0.0592474527657032, 0.1661994308233261, 0.07100997865200043, -0.06492118537425995, -0.06391195952892303, 0.022046765312552452, 0.021989302709698677, 0.08084159344434738, 0.05125465616583824, -0.18530656397342682, -0.07970670610666275, \
-0.02028941549360752, 0.04556531086564064, -0.15526258945465088, 0.011680402792990208, 0.09481601417064667, -0.10802853107452393, 0.0465785413980484, -0.05337723344564438, -0.0813215970993042, 0.03235294297337532, -0.0019256726372987032, -0.14656557142734528, 0.0271349735558033, -0.048186562955379486, -0.07201529294252396, 0.07141124457120895, 0.04294593259692192, -0.2088276445865631, -0.0032039235811680555, 0.025089886039495468, -0.038510099053382874, -0.07154420763254166, 0.07182883471250534, -0.13402622938156128, 0.009921414777636528, 0.02193784900009632, -0.05213237181305885, -0.12565268576145172, 0.09747320413589478, -0.18859779834747314, -0.09241360425949097, 0.029556607827544212, 0.007805877830833197, -0.1709890216588974, 0.06540614366531372, -0.30849766731262207, \
0.03504999354481697, -0.04721054807305336, -0.06923811137676239, -0.022657720372080803, -0.0025371392257511616, 0.04408491775393486, 0.01766400784254074, 0.10562639683485031, -0.015598251484334469, -0.08854169398546219, 0.12903954088687897, 0.021789919584989548, 0.03525911644101143, 0.1500517576932907, -0.14352649450302124, -0.03286260738968849, 0.14511927962303162, -0.019951283931732178, 0.029801860451698303, 0.08265189081430435, 0.004238775931298733, -0.048464998602867126, 0.07180507481098175, -0.1670197695493698, 0.09035389870405197, 0.01644042320549488, 0.007497187703847885, -0.11991605162620544, 0.12297466397285461, -0.13783647119998932, -0.12845157086849213, 0.022766999900341034, -0.07930158823728561, -0.13578379154205322, 0.009453514590859413, -0.21653161942958832, \
0.029865890741348267, 0.0908295139670372, -0.05155714601278305, 0.09829641133546829, -0.13282014429569244, 0.04472668096423149, -0.10464083403348923, 0.03552919253706932, 0.07502481341362, -0.07284585386514664, 0.0250644963234663, -0.03958183899521828, 0.24391792714595795, 0.04486820101737976, -0.07845286279916763, -0.16783155500888824, 0.219065859913826, -0.03516242280602455, -0.1199798658490181, 0.06651545315980911, -0.07062540203332901, -0.06666608899831772, -0.00105047516990453, -0.08905788511037827, -0.10059584677219391, 0.06614529341459274, 0.055807605385780334, -0.022290877997875214, 0.10698320716619492, -0.12526388466358185, -0.11017323285341263, 0.02341732382774353, -0.005460312590003014, -0.16497397422790527, -0.006669466849416494, -0.04240242764353752, \
0.093764528632164, 0.23392003774642944, 0.02080419287085533, 0.1790737509727478, 0.03151308745145798, 0.05136160925030708, 0.07250635325908661, 0.0988924577832222, 0.09422332793474197, 0.10896307975053787, 0.07293547689914703, -0.02861771173775196, -0.1090773269534111, 3.948487574234605e-05, -0.08691049367189407, -0.14298559725284576, -0.0008344728266820312, -0.009113561362028122, 0.11075039207935333, 0.004582239780575037, -0.08247770369052887, -0.2463030219078064, 0.03669926896691322, -0.13737767934799194, -0.07993976026773453, 0.03214164823293686, -0.038100335747003555, -0.20328201353549957, 0.16139335930347443, -0.09690069407224655, -0.14599214494228363, -0.007722493261098862, -0.09858234971761703, -0.16868625581264496, 0.09080611914396286, -0.0412520132958889, \
-0.17647883296012878, 0.030455777421593666, -0.10903950035572052, -0.14332696795463562, 0.0042909723706543446, -0.10339897125959396, 0.2555789053440094, 0.1548495888710022, -0.021432621404528618, 0.028150649741292, 0.10217317938804626, -0.09626524895429611, 0.08908459544181824, 0.10158533602952957, 0.023644959554076195, 0.03294392675161362, -0.13807182013988495, -0.018268857151269913, -0.06167984381318092, -0.012502327561378479, 0.006898276507854462, -0.1504834145307541, 0.17776578664779663, -0.10831952095031738, 0.033458635210990906, 0.002593425801023841, -0.18015962839126587, -0.15505863726139069, 0.1387241631746292, -0.13556019961833954, -0.12931208312511444, 0.1093159168958664, 0.0008021177491173148, -0.11126890033483505, 0.0006823947187513113, -0.14881747961044312, \
0.17086109519004822, 0.099451445043087, -0.013957115821540356, 0.011341623030602932, -0.18881449103355408, -0.05650604888796806, -0.042389366775751114, 0.028505856171250343, -0.09517022967338562, -0.19717103242874146, -0.09578678011894226, -0.10857273638248444, 0.30099421739578247, 0.061754997819662094, 0.014614277519285679, -0.11393849551677704, 0.021806735545396805, -0.13078951835632324, 0.0047700852155685425, 0.12311332672834396, -0.027086352929472923, -0.12556572258472443, 0.04150434583425522, -0.1412658840417862, 0.060258254408836365, -0.04101663455367088, -0.1019655242562294, -0.09991497546434402, -0.07792313396930695, -0.04738892242312431, -0.17022044956684113, -0.13959063589572906, -0.08689668774604797, -0.2211875021457672, 0.0533449724316597, -0.11428441852331161, \
-0.03499053046107292, -0.06277631968259811, 0.08887173235416412, 0.14488744735717773, -0.005861145444214344, 0.025985045358538628, -0.032315902411937714, 0.021602649241685867, -0.154462993144989, 0.11103949695825577, -0.006119732279330492, 0.04114905744791031, -0.045302826911211014, -0.06828966736793518, -0.18888649344444275, 0.09932272881269455, -0.06428731232881546, 0.101923868060112, -0.02536861039698124, 0.032152604311704636, -0.07800795137882233, -0.035630762577056885, -0.00676498981192708, 0.056804392486810684, -0.022431321442127228, 0.08794327080249786, 0.05821545422077179, -0.015498985536396503, 0.117451012134552, -0.028260352090001106, -0.01319578941911459, 0.09127660095691681, 0.07546190172433853, -0.06180134788155556, 0.01060496922582388, -0.06604446470737457, \
0.08088761568069458, -0.13360846042633057, -0.07985066622495651, 0.05222237482666969, -0.05639079585671425, -0.06275253742933273, -0.010344372130930424, -0.1198921874165535, -0.07583438605070114, -0.025284865871071815, -0.1626107394695282, 0.002321645151823759, 0.01626664772629738, -0.02197357639670372, -0.09818492084741592, -0.0064477454870939255, -0.1434028148651123, 0.09325135499238968, 0.07341397553682327, 0.034184444695711136, -0.12089197337627411, 0.020797086879611015, 0.04239660128951073, 0.05419700965285301, -0.03280675411224365, -0.011393587104976177, -0.05029204860329628, 0.07196453958749771, 0.07078592479228973, -0.04605161398649216, -0.0499819777905941, 0.008561127819120884, 0.01762855425477028, 0.09601651877164841, -0.00857070367783308, -0.004218330141156912, \
0.23060660064220428, -0.05706697329878807, -0.07772772014141083, -0.044510211795568466, -0.08672889322042465, -0.07811450958251953, 0.12800796329975128, -0.02706649713218212, 0.037363339215517044, -0.00769371772184968, -0.14914634823799133, -0.033042773604393005, 0.11597809940576553, 0.019307240843772888, -0.053209394216537476, 0.05321111902594566, -0.16675393283367157, 0.009298069402575493, 0.03300821781158447, -0.11168494075536728, -0.11891739815473557, 0.044094011187553406, -0.07726894319057465, 0.019892673939466476, -0.020993812009692192, -0.0967758372426033, -0.11654724180698395, 0.026624295860528946, 0.06687246263027191, 0.027472656220197678, 0.07750383764505386, 0.05145254358649254, -0.04079556092619896, 0.0654476061463356, 0.04588307440280914, -0.016686566174030304, \
0.32687628269195557, -0.06501943618059158, -0.16140146553516388, -0.054633915424346924, -0.013864238746464252, -0.03161945939064026, 0.26040539145469666, 0.029320484027266502, -0.09430153667926788, 0.013626288622617722, -0.1399736851453781, -0.12209814786911011, 0.15452778339385986, -0.028390713036060333, 0.0014048414304852486, 0.13219541311264038, -0.11595907807350159, -0.09734971821308136, 0.05881023406982422, 0.09600494801998138, 0.01083229761570692, 0.09325890243053436, -0.054621633142232895, -0.058651428669691086, 0.004709143191576004, -0.07042886316776276, -0.02669457718729973, 0.018679112195968628, -0.023098910227417946, -0.10388769954442978, 0.053246043622493744, -0.056263137608766556, -0.0727863535284996, -0.020339230075478554, 0.11068248748779297, -0.1631292849779129, \
0.31918373703956604, -0.10694696009159088, -0.19632980227470398, -0.16947109997272491, 0.05322739854454994, 0.03968561813235283, 0.272769570350647, 0.006753343623131514, -0.19331666827201843, -0.09257974475622177, -0.015141256153583527, -0.04132147505879402, 0.24475739896297455, 0.10078167170286179, -0.018261002376675606, -0.01736508496105671, -0.17093373835086823, -0.16221299767494202, 0.07490159571170807, 0.02317366562783718, -0.04060753062367439, 0.005582327954471111, -0.15825238823890686, -0.14020517468452454, 0.0638323575258255, 0.0025080495979636908, 0.06967660039663315, -0.017369821667671204, -0.1666814386844635, -0.11763782799243927, 0.029727516695857048, -0.049414828419685364, 0.01573401689529419, -0.03789746016263962, -0.10989712923765182, -0.1154261901974678, \
-0.08386813849210739, -0.06085965409874916, -0.1713591367006302, -0.2296130508184433, -0.1564554125070572, 0.09962033480405807, 0.12114816904067993, 0.013735594227910042, -0.28363731503486633, -0.26746293902397156, -0.07594034075737, 0.11636737734079361, 0.1899455189704895, 0.02336961030960083, -0.21536274254322052, -0.1872052699327469, -0.07253638654947281, -0.010907378047704697, 0.16390058398246765, 0.10406314581632614, -0.030771158635616302, -0.12667372822761536, -0.15364524722099304, -0.08866336941719055, 0.19749924540519714, 0.15898427367210388, -0.05680933594703674, 0.04316837713122368, -0.14515824615955353, -0.109525665640831, 0.12134941667318344, 0.17101509869098663, 0.006309971679002047, 0.019465051591396332, -0.14258131384849548, -0.025712521746754646, \
0.009705420583486557, 0.3531014919281006, 0.1544138491153717, -0.1233752965927124, 0.1436992734670639, -0.021403376013040543, 0.12107699364423752, 0.2729136645793915, 0.05704814940690994, -0.1923070251941681, 0.030213888734579086, -0.1351701319217682, 0.13821156322956085, 0.2709723114967346, 0.029256470501422882, -0.16525094211101532, 0.05095606669783592, -0.12628445029258728, 0.06504841148853302, 0.13285909593105316, 0.08005222678184509, -0.13200457394123077, -0.0004803996707778424, -0.035198815166950226, -0.03912726044654846, 0.15948694944381714, -0.021403400227427483, -0.2389964610338211, 0.11520130932331085, -0.04725651443004608, 0.09548591822385788, 0.2782960534095764, -0.07109473645687103, -0.11127418279647827, 0.04080845043063164, 0.11753552407026291, \
-0.11570068448781967, 0.07005632668733597, 0.017282603308558464, 0.019643045961856842, -0.02891038917005062, -0.0018882907461374998, -0.08980213105678558, 0.00488689448684454, -0.17187730967998505, 0.03454039245843887, -0.029851863160729408, 0.0931299552321434, 0.0626298040151596, 0.06382876634597778, -0.28464776277542114, -0.09840556979179382, 0.10010039806365967, 0.10010840743780136, 0.16531917452812195, 0.06649880856275558, -0.17817777395248413, -0.14971444010734558, 0.09831696003675461, 0.060762569308280945, 0.08651816844940186, 0.09933464974164963, -0.20343369245529175, -0.11791752278804779, 0.029466576874256134, 0.0329948365688324, 0.06393730640411377, 0.20403194427490234, -0.19235001504421234, -0.11303152143955231, 0.013592550531029701, -0.007331497501581907, \
-0.12343314290046692, -0.09712978452444077, -0.16642041504383087, 0.15718038380146027, -0.026836607605218887, 0.01539903599768877, -0.11987953633069992, -0.11976936459541321, -0.22747060656547546, 0.09651191532611847, -0.06380320340394974, 0.054268836975097656, -0.10728901624679565, -0.004711405839771032, -0.2234058380126953, 0.11873912811279297, -0.0953773483633995, 0.12693460285663605, -0.12396162003278732, 0.01360694132745266, -0.22952201962471008, 0.004542585462331772, -0.11734730750322342, 0.1368914097547531, -0.028307760134339333, -0.04658609628677368, -0.18572752177715302, 0.016349565237760544, -0.043638937175273895, 0.1551728993654251, 0.019978119060397148, 0.03626524284482002, -0.17554226517677307, -0.037083521485328674, -0.05512044578790665, 0.1803184449672699, \
-0.06287877261638641, -0.17392799258232117, -0.12510427832603455, 0.20222322642803192, 0.004111212678253651, 0.08339766412973404, -0.0051159025169909, -0.15166516602039337, -0.05997733026742935, 0.12097343802452087, -0.14119742810726166, -0.06929293274879456, -0.08330054581165314, -0.1241362988948822, -0.07282747328281403, 0.16967371106147766, -0.16914299130439758, 0.011815057136118412, -0.0701676681637764, -0.23371529579162598, -0.030020471662282944, 0.14887848496437073, -0.16614887118339539, 0.056802090257406235, -0.08235497027635574, -0.16357901692390442, 0.07592764496803284, 0.1276336908340454, -0.11946070194244385, -0.009579010307788849, -0.004344175569713116, -0.06040889024734497, -0.09932104498147964, 0.05104146897792816, 0.024241024628281593, 0.08144909143447876, \
0.027798177674412727, -0.09911191463470459, 0.050838783383369446, 0.11058537662029266, -0.043798111379146576, -0.0634562075138092, 0.045852310955524445, -0.08221977949142456, 0.01565656252205372, 0.0644742026925087, -0.10313404351472855, -0.04523751139640808, 0.038042113184928894, -0.14319728314876556, 0.11504516005516052, 0.09040146321058273, -0.13965559005737305, -0.07430343329906464, 0.036929115653038025, -0.05404699221253395, 0.026360755786299706, 0.1150689646601677, -0.044851403683423996, -0.12395808100700378, 0.06781796365976334, -0.12799322605133057, 0.0765790119767189, 0.05825887247920036, -0.08995795249938965, -0.08124366402626038, 0.036586981266736984, -0.08350095897912979, 0.045910872519016266, 0.06437981128692627, 0.01150564569979906, 0.06293037533760071, \
0.04239355027675629, -0.055856600403785706, 0.1045403927564621, -0.014047798700630665, -0.02967057004570961, -0.12993061542510986, 0.03169521689414978, -0.03269736096262932, 0.12403150647878647, 0.08726257085800171, -0.020677663385868073, -0.11078622192144394, 0.1294737607240677, -0.028082450851798058, 0.08746834844350815, 0.01105736568570137, -0.003993305843323469, -0.11701645702123642, -0.011140448972582817, -0.09193059802055359, -0.002777586691081524, -0.043867651373147964, -0.08208003640174866, -0.06407046318054199, 0.029303157702088356, -0.059155356138944626, 0.001062219962477684, 0.00898338295519352, -0.06915905326604843, -0.018693899735808372, 0.005859458353370428, -0.04723167419433594, 0.02756096050143242, 0.005950368009507656, -0.00709962984547019, -0.1354762464761734, \
-0.09741735458374023, -0.07239476591348648, -0.15020810067653656, -0.11720828711986542, -0.05977499857544899, 0.08847881853580475, 0.05524386465549469, -0.10506938397884369, -0.08353284001350403, -0.10283733159303665, 0.0011271933326497674, 0.17874214053153992, 0.04882534220814705, -0.007795387879014015, -0.1342121660709381, -0.026638280600309372, -0.025479622185230255, 0.030405474826693535, -0.07366511225700378, -0.10281055420637131, 0.009486646391451359, -0.06375189125537872, -0.07036931067705154, 0.036751680076122284, -0.07859353721141815, -0.08420203626155853, -0.07280738651752472, -0.13403533399105072, -0.12142112106084824, 0.02797606773674488, -0.13445284962654114, -0.055542998015880585, -0.0029575321823358536, 0.007396215107291937, -0.04209771752357483, 0.05047895759344101, \
-0.08959543704986572, -0.09634239226579666, -0.11507579684257507, -0.12973028421401978, -0.11699078232049942, 0.07756702601909637, -0.06481988728046417, -0.1605835258960724, -0.16394096612930298, -0.07801805436611176, -0.08089292049407959, 0.026742609217762947, -0.02258964627981186, -0.028979456052184105, -0.19492405652999878, -0.14084546267986298, -0.015127011574804783, 0.006350670009851456, -0.1345747411251068, -0.053016625344753265, -0.10959679633378983, -0.13536405563354492, -0.12829244136810303, -0.0365489162504673, -0.1496831625699997, -0.10240912437438965, -0.03276640549302101, -0.1236211284995079, -0.0880194678902626, 0.0026171673089265823, -0.12196823209524155, -0.06607377529144287, -0.09111960232257843, -0.04948946833610535, 0.05974173545837402, -0.013988394290208817, \
-0.0391726940870285, -0.08875900506973267, -0.09807685017585754, -0.21529227495193481, -0.0283017847687006, 0.040419962257146835, -0.07583483308553696, -0.12071828544139862, -0.16581247746944427, -0.21012017130851746, -0.04509506747126579, 0.04468860477209091, -0.013495435006916523, -0.0754585787653923, -0.19334889948368073, -0.17438441514968872, -0.019035136327147484, 0.06515950709581375, -0.016319410875439644, -0.04970371723175049, -0.13338248431682587, -0.07131105661392212, -0.05144032463431358, 0.00193507457152009, -0.03314054757356644, -0.01626051776111126, -0.04872347041964531, -0.062281038612127304, 0.03442619740962982, -0.01731705106794834, -0.10826104879379272, -0.02409488707780838, 0.05055488646030426, 0.023308411240577698, 0.06553783267736435, 0.009967957623302937, \
0.12285524606704712, -0.13881321251392365, -0.06831946969032288, -0.16548305749893188, -0.05779870226979256, 0.07011715322732925, 0.052729081362485886, -0.04742526635527611, -0.10083143413066864, -0.20424623787403107, 0.007957668974995613, -0.02696218341588974, 0.04277312755584717, -0.11998946219682693, -0.09550075232982635, -0.13917498290538788, 0.06087825447320938, 0.0025193295441567898, 0.04974880814552307, 0.061119429767131805, -0.06999779492616653, -0.16950970888137817, 0.03549860045313835, -0.05277800187468529, -0.006954006385058165, -0.046449214220047, 0.058477941900491714, -0.024378923699259758, 0.1199336051940918, 0.03186960145831108, -0.12383076548576355, -0.048950958997011185, -0.058410950005054474, -0.062097806483507156, 0.0627916157245636, -0.01097705215215683, \
0.183341383934021, -0.05054587870836258, -0.012432054616510868, -0.047842130064964294, -0.02447054348886013, -0.018612174317240715, 0.05560041591525078, -0.04663148522377014, -0.047421861439943314, -0.07861140370368958, -0.06264636665582657, 0.020861675962805748, 0.015361601486802101, -0.046349480748176575, -0.04807764291763306, -0.12718454003334045, 0.010208021849393845, -0.026547838002443314, 0.09131025522947311, 0.005384624935686588, 0.0013071725843474269, -0.021453535184264183, 0.15284423530101776, 0.06831341981887817, 0.019305797293782234, -0.004481456242501736, -0.035364896059036255, -0.019388984888792038, 0.13020910322666168, 0.03045634925365448, -0.076677605509758, 0.07416052371263504, -0.018438255414366722, -0.04636961966753006, 0.14787621796131134, 0.06838228553533554, \
0.2769058644771576, -0.10262838751077652, -0.005766213405877352, 0.059540409594774246, 0.03105858713388443, 0.054651301354169846, 0.21116255223751068, -0.06904327869415283, 0.06976230442523956, -0.04787101969122887, 0.033562298864126205, 0.013847376219928265, 0.12918585538864136, 0.0014532628701999784, -0.04235706478357315, -0.03488631919026375, 0.18730761110782623, 0.09843210130929947, 0.08981404453516006, 0.08511582016944885, 0.01651160977780819, 0.04667265713214874, 0.21251153945922852, 0.0288112573325634, -0.020281905308365822, 0.08620286732912064, 0.0029299622401595116, 0.013076413422822952, 0.23525308072566986, 0.03874809294939041, -0.040537573397159576, 0.07596340775489807, -0.0685151144862175, 0.049620844423770905, 0.09513375908136368, 0.05144451931118965, \
}
