#define conv1_weight {\
-0.04118028283119202, -0.0585830882191658, -0.07291200757026672, -0.12154558300971985, -0.2163739651441574, -0.1818605363368988, -0.06101471185684204, -0.2141420990228653, 0.13431085646152496, 0.46713364124298096, 0.3280099630355835, 0.40302836894989014, 0.016881773248314857, 0.06278306245803833, -0.022276921197772026, \
0.34922662377357483, 0.23168602585792542, 0.30098891258239746, -0.28927433490753174, -0.26145872473716736, -0.13162609934806824, -0.49762067198753357, -0.5314075350761414, -0.5565543174743652, -0.09941473603248596, -0.1940474510192871, -0.05259755998849869, 0.5655751824378967, 0.5900866389274597, 0.38949617743492126, \
0.21434175968170166, 0.2162024974822998, 0.09582046419382095, 0.135738343000412, 0.3475072681903839, 0.3216724097728729, -0.21757261455059052, -0.16460385918617249, -0.22591306269168854, -0.6781564354896545, -0.6574510335922241, -0.6194678544998169, 0.03353569284081459, 0.22055329382419586, -0.0028645102865993977, \
-0.03841734677553177, -0.029269978404045105, -0.13666047155857086, 0.3883928060531616, 0.28416338562965393, 0.4382424056529999, 0.16582532227039337, 0.2262851446866989, 0.2703746557235718, -0.13594818115234375, -0.16507656872272491, -0.19894950091838837, -0.3462020456790924, -0.3137642741203308, -0.3572726845741272, \
-0.23468078672885895, -0.3187868595123291, -0.18200941383838654, -0.11718376725912094, -0.16407884657382965, 0.08591113239526749, 0.10364598780870438, 0.17081649601459503, 0.13534300029277802, 0.19394828379154205, 0.02817133627831936, 0.26924294233322144, 0.1059935986995697, 0.05522250384092331, -0.17407040297985077, \
-0.22182735800743103, 0.12111546844244003, 0.3683575391769409, 0.09890662878751755, 0.3211697041988373, 0.1992405354976654, 0.1081843376159668, 0.41718053817749023, 0.3814729154109955, 0.12043736129999161, 0.3154003322124481, 0.40678760409355164, -0.1650269776582718, 0.2376895397901535, 0.23448848724365234, \
-0.28928545117378235, 0.021617911756038666, 0.033068519085645676, -0.32104894518852234, 0.08511986583471298, 0.02969331108033657, -0.32522502541542053, -0.07013864815235138, -0.15145044028759003, -0.4400109648704529, 0.0427720881998539, -0.31317079067230225, -0.47463729977607727, -0.05812782049179077, -0.11228183656930923, \
-0.3367789387702942, 0.02329685539007187, 0.01661534421145916, -0.3895712196826935, -0.17444303631782532, -0.29666200280189514, -0.5178334712982178, -0.3520705997943878, -0.3689796030521393, -0.4197882413864136, -0.046459347009658813, -0.29449281096458435, -0.15970578789710999, 0.04404052346944809, 0.0030014999210834503, \
0.05094864219427109, 0.06614899635314941, -0.17059995234012604, 0.07356567680835724, 0.11148451268672943, -0.15044647455215454, -0.11057434231042862, 0.19179408252239227, -0.16583865880966187, 0.13344086706638336, 0.09301556646823883, -0.22956863045692444, 0.03376452252268791, 0.1771542876958847, -0.09460220485925674, \
0.09011170268058777, 0.08784029632806778, -0.08758598566055298, 0.32048383355140686, 0.2150930017232895, -0.14106811583042145, 0.5169591307640076, 0.3699558675289154, -0.05112830922007561, 0.3658168315887451, 0.321990430355072, -0.02619343250989914, 0.2311585694551468, 0.17516618967056274, -0.038438666611909866, \
0.3246007263660431, 0.05225343629717827, 0.10068999975919724, 0.11480487883090973, -0.20186209678649902, -0.0006978621240705252, -0.09162706136703491, -0.32746315002441406, -0.15626771748065948, -0.10105864703655243, -0.1134599894285202, -0.11383165419101715, 0.1377069503068924, -0.004214602056890726, 0.07684413343667984, \
0.19432692229747772, 0.04404347017407417, -0.026425454765558243, -0.29113125801086426, -0.2567000091075897, -0.32918575406074524, -0.1333722174167633, -0.20355179905891418, -0.25783300399780273, -0.01054900512099266, 0.03575550392270088, 0.08063454926013947, 0.18100205063819885, 0.12048175930976868, 0.29646575450897217, \
-0.11365380138158798, -0.1613244265317917, -0.26000529527664185, -0.35259929299354553, -0.32634779810905457, -0.3691137135028839, -0.14086145162582397, 0.008576754480600357, 0.07727149873971939, 0.17053672671318054, 0.12349946796894073, 0.2548060119152069, 0.15439577400684357, 0.20334532856941223, 0.1720835417509079, \
-0.34971779584884644, -0.24123090505599976, -0.2987144887447357, -0.2447660267353058, -0.059750352054834366, -0.12258405983448029, 0.12818656861782074, 0.03463765233755112, 0.2539513409137726, 0.2180757075548172, 0.1304057091474533, 0.22847922146320343, -0.03135203570127487, 0.0837891474366188, 0.17959776520729065, \
-0.124111607670784, -0.2681981921195984, -0.11740554869174957, 0.029704827815294266, 0.08130066841840744, -0.054109327495098114, 0.08096792548894882, 0.17627477645874023, 0.26875993609428406, 0.0915805846452713, 0.05144678056240082, 0.15846645832061768, 0.018412891775369644, -0.03910280019044876, 0.0173184834420681, \
0.11401275545358658, 0.14773771166801453, 0.475639671087265, 0.28771841526031494, 0.11407003551721573, 0.3903905749320984, 0.3778838515281677, 0.274404913187027, 0.1940612643957138, 0.39559468626976013, -0.05188007652759552, 0.11418697983026505, 0.2568019926548004, 0.04483960196375847, 0.017757613211870193, \
0.10519535094499588, -0.1248299777507782, -0.05812479183077812, 0.22663286328315735, -0.2489350587129593, -0.22693073749542236, 0.21372884511947632, -0.3604778051376343, -0.3583492934703827, 0.25799334049224854, -0.3582821786403656, -0.32565659284591675, 0.14690330624580383, -0.3479604125022888, -0.2367323935031891, \
0.16969643533229828, -0.10439851135015488, 0.03543220832943916, 0.11091122031211853, -0.2361147552728653, -0.2524547874927521, 0.00862889364361763, -0.38788339495658875, -0.1846914291381836, 0.05933628976345062, -0.30519160628318787, -0.242242693901062, 0.04214082658290863, -0.2582652270793915, -0.010928301140666008, \
0.014303231611847878, 0.21073906123638153, 0.3516687750816345, 0.06099230423569679, -0.13194219768047333, -0.04394448548555374, -0.06058967858552933, -0.003933217376470566, 0.09210226684808731, 0.053293582051992416, -0.0523175410926342, 0.019961323589086533, 0.026372963562607765, -0.06323035806417465, 0.09752947092056274, \
-0.33607617020606995, 0.16839599609375, 0.2882850766181946, -0.39695292711257935, -0.00525645911693573, -0.031541913747787476, -0.3374267518520355, 0.04722348600625992, 0.12133470922708511, -0.18389561772346497, -0.1520177274942398, 0.20736531913280487, -0.3422299027442932, -0.021947208791971207, 0.11288879811763763, \
-0.026354355737566948, 0.10443250834941864, 0.006776703987270594, -0.22474300861358643, 0.038346849381923676, -0.21024943888187408, -0.0011287974193692207, 0.3605135679244995, 0.12992729246616364, -0.03390561789274216, 0.18214023113250732, 0.15127503871917725, -0.009175864048302174, -0.025444654747843742, -0.31847453117370605, \
-0.0814163088798523, -0.10471593588590622, -0.03008602000772953, -0.20948833227157593, 0.12536968290805817, -0.17775093019008636, 0.14441123604774475, 0.4324396848678589, 0.30053409934043884, 0.13955172896385193, 0.15042053163051605, 0.08599120378494263, -0.1938348114490509, -0.20371270179748535, -0.3028736710548401, \
-0.17498858273029327, -0.13543285429477692, -0.231315478682518, -0.16258715093135834, 0.006923403590917587, -0.06008065119385719, 0.3428514897823334, 0.6318628191947937, 0.5050520300865173, 0.19836902618408203, 0.1632438451051712, 0.12815627455711365, -0.29370442032814026, -0.504758894443512, -0.5162317752838135, \
-0.1166178286075592, -0.06988955289125443, -0.31093278527259827, 0.10922324657440186, 0.13295669853687286, -0.10284393280744553, 0.577430784702301, 0.6034186482429504, 0.30056068301200867, -0.05421161651611328, 0.01335194706916809, 0.08844209462404251, -0.37868085503578186, -0.5035833120346069, -0.503187894821167, \
0.282828688621521, 0.14671985805034637, -0.23840934038162231, 0.20427696406841278, 0.049903228878974915, -0.010114632546901703, 0.3166680932044983, 0.13091079890727997, 0.14126159250736237, -0.16965900361537933, -0.052168477326631546, -0.1745460331439972, 0.11037037521600723, -0.2003164142370224, -0.3425489664077759, \
-0.006305878981947899, -0.08210458606481552, -0.08697326481342316, 0.013735399581491947, -0.06552352756261826, -0.17255167663097382, -0.0209661815315485, -0.15404869616031647, -0.24678505957126617, -0.014135581441223621, -0.14323873817920685, -0.20551039278507233, 0.03826744854450226, -0.3062855005264282, -0.2101975977420807, \
0.13330648839473724, 0.03134891018271446, 0.337084025144577, 0.05669383704662323, 0.010621183551847935, 0.35366547107696533, -0.022585080936551094, 0.04867386072874069, 0.2081335335969925, 0.057203005999326706, -0.034670714288949966, -0.01023369375616312, -0.09196053445339203, -0.06773532927036285, 0.05735074356198311, \
-0.0905134528875351, 0.12803657352924347, 0.3412362337112427, 0.05881053954362869, 0.12323908507823944, 0.1951662003993988, -0.002786128083243966, -0.052978917956352234, 0.2795388698577881, -0.08884483575820923, -0.11002536118030548, 0.19927285611629486, -0.013641631230711937, -0.0523715615272522, -0.07740473747253418, \
-0.06391650438308716, -0.004690800327807665, 0.321900874376297, 0.017547935247421265, -0.004890431184321642, 0.3194887042045593, 0.04525231570005417, -0.009942094795405865, 0.12762922048568726, -0.01573135145008564, -0.13212594389915466, 0.22809240221977234, -0.025691432878375053, -0.22425609827041626, -0.0008867078577168286, \
-0.1936606764793396, -0.07155709713697433, 0.33019500970840454, -0.21062810719013214, 0.02539493329823017, 0.29396218061447144, -0.07342985272407532, -0.0444699227809906, 0.2490195333957672, -0.13628223538398743, -0.050986140966415405, 0.21066388487815857, -0.1551937758922577, -0.1973724514245987, 0.11915993690490723, \
}
