#define fc1_weight {\
-0.0020257309079170227, \
0.04664535075426102, \
0.02624741941690445, \
-0.03643818944692612, \
0.004610586911439896, \
-0.027142638340592384, \
-0.06188543513417244, \
-0.01228977832943201, \
0.008639282546937466, \
-0.02599077671766281, \
-0.02602958120405674, \
-0.03573622927069664, \
-0.0337202288210392, \
-0.020791716873645782, \
0.05058358609676361, \
0.03238281235098839, \
0.02678501047194004, \
0.0058492207899689674, \
0.06450625509023666, \
0.0069096083752810955, \
0.08996348083019257, \
0.06973714381456375, \
-0.000361738697392866, \
-0.0022906844969838858, \
0.03804273158311844, \
0.04680958017706871, \
0.03300749137997627, \
-0.00724379625171423, \
0.0018281313823536038, \
0.027316076681017876, \
-0.01500072330236435, \
-0.020876364782452583, \
0.002895283978432417, \
0.005817916244268417, \
-0.018277904018759727, \
-0.027667449787259102, \
0.019594652578234673, \
0.10178839415311813, \
0.0546610988676548, \
-0.007676303386688232, \
-0.00843669194728136, \
-0.008440850302577019, \
0.08396207541227341, \
0.0595824271440506, \
0.035196393728256226, \
-0.12867769598960876, \
-0.07045541703701019, \
0.07002633810043335, \
0.023495567962527275, \
0.12652501463890076, \
-0.09360938519239426, \
-0.06932146102190018, \
-0.016654055565595627, \
-0.02091245725750923, \
-0.05328558012843132, \
-0.09309487789869308, \
-0.02983197383582592, \
-0.0002972143702208996, \
0.009506473317742348, \
-0.04443516954779625, \
-0.039118167012929916, \
-0.017353862524032593, \
-0.013866918161511421, \
-0.05173720791935921, \
-0.023895643651485443, \
-0.035230401903390884, \
-0.046091292053461075, \
-0.0035181439016014338, \
-0.03228045254945755, \
-0.04988427460193634, \
-0.03284582868218422, \
0.0015422418946400285, \
0.05523771420121193, \
0.0418056882917881, \
-0.07064656913280487, \
-0.13100984692573547, \
-0.02265271171927452, \
0.028524281457066536, \
0.13233107328414917, \
0.10951953381299973, \
-0.07695898413658142, \
-0.014463585801422596, \
-0.016392381861805916, \
-0.030501795932650566, \
0.05090980604290962, \
0.07506566494703293, \
0.02122870646417141, \
-0.08632441610097885, \
-0.015012968331575394, \
0.099965400993824, \
0.0850178524851799, \
0.006870128680020571, \
-0.07196202129125595, \
-0.04010475426912308, \
0.08377542346715927, \
0.04493563994765282, \
-0.03983087092638016, \
-0.055266134440898895, \
-0.009906751103699207, \
0.05606938898563385, \
0.05287403240799904, \
0.05727458372712135, \
0.04125724732875824, \
0.042585089802742004, \
-0.0527324415743351, \
0.07236521691083908, \
-0.00659561064094305, \
0.007145257666707039, \
0.05972614884376526, \
0.02137020044028759, \
0.09046284109354019, \
0.02021823637187481, \
0.004476473666727543, \
-0.015341420657932758, \
0.012380773201584816, \
0.03794356435537338, \
0.003073968691751361, \
-0.011190195567905903, \
-0.04322425276041031, \
0.08183684945106506, \
0.042216990143060684, \
-0.018679821863770485, \
-0.03526308014988899, \
-0.09636085480451584, \
0.017459990456700325, \
0.009888011030852795, \
0.07138000428676605, \
-0.009888998232781887, \
0.047198403626680374, \
-0.02295096591114998, \
0.007903746329247952, \
-0.03168458491563797, \
0.0175839401781559, \
-0.005487150978296995, \
0.005889079999178648, \
-0.0326806902885437, \
-0.035106729716062546, \
-0.001200689235702157, \
0.07311075925827026, \
0.008433567360043526, \
-0.001023483695462346, \
-0.05747009813785553, \
-0.03644896671175957, \
-0.0020441433880478144, \
-0.02697264961898327, \
-0.09370595216751099, \
-0.050726935267448425, \
0.0040746526792645454, \
0.039341285824775696, \
0.030421247705817223, \
0.007654292043298483, \
-0.047007422894239426, \
0.0163445882499218, \
-0.09052050113677979, \
-0.08591168373823166, \
0.003674056613817811, \
0.0021589361131191254, \
-0.05659305304288864, \
0.003830925328657031, \
0.00643796194344759, \
0.09702859818935394, \
-0.0387607216835022, \
-0.038678620010614395, \
-0.03788919001817703, \
-0.03193426877260208, \
0.09308819472789764, \
0.020237809047102928, \
0.04276220127940178, \
0.03669635206460953, \
0.049455419182777405, \
0.04460276663303375, \
-0.02417159266769886, \
-0.0028047494124621153, \
-0.04424065351486206, \
0.03222176805138588, \
-0.07778680324554443, \
-0.08892366290092468, \
-0.041092872619628906, \
-0.02491047792136669, \
-0.07650426775217056, \
-0.042889196425676346, \
-0.018425889313220978, \
-0.01202170830219984, \
-0.035918526351451874, \
-0.020566267892718315, \
-0.006272005848586559, \
-0.0035211616195738316, \
-0.0033491302747279406, \
0.010538303293287754, \
0.011412239633500576, \
-0.04109009727835655, \
-0.013029845431447029, \
0.0749305859208107, \
0.002131050918251276, \
-0.055707309395074844, \
0.05750180035829544, \
0.03659233823418617, \
0.10499430447816849, \
0.10074734687805176, \
0.04422381520271301, \
0.02619403973221779, \
0.06085586920380592, \
-0.0034133181907236576, \
-0.01367016602307558, \
-0.04636446759104729, \
0.022733211517333984, \
0.023368390277028084, \
0.012723024934530258, \
-0.015136449597775936, \
-0.000573706638533622, \
0.04217468947172165, \
0.024196960031986237, \
-0.0438295342028141, \
-0.06576167792081833, \
-0.01153821125626564, \
-0.039609819650650024, \
-0.06778551638126373, \
-0.008494053967297077, \
-0.041689902544021606, \
-0.08946595340967178, \
-0.044479552656412125, \
-0.062190912663936615, \
-0.10919436812400818, \
-0.04833739250898361, \
-0.06070483848452568, \
0.028474170714616776, \
0.046954523772001266, \
-0.030282117426395416, \
0.030327357351779938, \
0.01140634436160326, \
0.0023163435980677605, \
0.022174986079335213, \
0.035935062915086746, \
0.04381260648369789, \
0.009032159112393856, \
0.06745649129152298, \
0.05157434567809105, \
0.05919235572218895, \
0.053964730352163315, \
0.053185369819402695, \
0.060621459037065506, \
0.013861365616321564, \
0.04330132156610489, \
0.07739503681659698, \
-0.017648914828896523, \
-0.027203816920518875, \
0.0017851433949545026, \
0.09520208090543747, \
0.008650220930576324, \
-0.0697009339928627, \
0.03710190951824188, \
0.04941188171505928, \
0.08485040068626404, \
0.0007716325344517827, \
0.09530608355998993, \
0.054727084934711456, \
0.030644012615084648, \
0.09060323983430862, \
-0.00586167024448514, \
0.032518722116947174, \
0.11297927796840668, \
0.05143163725733757, \
0.0712013766169548, \
0.07610193639993668, \
-0.005513027776032686, \
0.09009210765361786, \
0.07925497740507126, \
0.07028188556432724, \
-0.02718815580010414, \
-0.018803181126713753, \
0.009111731313169003, \
-0.019939420744776726, \
0.04330366477370262, \
-0.08136235922574997, \
-0.03580592945218086, \
-0.0698365867137909, \
-0.11146090924739838, \
-0.05795171484351158, \
-0.05255897715687752, \
-0.09123370051383972, \
-0.048885151743888855, \
-0.04497259482741356, \
-0.0036259412299841642, \
-0.021258175373077393, \
-0.10339552909135818, \
-0.05022897198796272, \
-0.060545746237039566, \
-0.07935111969709396, \
-0.011025607585906982, \
-0.11464352160692215, \
-0.030470212921500206, \
-0.04888368770480156, \
-0.019497018307447433, \
0.03434746712446213, \
0.029577095061540604, \
-0.04380223900079727, \
-0.06686801463365555, \
0.03286519646644592, \
-0.04167544096708298, \
-0.029481075704097748, \
-0.061228010803461075, \
-0.03553483262658119, \
-0.06517543643712997, \
0.027022382244467735, \
0.04726404696702957, \
-0.006270190700888634, \
-0.006349622271955013, \
-0.034187957644462585, \
0.021639732643961906, \
0.05718141421675682, \
-0.03726537898182869, \
-0.06451281905174255, \
0.009164647199213505, \
0.07862186431884766, \
0.045622870326042175, \
-0.030477410182356834, \
0.03991582989692688, \
0.0327792763710022, \
0.06372800469398499, \
-0.041380323469638824, \
-0.09260228276252747, \
-0.0641934797167778, \
-2.8941147320438176e-05, \
-0.005224552471190691, \
-0.059262290596961975, \
-0.047301094979047775, \
-0.028906363993883133, \
0.006861032918095589, \
-0.08896593749523163, \
0.08591680228710175, \
0.06417423486709595, \
0.05492440611124039, \
-0.04399797320365906, \
-0.00892252754420042, \
-0.015613819472491741, \
0.06502609699964523, \
0.01091111171990633, \
0.01782873459160328, \
-0.03441503271460533, \
-0.00495486706495285, \
0.08808168768882751, \
0.056913040578365326, \
0.06298737972974777, \
-0.013551015406847, \
-0.1220538467168808, \
-0.014139202423393726, \
0.09439262002706528, \
0.05300547927618027, \
-0.01149247121065855, \
-0.08490598946809769, \
0.003846358507871628, \
-0.023750064894557, \
0.014046862721443176, \
0.06550624966621399, \
0.047355685383081436, \
-0.009651636704802513, \
0.02854074351489544, \
0.017450958490371704, \
0.09386365115642548, \
0.07206802070140839, \
0.05785798653960228, \
0.01737893745303154, \
0.1134108304977417, \
0.012815309688448906, \
0.004477259702980518, \
-0.06866487860679626, \
0.0048515768721699715, \
0.007172565441578627, \
-0.06852063536643982, \
-0.07550424337387085, \
0.005523426458239555, \
0.04232180491089821, \
0.02367514930665493, \
0.05396455526351929, \
-0.01224476844072342, \
-0.13199368119239807, \
-0.08140859752893448, \
-0.07495592534542084, \
-0.03604907542467117, \
0.0028849486261606216, \
-0.0761026069521904, \
-0.009874868206679821, \
-0.07741772383451462, \
-0.06029197946190834, \
-0.07101884484291077, \
0.02652174048125744, \
-0.010634315200150013, \
0.013577801175415516, \
0.04874642565846443, \
-0.029119139537215233, \
0.07247969508171082, \
-0.003946998622268438, \
0.06199381873011589, \
0.04304369539022446, \
0.022765450179576874, \
0.03327573835849762, \
0.03144669532775879, \
-0.03121030330657959, \
-0.008306103758513927, \
-0.03799119219183922, \
0.016349321231245995, \
0.028765790164470673, \
-0.03232138231396675, \
-0.021493934094905853, \
-0.0075265467166900635, \
0.039447810500860214, \
0.06611906737089157, \
0.011866276152431965, \
0.059407446533441544, \
0.009753135032951832, \
0.04035564884543419, \
0.014814991503953934, \
0.03345295041799545, \
0.00664848368614912, \
-0.09793750941753387, \
0.010447856038808823, \
-0.07203494757413864, \
-0.09252484887838364, \
-0.09104502201080322, \
-0.09494323283433914, \
0.18815860152244568, \
0.16609394550323486, \
0.12957601249217987, \
0.14829397201538086, \
0.029019448906183243, \
-0.08759589493274689, \
-0.05031420290470123, \
-0.06961653381586075, \
-0.07354159653186798, \
-0.014466037042438984, \
-0.006431504152715206, \
0.06229335069656372, \
0.0790870189666748, \
0.021698499098420143, \
-0.04233970120549202, \
0.02986859157681465, \
-0.011429785750806332, \
0.03947046026587486, \
0.04067125543951988, \
-0.04261128231883049, \
-0.045743055641651154, \
-0.10619822889566422, \
-0.12535305321216583, \
-0.0693075880408287, \
-0.12310774624347687, \
-0.03653031960129738, \
0.03249803185462952, \
0.11558114737272263, \
0.02628519758582115, \
0.0759768933057785, \
-0.04890953004360199, \
0.017733318731188774, \
0.09084519743919373, \
-0.041491035372018814, \
-0.06089141592383385, \
-0.017968695610761642, \
-0.021895309910178185, \
0.038422562181949615, \
-0.035157445818185806, \
-0.06580036133527756, \
-0.007574775721877813, \
0.06877021491527557, \
0.041644878685474396, \
0.017613667994737625, \
0.013835125602781773, \
0.07156491279602051, \
0.01789461448788643, \
0.07000410556793213, \
0.10831861197948456, \
0.10889194905757904, \
0.05872100964188576, \
0.01721903868019581, \
0.00820403452962637, \
0.15947560966014862, \
0.004455543588846922, \
-0.002196005079895258, \
0.0030116569250822067, \
0.039507925510406494, \
0.0559898279607296, \
-0.011926401406526566, \
-0.06891265511512756, \
0.06388218700885773, \
0.07485195249319077, \
0.09051135182380676, \
0.010615204460918903, \
-0.014840140007436275, \
0.06705649197101593, \
0.049636360257864, \
-0.00648702634498477, \
0.03843405470252037, \
-0.15523800253868103, \
-0.009184743277728558, \
0.09120423346757889, \
-0.02478143572807312, \
-0.031892940402030945, \
-0.10188739746809006, \
0.019930399954319, \
0.012479577213525772, \
0.05958767980337143, \
-0.015124752186238766, \
0.033842459321022034, \
0.045249029994010925, \
0.016925858333706856, \
-0.011944901198148727, \
-0.04657077044248581, \
-0.06697564572095871, \
0.01108137983828783, \
0.004486468154937029, \
-0.0665503442287445, \
-0.005231901071965694, \
-0.07721921056509018, \
0.032913416624069214, \
-0.010084821842610836, \
-0.055923983454704285, \
-0.054349977523088455, \
-0.10245189815759659, \
0.011879191733896732, \
-0.07563407719135284, \
-0.08532781153917313, \
-0.03919122368097305, \
-0.016359372064471245, \
-0.13174793124198914, \
-0.0028891630936414003, \
-0.0892890989780426, \
-0.08276772499084473, \
-0.07566045969724655, \
-0.09474403411149979, \
-0.033818136900663376, \
-0.04730964079499245, \
-0.013826416805386543, \
-0.02936927042901516, \
-0.07155580073595047, \
-0.09173519164323807, \
-0.054456308484077454, \
-0.010737700387835503, \
-0.04898325726389885, \
-0.0479525588452816, \
-0.12082409113645554, \
-0.061657704412937164, \
-0.03926803544163704, \
0.014295458793640137, \
-0.03930721804499626, \
-0.014866041019558907, \
-0.08571574836969376, \
0.05815334990620613, \
0.008494989015161991, \
0.06272809207439423, \
0.0403020866215229, \
0.009567447938024998, \
0.2515096366405487, \
0.03933368995785713, \
0.09105053544044495, \
0.015830010175704956, \
0.06263719499111176, \
0.11820850521326065, \
0.005087394267320633, \
0.01435093767940998, \
0.06999115645885468, \
0.030690183863043785, \
0.03907542675733566, \
-0.07619604468345642, \
-0.04919547960162163, \
0.0553753599524498, \
0.0238465815782547, \
-0.07166020572185516, \
-0.04593098908662796, \
-0.07580860704183578, \
0.01830793172121048, \
-0.06908493489027023, \
-0.08934000879526138, \
-0.15496331453323364, \
-0.0855695977807045, \
-0.06445132941007614, \
-0.08604645729064941, \
-0.16568541526794434, \
0.014358045533299446, \
0.060019951313734055, \
0.04009734094142914, \
0.08681406080722809, \
-0.021569306030869484, \
0.002909397939220071, \
-0.014767886139452457, \
0.05887099355459213, \
0.0019762739539146423, \
0.03261767327785492, \
-0.04481712728738785, \
-0.025279169902205467, \
0.002898061415180564, \
-0.008105216547846794, \
-0.01568361558020115, \
-0.020881418138742447, \
-0.06910575926303864, \
-0.09486449509859085, \
-0.08509499579668045, \
-0.07595275342464447, \
-0.07566116005182266, \
-0.019028086215257645, \
-0.010139456018805504, \
-0.04078662395477295, \
-0.009655756875872612, \
0.06558056175708771, \
-0.04292111471295357, \
-0.07659277319908142, \
-0.03889001905918121, \
0.006329233292490244, \
0.020694095641374588, \
-0.06351832300424576, \
0.005087647121399641, \
-0.010266080498695374, \
-0.040250904858112335, \
0.00736032472923398, \
-0.0691106915473938, \
0.010974641889333725, \
0.03349914774298668, \
-0.05705941095948219, \
-0.09654108434915543, \
-0.014639284461736679, \
0.026246927678585052, \
0.022046880796551704, \
-0.0760393962264061, \
-0.06824175268411636, \
0.02791455015540123, \
-0.02358628436923027, \
0.02471483312547207, \
-0.007795888930559158, \
0.0013369591906666756, \
0.004521757829934359, \
0.018229655921459198, \
-0.06297625601291656, \
-0.01079933624714613, \
-0.03448762744665146, \
-0.0410449393093586, \
0.046100929379463196, \
0.013151239603757858, \
0.02498144842684269, \
-0.00436378875747323, \
-0.0692344680428505, \
0.03769072890281677, \
-0.009406489320099354, \
-0.03256690129637718, \
-0.0256961639970541, \
-0.12294574081897736, \
-0.05375417694449425, \
-0.025600703433156013, \
-0.061179619282484055, \
0.04518675059080124, \
-0.03252115473151207, \
-0.08560433983802795, \
-0.062006399035453796, \
-0.014234866946935654, \
-0.000381720979930833, \
-0.023329637944698334, \
-0.04996034502983093, \
-0.037989068776369095, \
-0.03693182021379471, \
0.011579115875065327, \
0.03974050283432007, \
0.05540306121110916, \
0.03416676074266434, \
0.07169458270072937, \
0.009076284244656563, \
0.06133851781487465, \
0.07180013507604599, \
0.07246888428926468, \
0.07652845233678818, \
-0.05716070532798767, \
-0.06613805890083313, \
0.022791171446442604, \
-0.06921861320734024, \
-0.10332689434289932, \
-0.0616038478910923, \
-0.027886735275387764, \
-0.015062721446156502, \
0.06368841230869293, \
-0.023078085854649544, \
0.007030452601611614, \
0.022503266111016273, \
0.12855751812458038, \
0.09844402223825455, \
-0.014178711920976639, \
0.027398521080613136, \
0.07244300842285156, \
-0.006248277146369219, \
0.04101478308439255, \
0.012251608073711395, \
0.014066151343286037, \
0.07507380843162537, \
-0.04616398736834526, \
0.0324690043926239, \
0.043340180069208145, \
-0.05508636310696602, \
0.027493512257933617, \
-0.012024971656501293, \
0.01386797521263361, \
0.06920266896486282, \
0.06599124521017075, \
-0.015727121382951736, \
-0.062047310173511505, \
-0.10782303661108017, \
0.03582924231886864, \
0.0016474368749186397, \
0.008092922158539295, \
0.006001837085932493, \
0.014260167255997658, \
0.11097767949104309, \
0.0762517973780632, \
-0.018305085599422455, \
0.029789650812745094, \
0.016803711652755737, \
0.049678556621074677, \
0.040853310376405716, \
0.060872431844472885, \
0.018515393137931824, \
0.04720154404640198, \
0.06710975617170334, \
-0.0070663937367498875, \
-0.011686396785080433, \
0.07100167125463486, \
0.03329901024699211, \
0.03522617742419243, \
0.038768742233514786, \
-0.00964342150837183, \
0.024324432015419006, \
0.019611794501543045, \
-0.014441222883760929, \
-0.013843041844666004, \
-0.03771326690912247, \
0.006524067372083664, \
0.0430728942155838, \
0.024694830179214478, \
-0.09226495772600174, \
-0.04447585716843605, \
0.03510765731334686, \
0.10801386088132858, \
0.03331654146313667, \
-0.19225084781646729, \
-0.10554695129394531, \
-0.07560110837221146, \
0.04027966782450676, \
-0.004443007055670023, \
-0.09071755409240723, \
-0.02166743390262127, \
0.013249298557639122, \
-0.02766774408519268, \
0.008720844984054565, \
0.19752950966358185, \
0.07280633598566055, \
0.13437499105930328, \
0.0060895755887031555, \
0.04697328805923462, \
-0.07464484125375748, \
0.039470870047807693, \
0.06520407646894455, \
-0.023394744843244553, \
-0.03166963905096054, \
-0.0020516463555395603, \
-0.0705064907670021, \
-0.050861507654190063, \
-0.05138690397143364, \
-0.09319451451301575, \
-0.058234211057424545, \
-0.06461378186941147, \
-0.07736627757549286, \
-0.07741202414035797, \
-0.06546302884817123, \
0.12397213280200958, \
0.030987901613116264, \
0.08214937150478363, \
0.08486945182085037, \
0.10083387792110443, \
-0.001966821262612939, \
0.051038097590208054, \
-0.014264064840972424, \
-0.05991998687386513, \
-0.029194241389632225, \
0.11529631912708282, \
0.04126559942960739, \
0.02019432559609413, \
6.651651347056031e-05, \
-0.02021687664091587, \
0.061768192797899246, \
-0.020964059978723526, \
0.006923279725015163, \
0.010626834817230701, \
-0.004112042021006346, \
-0.10087215155363083, \
-0.008425739593803883, \
-0.06903167814016342, \
-0.020768072456121445, \
-0.011461586691439152, \
-0.031689103692770004, \
-0.028356272727251053, \
-0.009961572475731373, \
-0.07315347343683243, \
-0.03660212457180023, \
0.01219525933265686, \
-0.03301692008972168, \
-0.07706473767757416, \
-0.00970110297203064, \
-0.051996584981679916, \
-0.0901135802268982, \
-0.07953251153230667, \
-0.001991723896935582, \
-0.036025334149599075, \
-0.05418587848544121, \
0.09141412377357483, \
-0.03943922743201256, \
0.07163591682910919, \
0.0862581878900528, \
-0.01232971716672182, \
0.046461042016744614, \
-0.03865418583154678, \
-0.028512869030237198, \
-0.01755688339471817, \
0.02729084901511669, \
-0.034256111830472946, \
-0.0033865610603243113, \
-0.009019684977829456, \
-0.0910537913441658, \
0.00794654618948698, \
-0.11308654397726059, \
-0.04873234033584595, \
-0.017842145636677742, \
-0.12589429318904877, \
-0.06575285643339157, \
-0.01986367627978325, \
0.027224892750382423, \
-0.03200801461935043, \
-0.030377350747585297, \
-0.03172522783279419, \
0.03879718855023384, \
0.04499254748225212, \
0.07376731187105179, \
-0.010006777010858059, \
-0.06492368131875992, \
0.08189629018306732, \
0.11385601758956909, \
0.023302478715777397, \
0.13431234657764435, \
0.0999971255660057, \
0.026145320385694504, \
0.08340296894311905, \
0.1316096931695938, \
0.09487789869308472, \
0.07978206872940063, \
0.01690474897623062, \
-0.03859780728816986, \
-0.009606383740901947, \
-0.039988208562135696, \
-0.10815983265638351, \
0.004055467434227467, \
0.09448370337486267, \
0.017187554389238358, \
0.03520609438419342, \
0.012334528379142284, \
0.012269928120076656, \
0.0042253597639501095, \
-0.09167767316102982, \
-0.060654666274785995, \
0.055894169956445694, \
0.03369133546948433, \
0.008669909089803696, \
-0.03595169633626938, \
-0.06798697263002396, \
0.05380816012620926, \
-0.03966166824102402, \
-0.10034175217151642, \
-0.03264794871211052, \
-0.021196596324443817, \
-0.003035016357898712, \
0.06446803361177444, \
-0.012433371506631374, \
-0.0445517897605896, \
-0.03501765802502632, \
0.03873191401362419, \
-0.03329847753047943, \
-0.004320512060075998, \
0.012532191351056099, \
0.038762398064136505, \
-0.019920097663998604, \
-0.014203958213329315, \
0.0871344730257988, \
0.05388541519641876, \
0.05318864434957504, \
-0.038614191114902496, \
0.0974525511264801, \
-0.01565326750278473, \
0.059538763016462326, \
0.09362087398767471, \
-0.004887805785983801, \
0.04251779988408089, \
-0.025794966146349907, \
-0.10051501542329788, \
0.056841447949409485, \
-0.1153150424361229, \
0.019424008205533028, \
-0.0030846428126096725, \
-0.12699852883815765, \
-0.0043600439094007015, \
-0.0887608677148819, \
-0.04622221738100052, \
-0.0017609922215342522, \
0.058065544813871384, \
0.0786016657948494, \
-0.008223659358918667, \
-0.01277108583599329, \
0.09959708154201508, \
0.05777495354413986, \
0.051200076937675476, \
0.10724327713251114, \
-0.06282249093055725, \
0.028097838163375854, \
-0.005079327616840601, \
0.060959406197071075, \
-0.0011021586833521724, \
-0.025181341916322708, \
0.041026752442121506, \
0.0004778124566655606, \
-0.021289648488163948, \
-0.012111283838748932, \
0.003917250782251358, \
-0.05831411853432655, \
0.03445178270339966, \
0.08759129792451859, \
-0.010124078951776028, \
-0.0896453931927681, \
-0.050987400114536285, \
-0.08201660960912704, \
-0.11648537218570709, \
-0.03258325904607773, \
-0.08489309251308441, \
-0.09134643524885178, \
-0.1218138188123703, \
-0.0647444799542427, \
-0.0830564796924591, \
-0.02899925224483013, \
0.053668681532144547, \
0.07252679020166397, \
0.05319714918732643, \
-0.023653505370020866, \
-0.08708659559488297, \
0.026223286986351013, \
0.05361654981970787, \
0.028009159490466118, \
-0.08213255554437637, \
-0.03224525600671768, \
-0.007993451319634914, \
0.04517534375190735, \
0.015092120505869389, \
-0.14103466272354126, \
-0.06016591936349869, \
-0.016779061406850815, \
0.003438526764512062, \
-0.01898384466767311, \
-0.08581378310918808, \
0.054415468126535416, \
0.05097312107682228, \
0.08576203137636185, \
0.018575286492705345, \
0.0007356057176366448, \
0.007332570385187864, \
0.013201620429754257, \
0.048043619841337204, \
0.03159363567829132, \
0.057934463024139404, \
-0.10836172103881836, \
-0.09057589620351791, \
-0.013017779216170311, \
0.054762035608291626, \
-0.03917722776532173, \
-0.09593747556209564, \
-0.03324606269598007, \
-0.014055970124900341, \
-0.02594502829015255, \
-0.08309902995824814, \
-0.04478460177779198, \
-0.07865814119577408, \
-0.04454942047595978, \
-0.05650896951556206, \
-0.04953655228018761, \
-0.033833809196949005, \
-0.0633060485124588, \
0.0044455938041210175, \
-0.0744403675198555, \
-0.05719750002026558, \
-0.04971583932638168, \
-0.0034144928213208914, \
-0.06051314249634743, \
-0.03873801231384277, \
-0.01923312060534954, \
-0.05487145483493805, \
-0.058281753212213516, \
-0.015059757977724075, \
0.0232255756855011, \
0.019770339131355286, \
-0.05096789449453354, \
-0.024518117308616638, \
0.010045594535768032, \
-0.012108507566154003, \
0.009189215488731861, \
-0.06734886020421982, \
-0.04879535362124443, \
0.01632067933678627, \
0.04660330340266228, \
0.04727970436215401, \
-0.09729364514350891, \
0.011807795614004135, \
0.027198169380426407, \
-0.02427603490650654, \
-0.03309038653969765, \
-0.06763435900211334, \
0.0252249576151371, \
-0.02704152837395668, \
0.005366598721593618, \
-0.008371181786060333, \
-0.03817928582429886, \
-0.03311830386519432, \
-0.0021947019267827272, \
0.016162127256393433, \
0.004963498096913099, \
-0.013383811339735985, \
-0.010470477864146233, \
-0.013790241442620754, \
0.07453955709934235, \
0.03144652768969536, \
-0.039530765265226364, \
-0.05442548170685768, \
-0.07654168456792831, \
0.007660554721951485, \
-0.02320907637476921, \
-0.024896955117583275, \
-0.022547755390405655, \
-0.042798884212970734, \
0.0371999628841877, \
0.0135773541405797, \
-0.09383238106966019, \
-0.04399070516228676, \
-0.04369243234395981, \
-0.06659423559904099, \
-0.11037275940179825, \
-0.09373129159212112, \
-0.042603760957717896, \
-0.06889418512582779, \
-0.04950035735964775, \
-0.1000962108373642, \
-0.09298226982355118, \
-0.050546225160360336, \
-0.10404501110315323, \
-0.0007491924334317446, \
-0.0545448362827301, \
-0.09651055932044983, \
0.029509548097848892, \
-0.02394281141459942, \
-0.004528452642261982, \
0.025980856269598007, \
0.043716251850128174, \
-0.040679506957530975, \
0.006211542058736086, \
0.05120475962758064, \
-0.008925576694309711, \
0.006117975804954767, \
-0.007421182934194803, \
0.01378884818404913, \
0.030589338392019272, \
-0.005079605616629124, \
-0.026847636327147484, \
0.010548654943704605, \
-0.058009758591651917, \
-0.029956024140119553, \
0.0037157225888222456, \
-0.04820365831255913, \
-0.06536867469549179, \
-0.009089111350476742, \
-0.05074888840317726, \
-0.04881555214524269, \
0.02662676014006138, \
0.013492134399712086, \
-0.0022771256044507027, \
-0.04547340050339699, \
-0.11077173799276352, \
0.0030036463867872953, \
-0.022075161337852478, \
-0.1416037380695343, \
-0.07202310115098953, \
0.0014976647216826677, \
0.06786524504423141, \
-0.0073402333073318005, \
0.05562632903456688, \
0.1390749216079712, \
0.0947752520442009, \
0.017501408234238625, \
0.022126341238617897, \
0.1680571734905243, \
0.14150136709213257, \
-0.002810018602758646, \
-0.035144541412591934, \
-0.041891273111104965, \
0.014445465058088303, \
0.03166235238313675, \
-0.06364756077528, \
0.03211214393377304, \
-0.020207704976201057, \
0.04666329175233841, \
0.08872657269239426, \
0.11242859810590744, \
-0.017302755266427994, \
-0.010797801427543163, \
0.002009347081184387, \
0.0003785182780120522, \
0.08526039123535156, \
0.01991814188659191, \
0.039927225559949875, \
-0.05465058982372284, \
0.0008226492209360003, \
0.04196389764547348, \
0.05582842603325844, \
0.024509910494089127, \
0.03799008950591087, \
0.0065375519916415215, \
0.08437581360340118, \
0.042575687170028687, \
0.08085782825946808, \
-0.016498394310474396, \
-0.028015008196234703, \
0.05183296278119087, \
-0.012655961327254772, \
-0.010031342506408691, \
0.03113025240600109, \
0.04574216157197952, \
-0.03905535116791725, \
-0.056292664259672165, \
0.024421315640211105, \
-0.024433352053165436, \
-0.0010873716091737151, \
0.014953452162444592, \
0.007516185753047466, \
0.09444428235292435, \
0.0442400723695755, \
0.009706039912998676, \
0.07342542707920074, \
-0.06219424307346344, \
0.03133459389209747, \
0.05818713456392288, \
0.04553623124957085, \
0.11611757427453995, \
-0.15858526527881622, \
-0.0479438342154026, \
0.018493466079235077, \
0.03418109565973282, \
0.13275735080242157, \
-0.07454518228769302, \
-0.03190063312649727, \
-0.027191339060664177, \
-0.027070585638284683, \
-0.08422248065471649, \
-0.07555638253688812, \
0.033853668719530106, \
0.008267835713922977, \
-0.033502716571092606, \
-0.10601534694433212, \
-0.175807923078537, \
-0.11803494393825531, \
-0.028221484273672104, \
0.008482900448143482, \
0.0029423243831843138, \
-0.09525976330041885, \
-0.10457194596529007, \
-0.053007807582616806, \
-0.05534953624010086, \
-0.021621694788336754, \
-0.1060509979724884, \
-0.016739340499043465, \
0.0020301220938563347, \
-0.12628120183944702, \
-0.00993085652589798, \
0.04101397842168808, \
-0.010147498920559883, \
-0.03541700914502144, \
0.04814125597476959, \
0.010235426016151905, \
0.08211532980203629, \
-0.003833373077213764, \
-0.0667419359087944, \
-0.00817029271274805, \
0.06444527208805084, \
0.02143123932182789, \
0.03983815759420395, \
-0.022823652252554893, \
0.020052684471011162, \
0.0662841647863388, \
0.024435730651021004, \
-0.04598325863480568, \
0.0032007961999624968, \
-0.012599990703165531, \
0.010419308207929134, \
-0.009254826232790947, \
0.017815561965107918, \
-0.04776040464639664, \
-0.014927787706255913, \
0.018447788432240486, \
-0.07373333722352982, \
-0.044988635927438736, \
0.01588769443333149, \
-0.018313592299818993, \
0.007917064242064953, \
-0.09199265390634537, \
-0.029584316536784172, \
-0.04124227166175842, \
-0.10025157779455185, \
0.008186902850866318, \
-0.028843533247709274, \
-0.07849128544330597, \
-0.07984801381826401, \
-0.0767160952091217, \
0.09346853941679001, \
-0.01867351308465004, \
-0.06878510862588882, \
-0.0033747353591024876, \
-0.03711678087711334, \
0.04752008616924286, \
-0.0287367794662714, \
0.09209168702363968, \
0.0782056450843811, \
0.051724452525377274, \
0.008430318906903267, \
-0.015619433484971523, \
0.07200967520475388, \
0.032006196677684784, \
0.05476870387792587, \
0.0677340179681778, \
-0.008694987744092941, \
0.08099452406167984, \
0.0728195458650589, \
0.03264707699418068, \
0.06830980628728867, \
0.0055749788880348206, \
0.0168625358492136, \
0.09633208811283112, \
-0.009333042427897453, \
0.06238894537091255, \
0.04548299312591553, \
0.07914995402097702, \
0.04139428213238716, \
0.002002898370847106, \
0.07913415879011154, \
0.10055610537528992, \
0.02138378657400608, \
0.07011639326810837, \
0.06007368117570877, \
0.05709373578429222, \
-0.050417520105838776, \
-0.082377590239048, \
-0.027143672108650208, \
0.015808694064617157, \
0.01738884113729, \
-0.06002302095293999, \
-0.06264929473400116, \
-0.0062499865889549255, \
0.0279670599848032, \
-0.013018425554037094, \
-0.033951062709093094, \
0.018272284418344498, \
0.020231135189533234, \
-0.02325608767569065, \
-0.005797842983156443, \
0.05510122701525688, \
0.034282978624105453, \
-0.004727667663246393, \
-0.046154193580150604, \
-0.022716760635375977, \
0.024396860972046852, \
0.05374894291162491, \
-0.023915696889162064, \
0.03089776448905468, \
0.034851085394620895, \
-0.09757297486066818, \
-0.018136532977223396, \
-0.001586730359122157, \
-0.022153306752443314, \
-0.028464732691645622, \
-0.0353839248418808, \
-0.026884181424975395, \
-0.07087139040231705, \
0.04047587886452675, \
-0.015638163313269615, \
-0.04658382013440132, \
-0.029810044914484024, \
-0.10504317283630371, \
-0.013892978429794312, \
-0.04707743600010872, \
-0.0782761201262474, \
-0.04689325392246246, \
0.01674572192132473, \
0.0287215244024992, \
0.009701622650027275, \
0.004272028338164091, \
0.07586641609668732, \
0.023188691586256027, \
0.031382616609334946, \
0.03363962844014168, \
-0.06699118763208389, \
0.03571706265211105, \
-0.012859352864325047, \
-0.030059784650802612, \
-0.0230291485786438, \
-0.033136650919914246, \
0.027574721723794937, \
-0.05794895067811012, \
-0.09091459959745407, \
-0.01277205627411604, \
-0.020259913057088852, \
-0.0037428911309689283, \
-0.02891044318675995, \
0.013268345035612583, \
-0.035172946751117706, \
-0.05071423575282097, \
0.006297553889453411, \
-0.01772182807326317, \
-0.05227130278944969, \
-0.011110217310488224, \
0.009381876327097416, \
-0.0032489951699972153, \
-0.04030817747116089, \
-0.020966550335288048, \
-0.03195799142122269, \
0.03744902089238167, \
-0.018805578351020813, \
-0.014498567208647728, \
0.03520232066512108, \
0.04786790907382965, \
-0.0033816066570580006, \
-0.04036340489983559, \
-0.06342098116874695, \
0.013844837434589863, \
-0.0021431425120681524, \
0.0004905715468339622, \
-0.0688803568482399, \
-0.10960323363542557, \
-0.06581031531095505, \
-0.013686136342585087, \
0.056114207953214645, \
0.007737168576568365, \
-0.017809834331274033, \
-0.028862159699201584, \
-0.04315842315554619, \
0.014567271806299686, \
0.03225446119904518, \
0.04033207148313522, \
0.0047276197001338005, \
0.0009119867463596165, \
-0.04234413057565689, \
-0.035739995539188385, \
-0.025105390697717667, \
0.03761481121182442, \
0.005789193324744701, \
-0.10873119533061981, \
-0.013196115382015705, \
0.021911267191171646, \
-0.043813787400722504, \
0.08490866422653198, \
-0.059079233556985855, \
-0.006174830254167318, \
0.042350854724645615, \
0.04135042801499367, \
0.09002625197172165, \
-0.04010012745857239, \
0.008825535885989666, \
0.08603247255086899, \
0.04581480100750923, \
0.07710952311754227, \
0.02120506949722767, \
0.06298848241567612, \
0.03265270218253136, \
0.11497007310390472, \
0.07421904057264328, \
-0.02623262070119381, \
-0.0035141073167324066, \
-0.008160815574228764, \
-0.0014351920690387487, \
-0.048027049750089645, \
-0.03953090310096741, \
-0.06492863595485687, \
0.0372253879904747, \
-0.03283155709505081, \
0.018890373408794403, \
-0.0628737360239029, \
0.02960316836833954, \
0.008328543044626713, \
-0.035366982221603394, \
-0.013237576000392437, \
0.03437265381217003, \
0.018814221024513245, \
0.029631812125444412, \
-0.01346401683986187, \
-0.014360587112605572, \
0.11094840615987778, \
0.08459043502807617, \
0.04687512665987015, \
-0.010231669060885906, \
0.025505920872092247, \
0.0046536666341125965, \
-0.027096234261989594, \
-0.00391387427225709, \
0.041106194257736206, \
-0.028897348791360855, \
0.018620029091835022, \
-0.010265971533954144, \
0.03195453807711601, \
0.06075800210237503, \
0.0323571152985096, \
-0.0007965072290971875, \
0.002954772673547268, \
-0.00020152670913375914, \
0.06615608930587769, \
0.015645982697606087, \
0.00867529958486557, \
-0.06214127689599991, \
0.06259263306856155, \
-0.00899599865078926, \
-0.025788094848394394, \
0.006073081865906715, \
-0.0003603154618758708, \
0.031417325139045715, \
-0.03838598355650902, \
0.01494405698031187, \
0.01164440717548132, \
-0.07135426253080368, \
0.004194443114101887, \
-0.04593242332339287, \
-0.014696748927235603, \
-0.08878917992115021, \
-0.018655164167284966, \
0.004091033712029457, \
0.008120058104395866, \
0.04881173372268677, \
-0.07127823680639267, \
-0.02327551320195198, \
0.06653029471635818, \
0.03265112638473511, \
0.03068562224507332, \
-0.03704250231385231, \
-0.03448360785841942, \
-0.06261635571718216, \
0.0046692597679793835, \
-0.048265013843774796, \
0.11933820694684982, \
-0.013131260871887207, \
-0.07331038266420364, \
-0.07336074113845825, \
-0.09563233703374863, \
-0.009017055854201317, \
0.025870895013213158, \
0.024068007245659828, \
0.057344719767570496, \
0.03793704882264137, \
-0.007008635904639959, \
-0.014194008894264698, \
0.06226685270667076, \
0.04346872866153717, \
0.01943531259894371, \
-0.05452578887343407, \
-0.042268723249435425, \
0.002478486392647028, \
-0.011143091134727001, \
0.0013661894481629133, \
0.058798760175704956, \
0.00019127946870867163, \
-0.01773042418062687, \
-0.015313413925468922, \
-0.027717331424355507, \
0.0011302903294563293, \
0.0332227498292923, \
0.02075890265405178, \
-0.0029444245155900717, \
-0.0371745340526104, \
0.004945983644574881, \
-0.026553206145763397, \
0.04325558990240097, \
0.015174901112914085, \
0.048563402146101, \
-0.02864697016775608, \
0.023150978609919548, \
-0.000932640687096864, \
0.027356229722499847, \
0.02673674188554287, \
0.049265436828136444, \
0.012718405574560165, \
0.026397060602903366, \
-0.03182908892631531, \
-0.06615790724754333, \
0.08609522879123688, \
0.014621642418205738, \
-0.02221638709306717, \
-0.08023733645677567, \
-0.06310977041721344, \
-0.017534563317894936, \
0.05821198970079422, \
0.06522176414728165, \
-0.047265034168958664, \
0.013173754326999187, \
0.024184372276067734, \
-0.04944351688027382, \
-0.0013141459785401821, \
0.0006433158996514976, \
0.023486096411943436, \
0.04433750733733177, \
-0.040587469935417175, \
-0.06689051538705826, \
0.008835411630570889, \
0.020990904420614243, \
0.07908373326063156, \
0.028378114104270935, \
0.015756700187921524, \
0.028321867808699608, \
-0.07124248892068863, \
0.06503298133611679, \
0.05102833732962608, \
-0.01979670114815235, \
0.05571505054831505, \
-0.030966660007834435, \
0.017850438132882118, \
0.0038876852486282587, \
-0.016140231862664223, \
-0.02816684916615486, \
-0.03678898140788078, \
0.03592231869697571, \
0.023559516295790672, \
0.058562953025102615, \
0.059695713222026825, \
-0.0029605349991470575, \
0.00885757990181446, \
-0.02726486138999462, \
-0.06739913672208786, \
0.040105029940605164, \
0.0033061939757317305, \
-0.014881075359880924, \
-0.024759570136666298, \
-0.09617920219898224, \
-0.08842939883470535, \
-0.07585515081882477, \
0.04249491170048714, \
0.021294329315423965, \
-0.050572194159030914, \
-0.08310168236494064, \
-0.10122979432344437, \
0.01390608586370945, \
-0.035058196634054184, \
-0.07770975679159164, \
-0.09808409214019775, \
-0.06424485892057419, \
-0.0883084386587143, \
-0.1133125051856041, \
-0.020987562835216522, \
-0.04700741544365883, \
-0.012944163754582405, \
-0.06272938847541809, \
-0.05148833245038986, \
-0.030584732070565224, \
-0.012817326933145523, \
-0.04107975959777832, \
0.058534588664770126, \
-0.03580566123127937, \
0.02553798072040081, \
0.03712816908955574, \
0.06102980673313141, \
-0.025685323402285576, \
-0.08060804754495621, \
-0.024747632443904877, \
0.013610763475298882, \
-0.0383935384452343, \
-0.01653089001774788, \
-0.006319499108940363, \
0.036384131759405136, \
0.03662453591823578, \
-0.03550023213028908, \
0.0786508247256279, \
0.038709260523319244, \
-0.01483996957540512, \
0.000840876076836139, \
-0.033487968146800995, \
0.05759941041469574, \
-0.03349676728248596, \
0.014432067982852459, \
-0.012284749187529087, \
-0.03322501480579376, \
0.07862747460603714, \
0.038785289973020554, \
0.027457229793071747, \
0.04901515319943428, \
0.04758179932832718, \
0.03227615728974342, \
0.026518724858760834, \
-0.0282913725823164, \
-0.011144021525979042, \
0.03148430213332176, \
-0.019994856789708138, \
-0.0031427911017090082, \
0.02057807706296444, \
0.022354939952492714, \
0.042824480682611465, \
-0.05036955326795578, \
-0.0003618220507632941, \
0.012603254988789558, \
0.020176326856017113, \
-0.018971823155879974, \
-0.023306768387556076, \
0.049147479236125946, \
0.01865781657397747, \
0.03770444542169571, \
-0.0003158862527925521, \
0.01161222718656063, \
0.005423519294708967, \
0.03738496080040932, \
0.05023583769798279, \
-0.03371920436620712, \
-0.009715056046843529, \
0.07632208615541458, \
0.03149888664484024, \
0.002041493309661746, \
-0.01493523083627224, \
-0.05418460816144943, \
0.007423654664307833, \
-0.053300514817237854, \
0.0158696249127388, \
-0.014977572485804558, \
-0.07693313807249069, \
-0.07573818415403366, \
-0.0252168457955122, \
0.029302753508090973, \
-0.031231455504894257, \
-0.11355703324079514, \
-0.007912572473287582, \
-0.028611736372113228, \
-0.02615547366440296, \
-0.0181515384465456, \
-0.027532843872904778, \
-0.02880985662341118, \
-0.02094918303191662, \
0.004348809830844402, \
-0.014338625594973564, \
0.018806617707014084, \
-0.0209795031696558, \
-0.015945004299283028, \
-0.014508171007037163, \
-0.021940410137176514, \
0.03392057865858078, \
-0.05590719357132912, \
-0.057568155229091644, \
-0.03462550789117813, \
0.07035568356513977, \
-0.051098693162202835, \
-0.04005450755357742, \
-0.016623208299279213, \
-0.0032961643300950527, \
-0.007128512486815453, \
-0.022007238119840622, \
0.032013244926929474, \
-0.054473087191581726, \
-0.01475655660033226, \
0.036985136568546295, \
-0.0016016090521588922, \
-0.001922330935485661, \
-0.028242826461791992, \
-0.04073680192232132, \
-0.018865767866373062, \
0.027506941929459572, \
-0.051162589341402054, \
-0.03982030600309372, \
-0.06656219065189362, \
0.043268293142318726, \
0.025690216571092606, \
-0.036903806030750275, \
-0.08220408111810684, \
-0.07245541363954544, \
0.06375348567962646, \
0.05714202672243118, \
0.028197957202792168, \
0.009723453782498837, \
0.00311347097158432, \
-0.043554604053497314, \
0.09795190393924713, \
0.07516296207904816, \
0.04618888348340988, \
-0.028493354097008705, \
-0.09500276297330856, \
0.014916975982487202, \
0.06822522729635239, \
-0.019343527033925056, \
-0.05370693653821945, \
-0.12334608286619186, \
0.0030112420208752155, \
0.008498962968587875, \
0.006834675092250109, \
-0.044880956411361694, \
-0.11886883527040482, \
-0.022650104016065598, \
0.04157489165663719, \
0.057124678045511246, \
0.09524312615394592, \
0.030838845297694206, \
-0.04728958383202553, \
0.03482505679130554, \
0.0699700117111206, \
-0.004050089977681637, \
-0.02059236168861389, \
-0.0022220604587346315, \
-0.01265899557620287, \
0.0355919785797596, \
0.01868801936507225, \
0.03620128333568573, \
-0.042913466691970825, \
-0.05162440240383148, \
-0.0023730481043457985, \
-0.027384227141737938, \
0.03339638188481331, \
-0.01509800273925066, \
0.008781429380178452, \
-0.012553088366985321, \
0.010472927242517471, \
-0.010893945582211018, \
-0.031416796147823334, \
0.031063230708241463, \
0.003243710845708847, \
-0.0070776185020804405, \
0.002421863377094269, \
-0.03866918012499809, \
-0.027957355603575706, \
-0.0028122621588408947, \
-0.02521049603819847, \
-0.04358408972620964, \
-0.007532695308327675, \
-0.04185713455080986, \
-0.026474468410015106, \
0.030964050441980362, \
-0.0041440436616539955, \
-0.003888374427333474, \
0.053863756358623505, \
-0.006961060222238302, \
-0.019786816090345383, \
0.025739040225744247, \
0.009130353108048439, \
-0.013872068375349045, \
-0.020339809358119965, \
-0.00946124829351902, \
-0.008489729836583138, \
-0.055378902703523636, \
-0.056918591260910034, \
-0.04999835416674614, \
0.02101079188287258, \
-0.020827949047088623, \
0.06641944497823715, \
0.02240694686770439, \
0.10554080456495285, \
0.08862508088350296, \
0.08679147064685822, \
0.054158300161361694, \
0.006841018330305815, \
-0.009863743558526039, \
0.058640774339437485, \
0.053848519921302795, \
-0.03173688054084778, \
-0.018122918903827667, \
0.04994158446788788, \
0.002588146599009633, \
0.04197605699300766, \
0.007504791487008333, \
0.0260620079934597, \
-0.00028118171030655503, \
-0.02484864555299282, \
0.04419862478971481, \
0.05139686539769173, \
0.04085220396518707, \
-0.01982698030769825, \
0.004805837757885456, \
-0.0358864963054657, \
0.017969097942113876, \
0.027765531092882156, \
0.013979076407849789, \
0.019548475742340088, \
0.041585978120565414, \
-0.01628109999001026, \
0.049470093101263046, \
-0.029366424307227135, \
-0.023377656936645508, \
-0.018142301589250565, \
0.015292290598154068, \
0.024175375699996948, \
0.011274604126811028, \
-0.019876565784215927, \
0.0012609442928805947, \
0.024682939052581787, \
-0.0033736135810613632, \
0.002442714059725404, \
0.028770845383405685, \
0.04144338145852089, \
0.019183393567800522, \
0.01085279043763876, \
0.04253966361284256, \
0.04578161612153053, \
0.05482596531510353, \
-0.06977207958698273, \
-0.06660187989473343, \
-0.018618931993842125, \
0.011949694715440273, \
-0.04514314606785774, \
0.00756017304956913, \
-0.00934675708413124, \
-0.03402061015367508, \
0.02154596708714962, \
0.0321856252849102, \
-0.07122962176799774, \
-0.011351685971021652, \
-0.05637245625257492, \
-0.005491138901561499, \
-0.04387944936752319, \
-0.0026066803839057684, \
-0.012210041284561157, \
0.0627206414937973, \
-0.0020203785970807076, \
0.03312620893120766, \
0.00526955584064126, \
0.0036752899177372456, \
-0.00534803094342351, \
-0.026016565039753914, \
-0.03088899329304695, \
-0.07985300570726395, \
-0.0022882826160639524, \
-0.04114808887243271, \
-0.034608036279678345, \
0.005816666875034571, \
-0.059501852840185165, \
-0.03470296040177345, \
-0.020840508863329887, \
-0.013820936903357506, \
0.0360867977142334, \
-0.051730506122112274, \
0.0005097406101413071, \
0.03081296756863594, \
-0.01566108502447605, \
-0.07542560249567032, \
-0.025449151173233986, \
-0.004616005811840296, \
-0.023320216685533524, \
-0.034451261162757874, \
0.014409375376999378, \
-0.01331708487123251, \
-0.08025553822517395, \
-0.041044604033231735, \
-0.010780518874526024, \
-0.009070530533790588, \
-0.06381815671920776, \
-0.005770186893641949, \
-0.04453147202730179, \
-0.05114530026912689, \
-0.06440164893865585, \
-0.08087562769651413, \
-0.06563329696655273, \
0.011401730589568615, \
-0.06838583946228027, \
-0.052386511117219925, \
-0.06795915961265564, \
-0.060966119170188904, \
-0.055665723979473114, \
-0.03745362535119057, \
0.004578738007694483, \
-0.06085697561502457, \
-0.09601108729839325, \
0.03533121943473816, \
-0.0037665890995413065, \
-0.001976853236556053, \
-0.07009211927652359, \
-0.06865347921848297, \
-0.028059780597686768, \
-0.019837815314531326, \
-0.009145976975560188, \
-0.06473130732774734, \
-0.061902713030576706, \
0.0017269047675654292, \
-0.07624051719903946, \
-0.05603758990764618, \
-0.04626849666237831, \
-0.022993752732872963, \
-0.035474155098199844, \
-0.05535949021577835, \
0.014550936408340931, \
0.013324273750185966, \
0.008605369366705418, \
-0.05058674141764641, \
0.014948352240025997, \
0.08409146219491959, \
-0.04390125349164009, \
-0.0345931276679039, \
-0.006329280324280262, \
-0.06581760197877884, \
-0.008013229817152023, \
-0.0011656206334009767, \
-0.006472472101449966, \
0.008385240100324154, \
0.04006316885352135, \
0.08434372395277023, \
0.01908842660486698, \
0.06371763348579407, \
0.07627160102128983, \
0.028350217267870903, \
-0.037610046565532684, \
-0.0332888588309288, \
-0.03033810295164585, \
0.05357346683740616, \
0.02007768675684929, \
-0.03371312469244003, \
0.08234455436468124, \
0.02848690003156662, \
-0.011535231955349445, \
-0.008540905080735683, \
0.05110425502061844, \
0.059867266565561295, \
0.05104508996009827, \
-0.012777580879628658, \
-0.0043205516412854195, \
0.0009956593858078122, \
0.071580670773983, \
0.002113249385729432, \
0.002163337077945471, \
-0.009382410906255245, \
0.023491928353905678, \
-0.0633348748087883, \
0.028651971369981766, \
0.043361954391002655, \
-0.09214633703231812, \
-0.07252854108810425, \
-0.010651646181941032, \
-0.036717068403959274, \
0.002614064607769251, \
0.021917160600423813, \
-0.10687700659036636, \
0.039042484015226364, \
-0.02489173412322998, \
-0.0029711867682635784, \
0.009647107683122158, \
-0.018189704045653343, \
0.025920212268829346, \
-0.01792336441576481, \
-0.04983147606253624, \
-0.041189178824424744, \
0.10808823257684708, \
-0.028963152319192886, \
-0.017852922901511192, \
-0.06379204243421555, \
-0.03396344929933548, \
0.01017281785607338, \
-0.05594838410615921, \
-0.039873477071523666, \
-0.025516580790281296, \
0.011437083594501019, \
-0.0032616672106087208, \
-0.037747446447610855, \
-0.017077025026082993, \
0.01806953363120556, \
-0.010228629224002361, \
0.018677227199077606, \
-0.04814448580145836, \
-0.025704219937324524, \
-0.06304416060447693, \
-0.025882966816425323, \
0.010645810514688492, \
-0.0965171754360199, \
-0.019382772967219353, \
-0.058387741446495056, \
-0.0578620508313179, \
-0.07611200958490372, \
-0.04199337959289551, \
-0.05668004974722862, \
0.02218463085591793, \
0.006318045314401388, \
0.0034444108605384827, \
0.01758667267858982, \
0.03919532522559166, \
0.0629768818616867, \
0.026291826739907265, \
0.021835459396243095, \
0.10562647134065628, \
0.0014361556386575103, \
0.03298091143369675, \
0.08915721625089645, \
0.06838914006948471, \
0.07095897942781448, \
-0.024950649589300156, \
-0.010024184361100197, \
0.03088213875889778, \
0.059585947543382645, \
0.032769761979579926, \
-0.006326873786747456, \
-0.05135807394981384, \
0.04710197076201439, \
0.011742022819817066, \
0.05995279178023338, \
-0.023840317502617836, \
0.0019232219783589244, \
0.033263079822063446, \
0.0289304219186306, \
-0.009400201961398125, \
-0.019722767174243927, \
0.0015900367870926857, \
0.00342908245511353, \
-0.04251860827207565, \
-0.010487382300198078, \
0.03843237832188606, \
-0.007165019866079092, \
-0.027868719771504402, \
0.02245345339179039, \
0.0034233895130455494, \
0.011369507759809494, \
0.022803137078881264, \
0.005836683325469494, \
-0.017704498022794724, \
-0.04346751049160957, \
0.00947266723960638, \
0.0002463324344716966, \
-0.04287104681134224, \
0.024640832096338272, \
0.04336145520210266, \
-0.012198573909699917, \
-0.053346551954746246, \
0.026774141937494278, \
0.044016771018505096, \
-0.030422508716583252, \
0.01644742861390114, \
0.034291211515665054, \
-0.04689210653305054, \
-0.0021722461096942425, \
-0.0015247199917212129, \
0.0005273175775073469, \
-0.010851149447262287, \
-0.007772416342049837, \
0.030301352962851524, \
-0.041822824627161026, \
-0.023075519129633904, \
-0.024355793371796608, \
-0.04136750474572182, \
0.042063117027282715, \
-0.004091173876076937, \
0.008477956056594849, \
-0.0218130461871624, \
-0.04077057167887688, \
-0.01777046173810959, \
0.009842002764344215, \
0.015436972491443157, \
0.035385165363550186, \
0.02564743533730507, \
-0.026492847129702568, \
-0.021685361862182617, \
0.022147497162222862, \
-0.04629494622349739, \
0.04269758611917496, \
-0.004296874161809683, \
-0.014179712161421776, \
0.04067287594079971, \
-0.018151935189962387, \
0.03667948767542839, \
-0.04986611008644104, \
0.003139189211651683, \
-0.0334625318646431, \
0.022696753963828087, \
0.019607029855251312, \
-0.04284638166427612, \
-0.013480514287948608, \
-0.005661706440150738, \
-0.03138917312026024, \
0.02702789567410946, \
0.029492782428860664, \
-0.03951668366789818, \
-0.017115941271185875, \
0.005843698978424072, \
-0.036600470542907715, \
-0.026675419881939888, \
-0.03510499373078346, \
-0.021029166877269745, \
0.003682065289467573, \
0.036476634442806244, \
0.019150348380208015, \
0.006316045299172401, \
-0.018586186692118645, \
-0.042564887553453445, \
-0.02290232479572296, \
0.04569297656416893, \
-0.009655492380261421, \
-0.00029836539761163294, \
0.01801602728664875, \
0.049015190452337265, \
0.026448557153344154, \
0.06092269346117973, \
-0.030860912054777145, \
0.0015441500581800938, \
-0.03029736690223217, \
-0.04256602004170418, \
0.0017963835271075368, \
-0.0327131487429142, \
-0.03360128402709961, \
-0.0044000959023833275, \
0.023123539984226227, \
0.0012542321346700191, \
0.0350574254989624, \
-0.02353164367377758, \
0.05006399750709534, \
-0.034376487135887146, \
-0.018544794991612434, \
-0.005491767544299364, \
-0.003506990382447839, \
0.009830910712480545, \
0.004487126599997282, \
-0.04539179429411888, \
0.021414373070001602, \
0.05400967597961426, \
-0.01689574122428894, \
0.071836456656456, \
-0.03806240111589432, \
-0.028158484026789665, \
-0.013724022544920444, \
-0.01156956609338522, \
0.060788679867982864, \
0.005453580524772406, \
0.02455940656363964, \
0.034735601395368576, \
-0.04916964843869209, \
0.006570367142558098, \
-0.030329404398798943, \
0.028765808790922165, \
-0.027807826176285744, \
-0.006689500529319048, \
0.0025246823206543922, \
0.020634835585951805, \
0.036487944424152374, \
0.027386650443077087, \
0.05176004022359848, \
0.018802840262651443, \
-0.05324868857860565, \
-0.028100769966840744, \
-0.04193652793765068, \
0.004382487386465073, \
-0.02865179441869259, \
-0.05404657870531082, \
-0.02668165974318981, \
-0.05073631927371025, \
0.017678793519735336, \
0.040792711079120636, \
0.02070457860827446, \
-0.0403253473341465, \
0.00841180607676506, \
0.039336420595645905, \
0.04731082171201706, \
0.05427895858883858, \
-0.027838831767439842, \
-0.0053598457016050816, \
-0.02679392509162426, \
-0.018934737890958786, \
-0.016605807468295097, \
0.030228616669774055, \
0.011773331090807915, \
-0.011743750423192978, \
0.06146381050348282, \
0.019281812012195587, \
0.03714862838387489, \
-0.006387808825820684, \
-0.03948023170232773, \
0.07037414610385895, \
0.04929538816213608, \
0.003313438966870308, \
-0.03650593012571335, \
-0.014254686422646046, \
-0.01190869603306055, \
-0.035583700984716415, \
-0.04210668057203293, \
0.02458755299448967, \
-0.04657364264130592, \
0.04571506753563881, \
0.007488928269594908, \
0.007239240687340498, \
-0.026748517528176308, \
-0.05045744776725769, \
-0.003953087143599987, \
-0.0075575849041342735, \
0.016082003712654114, \
0.04327742010354996, \
-0.027411438524723053, \
0.023616285994648933, \
-0.04433353245258331, \
-0.029492737725377083, \
0.015837745741009712, \
-0.05584615841507912, \
0.03931843861937523, \
0.002635734621435404, \
0.012108313851058483, \
-0.05533512309193611, \
0.0059801568277180195, \
0.010427205823361874, \
0.017117058858275414, \
-0.009958680719137192, \
0.041651077568531036, \
0.015323068015277386, \
0.03285187855362892, \
-0.029105255380272865, \
-0.022533681243658066, \
0.009755303151905537, \
3.780796760111116e-07, \
0.02535519190132618, \
-0.03830057010054588, \
-0.0032546233851462603, \
-0.0030998250003904104, \
0.050432633608579636, \
0.0344112291932106, \
-0.05219642072916031, \
-0.01744825765490532, \
0.0366399846971035, \
0.017092086374759674, \
-0.005670033860951662, \
0.03288353607058525, \
-0.036315612494945526, \
0.032385945320129395, \
-0.011351536028087139, \
-0.0061098141595721245, \
0.03537757694721222, \
0.028089484199881554, \
0.004797073546797037, \
-0.04716810584068298, \
0.02776152826845646, \
0.010787241160869598, \
-0.011968242935836315, \
0.002464510500431061, \
0.019066451117396355, \
-0.011921055614948273, \
0.045895252376794815, \
-0.006905490532517433, \
-0.00993130449205637, \
-0.0008327189134433866, \
0.006463254801928997, \
0.019674258306622505, \
0.03891393542289734, \
0.012961397878825665, \
-0.040300723165273666, \
-0.048731595277786255, \
-0.05921895429491997, \
0.04085720703005791, \
0.00048295618034899235, \
-0.051964469254016876, \
-0.011436696164309978, \
0.006490617990493774, \
-0.014235422946512699, \
0.04128994792699814, \
-0.039105743169784546, \
-0.05044419318437576, \
-0.019416265189647675, \
-0.026410553604364395, \
0.04762762784957886, \
-0.006781714968383312, \
0.06521707773208618, \
-0.02602436952292919, \
-0.023710018023848534, \
-0.006055386736989021, \
0.015910809859633446, \
-0.017424842342734337, \
-0.030595174059271812, \
-0.025844348594546318, \
0.03968922048807144, \
0.06037016585469246, \
-0.02812952734529972, \
-0.04631296172738075, \
0.02314520813524723, \
0.04090425372123718, \
-0.014160934835672379, \
0.002764018252491951, \
-0.04424387961626053, \
-0.019195079803466797, \
-0.0019929406698793173, \
0.03131641447544098, \
0.01588621363043785, \
0.025263143703341484, \
0.019815171137452126, \
0.061945874243974686, \
0.0054528918117284775, \
-0.01919906958937645, \
0.04348023608326912, \
-0.03325137123465538, \
0.03598102182149887, \
-0.04542482644319534, \
-0.02962261624634266, \
-0.03357305750250816, \
0.006864691618829966, \
-0.05588533356785774, \
0.04534493014216423, \
0.014016639441251755, \
0.019865958020091057, \
0.04196901619434357, \
0.021546823903918266, \
-0.002842155285179615, \
0.03460553288459778, \
0.013798285275697708, \
-0.004309316165745258, \
0.040710046887397766, \
0.008907660841941833, \
-0.024925043806433678, \
-0.009798143059015274, \
-0.02364240400493145, \
-0.04127187281847, \
-0.04111446812748909, \
-0.02906736731529236, \
-0.008154272101819515, \
0.02705223485827446, \
-0.04800200089812279, \
0.03656119480729103, \
0.053487926721572876, \
-0.04680360481142998, \
0.007436418905854225, \
-0.00404558377340436, \
-0.05075817555189133, \
0.030389199033379555, \
0.03156436234712601, \
0.005911915097385645, \
0.009330542758107185, \
-0.05284448340535164, \
-0.041104093194007874, \
-0.011778919957578182, \
-0.017784321680665016, \
-0.04363012686371803, \
-0.0018211888382211328, \
-0.006778522860258818, \
0.01981329917907715, \
-0.017876755446195602, \
0.029337020590901375, \
-0.04009046033024788, \
0.037140607833862305, \
0.024783825501799583, \
0.04214091598987579, \
0.0020011120941489935, \
0.02502145618200302, \
0.02916804514825344, \
0.04671589285135269, \
-0.00340359122492373, \
0.04987041652202606, \
0.028753191232681274, \
-0.03443529084324837, \
-0.0036763844545930624, \
-0.02100817859172821, \
0.024428851902484894, \
-0.038964446634054184, \
-0.0047503565438091755, \
0.03426293656229973, \
-0.01583205722272396, \
-0.022865094244480133, \
0.009287088178098202, \
0.06007518246769905, \
0.02236880734562874, \
0.02928919531404972, \
-0.037304800003767014, \
-0.05202246829867363, \
0.03862945735454559, \
0.054699189960956573, \
-0.009842519648373127, \
-0.014907725155353546, \
0.005999017506837845, \
-0.015164532698690891, \
-0.029146449640393257, \
0.015147228725254536, \
-0.049084872007369995, \
0.045097559690475464, \
-0.022672370076179504, \
0.021399609744548798, \
-0.026789698749780655, \
0.02082260139286518, \
-0.03288830816745758, \
-0.037226758897304535, \
-0.03240908309817314, \
-0.038805752992630005, \
-0.019548632204532623, \
-0.017618341371417046, \
0.03388391435146332, \
-0.0033721711952239275, \
0.002501649083569646, \
0.012344119139015675, \
0.020800895988941193, \
0.04309747740626335, \
-0.020134657621383667, \
0.045002441853284836, \
-0.05396648123860359, \
-0.015216841362416744, \
-0.00023456143389921635, \
0.02575043961405754, \
0.007255038246512413, \
-0.026710044592618942, \
-0.005417841952294111, \
-0.03186391294002533, \
0.04454623907804489, \
-0.04066769778728485, \
0.014892231673002243, \
-0.005328841507434845, \
0.04267967864871025, \
-0.01158058363944292, \
-0.006482216063886881, \
-0.010528672486543655, \
0.028820784762501717, \
-0.03125239163637161, \
-0.013283910229802132, \
-0.07603449374437332, \
-0.008321116678416729, \
-0.0014882981777191162, \
0.032697539776563644, \
-0.002290452364832163, \
0.0016216053627431393, \
-0.03371128812432289, \
0.03338351100683212, \
-0.06467048823833466, \
-0.015470767393708229, \
-0.022101731970906258, \
-0.06754397600889206, \
-0.026296159252524376, \
0.014083287678658962, \
-0.07691814750432968, \
-0.03286137804389, \
-0.04734499752521515, \
0.04350006580352783, \
-0.06699451059103012, \
0.010660279542207718, \
0.006099957972764969, \
0.024702612310647964, \
0.01130093727260828, \
-0.003448203206062317, \
-0.004591900389641523, \
-0.00949312373995781, \
-0.01187936682254076, \
-0.020173268392682076, \
0.0649748370051384, \
-0.0032498277723789215, \
0.054899077862501144, \
0.022395575419068336, \
0.06974054127931595, \
0.09421080350875854, \
-0.04811625927686691, \
-0.02272620052099228, \
0.024890221655368805, \
0.09056968241930008, \
0.032599713653326035, \
-0.015797344967722893, \
-0.006913015153259039, \
0.005043108947575092, \
-0.004312302451580763, \
0.05170638859272003, \
0.0017076614312827587, \
0.03231285139918327, \
0.05017951503396034, \
0.013804596848785877, \
-0.05296802148222923, \
0.007811926305294037, \
-0.061670880764722824, \
-0.00364079512655735, \
0.014231845736503601, \
0.022515054792165756, \
-0.05697173997759819, \
0.023738203570246696, \
-0.004363215994089842, \
0.012675217352807522, \
0.010488780215382576, \
0.013660424388945103, \
0.07180345803499222, \
0.07161042839288712, \
-0.0034956145100295544, \
0.011386997066438198, \
0.020508499816060066, \
0.08601156622171402, \
0.02160884626209736, \
0.035017695277929306, \
0.0880461037158966, \
0.04884625971317291, \
0.01277230679988861, \
-0.01756596565246582, \
0.01809120550751686, \
0.006529263220727444, \
-0.0399903878569603, \
-0.07137784361839294, \
0.01791851967573166, \
-0.011612553149461746, \
-0.045951131731271744, \
-0.012830350548028946, \
-0.047896821051836014, \
0.03906426951289177, \
0.033368006348609924, \
0.030721964314579964, \
0.003272519214078784, \
-0.013030202127993107, \
0.009903647005558014, \
0.06319092214107513, \
0.0407477505505085, \
-0.07711068540811539, \
-0.037745151668787, \
0.0038580172695219517, \
0.01968494988977909, \
-0.020912960171699524, \
-0.023289242759346962, \
-0.0020129247568547726, \
0.04769990220665932, \
0.01331324316561222, \
0.008157597854733467, \
0.02479352429509163, \
-0.0036076370161026716, \
0.040119718760252, \
-0.0036824068520218134, \
0.027027156203985214, \
-0.03996817022562027, \
0.039406318217515945, \
-0.04993777722120285, \
-0.0033877133391797543, \
-0.0388464629650116, \
0.019954556599259377, \
-0.025437889620661736, \
-0.01777876727283001, \
-0.05457330122590065, \
-0.05498657375574112, \
0.04205217957496643, \
-0.0006047483766451478, \
0.038376543670892715, \
0.02094229869544506, \
-0.04270797222852707, \
-0.021731523796916008, \
0.036996934562921524, \
0.013869177550077438, \
0.03554460406303406, \
0.00861569494009018, \
-0.021380018442869186, \
0.012849094346165657, \
0.0038102110847830772, \
0.00948441494256258, \
-0.007609525695443153, \
-0.026287486776709557, \
0.010550206527113914, \
-0.005274836905300617, \
0.00022505156812258065, \
-0.0017415087204426527, \
0.02300540916621685, \
-0.027069393545389175, \
0.01026870496571064, \
0.023451970890164375, \
0.011592710390686989, \
-0.018268005922436714, \
-0.023623621091246605, \
0.0052686468698084354, \
0.004515619948506355, \
-0.01830136403441429, \
0.032632023096084595, \
0.021009324118494987, \
0.06920607388019562, \
-0.03284994140267372, \
-0.033366452902555466, \
0.01950383186340332, \
0.055038753896951675, \
0.061240166425704956, \
-0.016252368688583374, \
0.0019704338628798723, \
0.012254273518919945, \
0.013750058598816395, \
-0.027763070538640022, \
-0.05249486863613129, \
0.022709839046001434, \
-0.04199596866965294, \
0.016939867287874222, \
-0.02027401700615883, \
-0.004980145022273064, \
0.03190351650118828, \
-0.031428635120391846, \
0.034063924103975296, \
-0.02133338898420334, \
0.025949416682124138, \
0.0033870262559503317, \
-0.04447878524661064, \
-0.001916424953378737, \
-0.011688007041811943, \
-0.053248826414346695, \
0.025871405377984047, \
0.013653450645506382, \
0.017864486202597618, \
-0.030194908380508423, \
0.03261486068367958, \
-0.02814296819269657, \
0.015518136322498322, \
-0.005151876248419285, \
0.013685505837202072, \
0.04962068796157837, \
0.020190630108118057, \
-0.02308647148311138, \
0.00671802181750536, \
-0.024992089718580246, \
-0.026346005499362946, \
0.04445236548781395, \
-0.011298234574496746, \
0.00026044578407891095, \
-0.027411319315433502, \
-0.03479981794953346, \
-0.022373301908373833, \
-0.022307612001895905, \
-0.02544218674302101, \
0.024704348295927048, \
0.0049495031125843525, \
-0.016237972304224968, \
0.0076776002533733845, \
-0.027352100238204002, \
-0.057859212160110474, \
0.018065450713038445, \
-0.011860488913953304, \
-0.044057201594114304, \
-0.008186406455934048, \
-0.00944763794541359, \
-0.005135100334882736, \
0.00019090916612185538, \
-0.04028036817908287, \
-0.035972267389297485, \
-0.04701220616698265, \
-0.0463060699403286, \
0.002825538394972682, \
-0.06793457269668579, \
-0.021506501361727715, \
-0.03945840522646904, \
-0.01386286225169897, \
-0.022200938314199448, \
0.012394235469400883, \
-0.04455549269914627, \
-0.049718234688043594, \
-0.04894110560417175, \
-0.04085512086749077, \
0.011790255084633827, \
0.013563721440732479, \
-0.03667869791388512, \
-0.060790129005908966, \
-0.03678371384739876, \
0.018192509189248085, \
-0.0033976170234382153, \
-0.03804723173379898, \
-0.06710467487573624, \
-0.051601510494947433, \
0.002027153270319104, \
0.007991832681000233, \
-0.05285124480724335, \
-0.01453024335205555, \
0.0023341081105172634, \
0.004535372834652662, \
-0.0694887563586235, \
-0.037932999432086945, \
0.02274160273373127, \
0.08928915113210678, \
-0.0074557154439389706, \
0.06302272528409958, \
0.018735310062766075, \
0.06594432890415192, \
0.03951483219861984, \
-0.04762456193566322, \
-0.03298027813434601, \
-0.019913911819458008, \
0.014904435724020004, \
-0.06428943574428558, \
-0.02566830813884735, \
-0.028690315783023834, \
-0.02126871980726719, \
0.032534159719944, \
0.02100042812526226, \
-0.032667599618434906, \
-0.050013624131679535, \
-0.029996158555150032, \
0.02998100407421589, \
0.036190520972013474, \
0.022404205054044724, \
-0.02115759067237377, \
0.019863830879330635, \
0.003184892237186432, \
0.017362430691719055, \
-0.014546600170433521, \
0.016933241859078407, \
0.025828871876001358, \
-0.0015514285769313574, \
0.04937667399644852, \
0.0023242777679115534, \
0.012289280071854591, \
-0.0465582013130188, \
-0.011351468041539192, \
0.0080184331163764, \
0.012399245984852314, \
0.037436310201883316, \
-0.005338035058230162, \
0.02401871606707573, \
0.03353630751371384, \
0.012498833239078522, \
0.020657703280448914, \
0.05383525788784027, \
0.03242681920528412, \
-0.0027537967544049025, \
0.00914253480732441, \
0.07403477281332016, \
0.04112424701452255, \
0.007074563764035702, \
-0.021849116310477257, \
-0.04739970713853836, \
0.03624400496482849, \
-0.02325323224067688, \
0.023968948051333427, \
0.038638919591903687, \
-0.005581105127930641, \
-0.055015936493873596, \
-0.05479400232434273, \
0.02842489629983902, \
-0.013082795776426792, \
0.015258452855050564, \
-0.042682480067014694, \
-0.020965339615941048, \
-0.04986491799354553, \
0.033502738922834396, \
0.03480258211493492, \
0.021692754700779915, \
-0.006700064986944199, \
-0.06959077715873718, \
0.024826517328619957, \
0.019108207896351814, \
-0.06475123763084412, \
-0.010324494913220406, \
0.007103532087057829, \
-0.003426401177421212, \
-0.026021357625722885, \
-0.031210802495479584, \
0.04003765434026718, \
0.032911136746406555, \
0.008863088674843311, \
-0.02892567776143551, \
-0.06163078919053078, \
-0.0178965013474226, \
-0.015706917271018028, \
-0.060508400201797485, \
-0.03417668864130974, \
-0.020742233842611313, \
-0.015845797955989838, \
0.00925961323082447, \
-0.05698831379413605, \
0.024098990485072136, \
0.01676371321082115, \
0.003389025805518031, \
0.023585159331560135, \
0.03448280319571495, \
0.011059778742492199, \
-0.0240449458360672, \
-0.004453028552234173, \
-0.032580744475126266, \
-0.0206439346075058, \
0.06010282412171364, \
0.026858093217015266, \
-0.012171881273388863, \
-0.0038857406470924616, \
-0.04065451771020889, \
-0.025356903672218323, \
-0.005387569777667522, \
-0.04006033018231392, \
-0.04491822421550751, \
0.0003148698015138507, \
-0.03985604643821716, \
0.025110235437750816, \
-0.04594872146844864, \
-0.03967759385704994, \
-0.010741463862359524, \
-0.009013772942125797, \
-0.02611245959997177, \
-0.001885545440018177, \
-0.026004279032349586, \
-0.011365554295480251, \
0.07413911819458008, \
-0.01571820303797722, \
-0.024593690410256386, \
0.05985882133245468, \
0.00788451824337244, \
0.08789244294166565, \
0.03907015174627304, \
0.056534621864557266, \
0.027437930926680565, \
0.002402378711849451, \
0.02337811328470707, \
-0.01491303276270628, \
0.026900235563516617, \
0.05285227671265602, \
0.011288321577012539, \
0.02252930961549282, \
-0.031920935958623886, \
-0.012260470539331436, \
0.009954066947102547, \
-0.007739034481346607, \
-0.022743158042430878, \
-0.014792054891586304, \
0.018099740147590637, \
-0.043858278542757034, \
-0.021240632981061935, \
0.04556981474161148, \
-0.043192554265260696, \
0.0139614911749959, \
0.02526714652776718, \
-0.021186688914895058, \
-0.005341136362403631, \
-0.023305663838982582, \
0.058378688991069794, \
-0.020367968827486038, \
-0.0054280925542116165, \
-0.0287298746407032, \
0.010038826614618301, \
0.01839660294353962, \
0.020047355443239212, \
-0.05319415405392647, \
0.03197372332215309, \
-0.05162261798977852, \
0.0013359279837459326, \
-0.01988905854523182, \
-0.04978588595986366, \
0.018211999908089638, \
-0.016124019399285316, \
-0.010685205459594727, \
0.020552746951580048, \
-0.03527446091175079, \
0.005986169446259737, \
0.03213847428560257, \
-0.058291736990213394, \
0.024235179647803307, \
0.023839497938752174, \
-0.020440779626369476, \
0.011673622764647007, \
-0.009031355381011963, \
-0.016015248373150826, \
0.04858364909887314, \
-0.02411121129989624, \
-0.038239896297454834, \
-0.002445270773023367, \
0.022189496085047722, \
-0.02407209575176239, \
0.05229197070002556, \
-0.021492039784789085, \
0.0018280547810718417, \
0.010945934802293777, \
0.035713355988264084, \
-0.026148203760385513, \
-0.01458462979644537, \
0.016289403662085533, \
0.014666492119431496, \
0.027237070724368095, \
0.035397566854953766, \
0.008824270218610764, \
0.053206589072942734, \
0.07392842322587967, \
0.056664757430553436, \
-0.007386749144643545, \
0.03843775764107704, \
0.03894227743148804, \
0.04017304629087448, \
0.05751330778002739, \
0.013477365486323833, \
0.0584527850151062, \
-0.013023522682487965, \
0.046199455857276917, \
0.012281629256904125, \
-0.00478926720097661, \
-0.03489939123392105, \
-0.01877611316740513, \
-0.03216422721743584, \
-0.02626265026628971, \
-0.008462638594210148, \
0.04909425601363182, \
0.0228780135512352, \
-0.014169919304549694, \
-0.02507353201508522, \
0.024942781776189804, \
-0.008252175524830818, \
0.015568284317851067, \
0.023201335221529007, \
-0.030537215992808342, \
0.01513485424220562, \
-0.03253728896379471, \
0.04628409817814827, \
0.04965830594301224, \
-0.0011778698535636067, \
-0.05557152256369591, \
-0.048889972269535065, \
-0.02348666451871395, \
0.01998746581375599, \
0.04226713255047798, \
-0.04788610711693764, \
-0.012546288780868053, \
0.032723672688007355, \
-0.014941932633519173, \
0.031719136983156204, \
0.003991737030446529, \
0.013387900777161121, \
0.031233398243784904, \
-0.026135297492146492, \
-0.02151256985962391, \
-0.00496097793802619, \
-0.030985360965132713, \
0.010972484014928341, \
-0.06614946573972702, \
0.030948614701628685, \
0.027701830491423607, \
0.07880304008722305, \
-0.004343333654105663, \
-0.022366350516676903, \
-0.025732912123203278, \
-0.0070500154979527, \
-0.036662764847278595, \
0.006453975569456816, \
0.04585245996713638, \
-0.007074683904647827, \
-0.0283709317445755, \
-0.011647902429103851, \
-0.04815558344125748, \
-0.019326185807585716, \
-0.004678318277001381, \
-0.04108418524265289, \
-0.01927921175956726, \
0.01308878418058157, \
-0.039566706866025925, \
0.028994524851441383, \
-0.028991511091589928, \
0.05686585605144501, \
0.045493967831134796, \
-0.018064182251691818, \
0.05278713256120682, \
0.05924174562096596, \
0.015927733853459358, \
-0.05433354526758194, \
0.034345682710409164, \
0.06819965690374374, \
0.005161551758646965, \
-0.0019458435708656907, \
-0.009309103712439537, \
0.05139942094683647, \
-0.02998255379498005, \
-0.032117828726768494, \
0.012707959860563278, \
0.013934913091361523, \
0.044762637466192245, \
-0.02792258933186531, \
0.01261044666171074, \
0.019169611856341362, \
-0.05593932047486305, \
-0.05287477746605873, \
-0.05157429724931717, \
0.022522538900375366, \
0.0261872299015522, \
-0.052498240023851395, \
0.013649054802954197, \
-0.0009870913345366716, \
-0.02436162158846855, \
-0.02204124815762043, \
-0.04464852064847946, \
0.02035650983452797, \
-0.03822902590036392, \
0.03845346346497536, \
-0.04131282866001129, \
0.04196519777178764, \
0.003779176389798522, \
-0.03567062318325043, \
-0.0021522738970816135, \
-0.02504849247634411, \
-0.006925863213837147, \
-0.010285780765116215, \
-0.04944261536002159, \
-0.0069475332275033, \
-0.03981856629252434, \
-0.011622427962720394, \
-0.008110796101391315, \
0.029687343165278435, \
0.022678829729557037, \
-0.01785269007086754, \
0.008064077235758305, \
0.03786872699856758, \
0.02891605533659458, \
0.04331369698047638, \
-0.005069418344646692, \
0.0028085147496312857, \
-0.028832105919718742, \
0.04006964713335037, \
0.016403725370764732, \
-0.034262120723724365, \
-0.04800743609666824, \
0.003421619301661849, \
-0.0008224804187193513, \
0.04638177901506424, \
-0.01802932843565941, \
0.017986569553613663, \
0.039974190294742584, \
0.014384998939931393, \
-0.04185258597135544, \
-0.0065811146050691605, \
-0.030195042490959167, \
0.049832023680210114, \
-0.004080072045326233, \
-0.054538413882255554, \
-0.00044932286255061626, \
0.008364105597138405, \
-0.03117162548005581, \
0.011528951115906239, \
-0.0334230400621891, \
-0.033926915377378464, \
0.01723838597536087, \
0.0007984968251548707, \
0.02362257055938244, \
0.045405011624097824, \
-0.028797149658203125, \
0.0410989411175251, \
-0.0397188626229763, \
-0.0016277128597721457, \
-0.041041627526283264, \
0.012192119844257832, \
-0.005676445551216602, \
-0.013664862141013145, \
-0.018063383176922798, \
-0.05605220049619675, \
-0.0023551497142761946, \
0.01164387259632349, \
-0.049127351492643356, \
-0.0289493165910244, \
0.01526086125522852, \
-0.014205223880708218, \
0.04465790465474129, \
0.0040570031851530075, \
-0.006436397787183523, \
0.008410573936998844, \
-0.008882369846105576, \
0.013363368809223175, \
0.02781704068183899, \
0.017994672060012817, \
-0.030567806214094162, \
-0.0014977784594520926, \
0.01893853396177292, \
0.02313942275941372, \
-0.009325006976723671, \
-0.035639408975839615, \
-0.05116889998316765, \
0.01067336369305849, \
0.028388964012265205, \
0.06016593798995018, \
-0.025448348373174667, \
0.002343822969123721, \
0.0650196224451065, \
-0.01330759096890688, \
-0.02396686188876629, \
0.03157519921660423, \
-0.014364485628902912, \
0.04266148433089256, \
0.07237611711025238, \
-0.03440821170806885, \
-0.05441129207611084, \
-0.04959261044859886, \
0.017736712470650673, \
0.02346135675907135, \
-0.031211748719215393, \
0.016510916873812675, \
-0.04653836414217949, \
-0.01817944459617138, \
0.002366794040426612, \
0.017545757815241814, \
0.003563546109944582, \
0.008668807335197926, \
0.027680454775691032, \
-0.017830396071076393, \
-0.03238825127482414, \
0.04599754139780998, \
0.0444319061934948, \
0.028388964012265205, \
0.04700283706188202, \
-0.03243833780288696, \
-0.015506346710026264, \
0.03378074988722801, \
0.04545187950134277, \
-0.026372333988547325, \
0.05026908963918686, \
0.0480673648416996, \
0.010046923533082008, \
0.01626201532781124, \
0.02666078880429268, \
0.040368203073740005, \
0.01788301020860672, \
-0.056519247591495514, \
0.024138417094945908, \
-0.03894283249974251, \
-0.026311403140425682, \
0.020263006910681725, \
0.025820832699537277, \
-0.0005995662650093436, \
-0.05135217681527138, \
-0.03769361227750778, \
0.016065483912825584, \
-0.018501654267311096, \
-0.024641308933496475, \
0.037415701895952225, \
0.015242737717926502, \
-0.037200652062892914, \
0.044122494757175446, \
-0.02729114331305027, \
0.04377346485853195, \
0.028484676033258438, \
0.01882452517747879, \
-0.023951949551701546, \
-0.019920354709029198, \
-0.029644353315234184, \
-0.04867902770638466, \
0.00655797403305769, \
-0.05399012193083763, \
-0.011119907721877098, \
-0.02827654406428337, \
0.03002561442553997, \
-0.019095920026302338, \
-0.03837641328573227, \
-0.05007143318653107, \
0.009940387681126595, \
-0.025045599788427353, \
0.000707038794644177, \
-0.05027063190937042, \
-0.028429806232452393, \
0.03334901109337807, \
0.017860790714621544, \
0.03893134742975235, \
0.009901490062475204, \
-0.027098286896944046, \
0.02819114364683628, \
0.026266688480973244, \
-0.04374147951602936, \
-0.0478927306830883, \
-0.0074553778395056725, \
-0.05766133964061737, \
-0.02069547027349472, \
-0.0024373570922762156, \
-0.038062091916799545, \
0.02743104100227356, \
-0.029084334149956703, \
0.01664014719426632, \
0.004758888389915228, \
0.031589802354574203, \
0.02759438194334507, \
0.05256813392043114, \
0.040456853806972504, \
0.004054147284477949, \
-0.0017812486039474607, \
-0.023202989250421524, \
0.03543054312467575, \
-0.026591630652546883, \
0.002575372811406851, \
0.012697220779955387, \
0.07530056685209274, \
0.003594402689486742, \
0.03080686926841736, \
-0.012842640280723572, \
-0.039487775415182114, \
0.018144717440009117, \
0.01951056532561779, \
-0.03311007097363472, \
-0.009304753504693508, \
0.02503351680934429, \
0.04094040021300316, \
0.05857999995350838, \
0.059717223048210144, \
0.05297800898551941, \
0.041882894933223724, \
-0.0399584099650383, \
-0.02554257959127426, \
0.007485892158001661, \
0.01928570866584778, \
-0.051814887672662735, \
-0.020101478323340416, \
0.044623665511608124, \
-0.02012757956981659, \
-0.04793798550963402, \
-0.0019032203126698732, \
-0.025770502164959908, \
0.02599400281906128, \
-0.044681113213300705, \
0.018966738134622574, \
-0.00832926481962204, \
-0.014584045857191086, \
0.05573776736855507, \
-0.015021846629679203, \
-0.05496024340391159, \
-0.006657583639025688, \
-0.008811365813016891, \
-0.03865071386098862, \
-0.021782316267490387, \
-0.013766049407422543, \
0.038982879370450974, \
0.039446666836738586, \
-0.04167082905769348, \
-0.006271962076425552, \
0.04735095798969269, \
-0.004810886457562447, \
-0.045765820890665054, \
-0.028564857318997383, \
-0.003994889557361603, \
0.017721476033329964, \
-0.050374019891023636, \
-0.006950910668820143, \
-0.009953017346560955, \
-0.03533525764942169, \
0.02401132881641388, \
-0.00010614703205646947, \
0.044433511793613434, \
-0.03297290951013565, \
-0.03609224036335945, \
-0.018387017771601677, \
-0.009346182458102703, \
0.027744058519601822, \
-0.0377371683716774, \
0.040205005556344986, \
-0.07688138633966446, \
0.006636736914515495, \
0.001956733874976635, \
0.014246202073991299, \
-0.028734149411320686, \
-0.08421652764081955, \
0.03627738356590271, \
-0.04290565475821495, \
-0.018064036965370178, \
-0.01981206052005291, \
-0.062446195632219315, \
0.010815456509590149, \
0.011984268203377724, \
0.01769111305475235, \
-0.0017973165959119797, \
0.026364680379629135, \
0.04347134754061699, \
-0.027622824534773827, \
0.012405489571392536, \
0.03307228162884712, \
-0.03408932685852051, \
-0.008738209493458271, \
-0.036495763808488846, \
-0.022052166983485222, \
-0.05313919112086296, \
-0.04405907914042473, \
-0.001624195254407823, \
0.03155847638845444, \
0.02798466943204403, \
-0.024906013160943985, \
-0.017718084156513214, \
0.015102380886673927, \
-0.03575092926621437, \
0.03648480027914047, \
0.016229547560214996, \
-0.030712710693478584, \
0.0086510069668293, \
0.013809453696012497, \
-0.0023844025563448668, \
-0.019617753103375435, \
-0.0293820109218359, \
-0.03243451938033104, \
-0.041443560272455215, \
-0.03591422364115715, \
-0.0026904356200248003, \
0.08059948682785034, \
0.0909697562456131, \
0.10625126212835312, \
0.08484640717506409, \
0.03707926347851753, \
0.023968903347849846, \
0.11736815422773361, \
0.023188063874840736, \
0.021776897832751274, \
-0.0123844463378191, \
0.06763522326946259, \
-0.011429653503000736, \
0.045128531754016876, \
0.021296028047800064, \
0.023144200444221497, \
0.006832934450358152, \
0.016922928392887115, \
-0.008225362747907639, \
-0.020397940650582314, \
0.055759772658348083, \
0.05442974343895912, \
0.030653880909085274, \
-0.034139636904001236, \
0.012480351142585278, \
0.002912443596869707, \
-0.010640064254403114, \
0.006430081557482481, \
0.0027383530978113413, \
0.004622515290975571, \
0.002515736734494567, \
-0.016987448558211327, \
0.0017987671308219433, \
-0.0012326629366725683, \
-0.028046702966094017, \
-0.04760211706161499, \
-0.02295784279704094, \
0.0337659977376461, \
-0.03721163049340248, \
0.01585986278951168, \
-0.08576025068759918, \
-0.02058832161128521, \
0.015687409788370132, \
0.016091011464595795, \
0.006033170036971569, \
0.010032538324594498, \
0.027986736968159676, \
0.05550505220890045, \
0.04257544130086899, \
0.023885227739810944, \
-0.05230463668704033, \
0.03131789341568947, \
-0.05113774538040161, \
-0.072606660425663, \
-0.03485087305307388, \
-0.03160805255174637, \
0.008920999243855476, \
-0.037592750042676926, \
-0.06061118096113205, \
-0.01759304665029049, \
0.030919020995497704, \
0.021646516397595406, \
-0.032071154564619064, \
-0.018159402534365654, \
0.03609833866357803, \
0.04258719086647034, \
-0.04217300936579704, \
-0.04814423993229866, \
0.0012011940125375986, \
0.04119463637471199, \
-0.01762196607887745, \
-0.04195256903767586, \
-0.04294494166970253, \
-0.031515199691057205, \
-0.022595275193452835, \
0.049358904361724854, \
0.0020900999661535025, \
-0.030656177550554276, \
-0.026868024840950966, \
-0.049927596002817154, \
-0.02767789736390114, \
-0.012364910915493965, \
0.025542598217725754, \
0.01653093285858631, \
-0.02584965154528618, \
-0.07489660382270813, \
0.023020312190055847, \
0.0031048234086483717, \
-0.03956686705350876, \
-0.0479993037879467, \
-0.04491939768195152, \
0.01628716103732586, \
0.052879784256219864, \
0.05414130538702011, \
0.0094681391492486, \
-0.0037053485866636038, \
-0.02795238234102726, \
-0.03263575956225395, \
-0.018599137663841248, \
-0.03467534855008125, \
-0.04123814031481743, \
0.02174464240670204, \
-0.0013355311239138246, \
-0.04959491640329361, \
-0.018910178914666176, \
0.026491671800613403, \
0.0076612019911408424, \
-0.0038899078499525785, \
-0.04671504348516464, \
0.02904781512916088, \
0.03529183939099312, \
-0.010344021953642368, \
-0.037596944719552994, \
-0.05406371131539345, \
0.061237528920173645, \
0.04007720574736595, \
0.027527764439582825, \
0.021664245054125786, \
-0.03688519075512886, \
0.04896604269742966, \
0.0726965144276619, \
-0.04237055405974388, \
-0.044901859015226364, \
0.03337094187736511, \
-0.01826188527047634, \
-0.013585200533270836, \
0.04084169119596481, \
-0.01969332806766033, \
0.02794630266726017, \
0.0021503549069166183, \
0.022737763822078705, \
0.019297722727060318, \
-0.03786376491189003, \
0.02210885100066662, \
0.030356455594301224, \
-0.02408851683139801, \
0.02219865471124649, \
-0.048425015062093735, \
-0.02156670205295086, \
0.0034747591707855463, \
-0.04186663031578064, \
0.006122155115008354, \
-0.06211228668689728, \
0.0281138326972723, \
-0.06410536915063858, \
0.00415825005620718, \
0.023334108293056488, \
-0.006479901727288961, \
0.018469316884875298, \
0.036758050322532654, \
4.64032927993685e-05, \
-0.027491513639688492, \
-0.00017031592142302543, \
-0.0241292305290699, \
-0.008591868914663792, \
-0.029752656817436218, \
-0.019795559346675873, \
-0.0349460169672966, \
-0.03656003251671791, \
0.008242616429924965, \
-0.04401157796382904, \
0.011139530688524246, \
-0.050086624920368195, \
0.014359258115291595, \
-0.014966906979680061, \
0.0044540464878082275, \
-0.07383895665407181, \
-0.03983599692583084, \
0.02367396652698517, \
-0.035981468856334686, \
0.021082425490021706, \
0.02932448871433735, \
-0.03865553066134453, \
0.023837583139538765, \
0.05478069558739662, \
-0.04883033409714699, \
0.01160989049822092, \
-0.03536538407206535, \
-0.06031089276075363, \
-0.009416482411324978, \
0.022512326017022133, \
0.028618643060326576, \
-0.053772930055856705, \
-0.023946993052959442, \
-0.012751547619700432, \
0.0047196499072015285, \
-0.030476726591587067, \
-0.06068931519985199, \
0.016995413228869438, \
0.029126156121492386, \
0.033736322075128555, \
-0.09146725386381149, \
-0.061460454016923904, \
-0.034404151141643524, \
0.004856233950704336, \
-0.038457974791526794, \
0.004400452598929405, \
0.02762918919324875, \
-0.036301568150520325, \
-0.01759873703122139, \
0.03867756947875023, \
0.022554289549589157, \
0.00306710135191679, \
0.027981415390968323, \
0.03315330669283867, \
0.020350376144051552, \
-0.03502274304628372, \
-0.06767790019512177, \
0.019350800663232803, \
-0.053658872842788696, \
-0.008233776316046715, \
-0.022428572177886963, \
-0.058785974979400635, \
-0.058384161442518234, \
0.02837170474231243, \
-0.003183736465871334, \
-0.021103594452142715, \
0.02956993319094181, \
-0.012392444536089897, \
-0.028967123478651047, \
0.04436421021819115, \
0.010830683633685112, \
-0.011969505809247494, \
0.026631304994225502, \
0.003848825581371784, \
0.014093359932303429, \
-0.032518792897462845, \
-0.03582947328686714, \
-0.016622480005025864, \
-0.04213795065879822, \
-0.05863097682595253, \
-0.05515642464160919, \
-0.020872456952929497, \
0.02073957771062851, \
-0.035279531031847, \
-0.04065117612481117, \
-0.02457818202674389, \
0.005167288705706596, \
-0.002322766464203596, \
-0.020502842962741852, \
-0.020501116290688515, \
-0.03088468313217163, \
-0.043402910232543945, \
-0.08188951015472412, \
-0.06148012354969978, \
0.016388412564992905, \
0.038791339844465256, \
0.006357934791594744, \
-0.0673803836107254, \
-0.053906477987766266, \
-0.028937149792909622, \
0.0030820651445537806, \
0.030778031796216965, \
-0.00836548674851656, \
-0.06401194632053375, \
-0.00990207213908434, \
0.029850006103515625, \
0.05465543642640114, \
-0.004312083125114441, \
0.028309479355812073, \
-0.0710354819893837, \
-0.014815140515565872, \
-0.03055517189204693, \
0.03756839781999588, \
0.007417535874992609, \
-0.05405523255467415, \
0.044143617153167725, \
0.018377039581537247, \
0.04384772107005119, \
-0.018670465797185898, \
-0.019398538395762444, \
0.012146199122071266, \
0.011140473186969757, \
0.006247222423553467, \
0.02456652745604515, \
-0.04265597462654114, \
-0.031608741730451584, \
-0.06260325014591217, \
-0.02620982937514782, \
-0.010627465322613716, \
-0.06367617100477219, \
-0.06130325794219971, \
-0.013799402862787247, \
-0.04730496183037758, \
-0.02203276753425598, \
-0.01993958279490471, \
-0.02433762140572071, \
-0.009407784789800644, \
-0.048064254224300385, \
-0.015822386369109154, \
-0.06839295476675034, \
0.013215565122663975, \
0.024803118780255318, \
-0.0028625328559428453, \
-0.012990889139473438, \
-0.019754955545067787, \
-0.04573201388120651, \
0.004297548905014992, \
-0.0780642181634903, \
-0.015683744102716446, \
0.038542069494724274, \
-0.007721658796072006, \
-0.046179335564374924, \
0.012670673429965973, \
-0.01497507095336914, \
-0.04502091184258461, \
-0.02363770082592964, \
-0.05388814955949783, \
-0.055026471614837646, \
0.024656612426042557, \
6.209801358636469e-05, \
-0.030600199475884438, \
-0.0062059396877884865, \
0.009178309701383114, \
-0.038248252123594284, \
0.010988530702888966, \
-0.013248452916741371, \
-0.01484631933271885, \
0.013370397500693798, \
0.021923795342445374, \
-0.01958213746547699, \
-0.0310713779181242, \
-0.01568920724093914, \
0.030942678451538086, \
-0.027722088620066643, \
0.031837914139032364, \
0.02271779626607895, \
0.02186885103583336, \
0.010158143937587738, \
0.024722004309296608, \
-0.019348708912730217, \
-0.004091598559170961, \
0.04745178669691086, \
-0.06112128496170044, \
-0.04974502697587013, \
0.034397102892398834, \
0.01645692251622677, \
-0.009989132173359394, \
-0.0552922785282135, \
-0.007328941952437162, \
0.05966433882713318, \
0.008060762658715248, \
0.0010940054198727012, \
0.025427037850022316, \
-0.05165936052799225, \
0.029734883457422256, \
0.023872733116149902, \
-0.01912827603518963, \
-0.04598735645413399, \
0.02631903812289238, \
-0.03258492052555084, \
0.02345050685107708, \
0.06295769661664963, \
0.04496312513947487, \
0.038418713957071304, \
0.04452400282025337, \
0.012724743224680424, \
0.03589439019560814, \
0.13403327763080597, \
0.06278639286756516, \
0.026485325768589973, \
-0.022338807582855225, \
-0.03648611903190613, \
0.06340750306844711, \
0.0462677888572216, \
0.00020215856784489006, \
-0.052389971911907196, \
-0.01578635349869728, \
-0.0010138048091903329, \
0.01611819677054882, \
-0.03701953962445259, \
-0.012985468842089176, \
0.024177026003599167, \
-0.06665070354938507, \
0.017748849466443062, \
-0.03993447497487068, \
-0.02310531586408615, \
-0.036276619881391525, \
-0.039282429963350296, \
-0.03639402985572815, \
0.03185667097568512, \
-0.09343910217285156, \
-0.004576371517032385, \
-0.0486251600086689, \
-0.08193966001272202, \
-0.07618612796068192, \
-0.058551888912916183, \
-0.06438637524843216, \
-0.07954442501068115, \
-0.020579196512699127, \
-0.07099129259586334, \
0.020956018939614296, \
0.030170617625117302, \
-0.0488104522228241, \
0.003088084515184164, \
-0.028374260291457176, \
-0.007867525331676006, \
-0.020146872848272324, \
-0.05280439555644989, \
-0.020544061437249184, \
0.040177833288908005, \
0.06791312247514725, \
0.006786316633224487, \
-0.01869107037782669, \
0.027970224618911743, \
0.026499997824430466, \
-0.02055184356868267, \
0.036910831928253174, \
-0.014780722558498383, \
0.03238170966506004, \
0.008169849403202534, \
0.0902402475476265, \
0.04950963333249092, \
-0.005418736021965742, \
0.02448595128953457, \
0.10816200822591782, \
0.06438685208559036, \
0.014319267123937607, \
-0.028993835672736168, \
-0.029695069417357445, \
0.038757044821977615, \
0.005937047302722931, \
-0.0636041983962059, \
-0.0398763008415699, \
0.01897519826889038, \
0.025335563346743584, \
0.020935358479619026, \
-0.03145463392138481, \
-0.011871231719851494, \
0.026341870427131653, \
-0.06115701422095299, \
-0.020748218521475792, \
-0.00035351692349649966, \
0.017229590564966202, \
-0.09162338078022003, \
-0.11270613968372345, \
-0.034314777702093124, \
0.054880332201719284, \
0.02098594792187214, \
-0.0930168628692627, \
-0.07457394897937775, \
-0.045583173632621765, \
-0.04769497364759445, \
-0.0003949457313865423, \
-0.0020722197368741035, \
-0.0854458436369896, \
-0.05917046219110489, \
-0.026857493445277214, \
0.0704842135310173, \
0.020598798990249634, \
0.040126871317625046, \
-0.06401712447404861, \
0.05782628804445267, \
-0.03589484468102455, \
0.03692067787051201, \
0.0401991531252861, \
-0.026108484715223312, \
0.04327536001801491, \
-0.03154003247618675, \
-0.04836912453174591, \
0.029519813135266304, \
-0.04269822686910629, \
0.048028625547885895, \
0.0251564122736454, \
-0.017634186893701553, \
-0.026664236560463905, \
-0.07693468779325485, \
-0.06167354807257652, \
0.028574734926223755, \
-0.0035673107486218214, \
0.02092587947845459, \
-0.012152167037129402, \
-0.050082236528396606, \
-0.0032950753811746836, \
-0.032176073640584946, \
-0.033194128423929214, \
-0.019489392638206482, \
-0.029543550685048103, \
0.01538434810936451, \
0.007324033882468939, \
-0.013307519257068634, \
-0.06039261072874069, \
-0.06407125294208527, \
-0.001455463469028473, \
-0.01261941995471716, \
-0.07718086987733841, \
-0.014985322020947933, \
-0.03383808583021164, \
-0.09036759287118912, \
-0.045418258756399155, \
-0.033090073615312576, \
0.02752622961997986, \
-0.027683794498443604, \
0.026732806116342545, \
-0.0016609701560810208, \
-0.005607853643596172, \
0.038748737424612045, \
-0.004394750576466322, \
-0.022549856454133987, \
-0.06697458773851395, \
0.000595030200202018, \
-0.013337191194295883, \
0.028429001569747925, \
0.029546061530709267, \
0.059691816568374634, \
-0.023846734315156937, \
-0.004349588416516781, \
-0.02547965757548809, \
-0.035247739404439926, \
0.03360952436923981, \
-0.015158961527049541, \
-0.016016297042369843, \
-0.008170931600034237, \
-0.05477249622344971, \
-0.011619661003351212, \
0.011026114225387573, \
-0.05530468001961708, \
-0.03429174795746803, \
0.021833686158061028, \
-0.030090881511569023, \
-0.053694404661655426, \
-0.03069291263818741, \
-0.052174314856529236, \
0.00454535149037838, \
-0.03476836159825325, \
-0.027093641459941864, \
-0.0011154920794069767, \
0.05038056522607803, \
0.01500710193067789, \
0.053666822612285614, \
0.019040187820792198, \
0.03881478309631348, \
-0.028483757749199867, \
-0.01399874035269022, \
-0.006816572044044733, \
0.035763852298259735, \
0.01212683878839016, \
0.015236159786581993, \
0.0035170766059309244, \
-0.0059775919653475285, \
-0.05550679564476013, \
0.02245834283530712, \
-0.013596753589808941, \
-0.02301071584224701, \
-0.03381515294313431, \
-0.018009720370173454, \
0.04302816092967987, \
0.058841217309236526, \
0.048407044261693954, \
0.05678277090191841, \
0.046685852110385895, \
0.06147259101271629, \
5.9102414525114e-05, \
0.008237438276410103, \
0.025449542328715324, \
-0.014161487109959126, \
-0.037871118634939194, \
0.013271087780594826, \
0.014948752708733082, \
0.019743511453270912, \
0.026433415710926056, \
-0.042306214570999146, \
-0.011609431356191635, \
0.0019736657850444317, \
-0.023592086508870125, \
-0.0330839604139328, \
-0.03970709070563316, \
-0.03449806198477745, \
-0.010681167244911194, \
0.013066788204014301, \
-0.05063343793153763, \
-0.014353817328810692, \
0.006798375863581896, \
0.04412192851305008, \
0.015375478193163872, \
0.02644982747733593, \
0.03630125895142555, \
-0.001580231823027134, \
-0.01547748502343893, \
0.014986113645136356, \
0.04905778542160988, \
0.018647508695721626, \
0.011946887709200382, \
-0.048380203545093536, \
0.016396326944231987, \
-0.03414405509829521, \
-0.002844809554517269, \
-0.01696213148534298, \
0.040746185928583145, \
0.02999168075621128, \
-0.015943488106131554, \
-0.043297167867422104, \
-0.004757430870085955, \
-0.03717007115483284, \
0.004362450912594795, \
-0.019221194088459015, \
-0.04829646274447441, \
0.02609342709183693, \
0.016689086332917213, \
-0.0381779707968235, \
-0.048676833510398865, \
-0.011631378903985023, \
-0.00899648666381836, \
0.04241960868239403, \
-0.046891212463378906, \
-0.03815435245633125, \
0.005776974372565746, \
-0.012909035198390484, \
-0.08125394582748413, \
0.003150156931951642, \
-0.07221025228500366, \
-0.07102310657501221, \
0.00775356637313962, \
-0.015451427549123764, \
-0.04054417833685875, \
-0.034974440932273865, \
-0.08616788685321808, \
0.0021369876340031624, \
0.008375415578484535, \
-0.017296139150857925, \
0.00614926079288125, \
0.00807461142539978, \
-0.06531320512294769, \
-0.0506708063185215, \
-0.026983311399817467, \
0.003303314559161663, \
-0.012367923744022846, \
-0.08948492258787155, \
-0.07091279327869415, \
-0.0024747822899371386, \
-0.0753762423992157, \
-0.00798253994435072, \
-0.029843769967556, \
-0.07882344722747803, \
-0.05738011747598648, \
-0.05642467364668846, \
0.0436662994325161, \
-0.006236748769879341, \
-0.014953238889575005, \
-0.06284268945455551, \
0.029976144433021545, \
0.046504367142915726, \
0.014200065284967422, \
-0.055967673659324646, \
-0.014639580622315407, \
0.0656747817993164, \
0.008780796080827713, \
0.008555753156542778, \
0.01520031038671732, \
-0.015127803198993206, \
0.06442616134881973, \
-0.006974582560360432, \
0.012667669914662838, \
0.06139254942536354, \
0.04107275605201721, \
-0.02446177415549755, \
0.019986186176538467, \
0.0002539284760132432, \
0.03627089038491249, \
0.043842196464538574, \
0.0378510057926178, \
0.0495082288980484, \
-0.034458063542842865, \
0.05462389811873436, \
0.01560347992926836, \
-0.0039661177434027195, \
0.0654449611902237, \
0.027115672826766968, \
0.014576149173080921, \
0.010044167749583721, \
0.004224981181323528, \
0.04081537947058678, \
0.06255766749382019, \
0.01603938825428486, \
0.07537440955638885, \
0.012025331147015095, \
-0.062244921922683716, \
-0.020198684185743332, \
-0.03229774907231331, \
0.01907007209956646, \
-0.05531347543001175, \
-0.09292897582054138, \
-0.01085965521633625, \
-0.05476493760943413, \
0.052222732454538345, \
-0.05781341344118118, \
0.03742051124572754, \
-0.02094252035021782, \
-0.019434653222560883, \
-0.0038000233471393585, \
0.05394790694117546, \
0.08505000174045563, \
0.03236803039908409, \
-0.013872566632926464, \
0.034415021538734436, \
-0.01017758995294571, \
0.047014933079481125, \
-0.007216149941086769, \
-0.011438393034040928, \
0.025130653753876686, \
0.05840166658163071, \
-0.038414619863033295, \
-0.05259280279278755, \
-0.061141952872276306, \
0.021175561472773552, \
-0.05589691549539566, \
-0.009857011027634144, \
-0.03146228566765785, \
-0.0005549799534492195, \
-0.08691956102848053, \
-0.05977858975529671, \
0.0009019624558277428, \
0.02155561000108719, \
-0.02103377692401409, \
-0.05255754292011261, \
-0.05464916303753853, \
-0.019055547192692757, \
0.050284240394830704, \
0.04497804120182991, \
0.06488010287284851, \
0.020410196855664253, \
0.028439251706004143, \
0.03564292937517166, \
0.025553949177265167, \
0.04810618236660957, \
0.055816490203142166, \
-0.02465633489191532, \
0.05474834889173508, \
0.04581192880868912, \
0.0389869399368763, \
-0.005971589591354132, \
0.0687684491276741, \
0.04046739637851715, \
-0.020752346143126488, \
0.053148094564676285, \
-0.018384018912911415, \
0.042158499360084534, \
0.020606141537427902, \
0.015071884728968143, \
0.09193284064531326, \
0.031438395380973816, \
-0.00629479018971324, \
0.008421325124800205, \
-0.012989740818738937, \
0.045927878469228745, \
0.04233665391802788, \
-0.053957246243953705, \
0.012262864038348198, \
-0.01949770748615265, \
0.018985025584697723, \
0.03198939189314842, \
0.03684750571846962, \
0.023033319041132927, \
-0.09889646619558334, \
0.029057424515485764, \
-0.002453249879181385, \
0.0573122464120388, \
-0.0020288170780986547, \
0.01755879633128643, \
0.056980594992637634, \
0.021535048261284828, \
-0.023589778691530228, \
-0.06994079798460007, \
-0.03140940144658089, \
0.007378038950264454, \
0.033995747566223145, \
0.016647422686219215, \
-0.0019707379397004843, \
0.0426318533718586, \
0.018005287274718285, \
0.06712980568408966, \
-0.07854890823364258, \
-0.01881110481917858, \
-0.0005145202158018947, \
0.009780921041965485, \
0.014543415047228336, \
0.05199332535266876, \
-0.035156261175870895, \
-0.09174233675003052, \
-0.05684857815504074, \
-0.003738174680620432, \
-0.03969794139266014, \
-0.03149081766605377, \
-0.007914702408015728, \
0.014331698417663574, \
0.02809261716902256, \
-0.021091608330607414, \
-0.023243218660354614, \
0.04267244413495064, \
0.0684238001704216, \
0.032265063375234604, \
0.024180665612220764, \
6.48218410788104e-05, \
0.03409922122955322, \
0.030862532556056976, \
-0.0009149377001449466, \
0.040569838136434555, \
0.011470978148281574, \
0.10965273529291153, \
0.05831820145249367, \
0.04776265099644661, \
-0.05559796094894409, \
0.028700590133666992, \
0.0408690981566906, \
0.07521030306816101, \
0.0020779387559741735, \
0.026310419663786888, \
-0.06386639922857285, \
0.02321331948041916, \
-0.043495308607816696, \
0.04560557380318642, \
-0.05378304049372673, \
-0.07146652042865753, \
-0.06899971514940262, \
-0.08016497641801834, \
-0.07409632205963135, \
-0.06876839697360992, \
-0.0485636331140995, \
-0.012348081916570663, \
-0.07779374718666077, \
0.010570423677563667, \
0.007828881032764912, \
0.013269730843603611, \
-0.034551188349723816, \
-0.07028183341026306, \
-0.009271831251680851, \
-0.070255346596241, \
-0.043562743812799454, \
0.007975789718329906, \
0.034609872847795486, \
0.07699799537658691, \
-0.013068838976323605, \
-0.008990097790956497, \
-0.064984031021595, \
0.007347378879785538, \
-0.021004263311624527, \
0.08556767553091049, \
0.037835728377103806, \
-0.04854397475719452, \
-0.0443977490067482, \
-0.06639882922172546, \
0.003452506847679615, \
0.011690116487443447, \
-0.0188937708735466, \
-0.06768719106912613, \
0.010660083964467049, \
0.07888514548540115, \
0.020267698913812637, \
-0.040384285151958466, \
-0.03803316503763199, \
-0.05394129455089569, \
-0.02571890875697136, \
-0.04447241872549057, \
-0.0058752261102199554, \
0.003686200827360153, \
0.0773538276553154, \
-0.021807191893458366, \
0.03629036620259285, \
0.030370812863111496, \
0.012093443423509598, \
0.0806112065911293, \
0.001139182597398758, \
0.00828663818538189, \
0.0495048388838768, \
0.024233516305685043, \
0.032337866723537445, \
0.04427733272314072, \
-0.020059334114193916, \
-0.039982870221138, \
0.0389309786260128, \
0.015538498759269714, \
0.04405134543776512, \
0.027770787477493286, \
0.05466913431882858, \
0.05610530450940132, \
0.028297429904341698, \
0.009598077274858952, \
0.003389136167243123, \
-0.05853090435266495, \
0.00794519204646349, \
-0.040752436965703964, \
0.029306454584002495, \
0.04805506765842438, \
0.011327083222568035, \
0.08068612962961197, \
-0.04425296559929848, \
-0.0553702712059021, \
-0.014341882430016994, \
0.01763133704662323, \
0.06784365326166153, \
-0.03344350680708885, \
-0.07002191990613937, \
0.05847812443971634, \
0.01817101426422596, \
-0.010334761813282967, \
-0.087574802339077, \
-0.035701993852853775, \
0.02257431484758854, \
0.03376932814717293, \
0.018041959032416344, \
-0.017451029270887375, \
0.08275821805000305, \
0.02284977398812771, \
0.023147059604525566, \
-0.03491118177771568, \
0.0026629925705492496, \
0.08407425880432129, \
0.0127159608528018, \
0.002212967723608017, \
