#define fc1_bias {\
0.03214603289961815, \
-0.03136485069990158, \
0.132736474275589, \
-0.00023074998171068728, \
0.07237020134925842, \
0.03263720124959946, \
0.021700145676732063, \
0.020196981728076935, \
0.05013067275285721, \
0.05620765686035156, \
0.060232553631067276, \
0.013403176330029964, \
0.13113953173160553, \
0.07861059159040451, \
-0.04447053372859955, \
0.2602294981479645, \
0.016850221902132034, \
0.035220272839069366, \
-0.01883655972778797, \
0.11741890013217926, \
0.03836152330040932, \
0.06555888801813126, \
-0.04270317777991295, \
-0.04973502829670906, \
0.020813899114727974, \
-0.03814610466361046, \
0.06974510103464127, \
0.0472802110016346, \
-0.0913962721824646, \
-0.018818654119968414, \
-0.06212039664387703, \
-0.05915095657110214, \
-0.013863194733858109, \
0.12306230515241623, \
0.01186297181993723, \
0.024306606501340866, \
0.025894885882735252, \
-0.01001806277781725, \
0.006483002565801144, \
0.0036566583439707756, \
-0.02789231948554516, \
0.016779525205492973, \
0.07523737102746964, \
-0.028828583657741547, \
0.023348474875092506, \
0.14403247833251953, \
0.03383535146713257, \
-0.010779532603919506, \
0.01107087917625904, \
0.06251423060894012, \
-0.017151957377791405, \
-0.10507699102163315, \
-0.01245873887091875, \
-0.10109958797693253, \
0.08479612320661545, \
-0.034934669733047485, \
-0.15304630994796753, \
0.10997908562421799, \
0.012699439190328121, \
0.06953509896993637, \
0.06155921518802643, \
-0.047173287719488144, \
0.14230521023273468, \
0.11272194236516953, \
-0.013150674290955067, \
0.027409464120864868, \
-0.036424919962882996, \
-0.02844386361539364, \
0.09794340282678604, \
-0.01677805930376053, \
-0.07198398560285568, \
-0.019867314025759697, \
0.17869932949543, \
-0.0605044960975647, \
0.09807514399290085, \
-0.026904525235295296, \
-0.03242531046271324, \
-0.09519635885953903, \
0.05315396934747696, \
-0.03458963334560394, \
0.010136725381016731, \
0.030014801770448685, \
-0.028836773708462715, \
-0.1058707907795906, \
0.026783941313624382, \
-0.0021516287233680487, \
0.06772583723068237, \
0.024703485891222954, \
-0.0406656488776207, \
0.1154361218214035, \
0.0271470807492733, \
-0.009008673019707203, \
-0.016722291707992554, \
-0.022817134857177734, \
0.08543171733617783, \
-0.051920950412750244, \
-0.03193650767207146, \
0.07792548090219498, \
-0.03720375522971153, \
0.056850407272577286, \
0.09685336798429489, \
0.01927304081618786, \
-0.0837133601307869, \
0.02100188471376896, \
-0.0258269552141428, \
0.012076658196747303, \
0.13667891919612885, \
0.21447281539440155, \
-0.08486007153987885, \
0.0517738051712513, \
0.047548629343509674, \
0.04284374415874481, \
-0.04055337235331535, \
0.08979986608028412, \
0.01587795652449131, \
-0.054856620728969574, \
0.07671478390693665, \
0.17974206805229187, \
-0.08201883733272552, \
0.111582450568676, \
}
