#define fc2_weight {\
0.061195697635412216, \
0.014206958934664726, \
0.04579569026827812, \
-0.07774618268013, \
-0.12819278240203857, \
0.040352318435907364, \
-0.028066519647836685, \
0.03484342247247696, \
-0.09422926604747772, \
-0.027259333059191704, \
0.037619784474372864, \
-0.0011580110294744372, \
0.05785888805985451, \
0.012633062899112701, \
0.05510047450661659, \
0.06983773410320282, \
0.08324465155601501, \
-0.11053816229104996, \
-0.03438553214073181, \
-0.04015678912401199, \
-0.07605056464672089, \
0.054584402590990067, \
-0.0639447271823883, \
-0.060285236686468124, \
0.07603272050619125, \
-0.09234555810689926, \
0.005175208672881126, \
-0.06353428959846497, \
-0.0056702811270952225, \
-0.03527498617768288, \
-0.012428571470081806, \
-0.019826892763376236, \
-0.016671082004904747, \
-0.06129830703139305, \
0.038747161626815796, \
-0.0360557846724987, \
-0.1467512995004654, \
0.023719212040305138, \
-0.025967903435230255, \
-0.03368949517607689, \
-0.04225200414657593, \
0.0037078033201396465, \
0.0811484083533287, \
-0.03511964529752731, \
0.0424630306661129, \
-0.03291511535644531, \
-0.0003095887659583241, \
-0.1103891134262085, \
0.08160462230443954, \
-0.0014545744052156806, \
0.1073026955127716, \
-0.0706612765789032, \
-0.053483810275793076, \
-0.04316697642207146, \
0.0038918706122785807, \
-0.12500444054603577, \
-0.055201586335897446, \
0.011557990685105324, \
0.06033962592482567, \
-0.044880595058202744, \
-0.0903954952955246, \
-0.026475483551621437, \
0.04341905936598778, \
0.05598098784685135, \
-0.0581224262714386, \
0.0005396543419919908, \
-0.06406395882368088, \
0.08458435535430908, \
-0.10661515593528748, \
-0.040139056742191315, \
0.00035949971061199903, \
-0.050168029963970184, \
0.09312520176172256, \
0.0060353935696184635, \
-0.055770907551050186, \
0.017409557476639748, \
-0.05931682512164116, \
0.010320166125893593, \
-0.011470887809991837, \
0.029032353311777115, \
0.02326619252562523, \
-0.10956167429685593, \
0.02311073988676071, \
-0.1294233202934265, \
0.08519462496042252, \
0.06151541322469711, \
-0.022797323763370514, \
-0.08774466067552567, \
-0.007068492937833071, \
-0.0731116458773613, \
0.045695338398218155, \
-0.030746478587388992, \
-0.08800233155488968, \
0.03320401534438133, \
-0.025557339191436768, \
-0.11765086650848389, \
0.03422655910253525, \
-0.15024077892303467, \
0.06992106139659882, \
0.026777811348438263, \
0.126992329955101, \
-0.1996135711669922, \
0.009535005316138268, \
0.03514771908521652, \
-0.007937359623610973, \
-0.08857075870037079, \
0.06793153285980225, \
0.025109823793172836, \
0.03262752294540405, \
0.10072492063045502, \
-0.07229680567979813, \
-0.09798599034547806, \
0.04620063677430153, \
-0.029515916481614113, \
-0.01685165800154209, \
0.057059064507484436, \
-0.08201779425144196, \
0.09954188019037247, \
-0.07264343649148941, \
-0.02914022095501423, \
0.0012062402674928308, \
0.14540916681289673, \
-0.06310251355171204, \
0.00023647835769224912, \
-0.08940932899713516, \
0.0639016404747963, \
0.08341477811336517, \
-0.01727883890271187, \
-0.0384584479033947, \
-0.06564244627952576, \
-0.04413815587759018, \
-0.026689693331718445, \
-0.12224386632442474, \
0.03614098206162453, \
-0.08014895766973495, \
0.07302790880203247, \
0.09159275144338608, \
0.11984951794147491, \
-0.08284996449947357, \
0.10612069815397263, \
-0.036216381937265396, \
-0.01130588911473751, \
-0.006393809802830219, \
-0.10297832638025284, \
0.048495762050151825, \
0.019652586430311203, \
-0.11852306127548218, \
0.08100271970033646, \
-0.09535219520330429, \
-0.032701894640922546, \
0.026704344898462296, \
-0.032699521631002426, \
-0.08882008492946625, \
-0.11102685332298279, \
-0.04924827814102173, \
-0.10808773338794708, \
-0.10251062363386154, \
-0.005797247402369976, \
0.0029493821784853935, \
-0.00853746198117733, \
0.08833461999893188, \
-0.04090498760342598, \
-0.014874455519020557, \
-0.016028614714741707, \
-0.09270373731851578, \
0.12062398344278336, \
-0.015638651326298714, \
-0.024617457762360573, \
0.06525202095508575, \
0.03143628314137459, \
0.040477193892002106, \
-0.16994062066078186, \
-0.0015385684091597795, \
0.12601903080940247, \
-0.03572729602456093, \
0.1405121386051178, \
-0.08826907724142075, \
0.09215838462114334, \
0.07744777202606201, \
0.00852778647094965, \
-0.009349143132567406, \
-0.006378971505910158, \
0.0076490361243486404, \
-0.03254183754324913, \
-0.08290057629346848, \
0.017394907772541046, \
-0.04343540221452713, \
-0.014391900040209293, \
-0.051392629742622375, \
0.03418171405792236, \
-0.08618428558111191, \
0.08214237540960312, \
-0.05878560617566109, \
0.024598166346549988, \
-0.058907851576805115, \
0.03386935964226723, \
-0.0365578792989254, \
0.10064734518527985, \
-0.12609805166721344, \
0.049045875668525696, \
0.03718191385269165, \
-0.06348984688520432, \
0.016744958236813545, \
-0.06997809559106827, \
0.05424291640520096, \
-0.005765578709542751, \
-0.08272235095500946, \
-0.10984861105680466, \
0.030479315668344498, \
-0.14818350970745087, \
-0.08093417435884476, \
0.003939551301300526, \
-0.05594972148537636, \
0.010645313188433647, \
0.02164529450237751, \
0.04052301123738289, \
0.022109901532530785, \
-0.0789007619023323, \
-0.0580950528383255, \
0.03743083402514458, \
-0.12557078897953033, \
0.004265486262738705, \
0.0444074310362339, \
-0.06065209209918976, \
-0.04912438988685608, \
0.001463602646254003, \
-0.07974734157323837, \
0.13721950352191925, \
0.06797727197408676, \
0.1690698266029358, \
-0.13885287940502167, \
-0.06299589574337006, \
-0.04533698409795761, \
-0.01846609264612198, \
-0.08101999014616013, \
-0.008647097274661064, \
0.1437724232673645, \
0.07506921142339706, \
0.04072915017604828, \
-0.08837275207042694, \
-0.009763157926499844, \
0.00367849413305521, \
0.023246601223945618, \
-0.03194589167833328, \
0.08485423028469086, \
-0.05982273444533348, \
0.08190211653709412, \
-0.06547331809997559, \
0.02461349591612816, \
-0.0479152575135231, \
0.011128298938274384, \
0.09654869884252548, \
-0.0607406422495842, \
-0.04127977415919304, \
-0.08203019201755524, \
0.011490168049931526, \
-0.06252766400575638, \
-0.08436281234025955, \
0.021060064435005188, \
0.06235518306493759, \
-0.0714978575706482, \
0.0076423529535532, \
-0.05815467610955238, \
-0.09287463128566742, \
-0.0009445049799978733, \
-0.003560701385140419, \
0.010468450374901295, \
-0.09315003454685211, \
-0.00996674969792366, \
0.009536711499094963, \
-0.06323670595884323, \
-0.021543368697166443, \
-0.028268825262784958, \
0.05381059646606445, \
0.019791048020124435, \
-0.05405126512050629, \
0.01855406165122986, \
-0.08728145062923431, \
-0.05759971961379051, \
-0.04400389641523361, \
0.010732049122452736, \
0.024943633005023003, \
-0.06988019496202469, \
0.005476596765220165, \
-0.018477093428373337, \
-0.06124605983495712, \
0.087531678378582, \
0.006109154783189297, \
0.04628823325037956, \
-0.03208804503083229, \
-0.04117844998836517, \
0.009812166914343834, \
0.0029326551593840122, \
-0.019145499914884567, \
-0.03230121359229088, \
-0.11404502391815186, \
0.09326639771461487, \
-0.05174526572227478, \
0.06624250113964081, \
-0.0828121080994606, \
-0.04739896580576897, \
-0.07430591434240341, \
0.0818212553858757, \
0.008655820973217487, \
0.03396017476916313, \
0.00202981848269701, \
0.09102580696344376, \
0.04504072666168213, \
-0.04584866389632225, \
0.010625644586980343, \
0.06129100173711777, \
0.04592077434062958, \
0.1003519743680954, \
-0.07149547338485718, \
-0.08756822347640991, \
0.09414847195148468, \
0.07532010972499847, \
-0.10825309157371521, \
0.09039618074893951, \
-0.06854305416345596, \
0.020519625395536423, \
-0.014826904982328415, \
-0.04032362997531891, \
-0.003192950040102005, \
0.08339439332485199, \
0.07693935185670853, \
0.053075049072504044, \
0.0785493478178978, \
0.057003870606422424, \
0.08427976816892624, \
0.02527948096394539, \
-0.07427241653203964, \
-0.05836399272084236, \
-0.010482791811227798, \
0.06857030838727951, \
-0.02611849084496498, \
0.10573047399520874, \
0.08079839497804642, \
0.030700497329235077, \
0.0004582383844535798, \
-0.013368703424930573, \
0.028234990313649178, \
-0.09016473591327667, \
0.06758198142051697, \
-0.07995836436748505, \
-0.07579632103443146, \
-0.004270329140126705, \
0.02655096724629402, \
-0.007680433336645365, \
-0.15426784753799438, \
0.0312538705766201, \
0.01009436696767807, \
0.015537104569375515, \
-0.03633427992463112, \
0.02787541225552559, \
-0.026552364230155945, \
0.0693470761179924, \
0.023280257359147072, \
-0.09443675726652145, \
0.04484836012125015, \
-0.044700659811496735, \
0.054258108139038086, \
0.09284690022468567, \
-0.03225699067115784, \
0.041545215994119644, \
-0.037126217037439346, \
-0.029810689389705658, \
0.05103994905948639, \
-0.05428118258714676, \
0.02231651544570923, \
0.012774093076586723, \
0.03998841717839241, \
-0.12070775032043457, \
0.0684322789311409, \
0.05247162654995918, \
0.10499796271324158, \
0.13031120598316193, \
0.004780168179422617, \
0.05832539498806, \
-0.08858031034469604, \
-0.05243632569909096, \
-0.013734638690948486, \
-0.07161737978458405, \
0.017468305304646492, \
0.11388266086578369, \
-0.033698081970214844, \
-0.023747725412249565, \
-0.053451452404260635, \
0.09219609200954437, \
0.004492656793445349, \
-0.008821298368275166, \
0.11206632107496262, \
0.10030512511730194, \
0.0674099549651146, \
0.08463840186595917, \
-0.06023670360445976, \
0.0287773497402668, \
-0.07977026700973511, \
-0.05026651546359062, \
-0.03483334928750992, \
-0.05378156155347824, \
0.03259599581360817, \
0.020911414176225662, \
0.03386058658361435, \
0.07058171927928925, \
-0.022034257650375366, \
-0.011110696010291576, \
0.05498438701033592, \
0.006717557553201914, \
0.06112496927380562, \
-0.008318521082401276, \
0.07525797188282013, \
-0.042198214679956436, \
0.05433444678783417, \
0.11602342128753662, \
-0.11416509747505188, \
0.03630243241786957, \
-0.14424073696136475, \
0.02522888220846653, \
-0.047679971903562546, \
-0.0718383863568306, \
-0.028049834072589874, \
-0.016209691762924194, \
0.133385568857193, \
0.04492885619401932, \
-0.03487174212932587, \
-0.021713368594646454, \
-0.017012739554047585, \
-0.023654276505112648, \
-0.07182423770427704, \
-0.015735236927866936, \
-0.08311262726783752, \
-0.023081708699464798, \
-0.01783319003880024, \
0.03577795624732971, \
0.02936200238764286, \
-0.12013489007949829, \
0.07418130338191986, \
0.0418010950088501, \
0.008880007080733776, \
-0.00717039592564106, \
-0.08162523806095123, \
-0.05182955414056778, \
-0.020837945863604546, \
-0.06949852406978607, \
0.07130507379770279, \
-0.1593538373708725, \
-0.04509896785020828, \
-0.06778225302696228, \
-0.08197997510433197, \
0.08279301226139069, \
-0.07565464079380035, \
0.019105765968561172, \
0.06673900783061981, \
-0.01602153480052948, \
-0.02710564248263836, \
0.1056348979473114, \
0.023943856358528137, \
-0.01315375231206417, \
-0.04642203450202942, \
0.04889650642871857, \
-0.08060406893491745, \
-0.06738007813692093, \
0.10085434466600418, \
-0.04474392905831337, \
-0.07488197833299637, \
-0.046059731394052505, \
0.020131733268499374, \
0.07917451858520508, \
-0.019129721447825432, \
-0.11880229413509369, \
0.0035878324415534735, \
0.0872749537229538, \
-0.0442582331597805, \
-0.11743053048849106, \
0.01307595707476139, \
0.009082184173166752, \
0.048431869596242905, \
-0.04832486808300018, \
0.07736317813396454, \
0.09480147808790207, \
0.17494462430477142, \
-0.12315458804368973, \
0.05114879459142685, \
0.003131477627903223, \
0.014859406277537346, \
-0.04867589846253395, \
0.07300923764705658, \
0.07719815522432327, \
-0.033633604645729065, \
0.013394338078796864, \
-0.05895187333226204, \
0.07350970804691315, \
0.07830261439085007, \
-0.07495766133069992, \
-0.09882815927267075, \
0.04371809959411621, \
-0.057924576103687286, \
0.05975745618343353, \
0.05695164203643799, \
-0.0835353434085846, \
-0.040561869740486145, \
0.08894193172454834, \
0.11282283067703247, \
-0.09438211470842361, \
0.038770683109760284, \
0.024714728817343712, \
-0.04463577643036842, \
-0.011646411381661892, \
-0.09069517254829407, \
0.007119351997971535, \
-0.033851247280836105, \
0.045340199023485184, \
0.030142037197947502, \
-0.038991887122392654, \
0.005996441934257746, \
0.07344476878643036, \
0.10662979632616043, \
-0.04157107695937157, \
-0.11521663516759872, \
-0.09787195920944214, \
0.042296625673770905, \
0.03211916983127594, \
0.07618673145771027, \
-0.11446153372526169, \
0.02112606354057789, \
-0.05271533876657486, \
-0.0974142849445343, \
0.07883072644472122, \
0.05605239421129227, \
-0.07332192361354828, \
0.01098229456692934, \
0.040535666048526764, \
-0.10462969541549683, \
-0.03331587836146355, \
0.1355779469013214, \
0.11610335856676102, \
-0.0544128492474556, \
0.03658321499824524, \
0.04326178878545761, \
-0.1835498958826065, \
0.0031672795303165913, \
0.013016211800277233, \
-0.06896791607141495, \
-0.09676609933376312, \
-0.07152111083269119, \
-0.007934036664664745, \
-0.07837442308664322, \
0.09613825380802155, \
-0.0032257915008813143, \
-0.0751585066318512, \
-0.08234240859746933, \
0.08087749034166336, \
-0.05130963400006294, \
-0.004205857869237661, \
0.05714510381221771, \
0.05644417554140091, \
-0.01846899837255478, \
0.08648930490016937, \
0.034573428332805634, \
0.0019428122323006392, \
0.06453673541545868, \
-0.06528589129447937, \
-0.02738776057958603, \
-0.0793967917561531, \
-0.0788978859782219, \
-0.0467439666390419, \
0.0032718742731958628, \
0.07514270395040512, \
-0.004018165171146393, \
-0.015574231743812561, \
0.1487152874469757, \
0.11091581732034683, \
-0.08773309737443924, \
0.03879247233271599, \
0.11890257149934769, \
-0.017525428906083107, \
-0.07736806571483612, \
-0.046539656817913055, \
-0.04457235708832741, \
0.016750410199165344, \
-0.06140327826142311, \
0.09333767741918564, \
-0.02697615697979927, \
-0.12101323157548904, \
-0.06906392425298691, \
0.014325988478958607, \
0.08418823033571243, \
0.12303366512060165, \
0.0198832880705595, \
-0.053277768194675446, \
-0.0999007299542427, \
-0.049441248178482056, \
0.052241187542676926, \
-0.05856389179825783, \
-0.1569843739271164, \
-0.053900495171546936, \
0.07409553229808807, \
-0.11188296228647232, \
-0.1152917742729187, \
0.08021993935108185, \
-0.05419893562793732, \
-0.05560077354311943, \
-0.06487942487001419, \
0.09610641002655029, \
-0.028522349894046783, \
-0.06899936497211456, \
0.009363966062664986, \
-0.06618250906467438, \
-0.04282006248831749, \
-0.021810779348015785, \
0.023224618285894394, \
0.0133952796459198, \
0.00608104420825839, \
0.018177516758441925, \
-0.08846446871757507, \
-0.04211908578872681, \
-0.07726054638624191, \
0.0427432619035244, \
-0.060298480093479156, \
-0.014002597890794277, \
-0.04451008513569832, \
-0.014383813366293907, \
-0.09374328702688217, \
0.06241058558225632, \
0.04845302179455757, \
0.0260537788271904, \
0.06506802886724472, \
-0.07977695763111115, \
-0.012241756543517113, \
0.04393385723233223, \
0.05912739038467407, \
-0.03652460500597954, \
0.07207879424095154, \
0.012305130250751972, \
-0.043581124395132065, \
0.05355453863739967, \
0.10138414800167084, \
-0.03522934392094612, \
0.06976637989282608, \
0.04541993886232376, \
-0.028848588466644287, \
0.024079324677586555, \
-0.008255776017904282, \
-0.004133417271077633, \
0.013252153061330318, \
-0.04802646487951279, \
0.017552152276039124, \
0.0867704376578331, \
-0.06411534547805786, \
0.07030357420444489, \
0.003406740026548505, \
0.04175211116671562, \
-0.07490648329257965, \
-0.00131782959215343, \
0.03817962110042572, \
0.03548993542790413, \
0.021565023809671402, \
-0.009707034565508366, \
-0.07229234278202057, \
0.05234185606241226, \
0.08572749048471451, \
0.028462672606110573, \
-0.09695971757173538, \
0.006408355198800564, \
-0.03049006313085556, \
0.08265197277069092, \
-0.04233171045780182, \
-0.07909650355577469, \
0.0684908777475357, \
0.004943870007991791, \
0.05158791318535805, \
-0.06132475286722183, \
-0.0934612900018692, \
-0.014305700547993183, \
0.06309861689805984, \
-0.0868578851222992, \
-0.11330917477607727, \
0.01201759185642004, \
0.004489125218242407, \
-0.09322644770145416, \
-0.007778543047606945, \
-0.02058396302163601, \
0.08055134117603302, \
-0.020223844796419144, \
-0.04654908552765846, \
0.04618857800960541, \
-0.03782825544476509, \
0.07222066074609756, \
0.004992883186787367, \
0.02010352723300457, \
0.05599299818277359, \
0.10251405090093613, \
0.02820252627134323, \
0.07040341198444366, \
0.05098085477948189, \
-0.09976430237293243, \
-0.025700770318508148, \
-0.08737856894731522, \
0.00016177981160581112, \
-0.0477067194879055, \
0.024299433454871178, \
0.029359593987464905, \
0.07605154067277908, \
-0.02738097496330738, \
0.07705435156822205, \
-0.07152346521615982, \
-0.0839863047003746, \
0.049399495124816895, \
0.03933003917336464, \
-0.09613276273012161, \
0.044463515281677246, \
0.01941976509988308, \
0.030021490529179573, \
-0.07156883925199509, \
-0.090879887342453, \
0.07118881493806839, \
-0.05978822708129883, \
-0.06663960218429565, \
0.037301838397979736, \
-0.025053944438695908, \
0.06894250214099884, \
-0.136537566781044, \
0.06720313429832458, \
-0.0045403423719108105, \
0.0381012000143528, \
0.024185175076127052, \
-0.04235349968075752, \
-0.02192007377743721, \
-0.06778813898563385, \
-0.029149070382118225, \
-0.04717077687382698, \
0.07668908685445786, \
0.04351058229804039, \
0.014601138420403004, \
-0.01488421019166708, \
-0.01953614316880703, \
-0.03145991638302803, \
0.06183783337473869, \
0.0005194445257075131, \
-0.028370603919029236, \
0.08716855943202972, \
0.0004494305467233062, \
0.03656407445669174, \
-0.08249993622303009, \
0.046785447746515274, \
-0.006244007032364607, \
-0.02808321639895439, \
-0.11905021965503693, \
0.13520342111587524, \
0.017467733472585678, \
-0.11078420281410217, \
0.011775858700275421, \
-0.1139741837978363, \
-0.07887525856494904, \
0.013262614607810974, \
0.06831547617912292, \
0.10827333480119705, \
-0.015518398955464363, \
-0.05832536146044731, \
-0.010821966454386711, \
-0.025716392323374748, \
-0.05914130434393883, \
0.08124984800815582, \
-0.10198104381561279, \
0.13796459138393402, \
-0.020878015086054802, \
0.05506407469511032, \
-0.052113115787506104, \
-0.07084567099809647, \
-0.0019591841846704483, \
-0.10710297524929047, \
-0.049436990171670914, \
0.02702462673187256, \
0.06117263808846474, \
0.06510037928819656, \
-0.10906803607940674, \
-0.01980244554579258, \
-0.055521704256534576, \
0.11237265169620514, \
-0.18948772549629211, \
-0.020154396072030067, \
0.06220551207661629, \
0.006646836642175913, \
-0.1398027241230011, \
0.07984756678342819, \
0.08091140538454056, \
-0.0353989452123642, \
-0.06030575558543205, \
-0.03238101303577423, \
0.06271662563085556, \
0.001614255947060883, \
0.13840466737747192, \
-0.021653253585100174, \
0.012196599505841732, \
0.03385138884186745, \
-0.0721462145447731, \
0.05305368825793266, \
0.047010328620672226, \
-0.0005946214077994227, \
-0.01048496924340725, \
0.023762468248605728, \
0.04961688444018364, \
-0.00215063220821321, \
0.07526089251041412, \
0.04617173597216606, \
-0.03863651305437088, \
0.04398563504219055, \
-0.014889238402247429, \
-0.013418877497315407, \
0.04836888611316681, \
0.11967046558856964, \
-0.025531645864248276, \
0.08711907267570496, \
0.01559616718441248, \
-0.06024296209216118, \
0.035676125437021255, \
-0.01334943063557148, \
0.007188581861555576, \
0.10610844194889069, \
0.03621488809585571, \
-0.08299532532691956, \
0.004185878671705723, \
0.025601323693990707, \
0.16202406585216522, \
0.039730269461870193, \
0.12077148258686066, \
0.01048607099801302, \
0.17340239882469177, \
-0.11037260293960571, \
0.0034195827320218086, \
0.05330420657992363, \
0.07998288422822952, \
0.024940859526395798, \
0.03761501982808113, \
-0.0389305055141449, \
-0.014566164463758469, \
-0.048276085406541824, \
-0.12277054041624069, \
-0.016957346349954605, \
-0.013491407036781311, \
-0.041707247495651245, \
0.010861716233193874, \
-0.10891824960708618, \
-0.020653074607253075, \
-0.004451313056051731, \
-0.07841947674751282, \
0.010396390222012997, \
-0.010338661260902882, \
-0.008938447572290897, \
-0.0688997432589531, \
-0.18483813107013702, \
0.12116175889968872, \
0.037905074656009674, \
-0.06674297899007797, \
0.17493903636932373, \
0.10644107311964035, \
0.10841364413499832, \
-0.022674160078167915, \
-0.033797383308410645, \
-0.06252212077379227, \
-0.07607048749923706, \
-0.14917506277561188, \
-0.1462407410144806, \
0.10615440458059311, \
-0.09412611275911331, \
0.01646766997873783, \
-0.06828800588846207, \
-0.04912020266056061, \
-0.03563860058784485, \
-0.03850158676505089, \
0.009198018349707127, \
0.03751610592007637, \
0.02324935607612133, \
-0.10381752997636795, \
0.04160009324550629, \
-0.13005492091178894, \
0.06814087927341461, \
0.04370879754424095, \
0.05293399095535278, \
0.09542392939329147, \
-0.04469110816717148, \
-0.03730471432209015, \
0.014067553915083408, \
-0.10336923599243164, \
-0.04537387564778328, \
-0.0026800462510436773, \
-0.08922244608402252, \
0.022240502759814262, \
-0.004134361166507006, \
0.05692634359002113, \
0.014988324604928493, \
0.00417537335306406, \
0.06773021817207336, \
0.0043037994764745235, \
-0.05916454270482063, \
-0.00017974214279092848, \
0.02968381717801094, \
0.17970438301563263, \
0.15267139673233032, \
-0.060252100229263306, \
-0.07489494979381561, \
0.1391802281141281, \
0.05614675581455231, \
-0.06879353523254395, \
0.09687495231628418, \
0.06525110453367233, \
-0.04357345029711723, \
-0.053769808262586594, \
0.016074303537607193, \
-0.040934592485427856, \
-0.040495242923498154, \
0.0014456193894147873, \
0.1888362467288971, \
-0.10735207796096802, \
-0.07658983021974564, \
-0.02223353460431099, \
-0.0775357112288475, \
0.03296220302581787, \
-0.005519710015505552, \
-0.02642628736793995, \
0.005439047701656818, \
0.052027083933353424, \
-0.11431508511304855, \
0.06899063289165497, \
0.013790342956781387, \
0.007016463670879602, \
0.06948436796665192, \
0.09230165183544159, \
0.06744443625211716, \
0.08801134675741196, \
0.04596564173698425, \
-0.06529271602630615, \
-0.08442002534866333, \
0.07490363717079163, \
0.0443212054669857, \
-0.0021229623816907406, \
-0.008992772549390793, \
-0.11177953332662582, \
-0.13323679566383362, \
0.0466623492538929, \
-0.12167520821094513, \
-0.0008588361670263112, \
0.03516441956162453, \
0.03316425532102585, \
0.05729622393846512, \
0.013756080530583858, \
-0.06411755830049515, \
-0.1038394495844841, \
0.11453866958618164, \
0.05297168716788292, \
0.03473049774765968, \
0.02234446443617344, \
0.10460411012172699, \
0.09277550131082535, \
-0.016087178140878677, \
-0.08657535910606384, \
-0.0965966135263443, \
-0.10138769447803497, \
-0.04647000506520271, \
-0.07756273448467255, \
-0.03797732666134834, \
0.1360759735107422, \
0.12059369683265686, \
0.01732625439763069, \
-0.02823047526180744, \
-0.006011219695210457, \
0.027002137154340744, \
-0.07863382250070572, \
-0.059870608150959015, \
0.06138846278190613, \
0.07130244374275208, \
0.019108470529317856, \
0.04174216464161873, \
-0.011169254779815674, \
-0.05265294015407562, \
0.08407076448202133, \
-0.11402277648448944, \
-0.07227212190628052, \
-0.08999946713447571, \
-0.029275864362716675, \
0.03228766471147537, \
-0.07678420096635818, \
0.15648598968982697, \
0.043596502393484116, \
-0.07227859646081924, \
0.09269363433122635, \
-0.08667030185461044, \
-0.043537337332963943, \
0.05889299884438515, \
0.0837947353720665, \
0.084137924015522, \
0.12368457019329071, \
0.08828816562891006, \
-0.009714941494166851, \
-0.0019551946315914392, \
0.15870554745197296, \
0.0926973894238472, \
-0.0359218455851078, \
-0.0046830615028738976, \
-0.007112229708582163, \
0.1580239236354828, \
0.04339677840471268, \
-0.03380168601870537, \
-0.08825718611478806, \
-0.07135380059480667, \
0.09034627676010132, \
-0.10249795019626617, \
-0.058174800127744675, \
0.04412732273340225, \
-0.06176524609327316, \
-0.0038572640623897314, \
0.04023738577961922, \
-0.14070217311382294, \
0.0459807850420475, \
-0.18292787671089172, \
0.06985878944396973, \
-0.12680596113204956, \
-0.04432087764143944, \
-0.12214188277721405, \
-0.07376720011234283, \
0.01351106259971857, \
0.1084284707903862, \
0.10091297328472137, \
-0.14812852442264557, \
0.017082611098885536, \
0.08601992577314377, \
0.08163172751665115, \
0.08213190734386444, \
-0.03720737248659134, \
0.14392529428005219, \
0.015507087111473083, \
0.10987946391105652, \
-0.04503409564495087, \
0.01693033240735531, \
-0.025501461699604988, \
0.009181346744298935, \
-0.11620794236660004, \
0.007988762110471725, \
-0.0419665165245533, \
0.041638292372226715, \
-0.05863869935274124, \
-0.06418386101722717, \
0.006049849558621645, \
-0.034973613917827606, \
-0.05690758675336838, \
0.010617542080581188, \
-0.030213365331292152, \
-0.07338155061006546, \
0.022767307236790657, \
0.1320069134235382, \
-0.10332480818033218, \
-0.0759303942322731, \
-0.0030059919226914644, \
-0.02495604008436203, \
0.04863266274333, \
0.05196750909090042, \
-0.03607914596796036, \
0.06202626973390579, \
0.008969789370894432, \
0.001061679096892476, \
-0.1410837471485138, \
-0.04212241247296333, \
0.031959157437086105, \
0.07538153976202011, \
0.0064267003908753395, \
0.09178435057401657, \
-0.050368811935186386, \
0.035209495574235916, \
-0.1590864509344101, \
0.018122002482414246, \
0.030184900388121605, \
0.030291730538010597, \
-0.0011217962019145489, \
0.03190144896507263, \
0.13756850361824036, \
-0.0307686198502779, \
0.018416056409478188, \
-0.03960086777806282, \
0.0007265298627316952, \
-0.0942976325750351, \
0.05631878972053528, \
0.09867238253355026, \
0.02100592479109764, \
-0.01859436370432377, \
-0.06377438455820084, \
0.053379420191049576, \
0.0751919075846672, \
-0.030906684696674347, \
0.04177480936050415, \
0.08296848088502884, \
-0.053508978337049484, \
-0.06859620660543442, \
-0.049911390990018845, \
0.03168799728155136, \
0.0138963358476758, \
0.02184048481285572, \
0.05377030745148659, \
-0.024010207504034042, \
0.03469119593501091, \
-0.033140070736408234, \
-0.08719490468502045, \
-0.0709131583571434, \
0.06093190982937813, \
-0.13173429667949677, \
-0.011594738811254501, \
0.03946523368358612, \
-0.015364525839686394, \
0.09805572032928467, \
0.09395060688257217, \
0.04741809144616127, \
0.05273938179016113, \
0.07814004272222519, \
0.00267400243319571, \
-0.11428055167198181, \
0.013957084156572819, \
-0.06424024701118469, \
-0.032895006239414215, \
-0.017306020483374596, \
0.002664261031895876, \
0.0028418577276170254, \
0.01559381652623415, \
-0.09694059193134308, \
0.04229076951742172, \
-0.022195352241396904, \
-0.04182516410946846, \
-0.013153839856386185, \
-0.012861626222729683, \
0.015693582594394684, \
0.00661994656547904, \
-0.08782243728637695, \
-0.0003041246673092246, \
0.028451284393668175, \
0.126799076795578, \
-0.06553792953491211, \
0.031845010817050934, \
-0.01077145803719759, \
-0.041614387184381485, \
0.04092498868703842, \
-0.04620745778083801, \
0.015095550566911697, \
0.01254471205174923, \
-0.0802653506398201, \
-0.0256928950548172, \
0.09833366423845291, \
0.056881580501794815, \
-0.05202135071158409, \
-0.026525046676397324, \
0.019356105476617813, \
-0.0520336739718914, \
-0.06779510527849197, \
-0.03608094900846481, \
-0.1292760968208313, \
0.1058725118637085, \
-0.06990780681371689, \
0.008657624013721943, \
0.01728159561753273, \
0.1908223181962967, \
-0.016866208985447884, \
0.04066430777311325, \
-0.047282878309488297, \
0.039900217205286026, \
0.035611510276794434, \
0.1553337574005127, \
-0.04972568154335022, \
-0.017148498445749283, \
-0.07874185591936111, \
0.10005326569080353, \
0.08974215388298035, \
-0.11782003194093704, \
-0.12017214298248291, \
-0.0326862707734108, \
-0.08640696853399277, \
-0.014879808761179447, \
0.05004705488681793, \
0.016760490834712982, \
-0.11585523933172226, \
0.12507027387619019, \
-0.025965237990021706, \
0.08047965914011002, \
0.04795323684811592, \
0.03848482295870781, \
-0.05445869639515877, \
-0.02803143486380577, \
-0.010169636458158493, \
0.03586261346936226, \
-0.042076364159584045, \
-0.08999991416931152, \
0.004124507773667574, \
-0.05940506234765053, \
0.04793237894773483, \
0.04606632888317108, \
-0.021548839285969734, \
-0.11795765161514282, \
-0.037829380482435226, \
0.03849635645747185, \
0.07839027792215347, \
0.002440349431708455, \
-0.059618789702653885, \
-0.004653364885598421, \
-0.09811650216579437, \
0.004598889499902725, \
0.016027702018618584, \
0.07022511959075928, \
0.025841085240244865, \
-0.06491544842720032, \
0.05316922068595886, \
-0.0030158250592648983, \
-0.028506092727184296, \
-0.1495702862739563, \
0.06931348890066147, \
-0.03297716751694679, \
0.16080743074417114, \
-0.0623529851436615, \
0.03615349531173706, \
0.002975027309730649, \
-0.011777792125940323, \
0.1382814198732376, \
-0.06012996658682823, \
-0.01670701988041401, \
0.01053820364177227, \
0.07447977364063263, \
-0.04278440773487091, \
0.010965481400489807, \
0.06234586983919144, \
0.010507365688681602, \
0.016300054267048836, \
-0.10016600042581558, \
0.023416943848133087, \
0.06805586069822311, \
0.10654435306787491, \
-0.06929246336221695, \
0.009923138655722141, \
-0.1631346046924591, \
0.047091275453567505, \
-0.016598960384726524, \
0.049873046576976776, \
0.0796155259013176, \
0.10029445588588715, \
0.0354190394282341, \
0.17077092826366425, \
0.05712556093931198, \
-0.12070765346288681, \
0.060342974960803986, \
-0.11642182618379593, \
-0.08871189504861832, \
-0.01808297447860241, \
0.03926030546426773, \
-0.0663178563117981, \
-0.1170998364686966, \
0.10527877509593964, \
0.02211267314851284, \
0.0547199621796608, \
0.037067051976919174, \
-0.03823871910572052, \
-0.005551963113248348, \
0.038846515119075775, \
0.18112041056156158, \
0.08267487585544586, \
0.027800457552075386, \
-0.0470510870218277, \
-0.08073721081018448, \
0.08246354013681412, \
0.0059983558021485806, \
-0.10989110171794891, \
-0.026412440463900566, \
0.004423597361892462, \
0.03320535644888878, \
-0.009466073475778103, \
0.07514383643865585, \
0.09683224558830261, \
0.0978921577334404, \
0.0591304749250412, \
0.08265292644500732, \
-0.04155934229493141, \
0.02317475713789463, \
0.09275700151920319, \
-0.035353418439626694, \
-0.047672443091869354, \
0.04796614870429039, \
-0.019972125068306923, \
0.10142455250024796, \
0.04467358812689781, \
0.00235972972586751, \
0.04051268473267555, \
0.039196114987134933, \
-0.027883686125278473, \
0.05130989849567413, \
0.06907748430967331, \
-0.021059144288301468, \
0.0783541202545166, \
-0.0983736515045166, \
-0.05498278886079788, \
-0.001064701471477747, \
-0.04423260688781738, \
0.10321372002363205, \
0.1198078915476799, \
0.01845518872141838, \
-0.1037500649690628, \
0.013960780575871468, \
-0.07209555059671402, \
0.04525725170969963, \
-0.026970379054546356, \
-0.037182971835136414, \
0.11460661143064499, \
-0.04771143198013306, \
0.036962829530239105, \
-0.0753026232123375, \
-0.09650059044361115, \
-0.036745402961969376, \
-0.09237004071474075, \
-0.003856120863929391, \
0.10760337859392166, \
0.12490884959697723, \
0.0702492967247963, \
-0.04222502559423447, \
0.033389344811439514, \
-0.039197709411382675, \
-0.008491069078445435, \
-0.03858717903494835, \
-0.021364087238907814, \
-0.035869162529706955, \
0.14818045496940613, \
-0.021033402532339096, \
0.09844710677862167, \
-0.057627398520708084, \
0.047725360840559006, \
-0.06374631077051163, \
0.0452297143638134, \
0.07381775230169296, \
0.026828661561012268, \
0.01171482540667057, \
-0.0739271491765976, \
-0.06231334060430527, \
0.06258805841207504, \
0.03911735489964485, \
-0.042363449931144714, \
0.07222840189933777, \
0.056450944393873215, \
0.07307124882936478, \
0.05180789530277252, \
-0.0015243745874613523, \
0.03757166862487793, \
0.024565940722823143, \
-0.0350680910050869, \
-0.04383845254778862, \
-0.03963375464081764, \
0.009596876800060272, \
-0.07207214832305908, \
0.05541010946035385, \
-0.08228928595781326, \
0.06618580967187881, \
-0.028280755504965782, \
0.09553418308496475, \
0.03143373876810074, \
-0.020751871168613434, \
0.1144498661160469, \
-0.093999944627285, \
0.05894697085022926, \
-0.05806942284107208, \
0.060604386031627655, \
0.023184355348348618, \
0.00211560376919806, \
-0.02109360694885254, \
0.08730579167604446, \
0.07757300138473511, \
0.07628811150789261, \
-0.056733351200819016, \
-0.07819913327693939, \
0.002884835936129093, \
-0.02834661304950714, \
0.07072910666465759, \
0.028729191049933434, \
0.03792425990104675, \
0.04207482188940048, \
-0.07248874008655548, \
-0.03494130074977875, \
0.03755557909607887, \
-0.05299200862646103, \
-0.10716647654771805, \
0.11787709593772888, \
0.03708147630095482, \
-0.02213261090219021, \
-0.03212423995137215, \
0.08619224280118942, \
0.05280349776148796, \
-0.050181470811367035, \
0.02545205131173134, \
-0.008712037466466427, \
-0.03937859460711479, \
-0.0702800303697586, \
0.05179278925061226, \
0.003434724174439907, \
0.005654419772326946, \
-0.01471549179404974, \
0.019335612654685974, \
-0.09028413146734238, \
-0.10692188888788223, \
-0.07919846475124359, \
0.07666938751935959, \
-0.018969690427184105, \
-0.07903136312961578, \
-0.07780876010656357, \
-0.098464235663414, \
0.044057536870241165, \
0.0828646570444107, \
-0.06881550699472427, \
0.005677829030901194, \
-0.08581678569316864, \
-0.09681712090969086, \
-0.01138972956687212, \
-0.04082110524177551, \
0.10007628798484802, \
0.0018903384916484356, \
0.08045610040426254, \
-0.07655304670333862, \
-0.04666440188884735, \
-0.012506772764027119, \
0.07255662232637405, \
-0.07470560818910599, \
0.007976568304002285, \
-0.01137983426451683, \
-0.022742288187146187, \
-0.032841142266988754, \
0.06784677505493164, \
-0.02436397224664688, \
-0.054325465112924576, \
-0.009953583590686321, \
-0.09069179743528366, \
0.018786674365401268, \
0.07590042799711227, \
0.0028125878889113665, \
-0.03770928084850311, \
0.0008308804826810956, \
-0.02512563392519951, \
0.06594356894493103, \
-0.003626889083534479, \
-0.05841381847858429, \
-0.0584808848798275, \
0.016447944566607475, \
-0.1488497257232666, \
-0.04213142767548561, \
-0.13328559696674347, \
0.013530444353818893, \
-0.03349371999502182, \
-0.01847013086080551, \
-0.015458885580301285, \
0.0465620793402195, \
-0.02733345702290535, \
-0.0643414780497551, \
-0.04743483290076256, \
0.06684932112693787, \
-0.013447269797325134, \
0.08119860291481018, \
-0.07272014766931534, \
-0.021313808858394623, \
-0.08162973076105118, \
0.0329061858355999, \
0.003741638036444783, \
-0.08858975023031235, \
-0.05200862139463425, \
-0.05937359482049942, \
0.03417903557419777, \
0.051086895167827606, \
-0.029577700421214104, \
0.05703836679458618, \
-0.07632619142532349, \
0.0024371163453906775, \
-0.050108134746551514, \
-0.06298809498548508, \
-0.07540664821863174, \
-0.06027819961309433, \
-0.0035682874731719494, \
0.026889532804489136, \
0.13267359137535095, \
0.05376484617590904, \
0.12161048501729965, \
0.07885948568582535, \
-0.07354515790939331, \
0.03363538160920143, \
-0.017193352803587914, \
0.09159893542528152, \
-0.033053573220968246, \
0.016446122899651527, \
0.05922911688685417, \
-0.004872833378612995, \
-0.05877731367945671, \
0.0756915882229805, \
0.007160198409110308, \
0.02291112393140793, \
-0.1051076278090477, \
-0.010149220936000347, \
-0.11170323938131332, \
-0.032346513122320175, \
-0.04624547064304352, \
-0.011658506467938423, \
-0.07827042788267136, \
-0.023526841774582863, \
0.09772384166717529, \
-0.0328398272395134, \
-0.02673761174082756, \
0.02699362486600876, \
0.09106665104627609, \
0.03389535844326019, \
0.0726722851395607, \
-0.07977741211652756, \
-0.04809056967496872, \
0.08074773848056793, \
0.11514370888471603, \
-0.002478304784744978, \
0.03644021973013878, \
-0.027723610401153564, \
-0.07504745572805405, \
-0.09128914773464203, \
-0.12713754177093506, \
0.07770782709121704, \
-0.05989265441894531, \
0.04087015986442566, \
-0.04747314751148224, \
0.020783036947250366, \
-0.03995441272854805, \
0.07196342200040817, \
-0.07953600585460663, \
0.09269075840711594, \
-0.02088901959359646, \
0.0452641025185585, \
0.0627918466925621, \
0.05390818044543266, \
-0.04430943727493286, \
0.07407849282026291, \
0.03881186991930008, \
-0.09525825083255768, \
-0.049364592880010605, \
0.031240137293934822, \
0.10573752969503403, \
0.06713362038135529, \
0.008818487636744976, \
-0.031227389350533485, \
0.04902750626206398, \
0.030533317476511, \
0.0018242307705804706, \
0.08706577867269516, \
-0.06975611299276352, \
0.013178755529224873, \
-0.051292162388563156, \
0.022017473354935646, \
-0.05100581422448158, \
-0.05261150375008583, \
0.02288099005818367, \
0.13071313500404358, \
-0.02365260384976864, \
-0.06690629571676254, \
0.010328885167837143, \
0.08809774369001389, \
-0.054614126682281494, \
-0.10415982455015182, \
-0.04626515880227089, \
-0.04456596076488495, \
0.06774704903364182, \
0.07676353305578232, \
-0.07384797185659409, \
0.08610865473747253, \
0.040344126522541046, \
0.0037635064218193293, \
0.0013736726250499487, \
0.07890474051237106, \
0.04520035162568092, \
-0.0426638126373291, \
0.0475357323884964, \
0.018291274085640907, \
0.009431363083422184, \
0.016339868307113647, \
-0.08538678288459778, \
-0.019730428233742714, \
-0.07499205321073532, \
0.0012470384826883674, \
0.0491904653608799, \
-0.017824310809373856, \
0.06482787430286407, \
-0.015160979703068733, \
-0.00779899675399065, \
-0.08555915206670761, \
-0.06158079579472542, \
0.01573929749429226, \
-0.05377645418047905, \
0.054736118763685226, \
0.0743025615811348, \
-0.010629451833665371, \
0.02962714619934559, \
-0.046118900179862976, \
-0.03289397433400154, \
0.03603053465485573, \
-0.019213007763028145, \
-0.04148342087864876, \
-0.044611647725105286, \
-0.047021035104990005, \
0.0019319880520924926, \
-0.07152184098958969, \
0.038847941905260086, \
-0.036922305822372437, \
-0.029137520119547844, \
0.014350310899317265, \
0.05332557111978531, \
-0.059725675731897354, \
-0.0009572271956130862, \
-0.036711521446704865, \
0.016936318948864937, \
0.0400027297437191, \
-0.005165817216038704, \
-0.03682085871696472, \
0.023806411772966385, \
-0.07944925874471664, \
0.0741105005145073, \
-0.04069281369447708, \
-0.06635096669197083, \
-0.043356310576200485, \
0.08330143243074417, \
-0.05104784667491913, \
-0.0029172131326049566, \
-0.07609641551971436, \
-0.032327551394701004, \
-0.00046097696758806705, \
0.011336144991219044, \
0.009600885212421417, \
-0.031193086877465248, \
0.044108178466558456, \
0.009785541333258152, \
-0.04609568417072296, \
-0.025552893057465553, \
0.07087430357933044, \
0.021463142707943916, \
0.05908184126019478, \
-0.014890107326209545, \
0.0544038824737072, \
0.03167639672756195, \
-0.015580234117805958, \
-0.06722556054592133, \
-0.05639722943305969, \
0.03282030671834946, \
-0.014156769029796124, \
0.044823937118053436, \
0.04019525274634361, \
-0.06723694503307343, \
-0.004617027007043362, \
-0.03991543501615524, \
-0.03824881091713905, \
0.06222088262438774, \
-0.05746788904070854, \
-0.06784690916538239, \
0.0201786570250988, \
-0.03045465797185898, \
-0.07402481138706207, \
-0.0275675468146801, \
0.04425453394651413, \
-0.018642639741301537, \
-0.04241938143968582, \
-0.07206190377473831, \
-0.0016935706371441483, \
0.02934717759490013, \
0.08321513235569, \
0.051920294761657715, \
0.007008592132478952, \
0.008414098061621189, \
-0.065553680062294, \
0.031107712537050247, \
-0.046549804508686066, \
-0.08786681294441223, \
0.09817245602607727, \
-0.060011085122823715, \
0.07773780822753906, \
-0.039641670882701874, \
-0.05918072536587715, \
-0.08770789206027985, \
0.04070252925157547, \
-0.025672193616628647, \
0.005756061524152756, \
-0.04452976584434509, \
-0.08170152455568314, \
-0.03468945994973183, \
-0.027731021866202354, \
-0.005833178758621216, \
0.022295353934168816, \
0.029249563813209534, \
-0.027881788089871407, \
0.016184980049729347, \
-0.04915573075413704, \
-0.07065387815237045, \
0.07944408059120178, \
-0.05179843679070473, \
-0.01682562381029129, \
-0.08913639187812805, \
-0.044105131179094315, \
0.014178341254591942, \
-0.025133170187473297, \
0.07708655297756195, \
0.016451438888907433, \
-0.07679769396781921, \
-0.010507887229323387, \
-0.059480972588062286, \
-0.006860416382551193, \
0.07653488218784332, \
-0.06088142842054367, \
0.009227000176906586, \
-0.05360608547925949, \
-0.08716689795255661, \
0.08922503888607025, \
0.08959677070379257, \
0.019503310322761536, \
-0.017778759822249413, \
-0.08816947788000107, \
-0.019609160721302032, \
-0.033348605036735535, \
0.06778211146593094, \
-0.050532467663288116, \
-0.07076922059059143, \
-0.08253598213195801, \
-0.060394518077373505, \
0.06716883927583694, \
-0.005776482168585062, \
0.04098307341337204, \
-0.08589816093444824, \
-0.004646213725209236, \
0.009548635222017765, \
0.06531797349452972, \
-0.002381732687354088, \
0.043230462819337845, \
-0.0450623482465744, \
-0.08150632679462433, \
-0.03849394991993904, \
-0.007891585119068623, \
0.019031947478652, \
0.005401373375207186, \
-0.07000967860221863, \
-0.0581907257437706, \
0.023680781945586205, \
0.032136768102645874, \
-0.08054172247648239, \
-0.008658032864332199, \
-0.048611901700496674, \
-0.06526374071836472, \
0.05235663801431656, \
-0.024734854698181152, \
0.0003733457997441292, \
0.06750503927469254, \
0.07274962216615677, \
0.001210764516144991, \
0.08530701696872711, \
0.05702318996191025, \
0.06846994906663895, \
-0.08699961751699448, \
0.03895290568470955, \
0.03840813413262367, \
-0.016498979181051254, \
0.07919780164957047, \
-0.05851025506854057, \
-0.0021321377716958523, \
-0.05923309549689293, \
-0.07872818410396576, \
3.3549491490703076e-05, \
0.05019074305891991, \
-0.017539819702506065, \
0.027583584189414978, \
-0.06607531756162643, \
-0.059226833283901215, \
-0.08619357645511627, \
-0.0463203527033329, \
0.010970194824039936, \
-0.015691585838794708, \
0.01547064445912838, \
0.08229980617761612, \
-0.04060409218072891, \
-0.03758402541279793, \
0.06876470148563385, \
-0.052035629749298096, \
-0.08633536100387573, \
-0.001924488926306367, \
-0.09168858081102371, \
-0.04462603107094765, \
0.0570252500474453, \
-0.04633662477135658, \
-0.04845445975661278, \
-0.05968356877565384, \
0.028416220098733902, \
-0.015734069049358368, \
-0.06151377409696579, \
0.05372180417180061, \
0.023737093433737755, \
-0.030144795775413513, \
-0.08211818337440491, \
-0.02049812115728855, \
0.06739480048418045, \
0.04869941249489784, \
0.024323755875229836, \
0.005422782152891159, \
-0.08987145125865936, \
0.026393938809633255, \
0.02514694444835186, \
0.046827249228954315, \
-0.028460968285799026, \
-0.08414742350578308, \
0.03524870425462723, \
-0.0647645816206932, \
0.02440113015472889, \
-0.021929780021309853, \
0.02508491836488247, \
0.03839904069900513, \
0.005414331331849098, \
0.011957187205553055, \
0.07358836382627487, \
-0.0390944667160511, \
-0.0343107171356678, \
0.05941205844283104, \
-0.06743259727954865, \
0.07315342128276825, \
-0.01063854806125164, \
-0.02022436261177063, \
-0.020398525521159172, \
0.007802268024533987, \
-0.08857801556587219, \
-0.08071297407150269, \
0.05102323740720749, \
-0.055200401693582535, \
-0.061203163117170334, \
0.006273328326642513, \
-0.021232204511761665, \
-0.05474969372153282, \
0.0001223041908815503, \
-0.04405730590224266, \
0.025495033711194992, \
-0.052466657012701035, \
0.044640544801950455, \
-0.08460094034671783, \
-0.0585201159119606, \
-0.022402647882699966, \
-0.00992355402559042, \
0.019486673176288605, \
-0.0842021256685257, \
-0.025767214596271515, \
0.01246369257569313, \
-0.07433862239122391, \
-0.017466317862272263, \
-0.08153890073299408, \
0.08058726042509079, \
-0.01326244417577982, \
-0.06831606477499008, \
-0.06636197119951248, \
-0.019363224506378174, \
0.02755017578601837, \
-0.07715997099876404, \
0.017397325485944748, \
0.01418098621070385, \
-0.08707918226718903, \
-0.07111795246601105, \
-0.09849008172750473, \
0.029380088672041893, \
0.055945225059986115, \
-0.08017095178365707, \
0.015393532812595367, \
-0.07429361343383789, \
0.014750169590115547, \
0.06905832886695862, \
0.034716516733169556, \
0.03363130986690521, \
-0.05583854764699936, \
0.0026083544362336397, \
0.07741846144199371, \
-0.0778675377368927, \
-0.020332520827651024, \
0.014963134191930294, \
-0.023835735395550728, \
0.004172125365585089, \
-0.08460979908704758, \
-0.062391411513090134, \
0.01018376462161541, \
0.07815729081630707, \
-0.061273932456970215, \
-0.03324449062347412, \
0.04511162266135216, \
0.04472764581441879, \
-0.04420996084809303, \
-0.08332880586385727, \
-0.07333354651927948, \
-0.05850872024893761, \
0.06595858186483383, \
0.08188939839601517, \
-0.09026221930980682, \
0.055694326758384705, \
-0.019085705280303955, \
0.0795963853597641, \
0.04256962239742279, \
-0.06655772030353546, \
-0.08655299991369247, \
-0.03202924504876137, \
-0.056807104498147964, \
-0.09214498102664948, \
-0.04080047085881233, \
-0.0027643258217722178, \
0.027697119861841202, \
0.054939672350883484, \
0.009523380547761917, \
-0.05718377232551575, \
-0.03323108330368996, \
-0.05478346347808838, \
-0.00617314362898469, \
-0.09385401010513306, \
0.04711500555276871, \
0.018378298729658127, \
-0.013667882420122623, \
-0.07052799314260483, \
0.019086971879005432, \
0.0178952869027853, \
0.0807432308793068, \
0.0029051483143121004, \
0.03762184455990791, \
-0.06856313347816467, \
-0.04324054345488548, \
-0.05869545415043831, \
-0.04902944713830948, \
-0.04144342988729477, \
-0.089387446641922, \
-0.08037833124399185, \
-0.04430942237377167, \
-0.029017338529229164, \
-0.057971466332674026, \
0.07752956449985504, \
-0.02254750393331051, \
-0.057907700538635254, \
0.00918299239128828, \
-0.0002530471538193524, \
0.04631911218166351, \
0.0011615823023021221, \
0.049128852784633636, \
0.022481223568320274, \
-0.05718119814991951, \
-0.08493734151124954, \
-0.013351622968912125, \
-0.10630089789628983, \
0.025568798184394836, \
-0.05123577266931534, \
0.010443574748933315, \
0.10338486731052399, \
0.04083757475018501, \
0.04066753759980202, \
-0.09162525832653046, \
-0.02554226480424404, \
0.09772489219903946, \
0.014344586059451103, \
-0.01793486252427101, \
-0.04130540043115616, \
-0.09071696549654007, \
-0.02114850841462612, \
0.014061610214412212, \
0.06696265190839767, \
0.04801464453339577, \
0.04906625300645828, \
0.04663706570863724, \
-0.04198545962572098, \
-0.05721912160515785, \
0.03127909451723099, \
0.04408707842230797, \
-0.08793260902166367, \
-0.02744629606604576, \
-0.023755747824907303, \
-0.07151005417108536, \
0.0786944106221199, \
0.0847320631146431, \
0.07115216553211212, \
-0.09145776927471161, \
-0.037025339901447296, \
0.056933481246232986, \
0.06512071192264557, \
-0.11792133003473282, \
-0.07477717101573944, \
-0.038071759045124054, \
-0.01980561949312687, \
0.058545444160699844, \
-0.11018056422472, \
0.14228804409503937, \
0.029511280357837677, \
-0.06374242901802063, \
-0.004232127219438553, \
-0.021925784647464752, \
-0.0073748002760112286, \
-0.0552070289850235, \
0.026664724573493004, \
-0.035509221255779266, \
-0.016489513218402863, \
0.03656503185629845, \
0.10510508716106415, \
-0.06337827444076538, \
-0.06145121529698372, \
-0.026394644752144814, \
0.05950082838535309, \
-0.0433444082736969, \
0.027528515085577965, \
0.08394289761781693, \
0.05780981853604317, \
0.09395461529493332, \
-0.08586273342370987, \
-0.01465942244976759, \
0.016913315281271935, \
0.05168812721967697, \
-0.037960100919008255, \
-0.000704672303982079, \
0.010461430065333843, \
0.05927807837724686, \
0.045596811920404434, \
0.011751311831176281, \
-0.03732197359204292, \
0.04903828352689743, \
0.017080871388316154, \
0.029114671051502228, \
0.029459379613399506, \
-0.049103301018476486, \
0.08539386838674545, \
-0.08001546561717987, \
-0.018036607652902603, \
-0.06975945085287094, \
-0.052717212587594986, \
-0.026169555261731148, \
0.013761945068836212, \
0.09377317130565643, \
-0.029996922239661217, \
0.01925087533891201, \
-0.0246614757925272, \
-0.003424292430281639, \
-0.07484843581914902, \
0.042055148631334305, \
0.026805642992258072, \
-0.13550123572349548, \
0.08792280405759811, \
-0.017378225922584534, \
-0.04658990725874901, \
0.019801123067736626, \
-0.002606944413855672, \
0.009723225608468056, \
0.042784593999385834, \
-0.09067068994045258, \
0.03554709628224373, \
-0.08909068256616592, \
0.1505725085735321, \
-0.05815260857343674, \
-0.12563645839691162, \
0.16518338024616241, \
0.0712522491812706, \
-0.04082052782177925, \
0.022244827821850777, \
-0.048611123114824295, \
-0.0008348174160346389, \
0.07158970087766647, \
0.06897059082984924, \
-0.07425732165575027, \
-0.13616055250167847, \
0.08484498411417007, \
0.08326217532157898, \
-0.0032905032858252525, \
0.0012488324427977204, \
0.03729989752173424, \
0.05242113023996353, \
0.10417599976062775, \
0.03827724605798721, \
-0.06502945721149445, \
0.1104046031832695, \
-0.027592847123742104, \
-0.11165205389261246, \
0.0066955904476344585, \
0.033167071640491486, \
-0.06636150926351547, \
0.02432940900325775, \
0.0021996600553393364, \
-0.06302858889102936, \
-0.054679807275533676, \
-0.04783347249031067, \
-0.08736716955900192, \
-0.015614024363458157, \
0.03252290189266205, \
-0.008044934831559658, \
0.03637990728020668, \
-0.04389747232198715, \
0.002589963609352708, \
-0.009639753960072994, \
0.00882613006979227, \
-0.06191297248005867, \
-0.07242545485496521, \
0.07157064974308014, \
-0.017721034586429596, \
0.06046750769019127, \
0.0029981941916048527, \
-0.042432889342308044, \
-0.13236011564731598, \
-0.0007401163456961513, \
-0.04963036626577377, \
-0.062275420874357224, \
-0.04844025522470474, \
-0.0009299302473664284, \
0.08146972954273224, \
0.02563941664993763, \
0.021599454805254936, \
-0.01669253036379814, \
-0.02819989249110222, \
0.15917792916297913, \
-0.02988017164170742, \
-0.006931810639798641, \
0.009871616028249264, \
0.08656173199415207, \
0.10006579756736755, \
0.048377443104982376, \
0.009913349524140358, \
0.0697517842054367, \
-0.056581489741802216, \
-0.0020086730364710093, \
-0.08041471987962723, \
0.00489270081743598, \
0.00020660697191487998, \
0.0918191447854042, \
-0.03775725141167641, \
0.0981631800532341, \
-0.03632140904664993, \
-0.006542222574353218, \
-0.04238405451178551, \
0.025351516902446747, \
0.13496236503124237, \
0.04882989451289177, \
0.018220771104097366, \
-0.034848522394895554, \
-0.08766025304794312, \
-0.019797788932919502, \
0.08234280347824097, \
0.028616003692150116, \
-0.07355646789073944, \
-0.020332500338554382, \
0.011335918679833412, \
0.1313372552394867, \
-0.01752541959285736, \
0.06905148923397064, \
0.03259562700986862, \
-0.04147243872284889, \
-0.006346518639475107, \
0.1541498452425003, \
0.15268689393997192, \
0.021961882710456848, \
0.021034972742199898, \
-0.006954206619411707, \
-0.059338562190532684, \
-0.09202118963003159, \
0.06602636724710464, \
-0.11944083124399185, \
0.007908012717962265, \
-0.0015524622285738587, \
0.10435155779123306, \
-0.014409840106964111, \
-0.046246036887168884, \
-0.03808414563536644, \
-0.01287375669926405, \
-0.0343938022851944, \
-0.02425207570195198, \
0.04685230925679207, \
-0.04162440076470375, \
0.008985036052763462, \
0.08262915909290314, \
0.0330602191388607, \
0.10003477334976196, \
0.11215964704751968, \
-0.02831386961042881, \
0.021672794595360756, \
0.08292122930288315, \
-0.017853807657957077, \
0.03525153547525406, \
-0.030048882588744164, \
0.006404864601790905, \
-0.0857638269662857, \
-0.037594448775053024, \
-0.11395469307899475, \
-0.03206253424286842, \
-0.04331979155540466, \
-0.03451068699359894, \
-0.0007929923012852669, \
0.06167382001876831, \
0.08574172109365463, \
0.14474299550056458, \
-0.07306628674268723, \
-0.05624944716691971, \
0.1537996530532837, \
0.09037934988737106, \
0.007289826404303312, \
0.05571877211332321, \
0.0034666573628783226, \
-0.07147186249494553, \
0.07330082356929779, \
-0.05773324891924858, \
0.034009553492069244, \
-0.09007193893194199, \
0.041138581931591034, \
-0.057330477982759476, \
-0.009495529346168041, \
-0.014447759836912155, \
0.15626585483551025, \
0.061178069561719894, \
0.03554956242442131, \
-0.0021942327730357647, \
-0.010700673796236515, \
0.020903296768665314, \
-0.0809134989976883, \
-0.027316302061080933, \
0.07429535686969757, \
0.11287105828523636, \
-0.021124107763171196, \
-0.04589805752038956, \
0.03460850194096565, \
-0.02434629388153553, \
0.06653324514627457, \
0.0861276164650917, \
-0.05276689678430557, \
-0.05943494290113449, \
-0.0699823796749115, \
0.04184872284531593, \
0.06612762063741684, \
-0.02342783659696579, \
-0.10228797793388367, \
0.007609150838106871, \
0.08811216801404953, \
0.09937494248151779, \
-0.14787837862968445, \
0.04366743937134743, \
0.031058911234140396, \
-0.04152722656726837, \
-0.032530710101127625, \
-0.08608546108007431, \
-0.021780384704470634, \
0.03471849113702774, \
0.06574605405330658, \
-0.0734909176826477, \
0.07469791173934937, \
-0.04943052679300308, \
0.028100749477744102, \
-0.07553929835557938, \
0.015903282910585403, \
0.12081174552440643, \
-0.016653524711728096, \
0.13644206523895264, \
-0.011323416605591774, \
-0.013997404836118221, \
0.018583009019494057, \
0.006461230106651783, \
-0.03766987472772598, \
-0.006808887235820293, \
0.05755668878555298, \
-0.010709785856306553, \
0.05970263108611107, \
-0.13154853880405426, \
0.00973695982247591, \
-0.061059609055519104, \
0.05054117739200592, \
0.04598798602819443, \
0.06581782549619675, \
-0.021456178277730942, \
-0.035343676805496216, \
0.03757989779114723, \
0.062041547149419785, \
0.08263745158910751, \
-0.09472410380840302, \
-0.014089460484683514, \
0.017500169575214386, \
-0.024830684065818787, \
0.016360342502593994, \
-0.054471567273139954, \
-0.04422268271446228, \
0.12442626059055328, \
0.03522529453039169, \
-0.07119841128587723, \
-0.005320242140442133, \
0.009942520409822464, \
-0.02657458186149597, \
-0.059149615466594696, \
-0.07561744004487991, \
-0.04308680072426796, \
0.005306543782353401, \
0.06772204488515854, \
0.057769276201725006, \
0.04933071881532669, \
-0.13884657621383667, \
0.036596473306417465, \
0.005752086639404297, \
-0.003257175674661994, \
-0.018015705049037933, \
0.07373057305812836, \
0.06515895575284958, \
-0.09110422432422638, \
-0.06696070730686188, \
-0.08675240725278854, \
-0.016536913812160492, \
-0.029864052310585976, \
-0.039583321660757065, \
-0.044311679899692535, \
-0.07425812631845474, \
0.13192763924598694, \
0.07255905866622925, \
-0.07942540943622589, \
-0.04888133704662323, \
-0.03451937064528465, \
0.043151941150426865, \
-0.04441767558455467, \
-0.01550537720322609, \
-0.08494484424591064, \
0.08516234904527664, \
0.04780608043074608, \
-0.04884013161063194, \
0.018488658592104912, \
0.0007973328465595841, \
0.07785410434007645, \
-0.023671604692935944, \
-0.040643367916345596, \
0.0573822520673275, \
-0.014486264437437057, \
-0.10667664557695389, \
-0.02633681893348694, \
0.000516307249199599, \
0.02359473891556263, \
0.044787049293518066, \
0.006292174104601145, \
0.10360470414161682, \
-0.023593803867697716, \
0.007926251739263535, \
-0.06378132104873657, \
-0.08071442693471909, \
0.09365256130695343, \
-0.01739855483174324, \
-0.05618180334568024, \
0.029435351490974426, \
-0.005719861481338739, \
0.11360136419534683, \
0.04167450964450836, \
-0.04800953343510628, \
0.0495644211769104, \
-0.01660720631480217, \
-0.07611281424760818, \
-0.0089797955006361, \
-0.0009094211854971945, \
-0.014557424001395702, \
-0.05791071057319641, \
0.006552550941705704, \
0.08217504620552063, \
-0.09004133939743042, \
0.12542325258255005, \
-0.008194984868168831, \
-0.03901752084493637, \
0.08773322403430939, \
0.08044466376304626, \
-0.041181497275829315, \
0.002703387290239334, \
0.07036082446575165, \
-0.04238131269812584, \
0.029203660786151886, \
0.012685766443610191, \
0.004917075391858816, \
0.1063670665025711, \
0.05167818069458008, \
-0.023683788254857063, \
-0.024250047281384468, \
-0.06405269354581833, \
-0.037733711302280426, \
-0.05555751547217369, \
-0.07345022261142731, \
-0.060754016041755676, \
-0.07788965851068497, \
0.08487165719270706, \
0.03895054757595062, \
0.01313500851392746, \
0.02384634129703045, \
-0.0015525690978392959, \
0.13239765167236328, \
-0.013683679513633251, \
0.023161116987466812, \
0.023885978385806084, \
-0.007729686796665192, \
-0.10500913858413696, \
-0.009170468896627426, \
-0.02944376692175865, \
0.04090702906250954, \
0.12719549238681793, \
0.018857154995203018, \
-0.019053824245929718, \
-0.014954596757888794, \
-0.0314636304974556, \
0.1678978055715561, \
-0.04771563783288002, \
-0.030695205554366112, \
0.035282958298921585, \
0.01947755366563797, \
0.009981260634958744, \
-0.028805380687117577, \
0.05369780957698822, \
0.07601787149906158, \
-0.04143131151795387, \
0.00863220077008009, \
0.029082046821713448, \
-0.10245970636606216, \
-0.0037251871544867754, \
-0.11112763732671738, \
0.07281751930713654, \
-0.021061252802610397, \
0.013867894187569618, \
-0.07010827958583832, \
-0.06469996273517609, \
0.05026761442422867, \
0.04065234214067459, \
0.06260726600885391, \
-0.004930390045046806, \
0.002905077999457717, \
0.05383821204304695, \
-0.057284876704216, \
-0.04169318079948425, \
0.04519064724445343, \
0.03867115080356598, \
0.03929739072918892, \
0.09010975807905197, \
0.019136594608426094, \
-0.04052118957042694, \
0.029452694579958916, \
0.05968618765473366, \
-0.015991901978850365, \
0.024538114666938782, \
0.0419287271797657, \
0.0338352732360363, \
0.07971659302711487, \
0.06720777601003647, \
0.05602988228201866, \
0.006300771608948708, \
-0.09644073247909546, \
-0.11068738996982574, \
0.020855948328971863, \
-0.15971748530864716, \
-0.014543564058840275, \
0.09137317538261414, \
0.12098569422960281, \
-0.07045486569404602, \
-0.022758591920137405, \
0.001896121073514223, \
-0.004910123534500599, \
0.08865367621183395, \
-0.13080354034900665, \
0.02214588038623333, \
-0.008671019226312637, \
0.011758442036807537, \
-0.046087346971035004, \
0.100316621363163, \
-0.05678073689341545, \
-0.013312648050487041, \
-0.04745415225625038, \
-0.07375986129045486, \
0.032826825976371765, \
-0.03290964663028717, \
0.053842995315790176, \
-0.16652213037014008, \
0.12052374333143234, \
0.046062737703323364, \
-0.06148087978363037, \
0.06896178424358368, \
0.04928518086671829, \
0.07484860718250275, \
0.026409314945340157, \
-0.07010036706924438, \
0.06517034769058228, \
0.06729016453027725, \
-0.0071650538593530655, \
0.03505657613277435, \
-0.055253766477108, \
-0.015390545129776001, \
-0.040747471153736115, \
0.0002724890655372292, \
-0.10577155649662018, \
0.029086021706461906, \
0.03341288864612579, \
-0.05581284314393997, \
0.0066126203164458275, \
-0.1391642540693283, \
0.05299907177686691, \
-0.04639536142349243, \
0.05969252064824104, \
-0.0331459641456604, \
0.028441209346055984, \
-0.06513446569442749, \
-0.007612752262502909, \
-0.04691937193274498, \
0.03680387884378433, \
0.0018991698743775487, \
-0.04249325394630432, \
0.003535778494551778, \
0.06152230501174927, \
-0.02334432490170002, \
-0.10093844681978226, \
-0.1422683149576187, \
0.10944975167512894, \
0.0654682070016861, \
-0.11334764212369919, \
-0.13769160211086273, \
-0.12644155323505402, \
-0.09013109654188156, \
0.011851382441818714, \
0.01116944570094347, \
-0.03340267390012741, \
-0.004183975979685783, \
-0.052907794713974, \
0.005175042897462845, \
-0.1488029509782791, \
-0.007315902039408684, \
0.037779614329338074, \
0.05258616805076599, \
0.06491826474666595, \
0.07880101352930069, \
-0.08202067017555237, \
0.0134678790345788, \
-0.1706257462501526, \
0.07941659539937973, \
-0.07960481941699982, \
-0.1424793303012848, \
0.1639048159122467, \
0.08846670389175415, \
-0.12129995971918106, \
0.04352701082825661, \
-0.03567703068256378, \
-0.082911916077137, \
0.046596456319093704, \
-0.026477789506316185, \
-0.028939763084053993, \
0.030186478048563004, \
0.017641978338360786, \
-0.06821085512638092, \
0.09227798879146576, \
-0.006595555227249861, \
0.061910230666399, \
0.03511670231819153, \
0.12601254880428314, \
-0.06994295120239258, \
0.049307409673929214, \
0.03433430194854736, \
-0.007151443045586348, \
0.035983119159936905, \
-0.02978948876261711, \
0.08855652809143066, \
-0.02093254029750824, \
-0.024948712438344955, \
0.12622278928756714, \
0.004463923629373312, \
0.00926884263753891, \
-0.04096229001879692, \
-0.08225574344396591, \
0.05188349634408951, \
-0.08766866475343704, \
-0.03435424342751503, \
-0.0457194522023201, \
0.06047021970152855, \
-0.03632798418402672, \
-0.01057716365903616, \
0.10272453725337982, \
0.05889309197664261, \
0.13446059823036194, \
0.03801373764872551, \
-0.03145673871040344, \
0.03620171919465065, \
0.12591993808746338, \
0.05659808591008186, \
-0.07475598901510239, \
-0.08309710770845413, \
0.02208428643643856, \
0.12182357162237167, \
0.06910700350999832, \
0.06881319731473923, \
0.06071477010846138, \
0.09145332872867584, \
0.01543163787573576, \
-0.02526366151869297, \
0.05083258077502251, \
-0.11811301857233047, \
0.021400192752480507, \
-0.05432684347033501, \
-0.06303852796554565, \
0.04893895611166954, \
-0.10384905338287354, \
0.06986018270254135, \
0.005472053773701191, \
0.015983821824193, \
-0.11395633220672607, \
0.04306405782699585, \
0.03126831352710724, \
0.006750875152647495, \
-0.002954356139525771, \
0.08596712350845337, \
0.04221557080745697, \
-0.06503552198410034, \
-0.1024099737405777, \
-0.08692274242639542, \
0.13620701432228088, \
-0.007070203777402639, \
-0.06440965086221695, \
0.010885878466069698, \
-0.04240908473730087, \
0.01948329620063305, \
-0.060017287731170654, \
-0.023057376965880394, \
0.14547552168369293, \
0.08292963355779648, \
0.004651881288737059, \
-0.03268717974424362, \
-0.01920386217534542, \
-0.0683734342455864, \
0.0893077403306961, \
0.11173475533723831, \
0.06822013109922409, \
0.03156772255897522, \
0.0008140481077134609, \
0.047748785465955734, \
-0.023260407149791718, \
0.0052063376642763615, \
-0.012731044553220272, \
-0.008606505580246449, \
-0.01586049050092697, \
-0.09265446662902832, \
0.016389574855566025, \
0.18617363274097443, \
0.046360597014427185, \
-0.09122610837221146, \
-0.11974037438631058, \
-0.07629122585058212, \
0.0262717604637146, \
0.003215649863705039, \
0.11951706558465958, \
0.10685601085424423, \
0.07733307778835297, \
-0.0652276799082756, \
0.013729318045079708, \
-0.016227109357714653, \
-0.09534728527069092, \
0.025420820340514183, \
-0.045735202729701996, \
-0.0006550780381076038, \
0.09078209847211838, \
0.1522625833749771, \
-0.08798930048942566, \
0.06514883041381836, \
0.06126813590526581, \
-0.05271943286061287, \
0.05365953594446182, \
0.07618696987628937, \
0.017502034083008766, \
-0.06237068772315979, \
-0.011200934648513794, \
0.025901535525918007, \
0.06396347284317017, \
-0.0033663129433989525, \
-0.06708033382892609, \
-0.0295216403901577, \
-0.006647229194641113, \
-0.035049792379140854, \
-0.05468941107392311, \
-0.02881048060953617, \
-0.085752472281456, \
-0.044086258858442307, \
0.08230471611022949, \
0.05546571686863899, \
-0.021376673132181168, \
-0.04704747721552849, \
0.028205204755067825, \
-0.10461273789405823, \
0.008228272199630737, \
0.030715689063072205, \
-0.04878294840455055, \
-0.01733107678592205, \
0.0263002160936594, \
0.0292078647762537, \
0.021898653358221054, \
0.03385300561785698, \
-0.07028147578239441, \
0.0515308640897274, \
-0.07027281820774078, \
0.1095859557390213, \
-0.00035266680060885847, \
0.05746006220579147, \
0.08325555920600891, \
0.10868985205888748, \
-0.07731170952320099, \
-0.09579604864120483, \
0.0904187485575676, \
-0.06786022335290909, \
-0.06735219806432724, \
0.011835221201181412, \
-0.010292235761880875, \
0.006786789745092392, \
0.017706966027617455, \
-0.08828872442245483, \
0.09407147020101547, \
-0.02421192079782486, \
-0.06032972410321236, \
0.08696546405553818, \
0.07695125043392181, \
0.012777826748788357, \
0.08542902767658234, \
0.02702958695590496, \
0.0569382905960083, \
-0.01918409951031208, \
0.03483704477548599, \
-0.06113370507955551, \
-0.013727479614317417, \
0.09239162504673004, \
-0.057795822620391846, \
-0.02926410175859928, \
0.05146109685301781, \
-0.06673935800790787, \
-0.062372349202632904, \
0.05202195420861244, \
0.005712299142032862, \
0.08173611760139465, \
0.04538455605506897, \
-0.04929650202393532, \
0.09595326334238052, \
0.069121353328228, \
0.02191099524497986, \
-0.07220936566591263, \
-0.05128472298383713, \
-0.08666922152042389, \
-0.015761902555823326, \
-0.02611738070845604, \
0.08472856879234314, \
-0.014358637854456902, \
0.032763708382844925, \
0.020298678427934647, \
9.633922309149057e-05, \
0.049167782068252563, \
0.045363783836364746, \
-0.019425222650170326, \
0.06375928968191147, \
0.06676261872053146, \
0.11433976143598557, \
0.03132052719593048, \
0.03573382645845413, \
-0.030573196709156036, \
-0.023502876982092857, \
-0.014124259352684021, \
0.1142335906624794, \
0.05054527148604393, \
0.06094251945614815, \
-0.026284130290150642, \
-0.037576816976070404, \
0.02469705231487751, \
0.08931390196084976, \
-0.07748010754585266, \
-0.1208418756723404, \
-0.11848036199808121, \
-0.14860521256923676, \
-0.07632137089967728, \
0.13727737963199615, \
0.06978264451026917, \
0.022520503029227257, \
-0.05382603406906128, \
0.045311689376831055, \
0.005452216602861881, \
-0.11800272762775421, \
0.03592575713992119, \
0.03419361636042595, \
0.10374134033918381, \
0.12239808589220047, \
0.11629244685173035, \
-0.08819533884525299, \
0.11329779028892517, \
-0.11019328236579895, \
0.0843987986445427, \
0.023467833176255226, \
0.08832388371229172, \
-0.008446332067251205, \
0.013046850450336933, \
0.04998355731368065, \
-0.09719780087471008, \
-0.11545422673225403, \
-0.08124418556690216, \
-0.031026691198349, \
-0.12516170740127563, \
0.1119670569896698, \
-0.05251330882310867, \
-0.07023806124925613, \
0.11034050583839417, \
-0.02673909440636635, \
-0.06811818480491638, \
0.06537863612174988, \
0.08497897535562515, \
-0.08662854880094528, \
-0.06801032274961472, \
-0.048672813922166824, \
0.053635139018297195, \
0.07229482382535934, \
0.07544934749603271, \
0.09102322906255722, \
0.12840406596660614, \
0.0703435018658638, \
0.11366313695907593, \
-0.11823669821023941, \
0.024920109659433365, \
-0.006551901809871197, \
0.07876913249492645, \
-0.1414678990840912, \
-0.08722689747810364, \
-0.03639933466911316, \
-0.12154259532690048, \
-0.003186279209330678, \
-0.05391835793852806, \
0.02213592454791069, \
0.0971672311425209, \
-0.039789918810129166, \
-0.034838996827602386, \
-0.034084565937519073, \
0.04839380457997322, \
-0.03471693769097328, \
0.01759585179388523, \
-0.04906442016363144, \
-0.04527975618839264, \
0.027349602431058884, \
0.06526303291320801, \
-0.030155301094055176, \
-0.05094953626394272, \
-0.15963204205036163, \
-0.13766133785247803, \
0.08512747287750244, \
-0.011152839288115501, \
-0.07670111209154129, \
-0.10432013869285583, \
0.1426999866962433, \
0.004732819739729166, \
-0.017808739095926285, \
0.05913754180073738, \
-0.06831029057502747, \
-0.07717691361904144, \
-0.05473977327346802, \
0.08605258166790009, \
0.009783308953046799, \
-0.10820996016263962, \
-0.06355760991573334, \
0.10141167789697647, \
-0.017313195392489433, \
0.07387196272611618, \
-0.04864701256155968, \
0.013317545875906944, \
0.06904418021440506, \
-0.06311771273612976, \
0.06778012216091156, \
0.011583988554775715, \
0.06468509882688522, \
-0.06944557279348373, \
-0.168145552277565, \
-0.03263026475906372, \
0.00843081995844841, \
-0.08065290749073029, \
-0.09982253611087799, \
0.08866077661514282, \
0.07033763825893402, \
-0.07590418308973312, \
-0.037520576268434525, \
0.06573868542909622, \
-0.15106818079948425, \
-0.04968120530247688, \
0.057420264929533005, \
0.14578548073768616, \
-0.029087059199810028, \
-0.12222698330879211, \
0.03642551600933075, \
-0.0048459237441420555, \
-0.0774056687951088, \
0.07601670175790787, \
-0.09622316807508469, \
0.03501781076192856, \
0.1858752965927124, \
0.05929991602897644, \
-0.005744454450905323, \
0.07041507959365845, \
-0.12269619852304459, \
-0.1534130871295929, \
-0.12692449986934662, \
-0.06184246018528938, \
-0.029218757525086403, \
0.031880538910627365, \
0.16250191628932953, \
-0.00917153898626566, \
0.0013107265112921596, \
-0.05779004842042923, \
0.07975347340106964, \
0.11708133667707443, \
-0.015300608240067959, \
0.06773882359266281, \
-0.08139222860336304, \
-0.05959824100136757, \
0.0430118627846241, \
0.03543078526854515, \
-0.05499357357621193, \
-0.03538653999567032, \
0.05905803665518761, \
0.010070627555251122, \
-0.05586111918091774, \
-0.0638076439499855, \
-0.046546149998903275, \
0.0732623040676117, \
0.027790449559688568, \
0.009790895506739616, \
0.010654537938535213, \
0.07254604250192642, \
-0.03634854778647423, \
-0.009198733605444431, \
-0.05606907978653908, \
0.06110495328903198, \
-0.05312475189566612, \
-0.06416726857423782, \
0.0679847002029419, \
0.0852348655462265, \
0.014013469219207764, \
0.034253671765327454, \
-0.07306576520204544, \
0.02177768014371395, \
-0.01017120759934187, \
0.006512292195111513, \
0.10503771901130676, \
-1.816565782064572e-05, \
0.050547294318675995, \
0.031009860336780548, \
0.025885986164212227, \
0.03555729240179062, \
-0.043481215834617615, \
0.03887225314974785, \
-0.015578039921820164, \
0.06900767236948013, \
0.043923065066337585, \
0.010959676466882229, \
-0.02706754021346569, \
-0.05624070018529892, \
-0.06184922158718109, \
-0.05172249674797058, \
-0.04747074097394943, \
0.02720964141190052, \
-0.025436755269765854, \
0.10218290984630585, \
-0.09103131294250488, \
0.07325828820466995, \
-0.01964098960161209, \
0.04488827660679817, \
0.018872248008847237, \
-0.029091916978359222, \
-0.04582899436354637, \
0.1373775154352188, \
-0.03048171103000641, \
0.018738804385066032, \
-0.003868181724101305, \
0.02912249229848385, \
0.01140769012272358, \
0.0893285796046257, \
0.06683921813964844, \
-0.0035187413450330496, \
-0.07572977989912033, \
0.022642314434051514, \
-0.00788710918277502, \
0.05643398314714432, \
-0.030945230275392532, \
-0.0112872663885355, \
-0.07731954008340836, \
0.018665123730897903, \
0.021668242290616035, \
-0.00627753185108304, \
-0.08782259374856949, \
0.021834103390574455, \
0.008098697289824486, \
-0.04796136915683746, \
0.0949028953909874, \
-0.05861632525920868, \
0.055790264159440994, \
0.011226259171962738, \
0.0020081570837646723, \
-0.06979773193597794, \
-0.044904615730047226, \
-0.029384998604655266, \
0.05073851719498634, \
-0.06963150203227997, \
0.0019170250743627548, \
0.11015740036964417, \
0.03899375721812248, \
0.11169532686471939, \
0.04060307890176773, \
0.05555802583694458, \
0.009347580373287201, \
0.11586784571409225, \
0.12131842970848083, \
0.05562374368309975, \
0.05792994797229767, \
0.03582616150379181, \
-0.09209109097719193, \
-0.12509852647781372, \
0.15859776735305786, \
0.019714931026101112, \
0.049485668540000916, \
0.07295657694339752, \
0.1303156614303589, \
0.0787050873041153, \
-0.03259376063942909, \
0.05132589489221573, \
-0.01824055425822735, \
0.07978202402591705, \
-0.06617634743452072, \
0.042788315564394, \
-0.033092666417360306, \
0.0017918801167979836, \
-0.001738381921313703, \
-0.046656373888254166, \
0.07835547626018524, \
-0.08215472847223282, \
0.012057443149387836, \
0.059674765914678574, \
-0.0647590309381485, \
-0.007541007827967405, \
0.04995456710457802, \
-0.08254130184650421, \
-0.019207343459129333, \
0.04310612380504608, \
-0.08076607435941696, \
-0.036780353635549545, \
0.040511585772037506, \
-0.0593864805996418, \
-0.0838981419801712, \
-0.009872255846858025, \
0.04117826372385025, \
0.08141764253377914, \
-0.07947240769863129, \
-0.04552435129880905, \
-0.020850665867328644, \
-0.0005312436842359602, \
-0.0560457669198513, \
-0.06349117308855057, \
0.0741770789027214, \
0.0030449209734797478, \
0.07236948609352112, \
-0.047008417546749115, \
-0.045000527054071426, \
-0.05087302625179291, \
-0.04410756379365921, \
0.037226688116788864, \
-0.07835399359464645, \
-0.0644926130771637, \
-0.025042161345481873, \
-0.029879463836550713, \
0.030451031401753426, \
-0.05578180029988289, \
0.060029901564121246, \
0.06603414565324783, \
0.02705790102481842, \
0.03593979403376579, \
0.07194771617650986, \
0.065488800406456, \
0.07934189587831497, \
0.09964344650506973, \
0.06484396010637283, \
-0.06612826138734818, \
-0.05516495183110237, \
-0.05556948855519295, \
0.05829025059938431, \
0.011525619775056839, \
-0.025052303448319435, \
0.054914962500333786, \
-0.04844095930457115, \
0.07864363491535187, \
0.004678922239691019, \
-0.05546050891280174, \
-0.026552049443125725, \
0.04090527817606926, \
-0.06682242453098297, \
-0.007190410979092121, \
0.03845766559243202, \
-0.0710446760058403, \
-0.028489606454968452, \
0.007769087329506874, \
-0.050854794681072235, \
0.07933828979730606, \
-0.03976409137248993, \
0.002104674931615591, \
0.05429026111960411, \
0.09189388155937195, \
-0.05430756136775017, \
0.05432453006505966, \
-0.055994655936956406, \
-0.041405901312828064, \
0.060981784015893936, \
-0.03753267601132393, \
-0.027263257652521133, \
0.051990363746881485, \
0.0036630327813327312, \
-0.0448574423789978, \
0.036506809294223785, \
-0.0419238805770874, \
-0.02572215162217617, \
-0.07468258589506149, \
-0.029990876093506813, \
-0.049717217683792114, \
-0.018107833340764046, \
-0.05984056368470192, \
0.003000968834385276, \
0.027598265558481216, \
0.011577732861042023, \
-0.03060770221054554, \
0.06596185266971588, \
0.0353342741727829, \
0.08451134711503983, \
-0.05275173485279083, \
-0.01625942997634411, \
-0.029121937230229378, \
-0.0939374715089798, \
0.0035690299700945616, \
-0.058496441692113876, \
-0.08343695104122162, \
-0.02845645323395729, \
0.003543806727975607, \
-0.07486313581466675, \
0.07757599651813507, \
-0.0888424813747406, \
-0.030679095536470413, \
-0.03489428386092186, \
0.009085115976631641, \
0.009215251542627811, \
-0.075653575360775, \
-0.17241348326206207, \
0.002719853539019823, \
0.0502878837287426, \
-0.0486861951649189, \
-0.1134389117360115, \
-0.0245964415371418, \
0.0336870402097702, \
-0.06937098503112793, \
-0.12857647240161896, \
-0.010044257156550884, \
0.07042919099330902, \
0.02806168608367443, \
0.026763947680592537, \
0.0018903992604464293, \
0.0488673560321331, \
-0.05435091629624367, \
0.19750817120075226, \
0.029817089438438416, \
0.01203687023371458, \
-0.07492206990718842, \
-0.016255831345915794, \
0.06895100325345993, \
-0.11977383494377136, \
0.05983502045273781, \
0.0006699278019368649, \
-0.007744932547211647, \
-0.0677693635225296, \
-0.07070304453372955, \
0.05695461854338646, \
0.044299330562353134, \
0.06807815283536911, \
0.15363647043704987, \
0.061362847685813904, \
-0.09690550714731216, \
-0.033307138830423355, \
0.045274220407009125, \
0.06710847467184067, \
-0.13221096992492676, \
0.009899827651679516, \
-0.026534277945756912, \
-0.040181372314691544, \
0.08190842717885971, \
-0.09444951266050339, \
-0.08899932354688644, \
0.052078668028116226, \
-0.05655360594391823, \
-0.08058193325996399, \
-0.06201498210430145, \
0.026393232867121696, \
0.0684593915939331, \
0.026862354949116707, \
0.049460843205451965, \
-0.015519538894295692, \
0.11497527360916138, \
-0.06463593989610672, \
0.0038895714096724987, \
-0.026381921023130417, \
0.12204137444496155, \
0.03749798610806465, \
-0.045159418135881424, \
-0.14536045491695404, \
0.020277023315429688, \
0.002157277660444379, \
-0.17208383977413177, \
-0.08908292651176453, \
0.04849200323224068, \
-0.04927339032292366, \
-0.04184268042445183, \
-0.01937238872051239, \
-0.040081124752759933, \
0.0037776739336550236, \
-0.020656708627939224, \
-0.11865483224391937, \
0.08676870912313461, \
-0.010893533006310463, \
-0.0592280738055706, \
0.014268837869167328, \
0.09381206333637238, \
-0.0865759328007698, \
0.13066986203193665, \
-0.10316506773233414, \
-0.038036223500967026, \
0.03602006658911705, \
0.11322814226150513, \
0.030351243913173676, \
-0.07665828615427017, \
0.057786233723163605, \
-0.06287313252687454, \
-0.08477182686328888, \
0.028214773163199425, \
-0.05155711993575096, \
0.10126075148582458, \
-0.10002382099628448, \
0.057348232716321945, \
0.0872332751750946, \
-0.010387749411165714, \
0.05160904675722122, \
0.11225864291191101, \
-0.11415500938892365, \
-0.0375882051885128, \
-0.07089481502771378, \
0.12008602172136307, \
0.056798893958330154, \
-0.015584520995616913, \
-0.021888691931962967, \
0.07396896928548813, \
0.02814464271068573, \
-0.07390546053647995, \
0.06227315589785576, \
-0.1102941706776619, \
0.027824535965919495, \
0.04524911195039749, \
0.11048099398612976, \
-0.010589370504021645, \
0.0693853572010994, \
0.05966366082429886, \
-0.07060274481773376, \
0.04868742823600769, \
-0.024644307792186737, \
-0.014625709503889084, \
0.06243731826543808, \
-0.09971796721220016, \
-0.033628564327955246, \
-0.02796846069395542, \
-0.09093288332223892, \
-0.009941174648702145, \
0.07647519558668137, \
0.05732320249080658, \
-0.014826145954430103, \
0.054073456674814224, \
-0.015523727983236313, \
0.07551991194486618, \
0.03897283226251602, \
0.04629562795162201, \
0.042346615344285965, \
0.005895395763218403, \
-0.05674246698617935, \
-0.03567365184426308, \
0.05626262351870537, \
0.020552176982164383, \
-0.03943360969424248, \
-0.006146526429802179, \
0.07541004568338394, \
0.015817919746041298, \
0.00855350960046053, \
0.02644593082368374, \
0.02436169609427452, \
0.06389590352773666, \
-0.03278312087059021, \
0.049973014742136, \
0.07911908626556396, \
-0.006352112162858248, \
0.06904978305101395, \
0.025961866602301598, \
-0.08253945410251617, \
0.04535248875617981, \
0.04074360802769661, \
-0.035413213074207306, \
0.03250109776854515, \
0.07145044207572937, \
-0.02948957309126854, \
-0.02944178134202957, \
0.049189381301403046, \
-0.01533666905015707, \
-0.071290522813797, \
0.07568944990634918, \
-0.05335282161831856, \
-0.0369383804500103, \
0.08151701837778091, \
0.0813625156879425, \
0.0344129279255867, \
0.06545062363147736, \
0.041530851274728775, \
-0.034039027988910675, \
-0.07116884738206863, \
0.07783211767673492, \
-0.05007079988718033, \
-0.034627318382263184, \
-0.04578466713428497, \
0.07575361430644989, \
-0.0731586366891861, \
0.05621660500764847, \
-0.01918720081448555, \
-0.12480217218399048, \
-0.0254689808934927, \
-0.08575815707445145, \
-0.0820729061961174, \
0.013827682472765446, \
0.02804429456591606, \
-0.02970794402062893, \
0.0322384312748909, \
-0.04999280720949173, \
-0.050916995853185654, \
0.09270152449607849, \
0.02898671291768551, \
0.012311569415032864, \
-0.019311198964715004, \
-0.060731783509254456, \
-0.0018838110845535994, \
-0.023578520864248276, \
0.06826288253068924, \
-0.0066030630841851234, \
0.010019917041063309, \
-0.017664693295955658, \
0.05788353085517883, \
0.02900058403611183, \
-0.08131536841392517, \
-0.027633076533675194, \
0.07388298958539963, \
0.04570019990205765, \
0.02444268949329853, \
-0.0660630390048027, \
-0.05353499576449394, \
-0.024562884122133255, \
-0.09259415417909622, \
-0.046690329909324646, \
-0.04632255807518959, \
0.049806930124759674, \
0.05556800588965416, \
0.025190122425556183, \
-0.05659190192818642, \
0.027424346655607224, \
0.04879400134086609, \
-0.06113562360405922, \
0.03692204877734184, \
-0.08568290621042252, \
0.006893531884998083, \
0.05032863840460777, \
-0.04447323456406593, \
0.0009805196896195412, \
-0.019526319578289986, \
0.06067889556288719, \
-0.11142106354236603, \
-0.04744822904467583, \
-0.10881447792053223, \
-0.02646922506392002, \
0.03829848766326904, \
0.03194351866841316, \
0.02987014502286911, \
0.032180532813072205, \
0.07956023514270782, \
0.0184253491461277, \
-0.07617707550525665, \
0.06298189610242844, \
0.049865707755088806, \
-0.05138210579752922, \
-0.07718339562416077, \
0.04477471113204956, \
0.013174968771636486, \
0.013676028698682785, \
-0.0878552496433258, \
-0.06301679462194443, \
-0.033190466463565826, \
-0.013655893504619598, \
-0.08590333163738251, \
0.03196172043681145, \
0.06738310307264328, \
-0.03292500600218773, \
0.050959426909685135, \
0.08106845617294312, \
-0.0030449412297457457, \
0.09289789199829102, \
-0.008312505669891834, \
-0.06181531026959419, \
-0.0721387192606926, \
0.10687292367219925, \
0.044812459498643875, \
0.01337839663028717, \
-0.01962382346391678, \
0.06255386769771576, \
-0.017321934923529625, \
-0.05864722281694412, \
-0.024496886879205704, \
0.0012329467572271824, \
0.06597449630498886, \
-0.043642546981573105, \
0.07539822161197662, \
0.13440586626529694, \
0.07970772683620453, \
-0.0206869225949049, \
-0.01847253367304802, \
0.0754195898771286, \
0.036450717598199844, \
0.043808914721012115, \
0.020868772640824318, \
0.09854588657617569, \
-0.02253865636885166, \
0.010167439468204975, \
0.04992895945906639, \
-0.14054447412490845, \
0.052870091050863266, \
-0.04186466336250305, \
0.026201874017715454, \
0.028863826766610146, \
-0.03562668710947037, \
-0.07146944105625153, \
0.08266071230173111, \
-0.06878552585840225, \
-0.06093337759375572, \
0.05729782581329346, \
0.0639728307723999, \
-0.09619275480508804, \
0.0529945008456707, \
-0.12854532897472382, \
-0.049903880804777145, \
-0.04852646216750145, \
0.04146350175142288, \
0.020794803276658058, \
-0.0495106540620327, \
0.05114325135946274, \
0.04458891227841377, \
0.005426946096122265, \
0.15881718695163727, \
-0.0013613253831863403, \
0.06227828562259674, \
-0.0258271936327219, \
0.07683353126049042, \
-0.08666684478521347, \
0.1384275108575821, \
-0.04868832975625992, \
-0.09633924067020416, \
0.05467642471194267, \
-0.0791623666882515, \
-0.07422912865877151, \
0.05663038045167923, \
-0.0239648949354887, \
-0.05517289415001869, \
0.10352925956249237, \
0.061899393796920776, \
0.060244783759117126, \
-0.09977328777313232, \
0.14630475640296936, \
-0.0029416510369628668, \
-0.08280257135629654, \
0.09871891885995865, \
0.05536539852619171, \
0.01674722507596016, \
0.03351921588182449, \
0.044694364070892334, \
-0.008895904757082462, \
0.14137542247772217, \
-0.08747942745685577, \
0.08064067363739014, \
-0.07231447100639343, \
0.017735043540596962, \
0.02458033710718155, \
-0.037298839539289474, \
-0.11046609282493591, \
-0.07248640805482864, \
-0.04993310570716858, \
0.12629909813404083, \
0.0214813482016325, \
-0.06884701550006866, \
-0.006253331433981657, \
0.05789937451481819, \
0.07451377063989639, \
-0.054745204746723175, \
-0.039695821702480316, \
-0.03986708074808121, \
0.060507602989673615, \
0.11353443562984467, \
-0.043099381029605865, \
-0.12231818586587906, \
-0.04497562721371651, \
-0.016926590353250504, \
-0.0759742334485054, \
-0.007799840997904539, \
-0.08388614654541016, \
0.009480555541813374, \
-0.06793463975191116, \
0.03642451390624046, \
-0.064374640583992, \
-0.05926040560007095, \
-0.10566802322864532, \
-0.07782328873872757, \
0.048152875155210495, \
-0.060843512415885925, \
0.010337396524846554, \
0.05891064554452896, \
-0.007847380824387074, \
-0.060020562261343, \
0.033303357660770416, \
0.03861774131655693, \
-0.04124513268470764, \
0.05535496398806572, \
-0.04834834858775139, \
-0.1034124344587326, \
-0.032290518283843994, \
-0.04456653818488121, \
-0.015139244496822357, \
0.018554694950580597, \
0.1239578053355217, \
0.014478364959359169, \
-0.06911914795637131, \
-0.1251060515642166, \
0.06240704283118248, \
-0.1049029752612114, \
0.030376536771655083, \
-0.14615920186042786, \
0.06424403935670853, \
0.05656268075108528, \
0.08251305669546127, \
-0.014533568173646927, \
0.021393155679106712, \
0.04820006713271141, \
0.11131670325994492, \
-0.009097293950617313, \
-0.05706091970205307, \
-0.0238680150359869, \
0.1288733333349228, \
0.038999784737825394, \
0.00903992261737585, \
-0.06570850312709808, \
0.06411297619342804, \
-0.09369087964296341, \
0.06117639318108559, \
-0.09557151049375534, \
-0.0847037136554718, \
-0.11224549263715744, \
0.03537904471158981, \
-0.049099911004304886, \
-0.00035377952735871077, \
-0.13133448362350464, \
0.018651055172085762, \
-0.05484309792518616, \
0.02037535049021244, \
0.01762387715280056, \
0.006445553619414568, \
-0.05483955517411232, \
0.0573108047246933, \
0.07893442362546921, \
0.09023889899253845, \
0.03768327832221985, \
-0.0913907065987587, \
0.16548827290534973, \
0.0073514580726623535, \
0.08081433176994324, \
0.09716647863388062, \
0.022496914491057396, \
0.03942079842090607, \
0.053007084876298904, \
-0.004496708046644926, \
-0.05645596981048584, \
0.0402006059885025, \
0.0245511457324028, \
0.04460432380437851, \
-0.015356946736574173, \
0.07072309404611588, \
0.058329347521066666, \
-0.04992007091641426, \
-0.05599837377667427, \
0.0548691600561142, \
-0.012691022828221321, \
0.03216034919023514, \
-0.015429764986038208, \
-0.055787548422813416, \
-0.05435595661401749, \
-0.11618547886610031, \
0.013703426346182823, \
0.15506842732429504, \
0.08801283687353134, \
0.03412112593650818, \
-0.043540049344301224, \
0.05148179456591606, \
0.02485251985490322, \
0.08070136606693268, \
0.05032260715961456, \
0.16780893504619598, \
0.00863623060286045, \
-0.04442957416176796, \
0.05442818999290466, \
0.057886432856321335, \
-0.06191927567124367, \
0.003923142794519663, \
-0.024065878242254257, \
0.13710123300552368, \
-0.030200397595763206, \
-0.053728923201560974, \
0.040545716881752014, \
0.024337388575077057, \
0.005829038564115763, \
-0.016319936141371727, \
0.06785760819911957, \
-0.0826055109500885, \
0.017114104703068733, \
-0.0647769570350647, \
0.06656345725059509, \
-0.0194688867777586, \
0.006613492034375668, \
-0.04638383165001869, \
0.062006961554288864, \
-0.11900978535413742, \
-0.015647683292627335, \
-0.028001951053738594, \
0.05778418853878975, \
0.12282564491033554, \
0.01655116118490696, \
0.02405102550983429, \
-0.07132048159837723, \
0.09237728267908096, \
-0.07336392253637314, \
0.025112882256507874, \
0.039879173040390015, \
0.05626678094267845, \
0.0323554202914238, \
0.0204743891954422, \
0.08890023827552795, \
0.10635965317487717, \
0.00270277913659811, \
-0.004021828528493643, \
-0.020400207489728928, \
0.030375469475984573, \
-0.07403896003961563, \
-0.027819346636533737, \
-0.0488499291241169, \
-0.1134393960237503, \
-0.10227932035923004, \
-0.06686533987522125, \
-0.058328911662101746, \
-0.05311419069766998, \
-0.03432153910398483, \
-0.06625834107398987, \
0.05488508567214012, \
0.06086789816617966, \
0.045557282865047455, \
0.03928929567337036, \
-0.09754558652639389, \
-0.06557056307792664, \
0.03865109011530876, \
0.10680199414491653, \
-0.08715679496526718, \
-0.07539459317922592, \
-0.057403314858675, \
-0.1283007562160492, \
0.05927858501672745, \
0.145900160074234, \
-0.09738629311323166, \
-0.04059155657887459, \
-0.1424921751022339, \
0.03530174866318703, \
0.02626992017030716, \
0.09272467344999313, \
0.027867304161190987, \
0.14130917191505432, \
-0.04350423812866211, \
-0.059951771050691605, \
-0.007405408192425966, \
-0.02310173213481903, \
-0.07736572623252869, \
-0.06460507959127426, \
-0.12433834373950958, \
0.0597018338739872, \
0.09216733276844025, \
-0.045424990355968475, \
-0.07623381912708282, \
-0.08047857880592346, \
0.030878262594342232, \
-0.016222450882196426, \
-0.09236147999763489, \
0.003364171599969268, \
0.04538952186703682, \
-0.02461891621351242, \
0.020434193313121796, \
-0.07718170434236526, \
-0.06847523897886276, \
0.04504086822271347, \
0.0031465182546526194, \
-0.05001615360379219, \
0.018574217334389687, \
0.059814322739839554, \
-0.04226268082857132, \
0.0019266549497842789, \
0.007040048483759165, \
-0.016933264210820198, \
-0.02779502607882023, \
-0.11599148064851761, \
-0.09637682884931564, \
0.0173172689974308, \
-0.016001921147108078, \
0.11102407425642014, \
-0.019508708268404007, \
-0.051354143768548965, \
-0.13935425877571106, \
-0.054652437567710876, \
-0.07383321970701218, \
-0.006995955482125282, \
0.010301339440047741, \
0.14673742651939392, \
0.06313884258270264, \
0.08009007573127747, \
0.007836013101041317, \
-0.053185153752565384, \
-0.0013002208434045315, \
0.03934483602643013, \
-0.07735574245452881, \
-0.05168013647198677, \
0.12534649670124054, \
0.21422070264816284, \
-0.012664388865232468, \
-0.07296633720397949, \
-0.11822975426912308, \
0.05334950238466263, \
0.15147848427295685, \
-0.00022848715889267623, \
0.06819013506174088, \
-0.08646398037672043, \
0.09790743142366409, \
-0.08873596787452698, \
0.055020809173583984, \
0.026778649538755417, \
0.025111772119998932, \
0.08249171823263168, \
0.0625435933470726, \
0.10125094652175903, \
0.05911480262875557, \
0.026223434135317802, \
-0.022493792697787285, \
-0.011678807437419891, \
0.08129935711622238, \
0.10174936056137085, \
-0.08601317554712296, \
0.006903591100126505, \
-0.14489315450191498, \
-0.08291073888540268, \
-0.005578469019383192, \
0.05060802027583122, \
0.0771208181977272, \
0.018966250121593475, \
0.05227605253458023, \
0.03532997518777847, \
-0.06304360181093216, \
-0.1627170443534851, \
0.026284730061888695, \
0.143986776471138, \
-0.038165394216775894, \
-0.1257118433713913, \
0.17835718393325806, \
-0.10754818469285965, \
0.1647806614637375, \
-0.08723396807909012, \
0.08414286375045776, \
-0.08994846791028976, \
0.13055866956710815, \
-0.03974523767828941, \
-0.045196570456027985, \
-0.06363299489021301, \
-0.01081165112555027, \
0.12819570302963257, \
-0.056117162108421326, \
-0.043118931353092194, \
-0.0315493606030941, \
-0.08615662902593613, \
-0.043477512896060944, \
-0.055792782455682755, \
0.08351640403270721, \
0.07930032908916473, \
0.0026532202027738094, \
0.09804747253656387, \
0.03502072021365166, \
-0.07316058874130249, \
-0.15323616564273834, \
-0.02177402563393116, \
0.07417840510606766, \
0.0829230323433876, \
-0.09066605567932129, \
-0.09752921760082245, \
0.05462108552455902, \
-0.028557974845170975, \
0.13763225078582764, \
-0.03594231233000755, \
0.06381308287382126, \
-0.03316416218876839, \
0.05960423871874809, \
-0.11458835750818253, \
-0.07933827489614487, \
0.025569578632712364, \
0.04532056674361229, \
0.06429164111614227, \
0.021954741328954697, \
-0.009342397563159466, \
0.1005607470870018, \
-0.04480781406164169, \
-0.02393910102546215, \
-0.07205341011285782, \
0.009792492724955082, \
-0.03686419874429703, \
-0.0146030243486166, \
0.06016286462545395, \
0.07416751980781555, \
0.07879409939050674, \
-0.0028340492863208055, \
-0.15901410579681396, \
-9.917086572386324e-05, \
-0.013585204258561134, \
0.08901769667863846, \
0.006732592359185219, \
0.044977061450481415, \
0.09832470864057541, \
-0.0902269259095192, \
-0.13560672104358673, \
-0.043609097599983215, \
-0.038540069013834, \
-0.09186293929815292, \
-0.13670596480369568, \
0.04847720265388489, \
0.01793649233877659, \
-0.12196411192417145, \
0.14240728318691254, \
-0.0255717933177948, \
-0.1769554615020752, \
0.008759901858866215, \
0.06256409734487534, \
0.11187620460987091, \
0.15862397849559784, \
-0.040871862322092056, \
-0.10000056773424149, \
-0.02058514580130577, \
0.11716335266828537, \
-0.17948149144649506, \
0.026491478085517883, \
-0.09260529279708862, \
-0.05913468450307846, \
0.040567900985479355, \
0.03292097896337509, \
0.002006079535931349, \
0.08704753965139389, \
-0.07132035493850708, \
-0.0345131978392601, \
0.038728028535842896, \
-0.03929807245731354, \
0.014977333135902882, \
-0.017344489693641663, \
-0.01411132887005806, \
-0.12267690151929855, \
0.08942078053951263, \
0.0595758780837059, \
-0.009749616496264935, \
-0.10194870829582214, \
-0.022244038060307503, \
0.05519189313054085, \
0.07147364318370819, \
0.07835125178098679, \
0.022587236016988754, \
-0.01654927246272564, \
-0.04207826778292656, \
0.05454842746257782, \
-0.06949600577354431, \
-0.052573010325431824, \
0.06868693232536316, \
0.02488711103796959, \
-0.0395619198679924, \
-0.007474266458302736, \
0.013554044999182224, \
-0.06693954020738602, \
-0.04778221622109413, \
-0.02111690491437912, \
-0.007719026878476143, \
0.0001276435941690579, \
-0.10935472697019577, \
-0.05804786458611488, \
-0.029151713475584984, \
-0.040121134370565414, \
0.07380110025405884, \
0.06855595111846924, \
-0.07223046571016312, \
0.12994684278964996, \
0.09480328857898712, \
0.005333236884325743, \
-0.05548254773020744, \
0.1042276918888092, \
-0.06109753996133804, \
0.07075146585702896, \
-0.014519864693284035, \
-0.013804352842271328, \
0.040528394281864166, \
-0.05107133090496063, \
0.08875834941864014, \
-0.031682636588811874, \
-0.03107423335313797, \
-0.08017134666442871, \
-0.006789029110223055, \
0.05353138595819473, \
-0.04390023276209831, \
0.010032640770077705, \
-0.029719475656747818, \
0.08125406503677368, \
0.01954943686723709, \
0.061352163553237915, \
-0.03901991993188858, \
0.04884077608585358, \
-0.023153118789196014, \
-0.024471372365951538, \
0.06227010488510132, \
0.08795854449272156, \
-0.0023805766832083464, \
0.09933178126811981, \
-0.10185965895652771, \
-6.302790279733017e-05, \
0.04312274977564812, \
0.03938765451312065, \
0.019461384043097496, \
-0.07490449398756027, \
0.0075084432028234005, \
0.0689179003238678, \
0.04501651972532272, \
0.06608471274375916, \
-0.05817781761288643, \
0.10687682777643204, \
0.043120741844177246, \
-0.09012138843536377, \
-0.009215167723596096, \
0.02729298360645771, \
-0.00861270260065794, \
-0.06771811842918396, \
-0.028616148978471756, \
-0.02418566681444645, \
0.004899437539279461, \
0.05760614573955536, \
0.03530292958021164, \
0.0395377092063427, \
0.0763302817940712, \
-0.07515499740839005, \
-0.06508374959230423, \
0.033630385994911194, \
-0.07478619366884232, \
-0.07244760543107986, \
0.06272411346435547, \
-0.06477724760770798, \
-0.03292485699057579, \
-0.055608343333005905, \
0.10547620803117752, \
0.008782428689301014, \
-0.042153071612119675, \
-0.11661688983440399, \
0.03821251913905144, \
-0.049027808010578156, \
-0.03896430507302284, \
0.021555056795477867, \
-0.11362326145172119, \
0.021237866953015327, \
0.06645707786083221, \
0.15640538930892944, \
-0.21299220621585846, \
0.07307522743940353, \
-0.062108300626277924, \
-0.03305670991539955, \
0.08015013486146927, \
0.05479525402188301, \
-0.028870223090052605, \
-0.01355093065649271, \
-0.09452755004167557, \
0.07481149584054947, \
-0.008680745959281921, \
0.10496377944946289, \
0.0425870381295681, \
-0.1204940676689148, \
-0.03701721504330635, \
0.0540778674185276, \
-0.0013518523192033172, \
0.059598661959171295, \
-0.1023043617606163, \
-0.03687902167439461, \
0.10587125271558762, \
-0.0332266204059124, \
0.05167869105935097, \
-0.08201294392347336, \
-0.05479153245687485, \
-0.010904590599238873, \
0.028583120554685593, \
0.07318150997161865, \
0.037342507392168045, \
-0.03525766357779503, \
-0.03950178995728493, \
-0.045728471130132675, \
0.1000843271613121, \
-0.026637589558959007, \
0.03386849910020828, \
0.15823334455490112, \
0.014012464322149754, \
-0.08537518978118896, \
-0.04342878982424736, \
0.06416639685630798, \
-0.12869185209274292, \
-0.038047853857278824, \
0.11187440156936646, \
-0.0871378481388092, \
-0.02391386404633522, \
-0.0038553080521523952, \
0.05511615425348282, \
-0.10904829204082489, \
-0.05438454821705818, \
-0.010080252774059772, \
-0.05986667796969414, \
0.07931653410196304, \
-0.07657361030578613, \
0.1535160094499588, \
-0.011409435421228409, \
0.10755696147680283, \
0.08881876617670059, \
-0.049747396260499954, \
-0.03817072510719299, \
0.06384113430976868, \
-0.04591089487075806, \
0.09493789076805115, \
-0.06861305236816406, \
-0.09389207512140274, \
0.05418429896235466, \
-0.0752883106470108, \
0.012782461009919643, \
0.09015727043151855, \
0.05281256139278412, \
0.09636342525482178, \
-0.033034659922122955, \
-0.10856760293245316, \
-0.06985804438591003, \
-0.03180620074272156, \
0.006892423611134291, \
0.007488682866096497, \
-0.09649041295051575, \
0.07094782590866089, \
-0.019009143114089966, \
0.046249207109212875, \
-0.09033965319395065, \
0.016119450330734253, \
0.0831562802195549, \
0.0138392373919487, \
-0.1117996945977211, \
-0.0742095559835434, \
0.053312040865421295, \
0.036741361021995544, \
0.015631647780537605, \
0.03416319191455841, \
0.03885500505566597, \
-0.022996341809630394, \
0.0728769302368164, \
0.13185511529445648, \
-0.0474611259996891, \
-0.05127301439642906, \
0.09563414752483368, \
-0.058833178132772446, \
-0.1030607596039772, \
0.10909521579742432, \
0.05377969145774841, \
-0.08294259011745453, \
-0.04853878542780876, \
-0.03183293715119362, \
-0.1504644751548767, \
0.04921592399477959, \
0.1391206681728363, \
-0.015448743477463722, \
-0.15670724213123322, \
0.02869662642478943, \
-0.03640586510300636, \
-0.026419147849082947, \
-0.03885868564248085, \
-0.03742562606930733, \
-0.025418326258659363, \
-0.04812480881810188, \
0.04194670543074608, \
0.10157737880945206, \
-0.02971312776207924, \
-0.003525171196088195, \
-0.04502063989639282, \
0.06762389093637466, \
-0.005841909907758236, \
-0.015875397250056267, \
0.05167175084352493, \
-0.025572672486305237, \
0.0431399792432785, \
-0.057196348905563354, \
-0.06546974182128906, \
0.06528083235025406, \
-0.09231682866811752, \
-0.040223006159067154, \
-0.04015791416168213, \
0.014215471222996712, \
-0.07108785212039948, \
-0.0024090243969112635, \
0.08670321106910706, \
0.02513534389436245, \
-0.06570681184530258, \
0.006469263229519129, \
0.03842156007885933, \
-0.06721065193414688, \
-0.07799389213323593, \
0.0829041600227356, \
0.08235488831996918, \
-0.007009738590568304, \
0.01627516746520996, \
0.018838129937648773, \
0.002571852644905448, \
-0.07935009151697159, \
0.018755700439214706, \
-0.03373583033680916, \
0.015490824356675148, \
-0.02063150145113468, \
-0.010167178697884083, \
-0.08864084631204605, \
0.09760304540395737, \
-0.06056699901819229, \
-0.034036796540021896, \
0.03875289112329483, \
0.040374647825956345, \
0.04970897361636162, \
-0.06581445038318634, \
0.06118343770503998, \
-0.08734538406133652, \
-0.07071040570735931, \
0.0764743909239769, \
-0.056821342557668686, \
0.05614246800541878, \
-0.07855402678251266, \
-0.013278882950544357, \
-0.022297479212284088, \
0.040026307106018066, \
-0.10229118913412094, \
-0.05205898731946945, \
0.0009938773000612855, \
0.008049561642110348, \
0.003317637834697962, \
-0.004482838325202465, \
-0.0478956438601017, \
0.02313297428190708, \
0.008116088807582855, \
0.0050163064152002335, \
-0.030671410262584686, \
0.03511623665690422, \
0.05938774719834328, \
-0.0038474418688565493, \
0.005049595143646002, \
-0.08854439109563828, \
-0.03417980298399925, \
0.03589627891778946, \
0.07199356704950333, \
0.0463283397257328, \
0.08168625086545944, \
0.059332553297281265, \
0.02614041604101658, \
-0.06883642822504044, \
0.060580167919397354, \
-0.06445576250553131, \
0.010615531355142593, \
-0.06654342263936996, \
0.04680471122264862, \
-0.06593728065490723, \
0.016094427555799484, \
-0.02861749194562435, \
0.004656805191189051, \
0.05942697450518608, \
0.06844089180231094, \
0.08248404413461685, \
-0.05971856787800789, \
-0.055949531495571136, \
-0.06858347356319427, \
0.011646151542663574, \
-0.03754648566246033, \
-0.0079712625592947, \
0.0603674091398716, \
0.01750972680747509, \
0.014860142022371292, \
0.061848197132349014, \
-0.04958394542336464, \
0.08247129619121552, \
0.042752448469400406, \
0.02717345580458641, \
-0.08330294489860535, \
-0.06464248895645142, \
-0.044504307210445404, \
0.0458114892244339, \
0.014094388112425804, \
-0.058770012110471725, \
-0.014182934537529945, \
0.09380578994750977, \
-0.05914684385061264, \
0.02742079459130764, \
0.03536992147564888, \
-0.054377079010009766, \
-0.07808256149291992, \
0.005973848048597574, \
-0.07064259052276611, \
0.058329157531261444, \
-0.1021890640258789, \
-0.15722469985485077, \
-0.04645037651062012, \
-0.059125687927007675, \
