#define fc2_bias {\
0.2286972552537918, \
-0.07213658839464188, \
0.09862885624170303, \
0.05793946608901024, \
0.12964864075183868, \
-0.0506306029856205, \
-0.001864344347268343, \
0.2280580699443817, \
0.10426940768957138, \
0.05343759059906006, \
-0.0886116772890091, \
-0.03989602252840996, \
0.005389770958572626, \
-0.05793571099638939, \
-0.08913356810808182, \
-0.04774225130677223, \
0.05122136324644089, \
-0.04809100553393364, \
0.016162749379873276, \
0.050692979246377945, \
0.32885071635246277, \
0.18519771099090576, \
0.021938886493444443, \
0.0019207990262657404, \
0.005663537885993719, \
-0.006519113201647997, \
-0.09898894280195236, \
0.006881296169012785, \
-0.0019184461561962962, \
0.08309914916753769, \
0.4116995334625244, \
0.330598920583725, \
0.19438892602920532, \
-0.10269397497177124, \
-0.016778243705630302, \
0.06385863572359085, \
-0.06113920360803604, \
0.32911789417266846, \
0.03528234735131264, \
-0.10136526077985764, \
0.0692031979560852, \
0.08114154636859894, \
0.08322138339281082, \
-0.06799054145812988, \
0.03449307754635811, \
0.05649799481034279, \
0.007233085576444864, \
-0.04808922857046127, \
0.3332805037498474, \
-0.0860634446144104, \
0.11752056330442429, \
0.030899805948138237, \
0.20575830340385437, \
-0.09622740745544434, \
0.014245843514800072, \
-0.04671476408839226, \
0.005394479259848595, \
0.10470142960548401, \
-0.13803231716156006, \
0.06736251711845398, \
0.12420570850372314, \
-0.0008900079410523176, \
-0.04330689087510109, \
0.03745304048061371, \
0.060765042901039124, \
0.1325361728668213, \
-0.06995420157909393, \
-0.11011706292629242, \
0.11624157428741455, \
0.2962367832660675, \
-0.035344962030649185, \
-0.022906817495822906, \
0.19148051738739014, \
0.26168471574783325, \
0.04608824476599693, \
0.03996413201093674, \
0.06531274318695068, \
0.030762597918510437, \
-0.09304063022136688, \
0.11043187975883484, \
0.004291965160518885, \
0.2524784207344055, \
-0.013095123693346977, \
0.011332659982144833, \
}
