#define fc3_weight {\
-0.28675469756126404, \
0.17970411479473114, \
0.12629252672195435, \
-0.08296748250722885, \
-0.10269197076559067, \
0.041670024394989014, \
0.18299362063407898, \
-0.17400844395160675, \
0.11970654129981995, \
0.07811200618743896, \
0.28767067193984985, \
-0.10006001591682434, \
0.18447190523147583, \
-0.051578592509031296, \
0.09609994292259216, \
-0.01756872422993183, \
0.18795351684093475, \
0.003030745079740882, \
0.14811943471431732, \
0.07283356040716171, \
-0.08089972287416458, \
0.016509829089045525, \
0.014355582185089588, \
-0.21094000339508057, \
0.18721485137939453, \
0.015827171504497528, \
0.17877110838890076, \
-0.028600608929991722, \
0.11184430867433548, \
-0.24515846371650696, \
-0.23287606239318848, \
0.20540092885494232, \
-0.09193127602338791, \
0.2070055902004242, \
0.11576219648122787, \
-0.023410653695464134, \
-0.09706073254346848, \
-0.3102845251560211, \
0.004896717611700296, \
-0.003344837576150894, \
0.27337542176246643, \
0.09336985647678375, \
0.0813235193490982, \
0.03673430159687996, \
-0.03087562881410122, \
0.12502427399158478, \
0.07339499145746231, \
-0.036437422037124634, \
0.0010716060642153025, \
0.0629611685872078, \
-0.056530483067035675, \
-0.10651599615812302, \
0.00338683370500803, \
-0.11329208314418793, \
0.025208674371242523, \
0.08490966260433197, \
-0.05447208136320114, \
0.09592209756374359, \
-0.03735826164484024, \
0.09201520681381226, \
0.09588340669870377, \
-0.029553385451436043, \
-0.11989370733499527, \
-0.11701640486717224, \
0.05035713315010071, \
-0.1900409609079361, \
0.02184647135436535, \
0.030432630330324173, \
-0.1698230504989624, \
-0.059230320155620575, \
-0.10539831966161728, \
-0.10543404519557953, \
-0.013103228062391281, \
0.18600769340991974, \
0.10165660083293915, \
0.009344478137791157, \
0.13440777361392975, \
-0.05400239676237106, \
-0.11607017368078232, \
0.16420862078666687, \
-0.07197016477584839, \
-0.20281702280044556, \
0.009577610529959202, \
0.125994011759758, \
-0.14687491953372955, \
0.21419866383075714, \
0.04253573715686798, \
-0.20554280281066895, \
0.249935582280159, \
0.20175324380397797, \
0.11233300715684891, \
-0.34076517820358276, \
-0.18334513902664185, \
0.04752961918711662, \
-0.12160196155309677, \
-0.027454696595668793, \
0.10666177421808243, \
0.04052409157156944, \
-0.001891592051833868, \
0.003355389693751931, \
0.05338478460907936, \
0.2338947057723999, \
0.22735251486301422, \
-0.062181249260902405, \
-0.0015007896581664681, \
-0.12792544066905975, \
-0.019133444875478745, \
0.33640098571777344, \
-0.14680232107639313, \
0.02353334240615368, \
-0.05617911368608475, \
0.11286310851573944, \
0.04747610166668892, \
0.06768852472305298, \
-0.09084712713956833, \
-0.3737502992153168, \
-0.13689769804477692, \
0.3801715672016144, \
-0.02741256356239319, \
-0.041158527135849, \
0.08128753304481506, \
-0.14826960861682892, \
0.06402845680713654, \
-0.07806690037250519, \
-0.1931222826242447, \
-0.06057947874069214, \
0.269248902797699, \
0.20910415053367615, \
0.015275864861905575, \
0.06707759201526642, \
0.01193244569003582, \
-0.0030623639468103647, \
-0.14049820601940155, \
-0.020315445959568024, \
0.12666812539100647, \
-0.009638331830501556, \
-0.1240469366312027, \
-0.0024361824616789818, \
-0.018989741802215576, \
0.033010900020599365, \
0.04148419201374054, \
-0.014293637126684189, \
0.09278798848390579, \
0.03598537668585777, \
-0.12297654151916504, \
-0.018648264929652214, \
0.152131125330925, \
0.04980461671948433, \
-0.07447586208581924, \
-0.2777869999408722, \
-0.09552232176065445, \
0.13140547275543213, \
0.042321231216192245, \
-0.09046260267496109, \
-0.006938401143997908, \
-0.007193536031991243, \
-0.11965740472078323, \
0.03975346311926842, \
-0.00890844315290451, \
0.12211907655000687, \
0.10403984040021896, \
-0.011189166456460953, \
0.3216699957847595, \
-0.15702784061431885, \
-0.09489012509584427, \
-0.13344746828079224, \
0.05611412599682808, \
-0.04054070636630058, \
0.11869671940803528, \
-0.21978752315044403, \
0.17988790571689606, \
0.17772535979747772, \
0.015024981461465359, \
-0.06997903436422348, \
-0.058264508843421936, \
-0.05884675309062004, \
0.24593934416770935, \
-0.13641615211963654, \
-0.03023388236761093, \
0.14163751900196075, \
0.14235544204711914, \
-0.09520211070775986, \
0.012327474541962147, \
0.09101812541484833, \
-0.08447446674108505, \
-0.00504764448851347, \
0.15579186379909515, \
0.08472802489995956, \
0.03923027589917183, \
0.11237839609384537, \
0.14440026879310608, \
-0.06198621541261673, \
0.09894128888845444, \
0.09130825847387314, \
-0.28332263231277466, \
-0.05004507675766945, \
-0.03608124330639839, \
-0.07017157226800919, \
0.01586463302373886, \
0.303396075963974, \
0.08216776698827744, \
-0.009452384896576405, \
0.04068978503346443, \
-0.18851010501384735, \
-0.007950066588819027, \
0.2586973011493683, \
-0.14530499279499054, \
-0.033706191927194595, \
0.039858099073171616, \
0.0918150246143341, \
-0.35297924280166626, \
-0.006033972837030888, \
-0.12123773247003555, \
-0.08690477162599564, \
0.03461192548274994, \
0.04183187335729599, \
0.18887974321842194, \
0.0899067372083664, \
-0.13538993895053864, \
-0.11641640961170197, \
0.27283886075019836, \
-0.03910849988460541, \
-0.08317427337169647, \
-0.007755883503705263, \
-0.05737827345728874, \
0.14355888962745667, \
0.06383828818798065, \
-0.13025502860546112, \
-0.21919657289981842, \
-0.016032690182328224, \
0.15597261488437653, \
0.06395774334669113, \
-0.039968591183423996, \
0.13932539522647858, \
0.07127197086811066, \
-0.002840808592736721, \
0.12607845664024353, \
-0.0409298837184906, \
0.00199761800467968, \
0.08219174295663834, \
-0.012907645665109158, \
0.15729178488254547, \
-0.08168589323759079, \
-0.004074414726346731, \
-0.021526813507080078, \
-0.04215870797634125, \
-0.03370877355337143, \
0.20337912440299988, \
-0.029808323830366135, \
0.1830260008573532, \
-0.11899569630622864, \
-0.050017599016427994, \
0.13708357512950897, \
-0.19192242622375488, \
0.026253366842865944, \
-0.018148459494113922, \
0.05047233775258064, \
0.04557760804891586, \
0.10797630995512009, \
0.18575309216976166, \
0.14207541942596436, \
0.02218727394938469, \
0.005839507561177015, \
-0.03495868295431137, \
-0.10925959050655365, \
-0.02359105460345745, \
0.06311540305614471, \
0.09333928674459457, \
0.04288991913199425, \
0.0007456928724423051, \
-0.10357345640659332, \
0.09162329137325287, \
0.01436773780733347, \
0.0929340347647667, \
0.08961392194032669, \
-0.11434338241815567, \
0.031856562942266464, \
-0.023797962814569473, \
0.010492638684809208, \
0.03934086114168167, \
0.24821186065673828, \
0.18197950720787048, \
-0.002323363209143281, \
-0.021788712590932846, \
0.20805968344211578, \
-0.16766412556171417, \
-0.028415312990546227, \
0.12958428263664246, \
0.017522525042295456, \
0.20143137872219086, \
-0.04981251433491707, \
-0.13855744898319244, \
-0.09886162728071213, \
-0.08073141425848007, \
-0.006590509787201881, \
-0.12326464802026749, \
-0.09732139110565186, \
-0.033140879124403, \
-0.050753653049468994, \
-0.010440644808113575, \
0.16446824371814728, \
0.013393919914960861, \
-0.041219133883714676, \
0.1828233301639557, \
-0.1395011991262436, \
0.03793749213218689, \
-0.008212832733988762, \
-0.0975794866681099, \
0.049968618899583817, \
-0.005419562570750713, \
-0.06964773684740067, \
-0.14082708954811096, \
-0.1611558496952057, \
0.11259382218122482, \
0.04938480630517006, \
-0.10873857140541077, \
-0.15028543770313263, \
0.03414623439311981, \
-0.10297001898288727, \
0.026535332202911377, \
0.14077997207641602, \
0.03490248695015907, \
-0.005885598715394735, \
0.027364343404769897, \
0.2790406346321106, \
-0.24791954457759857, \
0.049688756465911865, \
-0.0866626650094986, \
0.05931416153907776, \
-0.05761290714144707, \
-0.008931898511946201, \
0.11118527501821518, \
0.0534847117960453, \
0.2050701081752777, \
-0.0644506886601448, \
0.04265109822154045, \
0.046898093074560165, \
0.00963796116411686, \
0.05983228608965874, \
-0.0015519197331741452, \
0.1263652741909027, \
0.0485103614628315, \
-0.08655503392219543, \
0.15340572595596313, \
-0.13285303115844727, \
-0.1736002117395401, \
-0.0995715856552124, \
-0.08543416857719421, \
-0.03566645830869675, \
-0.11272908747196198, \
-0.07289464771747589, \
-0.05543556064367294, \
-0.014200602658092976, \
-0.1202782467007637, \
-0.13515877723693848, \
-0.16957180202007294, \
0.3778578042984009, \
-0.0012285124976187944, \
-0.13254006206989288, \
-0.2593129277229309, \
-0.18392373621463776, \
0.10678605735301971, \
-0.17998693883419037, \
0.06430567800998688, \
0.05009106174111366, \
-0.30438491702079773, \
0.26953306794166565, \
0.2346828430891037, \
-0.08566242456436157, \
-0.14891460537910461, \
-0.0018924504984170198, \
0.05951022356748581, \
0.10287946462631226, \
0.07885927706956863, \
-0.10988304764032364, \
-0.04418584331870079, \
-0.1271505504846573, \
0.023321568965911865, \
-0.06541895121335983, \
-0.15896064043045044, \
0.07404758781194687, \
0.16906535625457764, \
-0.08291438221931458, \
-0.062398288398981094, \
0.34395483136177063, \
-0.04805166274309158, \
-0.1191243976354599, \
-0.01865561306476593, \
-0.023990651592612267, \
-0.125727117061615, \
-0.007755101192742586, \
-0.06753259897232056, \
-0.12504588067531586, \
-0.12025266885757446, \
-0.1295822411775589, \
0.08521772921085358, \
0.2751460075378418, \
-0.06906203180551529, \
-0.07133246958255768, \
-0.050265949219465256, \
0.06949354708194733, \
0.15243437886238098, \
-0.08081402629613876, \
-0.039238739758729935, \
0.03301593288779259, \
0.1471758484840393, \
-0.0939265713095665, \
0.05080559849739075, \
-0.026138167828321457, \
0.16805115342140198, \
-0.15800084173679352, \
-0.023288477212190628, \
0.04782450944185257, \
-0.09856237471103668, \
-0.26890093088150024, \
0.06706687808036804, \
-0.10915188491344452, \
-0.15932892262935638, \
0.0864223763346672, \
-0.13792572915554047, \
0.22029227018356323, \
-0.1379155069589615, \
-0.07062042504549026, \
0.07171081751585007, \
0.0444372184574604, \
-0.09595619142055511, \
-0.035309188067913055, \
0.11785285174846649, \
0.1543130874633789, \
-0.19915594160556793, \
0.007720102556049824, \
-0.10387545078992844, \
-0.10629092156887054, \
0.06857322156429291, \
0.08168835937976837, \
0.01477899681776762, \
-0.03579327464103699, \
-0.08893819898366928, \
-0.09498094767332077, \
-0.004774363245815039, \
-0.05415993556380272, \
-0.003518571611493826, \
-0.0666159838438034, \
-0.018788674846291542, \
-0.0354602187871933, \
0.05992450565099716, \
-0.07668791711330414, \
-0.06662170588970184, \
-0.04563610255718231, \
0.11751868575811386, \
0.13253100216388702, \
-0.08175422251224518, \
0.04203091934323311, \
-0.17244122922420502, \
0.07197320461273193, \
0.3053077161312103, \
-0.06583094596862793, \
0.21881575882434845, \
-0.0921245813369751, \
-0.0025723555590957403, \
-0.24765923619270325, \
0.0119179617613554, \
-0.08505158871412277, \
-0.09277308732271194, \
0.036601919680833817, \
0.017243642359972, \
0.021180838346481323, \
0.13137897849082947, \
0.07286853343248367, \
-0.03354169428348541, \
0.05425333231687546, \
0.20901785790920258, \
-0.2256883829832077, \
0.03300253674387932, \
0.14830134809017181, \
0.07583512365818024, \
0.02189062535762787, \
-0.24494703114032745, \
0.20828591287136078, \
-0.07160396128892899, \
-0.07227274030447006, \
0.2713656425476074, \
-0.004790529143065214, \
0.0059955609031021595, \
-0.032868705689907074, \
0.13322366774082184, \
-0.1814982146024704, \
0.05887310951948166, \
0.17696867883205414, \
0.07170393317937851, \
-0.09070795029401779, \
-0.021045390516519547, \
0.03586815670132637, \
-0.11175573617219925, \
-0.03780238702893257, \
0.010948658920824528, \
-0.0814499780535698, \
0.10129641741514206, \
-0.06665748357772827, \
0.18058361113071442, \
0.0028297684621065855, \
0.06964631378650665, \
-0.11247743666172028, \
0.2327444702386856, \
0.1665804088115692, \
0.10685798525810242, \
-0.04975125938653946, \
-0.06564624607563019, \
0.02546125091612339, \
-0.0361248143017292, \
0.12072509527206421, \
-0.12228722125291824, \
-0.13080158829689026, \
-0.013084964826703072, \
-0.23311975598335266, \
-0.07897115498781204, \
-0.237025648355484, \
0.006745303049683571, \
0.06203833594918251, \
0.07093923538923264, \
0.08492553979158401, \
-0.045223675668239594, \
0.14918814599514008, \
0.09593689441680908, \
0.23986151814460754, \
0.3727492690086365, \
-0.17812161147594452, \
0.09663433581590652, \
0.018109312281012535, \
0.030568979680538177, \
-0.12025102972984314, \
0.07596157491207123, \
-0.10984034091234207, \
0.20627474784851074, \
0.4032346308231354, \
0.10969289392232895, \
0.08215051889419556, \
-0.11032477766275406, \
0.020276084542274475, \
-0.042343951761722565, \
0.03544559329748154, \
0.12306453287601471, \
-0.057029418647289276, \
-0.005334550514817238, \
-0.08234326541423798, \
-0.018088851124048233, \
-0.1070413887500763, \
-0.005000573117285967, \
0.043086618185043335, \
-0.10925722122192383, \
-0.061899688094854355, \
0.013480634428560734, \
-0.10460201650857925, \
-0.07123873382806778, \
-0.0490410216152668, \
0.09817903488874435, \
0.11567173898220062, \
-0.25063323974609375, \
-0.13527262210845947, \
-0.08118708431720734, \
-0.03206244483590126, \
-0.1306319385766983, \
-0.0013202064437791705, \
-0.09127669781446457, \
-0.26677584648132324, \
-0.28026366233825684, \
-0.0007809395901858807, \
0.056491635739803314, \
-0.1811414659023285, \
-0.1925460547208786, \
-0.20146633684635162, \
0.003929701633751392, \
0.10687270760536194, \
0.29160404205322266, \
0.08724462240934372, \
-0.018224062398076057, \
0.199974924325943, \
-0.020582165569067, \
-0.28468361496925354, \
0.23471221327781677, \
-0.22313983738422394, \
0.043260395526885986, \
-0.17634516954421997, \
-0.20896320044994354, \
0.029253870248794556, \
0.11312390863895416, \
-0.23977409303188324, \
0.058103833347558975, \
0.200327068567276, \
0.2034190148115158, \
-0.07013137638568878, \
0.13427913188934326, \
-0.08188503980636597, \
0.01879732869565487, \
-0.01625121757388115, \
0.336749792098999, \
-0.06040019914507866, \
-0.14485645294189453, \
0.13872811198234558, \
0.09611600637435913, \
-0.08799030631780624, \
-0.07580363005399704, \
0.026571718975901604, \
-0.0047629354521632195, \
-0.005426809191703796, \
-0.09134556353092194, \
-0.15692874789237976, \
0.17255505919456482, \
0.027337491512298584, \
-0.11915881186723709, \
0.11729759722948074, \
-0.2896125912666321, \
-0.05890015512704849, \
0.02197982743382454, \
0.06711539626121521, \
0.043042734265327454, \
-0.08976810425519943, \
0.0532572902739048, \
0.00921699870377779, \
-0.09391135722398758, \
-0.07388206571340561, \
-0.004435563459992409, \
-0.03054046258330345, \
-0.020700804889202118, \
0.08224144577980042, \
-0.1317024976015091, \
-0.10799511522054672, \
-0.04914308711886406, \
-0.15557926893234253, \
-0.15323542058467865, \
-0.18407440185546875, \
-0.11967217922210693, \
-0.016556352376937866, \
-0.1362372487783432, \
0.010998599231243134, \
0.020888222381472588, \
0.003003595396876335, \
0.024737654253840446, \
-0.14559903740882874, \
-0.03515996038913727, \
-0.16264107823371887, \
0.19834494590759277, \
-0.028577208518981934, \
-0.07946506142616272, \
0.0698244720697403, \
-0.038131341338157654, \
0.1501292735338211, \
-0.10804762691259384, \
0.43900734186172485, \
0.25104784965515137, \
0.2664709985256195, \
0.19376574456691742, \
0.03407297283411026, \
0.24811501801013947, \
0.04517974704504013, \
-0.11837608367204666, \
-0.02546209841966629, \
0.02245965227484703, \
0.028706111013889313, \
-0.0672360360622406, \
-0.0892777219414711, \
-0.02672450989484787, \
-0.026396600529551506, \
-0.1786079853773117, \
-0.1500956416130066, \
0.07249473035335541, \
-0.08597137033939362, \
-0.05255624279379845, \
-0.08119115978479385, \
-0.01116482075303793, \
-0.17277954518795013, \
-0.11750836670398712, \
-0.32470569014549255, \
-0.14996980130672455, \
-0.02636595070362091, \
-0.2340865582227707, \
-0.35333606600761414, \
0.06144263967871666, \
-0.2125643640756607, \
-0.20579037070274353, \
-0.2637314200401306, \
0.1867777407169342, \
-0.06068343669176102, \
0.07488641887903214, \
0.13987280428409576, \
0.02765529975295067, \
-0.06474555283784866, \
-0.06117856502532959, \
0.14881238341331482, \
0.2649098038673401, \
0.15376709401607513, \
-0.15691909193992615, \
-0.16779844462871552, \
-0.06142900884151459, \
0.06021978333592415, \
-0.02709806337952614, \
0.10182241350412369, \
-0.11207982152700424, \
0.018047649413347244, \
0.09361648559570312, \
0.026016486808657646, \
0.05157705023884773, \
-0.2298917919397354, \
-0.19745880365371704, \
-0.08280516415834427, \
0.08293242752552032, \
-0.05674302205443382, \
0.08928963541984558, \
0.0725458636879921, \
0.07147495448589325, \
0.23332881927490234, \
-0.09270511567592621, \
0.2740505635738373, \
-0.03247469663619995, \
0.17110010981559753, \
0.016367366537451744, \
0.10174749791622162, \
-0.10383792221546173, \
0.0328395701944828, \
0.030356088653206825, \
-0.2447441667318344, \
0.09473652392625809, \
0.32403767108917236, \
0.15474547445774078, \
0.12445762008428574, \
-0.08985231816768646, \
-0.15669985115528107, \
-0.10995831340551376, \
-0.07621831446886063, \
0.3276800513267517, \
0.033824559301137924, \
0.0915209949016571, \
-0.17589372396469116, \
0.0833742693066597, \
-0.2099917083978653, \
0.06848450005054474, \
0.18526095151901245, \
-0.1751154214143753, \
-0.04250532388687134, \
-0.04407405108213425, \
0.10237444192171097, \
-0.2973974943161011, \
0.06261584162712097, \
-0.04592236876487732, \
-0.20464111864566803, \
0.1315702646970749, \
0.23840802907943726, \
0.057294830679893494, \
0.08600399643182755, \
0.1682979166507721, \
-0.03414362668991089, \
-0.041462261229753494, \
0.15584780275821686, \
-0.09116572886705399, \
0.028355835005640984, \
-0.1596967726945877, \
-0.1905078887939453, \
0.10975789278745651, \
-0.1332077831029892, \
0.13612361252307892, \
0.04027441889047623, \
0.10409380495548248, \
-0.1742263287305832, \
-0.25101780891418457, \
-0.07960541546344757, \
0.25510966777801514, \
-0.018520712852478027, \
-0.07724086940288544, \
0.016946371644735336, \
-0.014210767112672329, \
0.07816991955041885, \
0.09130904823541641, \
-0.0388624370098114, \
-0.041586633771657944, \
0.16690023243427277, \
-0.007260226644575596, \
-0.1801854372024536, \
-0.1461031138896942, \
-0.11774975061416626, \
0.34638679027557373, \
-0.054035112261772156, \
0.04819808527827263, \
0.26275435090065, \
0.00959331076592207, \
-0.16811604797840118, \
0.0513460598886013, \
-0.0655951127409935, \
-0.141610249876976, \
0.0411674939095974, \
0.11537476629018784, \
0.06747270375490189, \
-0.11331868171691895, \
-0.020840570330619812, \
-0.1848972737789154, \
-0.03800184652209282, \
0.055235836654901505, \
-0.049997955560684204, \
0.07318626344203949, \
0.24372561275959015, \
-0.11075121909379959, \
0.030955687165260315, \
-0.002437955467030406, \
-0.03685946762561798, \
-0.037704162299633026, \
-0.22623074054718018, \
-0.08272518962621689, \
-0.09175550192594528, \
-0.0163187924772501, \
-0.17643165588378906, \
0.21470224857330322, \
-0.0051835039630532265, \
0.03342495486140251, \
-0.041241806000471115, \
0.1297542303800583, \
-0.024399081245064735, \
-0.07747965306043625, \
-0.0017469399608671665, \
0.012056201696395874, \
-0.05687536299228668, \
-0.051809657365083694, \
0.06960003077983856, \
-0.0509154349565506, \
0.09687898308038712, \
0.1879284530878067, \
-0.11327101290225983, \
-0.04279022663831711, \
0.052692268043756485, \
-0.09055562317371368, \
0.06263399124145508, \
-0.16968542337417603, \
0.03950187936425209, \
0.04552313685417175, \
-0.05481019988656044, \
-0.09003801643848419, \
0.2684963047504425, \
-0.22026920318603516, \
-0.09727005660533905, \
0.09907995909452438, \
0.275527685880661, \
-0.06386596709489822, \
}
