#define features_4_bias {\
-2.9626852082742516e-09, \
3.5396706010715207e-08, \
-1.0906239467090018e-08, \
2.814053345900902e-08, \
1.7437615795756756e-08, \
-8.506274440378547e-08, \
6.447618972060809e-08, \
1.5805213138264662e-08, \
-2.3517420899565877e-08, \
-3.012218741105244e-08, \
-2.1550095041789064e-08, \
-6.440937116991563e-09, \
2.6319801449403712e-08, \
2.5737323383623334e-08, \
5.628303156868242e-08, \
1.0316132836862835e-08, \
6.2143645784829005e-09, \
-3.8408213498541954e-08, \
-3.679281235235976e-08, \
-3.855384989037702e-08, \
-1.4409087256694875e-08, \
-1.0647571713207071e-08, \
-3.265564885168715e-08, \
-2.824017286684466e-08, \
-5.62531077274997e-10, \
-1.4510297852154963e-08, \
-4.2995878857254866e-08, \
2.0615075868590793e-08, \
-5.950453019210045e-09, \
4.8295365928652245e-08, \
5.620308485276837e-08, \
2.4087315253495944e-08, \
2.249910480145445e-08, \
-4.3303906238634227e-08, \
-2.200542681407569e-08, \
-2.903824025679569e-08, \
5.97060534346383e-08, \
6.078485625948815e-08, \
5.336790565024785e-08, \
2.358094874921335e-08, \
3.4495005962753567e-08, \
-1.905914714939172e-08, \
2.3622625633379357e-08, \
-2.5896548905279815e-08, \
-1.8382570132757792e-08, \
-9.886153407023812e-08, \
-5.156265814321159e-08, \
-1.3464400261398168e-08, \
2.492567219292141e-08, \
5.373091294808008e-12, \
2.4681837018647457e-08, \
-2.6211589343461128e-08, \
-8.589318412077773e-08, \
3.737640597023528e-08, \
3.449537544497616e-08, \
5.119753954119233e-09, \
-4.43565610908081e-08, \
4.261616126655099e-08, \
5.5602145110356105e-09, \
-8.600870415875761e-08, \
7.089649045610713e-08, \
-3.498158562820208e-08, \
2.5315491924970956e-08, \
2.245965902147873e-08, \
3.7261504104435517e-08, \
-5.6214439325685817e-08, \
2.4668183939979826e-08, \
-3.854310648421233e-08, \
4.461477942641068e-08, \
-4.0097880571465794e-08, \
5.138395930970319e-09, \
4.086826521643161e-08, \
-9.983365245602727e-09, \
-4.22626058593778e-08, \
-3.809533666299103e-08, \
-9.38953625961858e-09, \
-4.2864549243404326e-08, \
-4.915911588909694e-08, \
-1.1543389355495037e-08, \
2.9566404435854565e-08, \
5.8018585491481645e-08, \
1.634856339194357e-08, \
-2.6661879815037537e-08, \
-9.735852124492794e-09, \
-6.703894683823819e-08, \
-2.0913121900889564e-08, \
-2.4450486080240807e-08, \
-2.5398584568847582e-08, \
3.4283120786682275e-09, \
-5.565692351439111e-09, \
-1.700212060029571e-08, \
-2.15303810335854e-08, \
-3.1233002850683533e-09, \
3.601181575163537e-08, \
-2.139866595030071e-08, \
-2.452521030704702e-08, \
1.0975986697303597e-07, \
1.4331870801242985e-08, \
8.808310525409979e-08, \
-3.474038834383464e-08, \
-2.6509914263783685e-08, \
-1.2077316924319348e-08, \
-1.6723960882814026e-08, \
-4.189454116954039e-08, \
-5.088813281872717e-08, \
-3.943404891515456e-08, \
9.749886231702476e-09, \
1.6976306582705547e-08, \
1.0504980885173154e-08, \
-3.6419077531490984e-08, \
-6.886605774525378e-08, \
1.3845856905447818e-08, \
-5.9071687985579047e-08, \
-4.9585189287881803e-08, \
2.5375441747854666e-09, \
1.5701655087241306e-08, \
1.7042543376533104e-08, \
-4.48767778493675e-08, \
-4.240379070097333e-08, \
-4.1104726733465213e-08, \
-3.06184624321304e-08, \
-5.090427990239732e-08, \
-8.04794453301838e-09, \
-1.7326200918432733e-08, \
3.589583030816357e-08, \
-3.0519579752308346e-08, \
1.791057435696075e-08, \
-8.015229369107146e-09, \
}
