#define features_3_weight {\
0.02727847546339035, \
-0.026813969016075134, \
0.012293876148760319, \
-0.005595608614385128, \
-0.014347635209560394, \
-0.04769740626215935, \
0.006077060475945473, \
0.014840199612081051, \
0.04128367826342583, \
0.013116806745529175, \
0.03645050525665283, \
0.023591266945004463, \
0.004015828017145395, \
0.029411619529128075, \
0.021784739568829536, \
0.015169098973274231, \
-0.024315085262060165, \
0.01188142690807581, \
0.03647184744477272, \
-0.00949026457965374, \
0.03548702970147133, \
0.020884592086076736, \
-0.021273823454976082, \
-0.006647145375609398, \
-0.029477709904313087, \
0.01631946861743927, \
-0.03752093389630318, \
-0.02686912938952446, \
0.01443981658667326, \
-0.025766829028725624, \
-0.0202187392860651, \
0.023423079401254654, \
-0.02284199930727482, \
0.027852598577737808, \
-0.02619784325361252, \
-0.008038199506700039, \
0.033906977623701096, \
0.0012977318838238716, \
-0.017036138102412224, \
-0.022656524553894997, \
0.026576880365610123, \
0.02805263362824917, \
-0.012720501981675625, \
0.005375315900892019, \
-0.011286729015409946, \
0.0035750390961766243, \
-0.003116430016234517, \
-0.01165903639048338, \
0.032803621143102646, \
0.048518504947423935, \
0.014978870749473572, \
-0.021792855113744736, \
-0.01343151181936264, \
-0.03528907895088196, \
-0.023289741948246956, \
-0.01208642590790987, \
0.016479382291436195, \
0.03150622546672821, \
0.028257811442017555, \
-0.019166236743330956, \
-0.025031791999936104, \
0.00936113391071558, \
-0.028871288523077965, \
-0.035403937101364136, \
0.021421173587441444, \
0.025273902341723442, \
-0.0070776608772575855, \
0.000549435440916568, \
-0.01578642800450325, \
-0.04311178997159004, \
0.017452005296945572, \
0.030763432383537292, \
0.03266391158103943, \
0.007802503649145365, \
-0.03259991481900215, \
-0.023631403222680092, \
0.0211915485560894, \
0.018306244164705276, \
0.024733763188123703, \
-0.008269025944173336, \
-0.0020776644814759493, \
0.040762241929769516, \
0.0015842230059206486, \
-0.005793435964733362, \
0.010240106843411922, \
0.018769346177577972, \
-0.008585119619965553, \
-0.028434069827198982, \
-0.029898371547460556, \
0.017918262630701065, \
-0.006253927014768124, \
-0.0489468015730381, \
-0.019634563475847244, \
-0.005773939657956362, \
-0.036243148148059845, \
-0.01693294569849968, \
0.020922519266605377, \
-0.03861910477280617, \
0.01842665858566761, \
-0.032510824501514435, \
-0.004780410323292017, \
0.03287728503346443, \
-0.02716502547264099, \
-0.02163795195519924, \
0.007451247423887253, \
-0.03475846350193024, \
0.0021890378557145596, \
0.02037009969353676, \
0.007199805695563555, \
0.022447120398283005, \
0.017989590764045715, \
-0.027338895946741104, \
0.03225283697247505, \
-0.0028659203089773655, \
0.01960987225174904, \
-0.02735433727502823, \
0.026580430567264557, \
-0.05283322185277939, \
0.03757254034280777, \
0.02103693038225174, \
0.029526717960834503, \
0.007555329240858555, \
0.013180858455598354, \
0.019341079518198967, \
-0.0091512156650424, \
0.013474907726049423, \
-0.02178206294775009, \
0.02924155816435814, \
-0.01675347611308098, \
-0.02668316289782524, \
0.0057179126888513565, \
0.028981292620301247, \
-0.03272142633795738, \
-0.01363805215805769, \
0.0020305432844907045, \
0.021784860640764236, \
0.02794448658823967, \
0.009723703376948833, \
-0.03918490931391716, \
0.01098356582224369, \
-0.015520085580646992, \
0.015398742631077766, \
0.020716890692710876, \
-0.02928108535706997, \
0.01718025654554367, \
0.017809145152568817, \
-0.024766920134425163, \
-0.03983955457806587, \
-0.014179988764226437, \
-0.011137416586279869, \
-0.0190482996404171, \
-0.013349000364542007, \
-0.0016916870372369885, \
0.0019620901439338923, \
0.008384887129068375, \
-0.017354128882288933, \
0.023046279326081276, \
0.01862315461039543, \
-0.032977521419525146, \
-0.0320873036980629, \
0.002798462053760886, \
0.0006539581227116287, \
0.016798561438918114, \
-0.02767341025173664, \
-0.03971258923411369, \
0.0161029901355505, \
-0.0072142593562603, \
0.019616693258285522, \
-0.04767890274524689, \
0.00010100063809659332, \
-0.019118670374155045, \
-0.010270485654473305, \
-0.002923258813098073, \
-0.004685566760599613, \
0.004419834353029728, \
-0.006285472307354212, \
0.01430535688996315, \
0.019322868436574936, \
-0.030413448810577393, \
-0.003165668807923794, \
-0.01666910946369171, \
0.00942557118833065, \
0.0017549176700413227, \
-0.007500410079956055, \
0.01689647138118744, \
0.015406481921672821, \
0.0276949405670166, \
0.0687299445271492, \
-0.0011771462159231305, \
0.02176709659397602, \
-0.020180046558380127, \
0.027309654280543327, \
0.000640725193079561, \
0.01499196607619524, \
0.016184231266379356, \
-0.0234509389847517, \
0.011324107646942139, \
-0.027260607108473778, \
0.0056409877724945545, \
-0.02853851206600666, \
-0.028923068195581436, \
0.0013580794911831617, \
0.001784046646207571, \
-0.015228034928441048, \
-0.02853117510676384, \
0.03347626328468323, \
-0.002653062343597412, \
-0.01714552566409111, \
-0.027910493314266205, \
-0.008272324688732624, \
-0.005843140184879303, \
0.01149402279406786, \
-0.01713571324944496, \
0.0227227620780468, \
0.021684151142835617, \
0.009221060201525688, \
-0.026558665558695793, \
-0.030045675113797188, \
-0.005691879894584417, \
-0.010384315624833107, \
-0.0201349388808012, \
0.03262952342629433, \
0.012727528810501099, \
-0.022633571177721024, \
-0.007115913555026054, \
0.017662087455391884, \
-0.0023075900971889496, \
-0.03239024057984352, \
-0.018437208607792854, \
-0.005569138564169407, \
0.019387872889637947, \
-0.016733083873987198, \
0.012403236702084541, \
0.03235194832086563, \
0.017024673521518707, \
0.02071135863661766, \
0.018705738708376884, \
0.0023101717233657837, \
-0.05780485272407532, \
-0.024549148976802826, \
-0.025479231029748917, \
-0.04523226618766785, \
-0.008672560565173626, \
-0.021155912429094315, \
0.015654191374778748, \
-0.04145403206348419, \
-0.020269043743610382, \
-0.031190039590001106, \
-0.034311894327402115, \
-0.015474341809749603, \
-0.03088655136525631, \
-0.020933495834469795, \
0.0006132221315056086, \
0.009657864458858967, \
-0.01628302037715912, \
-0.0230230875313282, \
-0.0021545039489865303, \
-0.024296779185533524, \
0.01817457564175129, \
-0.03555549308657646, \
-0.024847013875842094, \
-0.0032134095672518015, \
-0.020032817497849464, \
-0.013173912651836872, \
0.014265237376093864, \
-0.024296622723340988, \
-0.007555499207228422, \
-0.02363571524620056, \
-0.030719401314854622, \
0.026829814538359642, \
-0.007013889029622078, \
0.0012899881694465876, \
-0.007490081246942282, \
0.028038425371050835, \
-0.0021448889747262, \
-0.025003300979733467, \
-0.014800465665757656, \
0.0030376508366316557, \
-0.007479229010641575, \
-0.024897610768675804, \
-0.03166457265615463, \
-0.0025705986190587282, \
-0.04283825308084488, \
-0.014973864890635014, \
-0.036878760904073715, \
-0.008028189651668072, \
-0.035675205290317535, \
-0.030315374955534935, \
-0.025135565549135208, \
0.006130150519311428, \
0.020263249054551125, \
0.01862296834588051, \
-0.02712436020374298, \
0.006553138606250286, \
0.02666838839650154, \
0.0217280350625515, \
-0.01806662045419216, \
-0.03083758056163788, \
0.02519293501973152, \
-0.04122824966907501, \
-0.015747077763080597, \
-0.027653507888317108, \
0.003695947816595435, \
-0.012566021643579006, \
0.018309900537133217, \
-0.02208239585161209, \
-0.04062356799840927, \
-0.019943343475461006, \
-0.029267776757478714, \
0.00262483861297369, \
0.021297618746757507, \
-0.02871626429259777, \
0.003688610391691327, \
-0.01005813479423523, \
0.016912853345274925, \
0.0467570424079895, \
0.015718134120106697, \
-0.02642393484711647, \
-0.015264804475009441, \
0.022378848865628242, \
0.002450557192787528, \
0.000136264439788647, \
-0.018875762820243835, \
-0.007857758551836014, \
0.00017939324607141316, \
-0.0017763443756848574, \
-0.047202400863170624, \
-0.021715091541409492, \
0.024370869621634483, \
0.011424878612160683, \
-0.015508392825722694, \
-0.010645994916558266, \
-0.016398167237639427, \
-0.022624503821134567, \
-0.012200169265270233, \
-0.04404100403189659, \
-0.01751565933227539, \
0.007945185527205467, \
-0.0001936053449753672, \
-0.032338354736566544, \
0.00952298752963543, \
-0.02543419785797596, \
0.021377259865403175, \
-0.040150951594114304, \
0.005007101688534021, \
-0.023173337802290916, \
0.017469555139541626, \
-0.02838066592812538, \
-0.0336780771613121, \
-0.02582697756588459, \
-0.039266686886548996, \
-0.026318445801734924, \
0.010614543221890926, \
-0.026230338960886, \
-0.02217099443078041, \
-0.0062758480198681355, \
-0.0129264360293746, \
0.04533538967370987, \
0.024079464375972748, \
0.010627898387610912, \
0.01653595268726349, \
0.012522607110440731, \
-0.016591932624578476, \
-0.01178687158972025, \
0.01565166749060154, \
0.016132252290844917, \
-0.02997172437608242, \
-0.015831001102924347, \
-0.04093969613313675, \
-0.047797366976737976, \
-0.003212076611816883, \
-0.009031006135046482, \
0.012354983948171139, \
-0.0025090340059250593, \
0.022328680381178856, \
-0.009277626872062683, \
-0.005921906791627407, \
-0.016029706224799156, \
0.030055344104766846, \
0.02696852572262287, \
0.01902047172188759, \
-0.02482542209327221, \
-0.012238278053700924, \
0.009265742264688015, \
-0.04509156197309494, \
0.0027276279870420694, \
-0.03305007889866829, \
-0.006293621379882097, \
0.004602548200637102, \
-0.015332115814089775, \
-0.021027760580182076, \
-0.0018066593911498785, \
0.017657192423939705, \
0.00827757641673088, \
0.014344505965709686, \
-0.04623919352889061, \
-0.032762911170721054, \
0.028175456449389458, \
0.002603239379823208, \
-0.05875803902745247, \
-0.05175458639860153, \
0.0015185476513579488, \
-0.038071006536483765, \
0.008902402594685555, \
0.01020737737417221, \
0.00962771475315094, \
-0.05212981998920441, \
0.022134363651275635, \
0.014984807930886745, \
0.01303201075643301, \
-0.010198868811130524, \
-0.0017153109656646848, \
-0.03570504114031792, \
-0.015005165711045265, \
-0.0020088956225663424, \
-0.022303743287920952, \
-0.014703087508678436, \
0.026367738842964172, \
0.00826337467879057, \
-0.041770461946725845, \
-0.00384215428493917, \
-0.023127103224396706, \
-0.01356089860200882, \
0.019971026107668877, \
-0.002224639290943742, \
0.012417789548635483, \
0.0215354822576046, \
0.011946500279009342, \
-0.024965766817331314, \
-0.040312185883522034, \
-0.04227575659751892, \
0.0003665067779365927, \
-0.023257672786712646, \
-0.03779378905892372, \
-0.00922380480915308, \
-0.026768164709210396, \
0.018653661012649536, \
-0.06446576118469238, \
0.029475174844264984, \
-0.033470649272203445, \
-0.03223514184355736, \
0.008446063846349716, \
-0.028886498883366585, \
-0.0031660255044698715, \
-0.008358428254723549, \
-0.027723345905542374, \
-0.02495299093425274, \
-0.03526502475142479, \
-0.00740620493888855, \
0.0023311208933591843, \
0.0023486893624067307, \
-0.009643376804888248, \
-0.02089759148657322, \
-0.00188945303671062, \
0.005360077600926161, \
-0.006453859154134989, \
0.018891464918851852, \
-0.03459390625357628, \
0.004542110487818718, \
-0.04064764082431793, \
-0.028074804693460464, \
0.01829238422214985, \
-0.020775314420461655, \
0.003854186739772558, \
-0.03457891196012497, \
0.01661808043718338, \
0.011669312603771687, \
0.030074913054704666, \
-0.02969334088265896, \
-0.0427323617041111, \
-0.007043241523206234, \
0.005081976763904095, \
0.017414908856153488, \
0.01400945708155632, \
-0.0502086766064167, \
-0.017291586846113205, \
-0.009502229280769825, \
0.007358995266258717, \
-0.03317154571413994, \
-0.03568734973669052, \
-0.03169180452823639, \
-0.00976317748427391, \
0.018506933003664017, \
0.006882598157972097, \
0.006753900088369846, \
0.028079062700271606, \
-0.024762561544775963, \
-0.02223389782011509, \
-0.029014522209763527, \
-0.03150111809372902, \
-0.01193907018750906, \
0.005180095788091421, \
0.011623893864452839, \
-0.035823021084070206, \
-0.04152243584394455, \
-0.01510932669043541, \
-0.004821114242076874, \
-0.04669271036982536, \
-0.01113328617066145, \
-0.034474316984415054, \
-0.04606457054615021, \
-0.04390094056725502, \
0.01578136347234249, \
-0.0062839011661708355, \
0.02099018543958664, \
-0.022563405334949493, \
-0.01529585849493742, \
0.057075340300798416, \
0.01739184930920601, \
0.025692686438560486, \
-0.04143308848142624, \
-0.009704725816845894, \
-0.04444630444049835, \
0.003170532174408436, \
-0.005236187018454075, \
-0.019018882885575294, \
-0.016784045845270157, \
0.01466457825154066, \
-0.040918659418821335, \
0.012679437175393105, \
0.006906579714268446, \
-0.0017891766037791967, \
-0.0010614468483254313, \
0.0017000508960336447, \
0.012354551814496517, \
-0.0352172777056694, \
-0.0039184619672596455, \
-0.0404580719769001, \
-0.012842594645917416, \
-0.031484317034482956, \
0.013829890638589859, \
0.004231237340718508, \
0.014657986350357533, \
-0.05060039088129997, \
-0.009199491702020168, \
0.018871886655688286, \
0.010514164343476295, \
-0.03918865695595741, \
-0.002494772197678685, \
-0.007354988716542721, \
0.027355503290891647, \
0.01501750759780407, \
-0.016615688800811768, \
-0.026837553828954697, \
-0.015420016832649708, \
0.017532605677843094, \
0.023132221773266792, \
-0.011335572227835655, \
0.0013588148867711425, \
0.04211898520588875, \
0.02007927931845188, \
-0.012705856934189796, \
0.013074257411062717, \
-0.03455452620983124, \
0.009741182439029217, \
0.01764645054936409, \
-0.014651580713689327, \
0.017495712265372276, \
-0.028531599789857864, \
-0.017930548638105392, \
0.002756334375590086, \
-0.02367902547121048, \
0.005177827086299658, \
-0.03698168322443962, \
-0.04137060418725014, \
-0.030363887548446655, \
0.025383688509464264, \
-0.008251115679740906, \
-0.020963462069630623, \
-0.017023252323269844, \
0.021659763529896736, \
-0.0030585865024477243, \
0.0007515939651057124, \
-0.017505209892988205, \
-0.00380755215883255, \
-0.0051564001478254795, \
0.019516190513968468, \
0.010041595436632633, \
0.001570957014337182, \
0.0010754967806860805, \
-0.009931409731507301, \
0.019267430528998375, \
-0.017665885388851166, \
0.012396279722452164, \
0.028497109189629555, \
0.016198432072997093, \
0.003401808673515916, \
0.0373697429895401, \
0.007355228532105684, \
0.0014947738964110613, \
-0.005393981002271175, \
-0.009526555426418781, \
-0.0036682470235973597, \
0.005748318042606115, \
-0.021456820890307426, \
-0.02882704883813858, \
-0.02493511512875557, \
0.016299936920404434, \
0.007309223525226116, \
-0.025466052815318108, \
-0.010636676102876663, \
-0.03010588511824608, \
0.018264731392264366, \
-0.03726622834801674, \
0.017209289595484734, \
0.01590975560247898, \
-0.023538492619991302, \
0.016598396003246307, \
-0.004924138076603413, \
0.006281488575041294, \
-0.010736693628132343, \
-0.014530213549733162, \
0.021786706522107124, \
0.026686741039156914, \
-0.01972470059990883, \
-0.032476216554641724, \
0.009683912619948387, \
-0.01148147787898779, \
0.040849264711141586, \
0.03374302387237549, \
-0.002808749908581376, \
-0.015818938612937927, \
0.02187453955411911, \
0.027616504579782486, \
0.02231159619987011, \
0.010441084392368793, \
-0.0003593427827581763, \
-0.01822279579937458, \
-0.018406402319669724, \
0.0021736237686127424, \
-0.008483629673719406, \
0.00029781967168673873, \
0.014998826198279858, \
0.015043611638247967, \
-0.009358969517052174, \
-0.038988981395959854, \
0.003219200996682048, \
-0.027080917730927467, \
-0.0050272392109036446, \
-0.011110943742096424, \
-0.002566188108175993, \
0.008132337592542171, \
-0.015580868348479271, \
-0.011274456977844238, \
0.009914702735841274, \
-0.0218382328748703, \
-0.006323315668851137, \
0.020101061090826988, \
-0.03026564233005047, \
0.0031087009701877832, \
0.028911232948303223, \
-0.025601021945476532, \
-0.021862126886844635, \
-0.022416431456804276, \
0.01461844239383936, \
-0.04193421080708504, \
-0.030821671709418297, \
-0.01963350735604763, \
0.008040734566748142, \
0.018305929377675056, \
-0.020025376230478287, \
-0.009953884407877922, \
0.013977117836475372, \
-0.02524920180439949, \
0.005827619694173336, \
0.012869141064584255, \
-0.026396604254841805, \
-0.02999192848801613, \
-0.023386115208268166, \
-0.020222941413521767, \
0.014058039523661137, \
0.033997178077697754, \
-0.03511704131960869, \
-0.01927947998046875, \
-0.005312343593686819, \
0.017646251246333122, \
0.0365905836224556, \
-0.01239082682877779, \
0.021699532866477966, \
-0.03546793758869171, \
-0.028273463249206543, \
-0.029283378273248672, \
-0.02165418677031994, \
0.007169694174081087, \
0.00015955993148963898, \
0.03632214292883873, \
-0.02584817260503769, \
0.0031386632472276688, \
0.023664873093366623, \
0.02378125861287117, \
-0.015253501944243908, \
-0.022686010226607323, \
-0.022627810016274452, \
0.008023286238312721, \
0.00740425568073988, \
0.03609407693147659, \
0.01963033340871334, \
0.01662435196340084, \
-0.0005245725624263287, \
0.020732665434479713, \
0.02252271957695484, \
-0.0033489742781966925, \
0.0072644781321287155, \
0.00029960463871248066, \
0.007348909508436918, \
0.027770355343818665, \
0.024916864931583405, \
-0.016737496480345726, \
-0.00602501817047596, \
0.015875957906246185, \
0.020751889795064926, \
0.007423622999340296, \
-0.004683820065110922, \
-0.013491824269294739, \
-0.008457081392407417, \
-0.00987047515809536, \
0.022741839289665222, \
-0.03536767140030861, \
-0.028483958914875984, \
-0.03739696741104126, \
0.014033465646207333, \
0.0348295122385025, \
0.002050139242783189, \
0.028978094458580017, \
0.006707849446684122, \
0.029664423316717148, \
-0.030290111899375916, \
0.025983933359384537, \
-0.03136458247900009, \
-0.02529066614806652, \
0.017266081646084785, \
0.007013170048594475, \
-0.011607998982071877, \
-0.005633239634335041, \
-0.011025947518646717, \
0.03363916650414467, \
0.014887943863868713, \
0.019310999661684036, \
0.017379971221089363, \
0.033152222633361816, \
-0.008303269743919373, \
-0.0172331091016531, \
0.011818654835224152, \
-0.008803374134004116, \
0.020680636167526245, \
0.018263624981045723, \
0.018808791413903236, \
-0.036118362098932266, \
0.003772531868889928, \
-0.010172232054173946, \
0.03125648573040962, \
-0.005568130407482386, \
0.005265288520604372, \
0.018934359773993492, \
-0.032588791102170944, \
-0.03334494307637215, \
0.01522035337984562, \
-0.01827753335237503, \
0.013618512079119682, \
0.019259074702858925, \
-0.012690919451415539, \
-0.007335651200264692, \
-0.02380344457924366, \
-0.030410725623369217, \
-0.02331443689763546, \
0.00844291877001524, \
0.021063704043626785, \
0.002363138133659959, \
0.03487725928425789, \
0.004588484764099121, \
0.01817777007818222, \
0.012437946163117886, \
-0.0018586473306640983, \
0.01700456067919731, \
-0.0017325474182143807, \
0.01041300781071186, \
0.01732303947210312, \
-0.024412674829363823, \
-0.00406177481636405, \
-0.020644735544919968, \
-0.03311534598469734, \
0.02926839515566826, \
0.019414668902754784, \
-0.006468613166362047, \
0.03593456372618675, \
-0.030447743833065033, \
0.03703915327787399, \
0.029824022203683853, \
0.022824959829449654, \
-0.03376639261841774, \
0.0008630522643215954, \
-0.014879654161632061, \
0.03233935683965683, \
0.01741400547325611, \
-0.01781972125172615, \
-0.023618759587407112, \
0.023536616936326027, \
-0.0295697208493948, \
0.026304446160793304, \
0.01584479585289955, \
-0.016131877899169922, \
0.01636926829814911, \
0.024585090577602386, \
-0.02857981063425541, \
-0.0027286531403660774, \
-0.007517921272665262, \
8.773500303504989e-05, \
-0.01008633617311716, \
0.03232044354081154, \
-0.0006192316068336368, \
-0.03218056261539459, \
-0.0025883542839437723, \
-0.03174282982945442, \
0.007859786041080952, \
-0.030925169587135315, \
0.0007052920991554856, \
-0.011217217892408371, \
0.032740913331508636, \
-0.020629532635211945, \
-0.036546800285577774, \
0.005807696841657162, \
-0.03456474095582962, \
0.02988911047577858, \
0.010925507172942162, \
-0.008120529353618622, \
-0.00937614031136036, \
0.01576162315905094, \
0.0007280308636836708, \
0.017741352319717407, \
-0.027601921930909157, \
0.009577612392604351, \
0.024012932553887367, \
-0.031303681433200836, \
-0.0350785031914711, \
-0.02550455555319786, \
0.013574513606727123, \
-0.02797960862517357, \
-0.004230101592838764, \
-0.023089883849024773, \
0.03323186933994293, \
-0.01184726320207119, \
0.016934828832745552, \
0.01391575112938881, \
0.011385723017156124, \
0.017121823504567146, \
-0.031910110265016556, \
0.024289462715387344, \
-0.0004955576150678098, \
-0.023883340880274773, \
-0.025920825079083443, \
0.01714085042476654, \
0.026416055858135223, \
0.0072091007605195045, \
0.0066846092231571674, \
0.018240438774228096, \
0.009540928527712822, \
0.022711826488375664, \
-0.021017305552959442, \
0.021953444927930832, \
0.00022473762510344386, \
0.03485751152038574, \
0.01975349336862564, \
-0.008125684224069118, \
-0.01878986321389675, \
-0.0037558176554739475, \
0.0024616445880383253, \
0.009774278849363327, \
0.011225570924580097, \
-0.00730494549497962, \
-0.015079215168952942, \
-0.0031959442421793938, \
-0.022684937343001366, \
-0.0039663538336753845, \
-0.0094889085739851, \
0.020630594342947006, \
-0.001987965777516365, \
-0.023891974240541458, \
-0.0269927941262722, \
-0.023335149511694908, \
0.012074287049472332, \
-0.034241657704114914, \
0.036180149763822556, \
-0.029462745413184166, \
0.0023388583213090897, \
-0.03126629814505577, \
-0.03140962868928909, \
-0.010797751136124134, \
-0.028834467753767967, \
-0.015683792531490326, \
0.028276830911636353, \
0.023439567536115646, \
-0.03325643762946129, \
0.02321803942322731, \
0.03433958441019058, \
-0.026239776983857155, \
-0.027177700772881508, \
0.0002992724475916475, \
-0.01951783522963524, \
-0.028795966878533363, \
0.008200681768357754, \
-0.017459411174058914, \
0.003618010552600026, \
-0.035328228026628494, \
-0.012388600036501884, \
0.0062610087916255, \
0.00368538242764771, \
0.03406555950641632, \
0.026079922914505005, \
0.012299695983529091, \
0.021418580785393715, \
-0.01735834591090679, \
0.00915371160954237, \
0.005913231521844864, \
-0.014871379360556602, \
0.023068295791745186, \
0.005213218275457621, \
-0.02806597203016281, \
-0.032936740666627884, \
0.022747842594981194, \
-0.03282621502876282, \
-0.028442328795790672, \
0.018513275310397148, \
0.02051548846065998, \
-0.008775926195085049, \
-0.02684747241437435, \
-0.013239316642284393, \
-0.03225427865982056, \
0.01609957590699196, \
0.02423011139035225, \
0.0010047591058537364, \
0.007206667214632034, \
0.003977634012699127, \
0.015054137445986271, \
0.024506406858563423, \
-0.00906497985124588, \
0.013603710569441319, \
0.021152036264538765, \
0.0021170414984226227, \
-0.020321877673268318, \
0.010848413221538067, \
-0.028921794146299362, \
-0.031506579369306564, \
0.012867341749370098, \
0.019741663709282875, \
0.02560580149292946, \
-0.014971218071877956, \
0.009219948202371597, \
-0.015841374173760414, \
-0.021358730271458626, \
0.0244668610394001, \
-0.03337360545992851, \
0.019717462360858917, \
0.007945256307721138, \
-0.026728419587016106, \
0.019811946898698807, \
-0.013991296291351318, \
0.035614412277936935, \
0.010051123797893524, \
-0.027311863377690315, \
0.010960937477648258, \
0.023551782593131065, \
-0.0393877737224102, \
0.007985868491232395, \
0.01897779107093811, \
-0.014226041734218597, \
0.02753010019659996, \
-0.02221878618001938, \
-0.005045199301093817, \
0.032174576073884964, \
0.02697630599141121, \
0.019709855318069458, \
-0.024148520082235336, \
0.006826287601143122, \
-0.01992618478834629, \
0.03734229877591133, \
0.031194237992167473, \
0.0069269961677491665, \
0.01513871643692255, \
0.012615404091775417, \
0.009000054560601711, \
-0.006211553234606981, \
0.03251895308494568, \
0.023782243952155113, \
0.03076486475765705, \
-0.003844288643449545, \
-0.027506530284881592, \
0.0026393274310976267, \
0.007972326129674911, \
-0.017870545387268066, \
-0.018390057608485222, \
-0.007612330839037895, \
0.0024463851004838943, \
0.011513439938426018, \
0.004325704649090767, \
0.022536631673574448, \
0.016396567225456238, \
0.004332942422479391, \
-0.024126630276441574, \
-0.010153921321034431, \
-0.016230644658207893, \
0.014695490710437298, \
-0.021905314177274704, \
-0.0009365467703901231, \
0.0224628783762455, \
0.03425075113773346, \
0.022502418607473373, \
0.006592890247702599, \
-0.016873974353075027, \
-0.0035956150386482477, \
-0.0031298089306801558, \
0.029533997178077698, \
0.019144589081406593, \
-0.0017086920561268926, \
0.006887102033942938, \
-0.029713492840528488, \
0.01923016831278801, \
0.02896304428577423, \
0.02861427329480648, \
0.03582962229847908, \
0.0063016838394105434, \
0.036299970000982285, \
0.019879337400197983, \
0.0008555258973501623, \
-0.01129413116723299, \
0.04236701503396034, \
0.014841785654425621, \
0.008419577032327652, \
0.021067636087536812, \
-0.0024080206640064716, \
-0.02153635397553444, \
0.004093371797353029, \
0.015344553627073765, \
0.020810790359973907, \
0.00980724859982729, \
-0.024220651015639305, \
0.021554159000515938, \
-0.03613647073507309, \
0.029668299481272697, \
0.006000901572406292, \
-0.021305499598383904, \
-0.024557527154684067, \
-0.02608123980462551, \
0.022472361102700233, \
-0.010471775196492672, \
-0.018116887658834457, \
0.02180781401693821, \
-0.02495798096060753, \
-0.020361531525850296, \
0.0011973659275099635, \
4.985696432413533e-05, \
0.01916918158531189, \
-0.011708050966262817, \
0.012838862836360931, \
0.018362779170274734, \
0.03226518630981445, \
0.024954460561275482, \
-0.00475888978689909, \
0.018425678834319115, \
-0.0002625432098284364, \
0.019755471497774124, \
-0.032416410744190216, \
-0.011782580986618996, \
0.0062696742825210094, \
-0.032852716743946075, \
-0.025645432993769646, \
0.02400074154138565, \
-0.010518583469092846, \
0.00028014584677293897, \
0.02580774948000908, \
-0.02226240560412407, \
-0.02249458059668541, \
0.0004603478591889143, \
-0.024976227432489395, \
0.036353856325149536, \
0.02518565021455288, \
0.010092190466821194, \
0.02489364892244339, \
0.009610848501324654, \
0.016309259459376335, \
-0.009201050736010075, \
-0.016075337305665016, \
-0.024783283472061157, \
0.02373686246573925, \
-0.01863102801144123, \
-0.018843069672584534, \
-0.011105532757937908, \
-0.003627346595749259, \
-0.025015072897076607, \
0.009925606660544872, \
0.026215115562081337, \
0.026376456022262573, \
0.004605368245393038, \
-0.006221462041139603, \
-0.032227374613285065, \
-0.020437590777873993, \
-0.009621231816709042, \
-0.019138682633638382, \
-0.0034133815206587315, \
0.001275203307159245, \
0.0034054918214678764, \
-0.007406833115965128, \
-0.001632881467230618, \
0.017401106655597687, \
0.038429923355579376, \
-0.007522301282733679, \
0.0058015924878418446, \
-0.03337855264544487, \
0.02650277130305767, \
-0.011485607363283634, \
-0.009217667393386364, \
-0.007253159768879414, \
0.027752863243222237, \
0.028894100338220596, \
-0.015821512788534164, \
-0.007292383816093206, \
-0.0007177855586633086, \
0.027403494343161583, \
-0.023797424510121346, \
0.026015762239694595, \
0.028432469815015793, \
-0.004148952662944794, \
-0.025967786088585854, \
-0.023117534816265106, \
-0.03918614238500595, \
-0.02456769347190857, \
0.014013437554240227, \
0.0029455150943249464, \
-0.025543609634041786, \
-0.013032243587076664, \
0.02737150341272354, \
0.01594233512878418, \
0.0024533055257052183, \
-0.011784907430410385, \
0.028217919170856476, \
0.0013148544821888208, \
0.014139320701360703, \
0.03729429468512535, \
0.020215701311826706, \
-0.03215033560991287, \
0.008256259374320507, \
-0.028055952861905098, \
0.0393313467502594, \
-0.016024325042963028, \
-0.008399360813200474, \
-0.0025774091482162476, \
-0.01682896912097931, \
0.014650475233793259, \
-0.03742034733295441, \
-0.00015436846297234297, \
0.002077887998893857, \
0.008078249171376228, \
0.013538967818021774, \
-0.002666603773832321, \
-0.06617680191993713, \
0.00723548699170351, \
0.025480037555098534, \
-0.006125631742179394, \
-0.015013633295893669, \
-0.025458917021751404, \
0.02231731452047825, \
-0.018810227513313293, \
-0.034098442643880844, \
-0.08920998126268387, \
-0.05154668539762497, \
-0.006505288183689117, \
-0.07852984219789505, \
0.019680600613355637, \
0.047728586941957474, \
-0.07178761810064316, \
0.0025169672444462776, \
0.021835634484887123, \
-0.019884351640939713, \
-0.030577361583709717, \
0.012939190492033958, \
0.0306233037263155, \
-0.004395755007863045, \
-0.021583443507552147, \
0.024688581004738808, \
-0.07675760239362717, \
-0.02147511951625347, \
0.06999509036540985, \
-0.07497340440750122, \
-0.012541452422738075, \
-0.014396559447050095, \
0.011405902914702892, \
-0.06309039145708084, \
0.024265294894576073, \
-0.023827722296118736, \
-0.022982310503721237, \
-0.0037590088322758675, \
0.011089995503425598, \
-0.04329366981983185, \
-0.020067308098077774, \
-0.03521916642785072, \
0.0582922138273716, \
-0.08257104456424713, \
-0.03989963233470917, \
0.0009018020355142653, \
0.02401311695575714, \
0.030514627695083618, \
-0.013895286247134209, \
0.06660695374011993, \
0.004191485699266195, \
0.035740215331315994, \
0.02859603241086006, \
0.041873469948768616, \
0.005135237704962492, \
-0.01005454920232296, \
-0.015791509300470352, \
-0.0016699640545994043, \
-0.050744760781526566, \
0.027111778035759926, \
0.03928529843688011, \
-0.030272597447037697, \
0.03655470162630081, \
-0.029389189556241035, \
0.061955325305461884, \
-0.07551037520170212, \
0.006098924670368433, \
0.015693381428718567, \
-0.019908661022782326, \
-0.05720149725675583, \
-0.08900916576385498, \
0.0035458828788250685, \
0.005178186111152172, \
0.007111588027328253, \
-0.09464098513126373, \
-0.0336470827460289, \
-0.05398744344711304, \
-0.07261104881763458, \
0.02395826391875744, \
0.0005977788823656738, \
-0.028728224337100983, \
0.029133358970284462, \
0.01727348379790783, \
-0.010773029178380966, \
-0.007561830338090658, \
-0.01396037358790636, \
0.032112427055835724, \
0.009667911566793919, \
-0.0048864614218473434, \
-0.021816233173012733, \
-0.04626763239502907, \
0.025578418746590614, \
0.07186663895845413, \
-0.08121763914823532, \
-0.01386336237192154, \
-0.03612705320119858, \
-0.024530788883566856, \
-0.011565827764570713, \
-0.02453339658677578, \
0.00616033747792244, \
0.04582156240940094, \
0.010023984126746655, \
-0.03508909046649933, \
0.016870509833097458, \
-0.044293634593486786, \
-0.03584503009915352, \
0.03776921331882477, \
-0.0723796933889389, \
-0.03475164249539375, \
0.017978500574827194, \
-0.027863329276442528, \
0.04798273742198944, \
-0.0029058039654046297, \
0.10486336052417755, \
-0.040731221437454224, \
0.00914611853659153, \
0.007117805536836386, \
-0.002524647628888488, \
-0.021215591579675674, \
0.02954639121890068, \
0.00803782232105732, \
0.0288200955837965, \
0.005370937753468752, \
0.013180977664887905, \
0.011692537926137447, \
-0.04384653642773628, \
0.04219066724181175, \
-0.037074629217386246, \
0.11027082800865173, \
-0.023006364703178406, \
-0.04445316269993782, \
0.08187433332204819, \
-0.024462593719363213, \
-0.042706239968538284, \
-0.06580273807048798, \
0.06235194206237793, \
0.02701147086918354, \
-0.04067114740610123, \
-0.08911236375570297, \
5.255279393168166e-05, \
-0.006544990465044975, \
-0.07093566656112671, \
-0.008253504522144794, \
0.04622986912727356, \
-0.03944076597690582, \
0.00605078274384141, \
-0.02097940258681774, \
-0.0017831067088991404, \
-0.010068745352327824, \
0.018894830718636513, \
0.055916011333465576, \
-0.007888725958764553, \
-0.040624525398015976, \
-0.041689515113830566, \
-0.08089565485715866, \
0.04010290279984474, \
0.07445497810840607, \
-0.027593841776251793, \
-0.019768420606851578, \
-0.024234605953097343, \
-0.021335313096642494, \
-0.03134792298078537, \
0.02656310237944126, \
-0.030572475865483284, \
0.018813900649547577, \
-0.004241548478603363, \
-0.04506399855017662, \
-0.021736979484558105, \
-0.05044223368167877, \
-0.0884627178311348, \
0.014622454531490803, \
-0.04563141241669655, \
-0.003884110366925597, \
-0.011017016135156155, \
0.017467811703681946, \
-0.003981073386967182, \
0.004522530362010002, \
0.10151244699954987, \
-0.027648722752928734, \
0.022686412557959557, \
-0.014928176067769527, \
0.033788714557886124, \
-0.02424425072968006, \
0.037559688091278076, \
0.012432006187736988, \
0.027320073917508125, \
-0.04678541421890259, \
0.0093919038772583, \
0.044723767787218094, \
-0.015506136231124401, \
0.04317346215248108, \
-0.04486781731247902, \
-0.041925929486751556, \
-0.04666019603610039, \
-0.028058132156729698, \
-0.027165858075022697, \
-0.01625591143965721, \
-0.028529610484838486, \
-0.03895154595375061, \
-0.0004348212678451091, \
-0.013566269539296627, \
-0.034022457897663116, \
-0.012096550315618515, \
-0.013569577597081661, \
-0.005995596293359995, \
-0.051594071090221405, \
0.03201986476778984, \
0.03941836208105087, \
-0.0497562512755394, \
0.019554542377591133, \
-0.0018058898858726025, \
-0.017211217433214188, \
-0.048235613852739334, \
-0.018142109736800194, \
0.035030849277973175, \
0.023411627858877182, \
0.011045443825423717, \
0.007117325905710459, \
0.08875709027051926, \
-0.028336290270090103, \
0.019007476046681404, \
-0.042933911085128784, \
0.04558686539530754, \
-0.0026545266155153513, \
-0.010323142632842064, \
-0.006796753033995628, \
-0.032400745898485184, \
-0.0496852844953537, \
-0.014807410538196564, \
-0.02641431801021099, \
-0.04413026571273804, \
-0.0048072803765535355, \
-0.01588619314134121, \
-0.09046127647161484, \
0.0017281633336097002, \
-0.01813250035047531, \
-0.02063104882836342, \
-0.01424507424235344, \
0.02285096049308777, \
-0.01496616005897522, \
0.02067982405424118, \
-0.016119519248604774, \
-0.031172851100564003, \
0.03029523231089115, \
-0.011946344748139381, \
0.07034523040056229, \
-0.028514986857771873, \
0.05878698453307152, \
-0.03534524142742157, \
-0.025721421465277672, \
-0.017537306994199753, \
0.020762646570801735, \
-0.007305970881134272, \
-0.025355935096740723, \
-0.014068616554141045, \
0.020760510116815567, \
-0.04915929585695267, \
-0.00019503096700645983, \
-0.010959973558783531, \
-0.007654502056539059, \
-0.03204260393977165, \
-0.037015870213508606, \
-0.004839012399315834, \
-0.0325215607881546, \
0.0036780391819775105, \
-0.03481857106089592, \
0.0007402937626466155, \
0.034060847014188766, \
0.05077695846557617, \
-0.08876117318868637, \
0.013990873470902443, \
-0.041634708642959595, \
-0.02858591638505459, \
0.01621764898300171, \
-0.026692843064665794, \
-0.025448650121688843, \
-0.07126494497060776, \
0.0013037525350227952, \
0.026715299114584923, \
0.03655083477497101, \
-0.028868243098258972, \
0.009208137169480324, \
0.09067022055387497, \
-0.019420113414525986, \
-0.023288700729608536, \
-0.03104298934340477, \
-0.0035169622860848904, \
-0.04893074557185173, \
-0.04257116839289665, \
-0.03667466714978218, \
-0.005252378527075052, \
-0.042147405445575714, \
0.015101032331585884, \
-0.008495338261127472, \
0.0030944659374654293, \
-0.024170303717255592, \
-0.026709729805588722, \
-0.09932056069374084, \
-0.013164541684091091, \
-0.008446103893220425, \
-0.016835419461131096, \
0.02523568458855152, \
0.040066447108983994, \
0.032666902989149094, \
0.019187677651643753, \
-0.012238667346537113, \
-0.06000794097781181, \
0.042776450514793396, \
-0.0073049855418503284, \
0.04979098588228226, \
-0.026323512196540833, \
0.01179409958422184, \
-0.03845116123557091, \
-0.00619895476847887, \
0.021845711395144463, \
0.014491570182144642, \
-0.016832927241921425, \
0.009972995147109032, \
0.013822105713188648, \
0.009778933599591255, \
-0.09611149877309799, \
-0.03495262563228607, \
0.003397302469238639, \
-0.043802302330732346, \
0.029061829671263695, \
-0.006290595978498459, \
-0.018720947206020355, \
-0.0528043769299984, \
-0.016886834055185318, \
-0.015450914390385151, \
-0.017465805634856224, \
0.03239928185939789, \
0.043667085468769073, \
-0.08644390106201172, \
0.03772829473018646, \
-0.021663865074515343, \
-0.016507918015122414, \
0.07148300856351852, \
-0.029994100332260132, \
-0.012666583992540836, \
-0.018298709765076637, \
0.03317391499876976, \
0.04068778455257416, \
0.02195141837000847, \
-0.011948765255510807, \
0.019846556708216667, \
0.08638735860586166, \
-0.048674583435058594, \
-0.04869309812784195, \
-0.05844355747103691, \
-0.007212940137833357, \
0.0043856920674443245, \
-0.03945178538560867, \
-0.029193073511123657, \
0.01580675132572651, \
-0.022287825122475624, \
0.016372984275221825, \
-0.012614797800779343, \
-0.039759717881679535, \
0.025644822046160698, \
-0.00799799058586359, \
-0.081309013068676, \
0.0120550487190485, \
-0.012968356721103191, \
0.0029553764034062624, \
0.04523376375436783, \
0.01800069399178028, \
-0.006608225405216217, \
0.006943977903574705, \
-0.029691409319639206, \
-0.052375808358192444, \
0.02361997403204441, \
0.013607359491288662, \
0.05687534064054489, \
-0.014995015226304531, \
0.052794624119997025, \
-0.04799484461545944, \
0.03922322392463684, \
-0.015585644170641899, \
-0.009045923128724098, \
-0.038704901933670044, \
-0.027845673263072968, \
-0.023772211745381355, \
-0.015429076738655567, \
0.0019045390654355288, \
0.060061920434236526, \
0.0383787527680397, \
0.005524292588233948, \
0.014088256284594536, \
-0.0030519745778292418, \
-0.01635623909533024, \
-0.006055870093405247, \
0.03388389199972153, \
0.026171715930104256, \
0.03804827854037285, \
0.035412732511758804, \
0.02401210181415081, \
0.0819227322936058, \
-0.003773026866838336, \
0.03649987280368805, \
0.059365883469581604, \
0.02629200555384159, \
-0.046401217579841614, \
0.019480418413877487, \
-0.013447459787130356, \
0.05662170425057411, \
0.0015497630229219794, \
-0.04558805748820305, \
0.05114862695336342, \
0.01937180384993553, \
0.12389250844717026, \
0.018573984503746033, \
-0.014077678322792053, \
-0.03757092356681824, \
0.0038380459882318974, \
-0.014517896808683872, \
0.007957118563354015, \
0.05060773715376854, \
0.01502660196274519, \
-0.028462199494242668, \
-0.04634079337120056, \
0.013242839835584164, \
-0.040469564497470856, \
0.04155397415161133, \
-0.04151548072695732, \
0.04399261996150017, \
-0.026257233694195747, \
0.04688303917646408, \
-0.024917831644415855, \
0.012461808510124683, \
0.04517591372132301, \
-0.034766074270009995, \
-0.018749339506030083, \
0.05139688029885292, \
-0.015291525982320309, \
-0.008214583620429039, \
0.018007466569542885, \
0.03429222106933594, \
-0.00891244038939476, \
0.03648775815963745, \
0.04491739720106125, \
0.025215236470103264, \
0.009651830419898033, \
0.025878077372908592, \
0.021834159269928932, \
0.009266226552426815, \
0.01878969743847847, \
0.018552154302597046, \
0.06629841774702072, \
0.026951085776090622, \
-0.008176565170288086, \
-0.03858446329832077, \
0.04897218197584152, \
-0.008982833474874496, \
-0.011086685582995415, \
0.014176688157022, \
0.04006800800561905, \
0.0399496927857399, \
0.04804479703307152, \
0.04406655952334404, \
0.07070658355951309, \
0.06034965068101883, \
-0.008007574826478958, \
0.002750835381448269, \
0.06510177999734879, \
0.031175734475255013, \
0.012515093199908733, \
0.024408701807260513, \
0.00245290482416749, \
0.04200898855924606, \
-0.0066115655936300755, \
-0.02166581153869629, \
0.05062808841466904, \
0.01665847934782505, \
0.11123980581760406, \
-0.00801758375018835, \
0.010555461049079895, \
-0.024221152067184448, \
0.04337834194302559, \
0.02340131439268589, \
0.0015752376057207584, \
0.029647767543792725, \
0.013726936653256416, \
-0.014170059934258461, \
0.03132801130414009, \
0.007009848486632109, \
-0.015065472573041916, \
0.04100318253040314, \
0.0386740118265152, \
0.011845420114696026, \
-0.029122155159711838, \
0.05736944451928139, \
0.05226518213748932, \
0.010298704728484154, \
-0.028825342655181885, \
0.0008083759457804263, \
-0.018183475360274315, \
0.01526736095547676, \
-0.01707872562110424, \
0.02126278541982174, \
0.02082543447613716, \
0.06051965802907944, \
0.02912522666156292, \
0.029450688511133194, \
0.06048538535833359, \
0.0048087951727211475, \
0.024112071841955185, \
0.017190389335155487, \
0.004706727806478739, \
0.01804426871240139, \
-0.010160373523831367, \
0.05761335417628288, \
0.06679622828960419, \
-0.012339716777205467, \
0.01945749670267105, \
0.005391470156610012, \
0.04569647088646889, \
0.0031389733776450157, \
0.004771669395267963, \
-0.016637088730931282, \
-0.00578039325773716, \
0.025139234960079193, \
0.07516638189554214, \
0.035628579556941986, \
0.04293857514858246, \
0.033838339149951935, \
-0.024902842938899994, \
0.028895823284983635, \
0.05740313604474068, \
0.03916298225522041, \
-0.013791214674711227, \
0.040570732206106186, \
-0.006254004314541817, \
0.04147825762629509, \
-0.004540063440799713, \
0.023254336789250374, \
0.0509517602622509, \
0.052874669432640076, \
0.13616636395454407, \
0.000412756489822641, \
0.031191764399409294, \
-0.024008488282561302, \
0.024072112515568733, \
-0.037429820746183395, \
-0.04439220577478409, \
0.009993360377848148, \
0.02694838121533394, \
-0.022403813898563385, \
0.02331038936972618, \
-0.0019763275049626827, \
-0.046246398240327835, \
0.023650124669075012, \
0.04363009333610535, \
0.005261797923594713, \
-0.01844910718500614, \
0.021081211045384407, \
0.023968856781721115, \
0.04078749939799309, \
0.004797770641744137, \
-0.007504765875637531, \
0.02961205132305622, \
0.05852054804563522, \
-0.0180822666734457, \
-0.0009606981184333563, \
0.02441135235130787, \
0.008158611133694649, \
0.023989416658878326, \
0.026660313829779625, \
0.0391281358897686, \
0.0035630373749881983, \
-0.02558779902756214, \
0.02302493341267109, \
-0.004464156925678253, \
0.0610203891992569, \
0.010887058451771736, \
0.05720554664731026, \
0.030930474400520325, \
0.012210486456751823, \
0.038173481822013855, \
0.017903326079249382, \
-0.0015493948012590408, \
0.014856139197945595, \
-0.025077251717448235, \
0.023075705394148827, \
-0.027043117210268974, \
0.016538813710212708, \
-0.0320725291967392, \
0.009334922768175602, \
0.03130166605114937, \
0.01587538607418537, \
0.0288481954485178, \
0.005010886583477259, \
-0.015326042659580708, \
-0.00039601814933121204, \
0.022015312686562538, \
-0.007900014519691467, \
0.005762841552495956, \
0.006886268500238657, \
-0.005043360870331526, \
-0.027073193341493607, \
0.009868019260466099, \
-0.004726516082882881, \
0.03775430843234062, \
0.018114756792783737, \
0.002888844348490238, \
-0.005571217276155949, \
-0.00457791518419981, \
-0.016157804057002068, \
0.01955168880522251, \
0.017361968755722046, \
0.010680990293622017, \
-0.012560202740132809, \
-0.0019636100623756647, \
0.01989596337080002, \
0.02796289324760437, \
0.004910134244710207, \
-0.004911509808152914, \
-0.019543355330824852, \
0.010586407035589218, \
-0.0036143946927040815, \
-0.008684322237968445, \
0.024804851040244102, \
-0.009362200275063515, \
-0.01744219660758972, \
0.03231048956513405, \
-0.007616843096911907, \
-0.014966805465519428, \
-0.005062606185674667, \
-0.0009094738052226603, \
0.021702755242586136, \
-0.0014221888268366456, \
-0.007422313559800386, \
0.02294139936566353, \
-0.0011714735301211476, \
-0.002480424242094159, \
-0.019443228840827942, \
-0.015894651412963867, \
0.01683664694428444, \
-0.009236798621714115, \
0.014608881436288357, \
-0.03251856938004494, \
-0.0031965491361916065, \
0.05513356998562813, \
-0.0021339217200875282, \
-0.04695932939648628, \
0.014266668818891048, \
-0.008002255111932755, \
-0.04649230092763901, \
-0.010909074917435646, \
-0.015593067742884159, \
0.02420281432569027, \
0.0345463827252388, \
0.008104645647108555, \
0.008579201996326447, \
-0.002450817497447133, \
-0.03727903962135315, \
-0.003423450980335474, \
0.05680396780371666, \
-0.02462024800479412, \
-0.004821916110813618, \
-0.024079883471131325, \
-0.0033478145487606525, \
0.04359232634305954, \
0.0026757533196359873, \
0.015547463670372963, \
0.023040711879730225, \
0.005898930598050356, \
-0.010103416629135609, \
0.024377526715397835, \
-0.01658485271036625, \
-0.0014705091016367078, \
-0.023240357637405396, \
-0.0360959954559803, \
-0.03755110502243042, \
-0.02348247542977333, \
0.011922616511583328, \
-0.020075377076864243, \
-0.022610289976000786, \
0.01408335566520691, \
-0.01571551151573658, \
0.008288589306175709, \
-0.020521337166428566, \
0.030519278720021248, \
-0.022831210866570473, \
0.01611977629363537, \
0.006187289021909237, \
0.008296500891447067, \
-0.002467208541929722, \
-0.02653645910322666, \
-0.042710356414318085, \
0.016340583562850952, \
0.004225791431963444, \
-0.016117626801133156, \
-0.02666870877146721, \
0.009001203812658787, \
0.05610446631908417, \
-0.035117991268634796, \
0.014489646069705486, \
-0.007537394296377897, \
-0.020035026594996452, \
0.009886779822409153, \
-5.7858236687025055e-05, \
-0.0005786287947557867, \
0.0075158956460654736, \
0.025317439809441566, \
-0.01597578078508377, \
0.036412596702575684, \
-0.025591498240828514, \
-0.01189673226326704, \
-0.011314417235553265, \
-0.010886567644774914, \
-0.0073157139122486115, \
0.02754405327141285, \
-0.02248215489089489, \
-0.030657120048999786, \
-0.00904301181435585, \
-0.02967393584549427, \
-0.014743825420737267, \
0.028050966560840607, \
-0.010991108603775501, \
-0.008285444229841232, \
-0.007289445493370295, \
-0.04140811040997505, \
-0.025178421288728714, \
-0.004649498499929905, \
0.011114761233329773, \
0.023063214495778084, \
-0.038885511457920074, \
0.001279052929021418, \
-0.03533054515719414, \
0.02543225884437561, \
0.012214865535497665, \
-0.020545335486531258, \
0.016694527119398117, \
-0.0032084800768643618, \
-0.005130559206008911, \
-0.02232668735086918, \
-0.034778010100126266, \
-0.020580073818564415, \
-0.003314628964290023, \
-0.030969463288784027, \
-0.014038991183042526, \
0.03998358175158501, \
0.027261672541499138, \
-0.030665993690490723, \
-0.0384703055024147, \
0.01546625979244709, \
-0.010336280800402164, \
0.012254084460437298, \
0.021612707525491714, \
0.04180007800459862, \
-0.0029430941212922335, \
0.02892470173537731, \
-0.014693687669932842, \
-0.013643312267959118, \
-0.01751311682164669, \
-0.009061897173523903, \
0.012037004344165325, \
-0.004494974389672279, \
0.023654932156205177, \
0.003918943461030722, \
-0.010943900793790817, \
-0.025211794301867485, \
0.005329546518623829, \
0.01804952137172222, \
-0.031205901876091957, \
-0.011913113296031952, \
-0.036780454218387604, \
0.08912662416696548, \
0.007070625200867653, \
-0.04826540872454643, \
0.048854947090148926, \
-0.04710035398602486, \
-0.029880890622735023, \
0.009509342722594738, \
0.038384903222322464, \
-0.02612115629017353, \
-0.0013464215444400907, \
-0.005975618492811918, \
0.03913700208067894, \
-0.013131087645888329, \
-0.040988266468048096, \
0.004849290009588003, \
0.056137990206480026, \
0.034666579216718674, \
0.03173402324318886, \
0.029820162802934647, \
-0.05043875426054001, \
-0.007444088347256184, \
0.011036280542612076, \
-0.0284865815192461, \
0.011733916588127613, \
0.03886576369404793, \
0.028668470680713654, \
-0.0019418960437178612, \
0.0042907786555588245, \
0.00968931894749403, \
-0.01635739393532276, \
-0.011411337181925774, \
0.019692325964570045, \
-0.00013663136633113027, \
-0.012535841204226017, \
-0.007329689804464579, \
0.007455096580088139, \
0.005524694919586182, \
-0.007881160825490952, \
0.00993620790541172, \
-0.03473486006259918, \
0.006155654788017273, \
-0.03320702537894249, \
-0.025346102192997932, \
-0.01360265538096428, \
0.0045706056989729404, \
-0.03152786195278168, \
-0.05591496080160141, \
-0.023473115637898445, \
-0.028679076582193375, \
0.074011892080307, \
0.01288322638720274, \
-0.004521135240793228, \
-0.04162222519516945, \
0.02791360579431057, \
-0.039994996041059494, \
0.006077417638152838, \
0.07033731788396835, \
-0.0050194477662444115, \
0.007881160825490952, \
-0.031158102676272392, \
0.045680638402700424, \
-0.003967077471315861, \
-0.018617801368236542, \
0.028102483600378036, \
0.0856616273522377, \
-0.023094283416867256, \
-0.06200753152370453, \
0.07747042924165726, \
-0.009106229990720749, \
-0.08306632936000824, \
-0.013263720087707043, \
0.036236535757780075, \
0.003972147591412067, \
-0.02623373083770275, \
0.012340281158685684, \
0.006542449351400137, \
-0.004831700120121241, \
-0.026249486953020096, \
-0.024831049144268036, \
0.06152763590216637, \
0.06568945199251175, \
0.0288708433508873, \
0.045305974781513214, \
-0.002377826254814863, \
-0.036694061011075974, \
-0.006285989191383123, \
-0.05743836984038353, \
0.0038697889540344477, \
0.00018825443112291396, \
-0.01078297384083271, \
-0.012010707519948483, \
0.024252908304333687, \
0.025346243754029274, \
-0.034822504967451096, \
-0.023041926324367523, \
-0.007428787183016539, \
-0.0009531715768389404, \
0.017662042751908302, \
0.0025461213663220406, \
8.564010204281658e-05, \
-0.021228183060884476, \
-0.04359070211648941, \
-0.03831353411078453, \
-0.006633516401052475, \
-0.008560254238545895, \
0.00893259234726429, \
-0.03594287112355232, \
-0.03200153261423111, \
-0.01460507232695818, \
-0.028735313564538956, \
-0.07035785168409348, \
0.011155706830322742, \
0.020949264988303185, \
0.08685610443353653, \
-0.053356703370809555, \
-0.022673308849334717, \
-0.03874506801366806, \
-0.0029086261056363583, \
-0.02831336483359337, \
0.03514941781759262, \
0.05082431808114052, \
0.010781059972941875, \
0.017638124525547028, \
-0.005175997968763113, \
0.004350616596639156, \
0.00676727993413806, \
-0.01822260208427906, \
-0.029878543689846992, \
0.10338646918535233, \
-0.043619025498628616, \
-0.030672673135995865, \
0.025632841512560844, \
-0.022379115223884583, \
-0.03479583188891411, \
-0.04617862403392792, \
0.02146860584616661, \
0.026139043271541595, \
0.008700271137058735, \
-0.04727837070822716, \
0.03534926101565361, \
-0.0004677089164033532, \
0.0025923405773937702, \
0.019035328179597855, \
0.041324056684970856, \
0.04100576415657997, \
-0.008060296066105366, \
-0.01666957698762417, \
-0.03863023221492767, \
0.00788026861846447, \
-0.02336881309747696, \
-0.033464983105659485, \
-0.02940685674548149, \
0.00948132760822773, \
0.016967223957180977, \
-0.0065939538180828094, \
-0.01114886999130249, \
0.05218781158328056, \
-0.026957016438245773, \
0.01361361239105463, \
-0.010813863016664982, \
-0.0038918221835047007, \
-0.008633977733552456, \
-0.004799145273864269, \
0.012341460213065147, \
-0.021365273743867874, \
-0.01716630533337593, \
-0.04186798632144928, \
-0.036184556782245636, \
0.01316914800554514, \
-0.012878588400781155, \
0.0015781634720042348, \
0.03497718647122383, \
0.0380290150642395, \
0.024805357679724693, \
-0.014365416020154953, \
-0.013024487532675266, \
-0.017408104613423347, \
0.0894056037068367, \
-0.01982385478913784, \
-0.017633620649576187, \
-0.02061273716390133, \
0.009028464555740356, \
-0.02902746945619583, \
0.0024405126459896564, \
0.07137291133403778, \
0.01822611689567566, \
-0.007159380242228508, \
-0.031060943379998207, \
0.045289963483810425, \
0.01390710286796093, \
-0.021683327853679657, \
-0.009234310127794743, \
-0.03985607251524925, \
-0.018323611468076706, \
0.03139171749353409, \
-0.034823302179574966, \
0.027480503544211388, \
-0.06345245242118835, \
-0.0002797002671286464, \
-0.016437310725450516, \
-0.0365704670548439, \
-0.013684338890016079, \
-0.02271660603582859, \
0.007699750829488039, \
-0.0008187820785678923, \
0.012429213151335716, \
0.03545723110437393, \
0.025585375726222992, \
0.005218439269810915, \
0.0333813913166523, \
0.019825847819447517, \
-0.0369839146733284, \
0.019757455214858055, \
0.023138996213674545, \
-0.019177034497261047, \
-0.005194435827434063, \
-0.028234897181391716, \
0.021314814686775208, \
-0.00821124017238617, \
-0.03897840157151222, \
0.008402861654758453, \
0.0314875952899456, \
0.0015788106247782707, \
-0.022372299805283546, \
-0.032852742820978165, \
0.022700689733028412, \
-0.021315723657608032, \
-0.017122769728302956, \
0.010450736619532108, \
0.012553461827337742, \
-0.023206887766718864, \
-0.0017337317112833261, \
-0.0036938737612217665, \
-0.014681875705718994, \
-0.011277073062956333, \
-0.03317509964108467, \
-0.01956937462091446, \
-0.008156081661581993, \
-0.0157538503408432, \
-0.008997012861073017, \
0.0037431165110319853, \
-0.06716077774763107, \
0.007666198071092367, \
0.035600341856479645, \
-0.016876714304089546, \
0.007550140377134085, \
-0.0344783253967762, \
-0.005049622152000666, \
-0.03476220741868019, \
-0.012015721760690212, \
0.0339735746383667, \
-0.018756842240691185, \
0.004119137302041054, \
0.024837281554937363, \
0.0006712449248880148, \
-0.03535417094826698, \
-0.05317748710513115, \
0.018599744886159897, \
0.012604225426912308, \
-0.01013868860900402, \
0.03731726482510567, \
-0.05492919310927391, \
-0.032282739877700806, \
-0.032718513160943985, \
0.00026503545814193785, \
-0.014669233001768589, \
-0.03488118574023247, \
-0.03317083418369293, \
-0.03175254911184311, \
0.02265254594385624, \
0.01725352555513382, \
-0.053932689130306244, \
-0.05464461073279381, \
0.018897471949458122, \
-0.008131193928420544, \
0.028439652174711227, \
-0.024090148508548737, \
-0.00011064131831517443, \
-0.03198372200131416, \
0.03735911473631859, \
-0.01656423509120941, \
-0.031482938677072525, \
0.008291059173643589, \
-0.017776766791939735, \
0.0007670643390156329, \
-0.016532951965928078, \
0.015119566582143307, \
-0.0007362209726125002, \
-0.019040929153561592, \
-0.0074728699401021, \
0.04156464338302612, \
-0.03829153999686241, \
-0.00800019595772028, \
0.024293432012200356, \
0.023564264178276062, \
-0.0001684911985648796, \
-0.005683411378413439, \
-0.01600954867899418, \
0.026211373507976532, \
-0.030675789341330528, \
0.005463848821818829, \
0.01970919407904148, \
-0.03256335109472275, \
0.03585105761885643, \
0.019119229167699814, \
-0.08431338518857956, \
0.03399612382054329, \
0.033408910036087036, \
0.01593553088605404, \
-0.010274998843669891, \
-0.03123321942985058, \
-0.007684290409088135, \
-0.05021662637591362, \
0.008992183022201061, \
0.03178894892334938, \
-0.042564794421195984, \
-0.027332572266459465, \
0.014109783805906773, \
-0.016708895564079285, \
-0.026518050581216812, \
-0.026811392977833748, \
-0.031005654484033585, \
-0.01059914380311966, \
-0.048307228833436966, \
0.033273790031671524, \
-0.0408002994954586, \
-0.03434550762176514, \
0.0005417991196736693, \
-0.00297166989184916, \
0.02196349762380123, \
-0.023113224655389786, \
-0.015847330912947655, \
-0.01808258332312107, \
0.0021614402066916227, \
-0.02834262140095234, \
0.015463199466466904, \
-0.03583604842424393, \
-0.0042143333703279495, \
-0.02459932677447796, \
0.009876701049506664, \
0.004919413942843676, \
0.010596654377877712, \
-0.020992685109376907, \
-0.020002782344818115, \
-0.0027477347757667303, \
-0.024845166131854057, \
0.028048425912857056, \
-0.06927231699228287, \
0.0193188413977623, \
0.020154563710093498, \
0.010237663052976131, \
-0.03322461247444153, \
0.015889134258031845, \
-0.029492061585187912, \
0.0317029170691967, \
-0.04737446829676628, \
0.02944519929587841, \
-0.018422316759824753, \
0.029042737558484077, \
-0.008571088314056396, \
-0.03950812667608261, \
0.01886621117591858, \
-0.004684349521994591, \
0.01440158486366272, \
0.0069404239766299725, \
-0.0029860842041671276, \
0.030538419261574745, \
-0.03704525902867317, \
0.04261539503931999, \
-0.0015354560455307364, \
0.047772400081157684, \
-0.006193195935338736, \
0.026276899501681328, \
0.021129628643393517, \
0.01621030643582344, \
-0.0345052070915699, \
-0.048731572926044464, \
0.020767102017998695, \
0.018301839008927345, \
-0.024655483663082123, \
-0.00043160139466635883, \
0.006923431530594826, \
0.02904748171567917, \
0.002384819323197007, \
-0.0037390748038887978, \
-0.0252393651753664, \
0.005073892883956432, \
-0.04204832762479782, \
-0.013090158812701702, \
0.0022014379501342773, \
-0.015025668777525425, \
-0.03550906479358673, \
0.026863640174269676, \
-0.02384638600051403, \
-0.012859161011874676, \
-0.02714272029697895, \
0.028742916882038116, \
0.014415117911994457, \
0.012722380459308624, \
-0.004758081864565611, \
0.017139116302132607, \
0.004409505985677242, \
-0.01804051361978054, \
-0.03964594379067421, \
0.024433976039290428, \
-0.028075477108359337, \
0.04503197968006134, \
6.753172056050971e-05, \
-0.015745963901281357, \
-0.02626585215330124, \
-0.014255563728511333, \
0.00523574510589242, \
0.017820311710238457, \
0.02553323097527027, \
0.014702224172651768, \
-0.02405179850757122, \
0.0086553068831563, \
-0.012232773937284946, \
0.026228265836834908, \
-0.02568875439465046, \
0.026440564543008804, \
0.020553119480609894, \
0.03744269907474518, \
0.009342697449028492, \
0.011459055356681347, \
0.01704220101237297, \
-0.002748900093138218, \
0.02564505860209465, \
-0.007761721964925528, \
-0.009821362793445587, \
-0.0066708833910524845, \
-0.004849159624427557, \
0.02156575210392475, \
0.02273518033325672, \
0.009869933128356934, \
0.02547028288245201, \
0.035872600972652435, \
0.02634338103234768, \
-0.024959878996014595, \
0.024450745433568954, \
-0.006945389788597822, \
0.006478387862443924, \
-0.001987217226997018, \
0.009349590167403221, \
-0.029617464169859886, \
0.015302269719541073, \
-0.030301248654723167, \
0.014199940487742424, \
-0.03506036475300789, \
-0.006027771160006523, \
0.014625029638409615, \
0.004848318174481392, \
0.016707859933376312, \
0.0014206231571733952, \
0.03650245442986488, \
-0.002908953931182623, \
0.01806030608713627, \
0.029412029311060905, \
0.028833182528614998, \
0.0049293008632957935, \
-0.005136305466294289, \
0.009700285270810127, \
-0.004783008247613907, \
-0.006666423752903938, \
0.023736508563160896, \
0.04880883917212486, \
-0.003959733061492443, \
0.005658736918121576, \
0.005810234230011702, \
0.03821774944663048, \
0.012400311417877674, \
-0.0016501221107318997, \
-0.027704626321792603, \
-0.005908797029405832, \
-0.028078939765691757, \
-0.02334868162870407, \
-0.033855367451906204, \
-0.012458711862564087, \
-0.011106953956186771, \
-0.020503487437963486, \
0.0002427815634291619, \
0.003937829285860062, \
-0.03347514197230339, \
-0.016690760850906372, \
0.02500050514936447, \
-0.015561032108962536, \
0.012426876462996006, \
0.007597853895276785, \
0.035506222397089005, \
0.03279407322406769, \
-0.012289533391594887, \
-0.006250102538615465, \
-0.023172428831458092, \
-0.022276388481259346, \
0.014207270927727222, \
0.03465321660041809, \
0.03174085170030594, \
0.015082575380802155, \
-0.026701446622610092, \
-0.00016596193017903715, \
0.04211437329649925, \
0.01600028946995735, \
-0.02789786271750927, \
0.024027131497859955, \
0.016521990299224854, \
0.029298391193151474, \
0.0032770922407507896, \
-0.03250037506222725, \
0.0024358152877539396, \
0.024484016001224518, \
-0.009048521518707275, \
-0.037859849631786346, \
-0.046214960515499115, \
-0.027286788448691368, \
0.021569332107901573, \
-0.007842826656997204, \
-0.019227417185902596, \
-0.028116052970290184, \
0.025518642738461494, \
-0.025744592770934105, \
0.03459921479225159, \
0.0219963937997818, \
0.0006119291065260768, \
0.00811358354985714, \
-0.029733872041106224, \
-0.021479588001966476, \
0.035784944891929626, \
0.021458761766552925, \
0.01687094010412693, \
0.041541069746017456, \
-0.007122473791241646, \
0.028371388092637062, \
0.0384390652179718, \
0.017809182405471802, \
0.028604447841644287, \
0.03430641442537308, \
-0.003934812266379595, \
-0.0017502368427813053, \
0.02329265885055065, \
-0.03832744061946869, \
0.011756137013435364, \
0.005581775214523077, \
-0.02905471995472908, \
-0.003426911076530814, \
-0.011547970585525036, \
-0.009172189049422741, \
-0.0023573667276650667, \
0.007338183932006359, \
0.02240961231291294, \
0.0158894881606102, \
0.010057809762656689, \
0.009245436638593674, \
0.004197802394628525, \
0.006448037456721067, \
0.022364506497979164, \
0.009053190238773823, \
0.022806445136666298, \
0.01906600408256054, \
0.013123728334903717, \
0.017834564670920372, \
0.01744348183274269, \
-0.027743777260184288, \
0.036387547850608826, \
0.028851211071014404, \
0.018067127093672752, \
-0.005141874309629202, \
0.0019101131474599242, \
0.0003163775254506618, \
-0.026789898052811623, \
-0.015137137845158577, \
-0.02229415439069271, \
0.014387146569788456, \
-0.007008980493992567, \
0.03919249773025513, \
-0.006783657241612673, \
0.013426625169813633, \
-0.03221721574664116, \
0.0158997755497694, \
-0.00779067724943161, \
0.025248080492019653, \
0.008128359913825989, \
0.01140956673771143, \
-0.031724561005830765, \
-0.03782389312982559, \
-0.028981581330299377, \
-0.023888081312179565, \
-0.024713914841413498, \
-0.0006805098964832723, \
-0.008727587759494781, \
-0.02832237258553505, \
0.014265344478189945, \
-0.015081667341291904, \
0.022436127066612244, \
0.03789859265089035, \
0.014193679206073284, \
-0.02491803653538227, \
-0.006892911624163389, \
-0.010661046952009201, \
0.009136867709457874, \
-0.0001223798026330769, \
-0.016878899186849594, \
0.020528724417090416, \
0.02792413718998432, \
0.009712886065244675, \
-0.02129417657852173, \
-0.003138846019282937, \
-0.018870243802666664, \
-0.017134027555584908, \
0.002055062912404537, \
0.005394522566348314, \
0.020308393985033035, \
-0.03274807706475258, \
0.021769903600215912, \
0.018062105402350426, \
-0.013283696956932545, \
-0.028949104249477386, \
-0.009172875434160233, \
0.004174852278083563, \
0.00011211125092813745, \
-0.01525041926652193, \
-0.010342464782297611, \
-0.00256410357542336, \
0.013305379077792168, \
0.013867911882698536, \
0.026235053315758705, \
-0.031590111553668976, \
-0.010818165726959705, \
0.0027370683383196592, \
0.016450893133878708, \
-0.034936804324388504, \
-0.015194674022495747, \
-0.006506564561277628, \
-0.02191101759672165, \
0.026165295392274857, \
-0.02446252852678299, \
-0.007647915743291378, \
-0.001617615926079452, \
0.010456196963787079, \
-0.016659239307045937, \
0.013530890457332134, \
-0.027585772797465324, \
0.029619084671139717, \
-0.014082228764891624, \
0.0038841846399009228, \
-0.030354999005794525, \
0.0030606191139668226, \
-0.015294583514332771, \
-0.029187096282839775, \
0.011552724055945873, \
0.013490207493305206, \
-0.03607017919421196, \
-0.00018973009719047695, \
-0.023532088845968246, \
0.013970238156616688, \
0.02214524708688259, \
-0.041517503559589386, \
-0.02474103681743145, \
0.017648980021476746, \
0.013170978054404259, \
-0.0033030027989298105, \
0.02116549015045166, \
-0.004442952573299408, \
0.0029200224671512842, \
-0.02247970551252365, \
-0.021029269322752953, \
-0.018271081149578094, \
-0.009559852071106434, \
-0.0025891622062772512, \
-0.015075028873980045, \
-0.035930730402469635, \
-0.02287406101822853, \
-0.004473515786230564, \
0.0009497332503087819, \
-0.03430173173546791, \
0.016321374103426933, \
0.030934708192944527, \
0.012441477738320827, \
-0.03336973860859871, \
-0.01234568003565073, \
0.01206187903881073, \
0.011204116977751255, \
-0.037882208824157715, \
-0.0015696868067607284, \
-0.032883092761039734, \
-0.02212304249405861, \
-0.02419922687113285, \
-0.004905125126242638, \
0.024299241602420807, \
0.004490734543651342, \
0.021282566711306572, \
-0.04256060719490051, \
0.018084440380334854, \
0.031453970819711685, \
-0.03706277161836624, \
0.029024342074990273, \
-0.01574414037168026, \
0.022329658269882202, \
-0.035872649401426315, \
-0.01594226062297821, \
-0.014469233341515064, \
-0.019464679062366486, \
-0.038962267339229584, \
0.0045339264906942844, \
0.027492932975292206, \
-0.006914058700203896, \
-0.0025957191828638315, \
-0.00645699817687273, \
-0.00021188630489632487, \
-0.024449720978736877, \
-0.010121076367795467, \
0.03332703188061714, \
0.01503351703286171, \
0.0012226628605276346, \
0.009579547680914402, \
0.012460076250135899, \
0.0055156005546450615, \
0.020799122750759125, \
0.0040267533622682095, \
-0.02711045928299427, \
-0.00956509355455637, \
-0.038199521601200104, \
0.03850330039858818, \
-0.005508800037205219, \
0.019073493778705597, \
-0.0352105051279068, \
0.004613849800080061, \
0.010435235686600208, \
-0.009532992728054523, \
0.01962215080857277, \
0.029146581888198853, \
-0.009682726114988327, \
-0.009610818699002266, \
-0.018402988091111183, \
-0.028431719169020653, \
-0.00249911705031991, \
0.032576508820056915, \
-0.02519601210951805, \
-0.031172150745987892, \
0.01632111333310604, \
0.028247155249118805, \
-0.005992768798023462, \
-0.01811879500746727, \
-0.02132422849535942, \
0.008768953382968903, \
-0.011151863262057304, \
-0.03281532600522041, \
0.04035443440079689, \
-0.01862417720258236, \
-0.01755637489259243, \
0.01681453548371792, \
-0.01463137287646532, \
0.03090684860944748, \
0.006518658250570297, \
-0.03473168984055519, \
-0.013277338817715645, \
-0.00024406194279436022, \
-0.0063009303994476795, \
-0.012147131375968456, \
-0.032292578369379044, \
0.01571359671652317, \
0.02076392062008381, \
0.006698592100292444, \
-0.026255469769239426, \
0.006869438569992781, \
0.008792520500719547, \
-0.03122231364250183, \
-0.025029364973306656, \
0.015601595863699913, \
-0.0036887775640934706, \
-0.02245876006782055, \
0.010002652183175087, \
0.017877547070384026, \
0.016636423766613007, \
-0.014069179072976112, \
0.010725426487624645, \
0.025723543018102646, \
0.02753066085278988, \
-0.03458137437701225, \
0.012247344478964806, \
-0.029294513165950775, \
-0.02577984891831875, \
0.02115746960043907, \
0.013577830977737904, \
-0.028640100732445717, \
-0.010847354307770729, \
-0.017922885715961456, \
0.012923629023134708, \
0.018494516611099243, \
0.025009244680404663, \
0.00711042108014226, \
-0.038620490580797195, \
0.00863087922334671, \
0.00405496172606945, \
-0.0006059199222363532, \
0.007179200649261475, \
-0.01609971933066845, \
0.004427684936672449, \
-0.013215016573667526, \
0.0022082021459937096, \
-0.010729248635470867, \
0.022645816206932068, \
-0.0030718042980879545, \
-0.01504251454025507, \
-0.01894977316260338, \
-0.04394679516553879, \
-0.024536479264497757, \
-0.013528555631637573, \
-0.010947482660412788, \
-0.025577783584594727, \
0.01878291741013527, \
-0.016211124137043953, \
-0.015981441363692284, \
0.030305420979857445, \
0.0001414622092852369, \
0.022543026134371758, \
-0.015782998874783516, \
0.02793637476861477, \
-0.00029777735471725464, \
-0.028007404878735542, \
-0.03431370481848717, \
0.003563244128599763, \
-0.0432671383023262, \
0.0042651002295315266, \
-0.029826821759343147, \
0.004598140250891447, \
0.0017946087755262852, \
-0.03207371383905411, \
0.010762522928416729, \
0.005871039815247059, \
0.008229470811784267, \
0.019873909652233124, \
-0.027548981830477715, \
-0.03929311782121658, \
0.009171618148684502, \
-0.03505638241767883, \
-0.04039137065410614, \
-0.03313589096069336, \
0.016010213643312454, \
0.003196610137820244, \
-0.033689115196466446, \
0.001234443741850555, \
-0.010794473811984062, \
0.01740306243300438, \
-0.013876277022063732, \
-0.031186772510409355, \
-0.011342049576342106, \
-0.015511111356317997, \
0.021743174642324448, \
-0.011524513363838196, \
0.003029298735782504, \
-0.031893350183963776, \
0.0287045706063509, \
0.031503356993198395, \
-0.019752902910113335, \
-0.023091906681656837, \
-0.0060273390263319016, \
0.01617233082652092, \
-0.0344461053609848, \
-0.009100085124373436, \
-0.04005860164761543, \
0.026584673672914505, \
-0.03619338944554329, \
-0.01795516535639763, \
-0.005463602486997843, \
0.024785542860627174, \
-0.023394955322146416, \
-0.0023794618900865316, \
-0.0018337618093937635, \
-0.03825082629919052, \
-0.023546161130070686, \
0.021061906591057777, \
0.02511972188949585, \
0.004293010104447603, \
-0.031087886542081833, \
-0.0007836879231035709, \
0.02280106581747532, \
-0.02263265661895275, \
0.00029097008518874645, \
-0.00863078236579895, \
0.002378751989454031, \
-0.020006166771054268, \
0.008275234140455723, \
-0.009275749325752258, \
-0.02081666700541973, \
-0.03832559287548065, \
-0.002717546420171857, \
0.018489724025130272, \
-0.01002485491335392, \
-0.01199448574334383, \
0.02765699103474617, \
-0.03269650414586067, \
-0.04143017530441284, \
0.029470471665263176, \
-0.019667770713567734, \
-0.016947880387306213, \
0.007113143336027861, \
-0.03589517995715141, \
0.0011008807923644781, \
0.006954623851925135, \
-0.003079463029280305, \
-0.016531534492969513, \
0.02502073161303997, \
0.028616584837436676, \
-0.02054428867995739, \
0.003702936926856637, \
-0.003931419458240271, \
-0.031462766230106354, \
0.026312444359064102, \
-0.016147317364811897, \
-0.017683135345578194, \
-0.03516033664345741, \
0.004144464619457722, \
-0.010124996304512024, \
0.02230244316160679, \
-0.012351062148809433, \
0.0038524745032191277, \
0.02874024584889412, \
-0.0038457761984318495, \
-0.017717422917485237, \
0.012300227768719196, \
-0.023497555404901505, \
0.0022963325027376413, \
0.0022669255267828703, \
-0.0018929759971797466, \
0.014220115728676319, \
0.031099341809749603, \
-0.02603272534906864, \
0.006270123180001974, \
0.0047068833373487, \
-0.00915756169706583, \
-0.03798999264836311, \
0.009236311540007591, \
0.015238898806273937, \
-0.033617280423641205, \
-0.021460654214024544, \
0.007090016733855009, \
0.014030387625098228, \
-0.013820908032357693, \
0.02402741089463234, \
0.023494301363825798, \
-0.00029436667682603, \
0.014142618514597416, \
-0.0033710727002471685, \
-0.005367141216993332, \
0.007825419306755066, \
0.02050277590751648, \
0.019148878753185272, \
0.007287981919944286, \
-0.00961368903517723, \
0.008509060367941856, \
0.02205491065979004, \
0.024030696600675583, \
-0.0061970786191523075, \
-0.013815129175782204, \
-0.029285617172718048, \
0.010782510042190552, \
-0.002513132058084011, \
0.008453218266367912, \
0.014882586896419525, \
-0.0283721461892128, \
-0.04455796256661415, \
0.018844909965991974, \
-0.03694314509630203, \
-0.010126838460564613, \
-0.01897474005818367, \
-0.02751920372247696, \
-0.06081610918045044, \
-0.03823195397853851, \
0.02844502031803131, \
0.01278111431747675, \
-0.010502390563488007, \
-0.018832722678780556, \
0.004127249121665955, \
0.04049520194530487, \
-0.012047259137034416, \
-0.05996628850698471, \
0.05892416089773178, \
0.009006536565721035, \
-0.03561168164014816, \
-0.04003578796982765, \
-0.01965203508734703, \
-0.0630907416343689, \
0.01930057629942894, \
-0.012552691623568535, \
0.01477014645934105, \
0.021749896928668022, \
0.08641771972179413, \
-0.020566508173942566, \
0.01893138512969017, \
0.01128403190523386, \
0.01267528161406517, \
-0.06063618138432503, \
-0.012335928156971931, \
0.015361703000962734, \
-0.04543560370802879, \
0.011643446981906891, \
-0.02747092954814434, \
-0.0021601198241114616, \
-0.04175300523638725, \
-0.020595209673047066, \
-0.047592900693416595, \
-0.05820288136601448, \
0.011462361551821232, \
0.034278593957424164, \
-0.01670677773654461, \
-0.000576301827095449, \
-0.02115989848971367, \
0.019762570038437843, \
-0.03918658196926117, \
0.023589977994561195, \
-0.05432073399424553, \
0.016086744144558907, \
-0.02642071060836315, \
-0.045641541481018066, \
-0.02948913164436817, \
-0.0015350106405094266, \
0.0013540687505155802, \
-0.02562071569263935, \
-0.01970193162560463, \
-0.011635677888989449, \
-0.007563522085547447, \
0.04157286882400513, \
0.013266718946397305, \
-0.009617650881409645, \
-0.07214946299791336, \
0.002033712575212121, \
-0.013125073164701462, \
0.010387632064521313, \
-0.04375193640589714, \
-0.0417248010635376, \
-0.02245669811964035, \
-0.029661400243639946, \
-0.0009942330652847886, \
-0.04084932804107666, \
-0.009919222444295883, \
0.0057625132612884045, \
0.030087178573012352, \
0.04440475255250931, \
-0.020904866978526115, \
-0.01601725071668625, \
0.07750798016786575, \
-0.03509731963276863, \
-0.04422900453209877, \
-0.04196111112833023, \
-0.005974570754915476, \
-0.032939404249191284, \
-0.0006190863205119967, \
0.015233335085213184, \
0.0189699474722147, \
0.047668345272541046, \
0.05076407641172409, \
-0.045840613543987274, \
0.016982953995466232, \
-0.03013879992067814, \
-0.020391343161463737, \
-0.010654035955667496, \
-0.022152269259095192, \
0.01248747855424881, \
-0.029105640947818756, \
0.01543064508587122, \
-0.04282847419381142, \
-0.044555455446243286, \
-0.01805424503982067, \
0.03817655146121979, \
-0.054408226162195206, \
0.0007854040013626218, \
0.017380721867084503, \
0.022148486226797104, \
-0.04353414848446846, \
-0.034982018172740936, \
0.004363526590168476, \
-0.03770089149475098, \
0.015231206081807613, \
-0.007786983158439398, \
-8.542674186173826e-05, \
-0.028747117146849632, \
0.03060871921479702, \
-0.01374836079776287, \
-0.021059196442365646, \
-0.03276760131120682, \
0.0306522399187088, \
-0.01562684215605259, \
0.005270469002425671, \
-0.03285444900393486, \
-0.0013567133573815227, \
0.05085214972496033, \
0.003174864687025547, \
0.017399726435542107, \
-0.00882369838654995, \
-0.03953341022133827, \
0.010423016734421253, \
-0.03147215023636818, \
-0.05708849057555199, \
-0.016814807429909706, \
-0.02513543702661991, \
-0.04143495485186577, \
0.033092647790908813, \
-0.031776729971170425, \
0.04743792861700058, \
0.033009521663188934, \
0.0030265760142356157, \
0.010340549983084202, \
-0.013604284264147282, \
-0.012369654141366482, \
0.05055469647049904, \
-0.003244929714128375, \
-0.04150192067027092, \
0.015050466172397137, \
0.038109190762043, \
-0.048335544764995575, \
-0.006462664809077978, \
-0.006114321760833263, \
0.002440832322463393, \
0.008346649818122387, \
0.09317231923341751, \
-0.03490085527300835, \
0.0040883938781917095, \
-0.0011731524718925357, \
-0.019170386716723442, \
-0.054068636149168015, \
0.019735263660550117, \
0.03896162658929825, \
0.010674480348825455, \
0.018535606563091278, \
-0.0423012338578701, \
-0.02610008604824543, \
-0.01416686736047268, \
0.0010526137193664908, \
-0.009910618886351585, \
-0.001341776573099196, \
-0.036959920078516006, \
0.03646015003323555, \
0.0021218215115368366, \
-0.011376295238733292, \
0.002845730632543564, \
-0.025685012340545654, \
-0.019009483978152275, \
-0.04047944396734238, \
-0.044336091727018356, \
-0.03903219476342201, \
-0.028794817626476288, \
-0.02539192885160446, \
-0.03350601717829704, \
-0.024691421538591385, \
0.02038729190826416, \
-0.03243725001811981, \
0.012414872646331787, \
-0.049927081912755966, \
-0.0008978212135843933, \
0.07128280401229858, \
0.011559479869902134, \
0.02533906325697899, \
-0.04482731595635414, \
-0.03364971652626991, \
0.002071564784273505, \
0.02206938900053501, \
0.008058929815888405, \
0.013323051854968071, \
-0.050630778074264526, \
0.026176929473876953, \
-0.0037919320166110992, \
-0.005417587701231241, \
-0.0033029229380190372, \
-0.0029647324699908495, \
0.006613928359001875, \
0.025663534179329872, \
0.015094587579369545, \
0.01797044835984707, \
-0.0035143133718520403, \
-0.012561493553221226, \
-0.027769898995757103, \
-0.04814925789833069, \
-0.029162785038352013, \
-0.027117615565657616, \
-0.03534851595759392, \
-0.03857237473130226, \
0.03429552912712097, \
-0.023278720676898956, \
-0.007466950453817844, \
-0.023243078961968422, \
0.013215919025242329, \
-0.00715531874448061, \
0.030777227133512497, \
-0.03488611802458763, \
-0.037288133054971695, \
0.02213554084300995, \
-0.00047135117347352207, \
-0.0075650569051504135, \
-0.00466326717287302, \
0.002478671493008733, \
0.018774569034576416, \
0.02976539172232151, \
-0.03214289993047714, \
-0.014339734800159931, \
-0.013129562139511108, \
-0.009334924630820751, \
-0.02494693547487259, \
-0.025516200810670853, \
0.011565218679606915, \
-0.02919868566095829, \
-0.03830871731042862, \
-0.015333260409533978, \
0.004011497367173433, \
0.016708657145500183, \
0.018068378791213036, \
-0.04025936499238014, \
-0.03694633021950722, \
-0.02389499358832836, \
-0.01242827158421278, \
-0.04186735302209854, \
0.0325450599193573, \
-0.04545653238892555, \
-0.012003730051219463, \
0.04740540683269501, \
-0.04124994948506355, \
-0.012419485487043858, \
-0.03597493842244148, \
0.00495039951056242, \
-0.03122594952583313, \
-0.038853853940963745, \
-0.03851436823606491, \
-0.02885405719280243, \
-0.04413400962948799, \
-0.03891439363360405, \
-0.006209882907569408, \
0.0005310834967531264, \
0.028381679207086563, \
-0.0055698552168905735, \
0.012555202469229698, \
0.03485671430826187, \
0.01588837243616581, \
-0.00350163783878088, \
0.02540591172873974, \
-0.030467800796031952, \
-0.019257988780736923, \
0.005757459904998541, \
0.00010783696779981256, \
-0.008312550373375416, \
-0.034659720957279205, \
0.0036611680407077074, \
0.03732111304998398, \
-0.02030184306204319, \
0.016069121658802032, \
-0.040290191769599915, \
-0.029776128008961678, \
-0.03029940091073513, \
-0.03472701460123062, \
-0.05119738727807999, \
0.01328311674296856, \
0.006728949025273323, \
-0.029248077422380447, \
0.015797769650816917, \
-0.012911131605505943, \
-0.028075775131583214, \
-0.008114367723464966, \
0.020412247627973557, \
-0.055076517164707184, \
-0.000498720386531204, \
-0.02208702079951763, \
-0.022343652322888374, \
-0.04643995687365532, \
0.019154811277985573, \
0.011214639991521835, \
0.0072117154486477375, \
-0.0009999683825299144, \
0.014303166419267654, \
0.0015511441743001342, \
-0.03621016442775726, \
0.023179370909929276, \
-0.015448776073753834, \
-0.018339205533266068, \
-0.0008713745046406984, \
-0.025285789743065834, \
-0.026715558022260666, \
0.01276234071701765, \
-0.03904085233807564, \
-0.007993497885763645, \
0.011137425899505615, \
-0.014692112803459167, \
-0.02401638776063919, \
-0.02041543833911419, \
-0.04491362348198891, \
-0.005385833326727152, \
-0.026773856952786446, \
-0.010358627885580063, \
-0.017884550616145134, \
-0.08087560534477234, \
0.009757614694535732, \
0.03293031454086304, \
-0.0075087170116603374, \
-0.000716209236998111, \
-0.014714040793478489, \
-0.0370846688747406, \
-0.02688271552324295, \
0.0007474161684513092, \
-0.006916855461895466, \
0.030812524259090424, \
-0.008812732994556427, \
-0.015398499555885792, \
-0.033971767872571945, \
0.027557900175452232, \
-0.049675922840833664, \
-0.014767572283744812, \
-0.04504504054784775, \
0.020660169422626495, \
-0.03298670053482056, \
0.023539651185274124, \
0.004800403956323862, \
0.010893147438764572, \
-0.0006276995409280062, \
-0.003331658663228154, \
-0.037072088569402695, \
-0.02371790073812008, \
0.01258928794413805, \
0.016769560053944588, \
-0.03158137574791908, \
0.021673385053873062, \
0.006815212778747082, \
-0.012052146717905998, \
0.03032589703798294, \
-0.030741628259420395, \
0.008821328170597553, \
0.006117463111877441, \
7.597151125082746e-05, \
-0.022364838048815727, \
-0.01623866707086563, \
-0.0024393133353441954, \
0.0013264885637909174, \
-0.023935619741678238, \
-0.02126835286617279, \
-0.022859791293740273, \
-0.020950831472873688, \
0.027427878230810165, \
-0.03685865178704262, \
-0.02846880629658699, \
-0.016486790031194687, \
-0.008632032200694084, \
-0.0065023088827729225, \
-0.0017131014028564095, \
-0.050386589020490646, \
0.01729465462267399, \
0.02710915170609951, \
0.01098377350717783, \
0.003701863344758749, \
-0.01848827861249447, \
-0.020363399758934975, \
0.001480551902204752, \
-0.022026339545845985, \
-0.016690069809556007, \
-0.036151763051748276, \
-0.0087096206843853, \
0.02330649271607399, \
0.0037355234380811453, \
0.016372252255678177, \
-0.04585588723421097, \
-0.01947537623345852, \
-0.014467722736299038, \
-0.01860946975648403, \
0.033282823860645294, \
0.009706447832286358, \
0.018629414960741997, \
0.009701146744191647, \
-0.026973867788910866, \
-0.01609835773706436, \
0.005964984185993671, \
0.005788731854408979, \
-0.0140503766015172, \
-0.016535475850105286, \
-0.028987189754843712, \
0.0207661259919405, \
-0.04354793578386307, \
-0.001035144436173141, \
-0.024160563945770264, \
0.00493575306609273, \
-0.03468544781208038, \
0.015717418864369392, \
-0.03084106557071209, \
-0.0025607997085899115, \
-0.016109785065054893, \
0.016430245712399483, \
0.013174481689929962, \
0.03473207727074623, \
-0.035767536610364914, \
-0.00886062067002058, \
-0.015937479212880135, \
-0.010724874213337898, \
0.015125979669392109, \
-0.02181023359298706, \
-0.03759211301803589, \
-0.010770123451948166, \
-0.03780536353588104, \
0.004037326667457819, \
-0.027687542140483856, \
0.018762756139039993, \
-0.014735213480889797, \
0.00944515224546194, \
-0.025211276486516, \
0.028172582387924194, \
-0.015288995578885078, \
0.010815969668328762, \
-0.031523335725069046, \
-0.02815447375178337, \
-0.0029263277538120747, \
-0.028789112344384193, \
-0.005914988461881876, \
0.01677314192056656, \
-0.006067302543669939, \
0.013061768375337124, \
-0.009919882752001286, \
-0.006730529945343733, \
0.011045754887163639, \
-0.03803735598921776, \
-0.000442872173152864, \
5.286080340738408e-05, \
-0.002053468022495508, \
-0.00015003168664406985, \
0.029899952933192253, \
-0.00014257256407290697, \
-0.0323367603123188, \
0.009526902809739113, \
-0.05144698545336723, \
-0.001214192365296185, \
0.025686077773571014, \
-0.004706109408289194, \
-0.020633256062865257, \
0.022162333130836487, \
0.015124538913369179, \
-0.006752463523298502, \
-0.032878123223781586, \
-0.052203137427568436, \
-0.008019967004656792, \
0.003939881920814514, \
0.004009822383522987, \
0.015501894056797028, \
-0.038927849382162094, \
0.014204739592969418, \
0.0017001602100208402, \
0.02470742166042328, \
0.011287886649370193, \
-0.007087951526045799, \
0.0014791730791330338, \
-0.04076569527387619, \
0.021299464628100395, \
-0.014373579062521458, \
0.008928421884775162, \
0.014951611869037151, \
0.006042714696377516, \
-0.03058536723256111, \
0.01083165593445301, \
0.028358351439237595, \
0.009712829254567623, \
0.0044588567689061165, \
-0.009054584428668022, \
-0.003440619446337223, \
-0.026790816336870193, \
0.03131064772605896, \
0.025624573230743408, \
-0.003417873289436102, \
-0.008289397694170475, \
-0.015538789331912994, \
-0.0395481251180172, \
-0.012916676700115204, \
-0.009497870691120625, \
-0.015200039371848106, \
-0.01191625650972128, \
-0.024733392521739006, \
0.008132902905344963, \
-0.004058615770190954, \
0.006235585082322359, \
0.03674233704805374, \
-0.02114143595099449, \
0.012817496433854103, \
0.005435611121356487, \
-0.009983330965042114, \
-0.030573803931474686, \
-0.04041247442364693, \
-0.008893000893294811, \
-0.014150244183838367, \
-0.04739305377006531, \
-0.031945448368787766, \
-0.006279980763792992, \
0.0028240990359336138, \
-0.05184037983417511, \
-0.03602314367890358, \
-0.028794722631573677, \
-0.019672414287924767, \
0.0023872135207057, \
-0.015681825578212738, \
0.01747843436896801, \
0.008094383403658867, \
-0.009022372774779797, \
0.013208702206611633, \
-0.01401478424668312, \
-0.03353492170572281, \
-0.037314675748348236, \
0.01112231146544218, \
-0.0011234087869524956, \
0.019774289801716805, \
-0.04620249569416046, \
-0.017933184280991554, \
-0.025967421010136604, \
-0.002233172534033656, \
0.00496261240914464, \
-0.009897923097014427, \
-0.00019899166363757104, \
-0.0388939194381237, \
0.028062084689736366, \
-0.03650856018066406, \
-0.011637345887720585, \
-0.030321169644594193, \
-0.027954893186688423, \
-0.03700178116559982, \
-0.044099170714616776, \
0.02357439696788788, \
-0.034963082522153854, \
-0.02160162292420864, \
0.0005520066479220986, \
-0.02083907648921013, \
-0.021525807678699493, \
0.0032432929147034883, \
-0.031354084610939026, \
6.896301329106791e-06, \
0.02427811175584793, \
0.003074599662795663, \
0.019645150750875473, \
0.0171987134963274, \
0.007439564913511276, \
-0.0030262391082942486, \
0.007882200181484222, \
0.027336740866303444, \
-0.024835901334881783, \
-0.021536463871598244, \
-0.011427974328398705, \
0.03589465096592903, \
9.664962999522686e-05, \
0.007894798181951046, \
0.08066493272781372, \
-0.06266716867685318, \
-0.029690805822610855, \
0.06099129095673561, \
-0.035871487110853195, \
-0.05691678449511528, \
-0.017880667001008987, \
0.04428935423493385, \
0.0125553198158741, \
-0.009009142406284809, \
-0.010474669747054577, \
0.007282367907464504, \
-0.03414968028664589, \
-0.06755570322275162, \
-0.013840229250490665, \
0.06238649785518646, \
0.030251063406467438, \
0.010097810998558998, \
0.03463875502347946, \
-0.07764491438865662, \
-0.03807046636939049, \
-0.0698988288640976, \
-0.018090123310685158, \
0.011932551860809326, \
-0.0277531947940588, \
-0.058072108775377274, \
-0.05414329841732979, \
0.04209832847118378, \
-0.014785421080887318, \
-0.05397854745388031, \
-0.01081768423318863, \
0.02279280312359333, \
-0.021237989887595177, \
-0.07379204779863358, \
-0.00616648280993104, \
-0.047628577798604965, \
-0.012742944061756134, \
-0.023051602765917778, \
-0.006837033666670322, \
-0.01883792318403721, \
0.012979812920093536, \
-0.04340743273496628, \
-0.03738059103488922, \
-0.05898457393050194, \
-0.023538313806056976, \
-0.03462223708629608, \
-0.07204435765743256, \
-0.041946619749069214, \
0.015923911705613136, \
0.036753099411726, \
-0.05376075208187103, \
-0.02794153429567814, \
-0.057119932025671005, \
-0.10790398716926575, \
-0.051260195672512054, \
0.004402242135256529, \
0.016394132748246193, \
-0.014276166446506977, \
-0.041155267506837845, \
-0.09433023631572723, \
0.038908034563064575, \
-0.015738459303975105, \
-0.01864493079483509, \
-0.06092289835214615, \
0.1181950569152832, \
-0.0412592887878418, \
-0.05111316218972206, \
0.1042812243103981, \
-0.03059869073331356, \
-0.11576327681541443, \
-0.07159151881933212, \
0.04144364222884178, \
-0.031502582132816315, \
-0.06664225459098816, \
-0.05386384576559067, \
0.06079978123307228, \
-0.026725199073553085, \
-0.07054583728313446, \
-0.012409764342010021, \
0.05263184756040573, \
0.050639498978853226, \
-0.02912048250436783, \
0.0391901470720768, \
-0.016155192628502846, \
-0.08142786473035812, \
-0.04953485727310181, \
-0.020748523995280266, \
0.010628972202539444, \
-0.024497613310813904, \
-0.06188317760825157, \
-0.021757224574685097, \
0.0216433797031641, \
0.015250375494360924, \
-0.05456411838531494, \
-0.04955403134226799, \
0.029861776158213615, \
0.008745289407670498, \
-0.04444514214992523, \
-0.035438183695077896, \
0.0028779800049960613, \
0.0010531025473028421, \
-0.037024978548288345, \
-0.014766538515686989, \
-0.024581147357821465, \
-0.03366882726550102, \
-0.046997491270303726, \
-0.006732965353876352, \
-0.023551996797323227, \
-0.029694853350520134, \
-0.04156622290611267, \
-0.13462205231189728, \
0.005573966074734926, \
-0.026240456849336624, \
0.0999952182173729, \
-0.07395246624946594, \
0.012170772068202496, \
-0.03491309657692909, \
-0.0506337434053421, \
-0.01058536022901535, \
-0.017984118312597275, \
0.03939950838685036, \
0.020795516669750214, \
0.007832834497094154, \
-0.07741912454366684, \
0.0755094662308693, \
-0.07729987800121307, \
-0.04405601695179939, \
-0.03572409600019455, \
0.12752223014831543, \
-0.020258888602256775, \
-0.051983192563056946, \
0.12581324577331543, \
-0.0374772883951664, \
-0.09144583344459534, \
-0.03397628664970398, \
0.05331096053123474, \
-0.0417843833565712, \
-0.008133655413985252, \
-0.030578315258026123, \
0.06242880970239639, \
-0.05419594421982765, \
-0.0444171205163002, \
-0.004251639824360609, \
0.05042114481329918, \
0.06811249256134033, \
0.0014708595117554069, \
0.03484879806637764, \
-0.06408598273992538, \
-0.06384211033582687, \
-0.054752860218286514, \
-0.04960417002439499, \
0.003425820032134652, \
-0.028271352872252464, \
-0.06347447633743286, \
-0.0476149320602417, \
0.07127580046653748, \
0.0468844436109066, \
-0.030491875484585762, \
-0.05508430674672127, \
-0.03779491037130356, \
-0.04262265935540199, \
-0.025900045409798622, \
-0.033650342375040054, \
-0.030675379559397697, \
-0.058586519211530685, \
-0.04462186247110367, \
0.013468011282384396, \
0.0015957399737089872, \
0.006912123877555132, \
-0.052551548928022385, \
-0.004436872899532318, \
-0.047786254435777664, \
0.03591280058026314, \
-0.025255564600229263, \
-0.1331065446138382, \
0.013435550034046173, \
0.01913183182477951, \
0.1296413093805313, \
-0.052415598183870316, \
0.0122379707172513, \
-0.03984617069363594, \
-0.060186222195625305, \
-0.05397578701376915, \
-0.04370084032416344, \
0.09029761701822281, \
0.010649285279214382, \
-0.021657774224877357, \
-0.08741667866706848, \
0.037776052951812744, \
-0.038598183542490005, \
-0.021723710000514984, \
-0.054036762565374374, \
0.033763449639081955, \
-0.03547787293791771, \
-0.049775589257478714, \
-0.014071919023990631, \
-0.03763270378112793, \
-0.0182248055934906, \
-0.039274249225854874, \
0.028102509677410126, \
-0.015581788495182991, \
-0.01334682758897543, \
-0.1177670806646347, \
0.0005172701785340905, \
-0.04832422360777855, \
-0.06598158925771713, \
-0.02132146619260311, \
0.04468948766589165, \
-0.04479321464896202, \
-0.00012240400246810168, \
-0.022977406159043312, \
-0.04513069614768028, \
-0.05799698084592819, \
-0.006599572487175465, \
0.0038174763321876526, \
0.014529026113450527, \
0.0012704769615083933, \
-0.05412259325385094, \
-0.047183528542518616, \
0.007175212725996971, \
0.04027819633483887, \
-0.10869769006967545, \
0.03494314104318619, \
-0.03042219765484333, \
-0.04659544304013252, \
-0.08945617824792862, \
0.021768417209386826, \
-0.08345645666122437, \
-0.0703950896859169, \
-0.05478162690997124, \
0.014221923425793648, \
-0.05291134864091873, \
-0.06199580430984497, \
-0.10003523528575897, \
-0.0251788180321455, \
-0.08621365576982498, \
0.008132015354931355, \
0.0023533389903604984, \
-0.04139688238501549, \
0.030162179842591286, \
0.017270511016249657, \
0.034616995602846146, \
-0.015004339627921581, \
-0.024822471663355827, \
-0.017845027148723602, \
0.0036567742936313152, \
-0.03547140583395958, \
-0.011830446310341358, \
-0.027099356055259705, \
-0.011034834198653698, \
-0.023045476526021957, \
-0.06457698345184326, \
-0.027812916785478592, \
-0.020935846492648125, \
-0.001978576183319092, \
-0.055452220141887665, \
-0.03360775113105774, \
-0.02732841670513153, \
0.02055281586945057, \
0.020544933155179024, \
-0.005772967357188463, \
-0.05467726290225983, \
-0.07427132874727249, \
-0.0023477531503885984, \
-0.036321405321359634, \
-0.03103986568748951, \
-0.10301104933023453, \
-0.01259972807019949, \
-0.09059485048055649, \
-0.09683185815811157, \
0.019265124574303627, \
0.021450195461511612, \
-0.11385349929332733, \
0.006401489954441786, \
0.016686707735061646, \
-0.02848813869059086, \
-0.04146751016378403, \
-0.014459975995123386, \
-0.04192417860031128, \
-0.02018185891211033, \
0.016789134591817856, \
-0.014836410991847515, \
-0.08634328097105026, \
-0.02898029051721096, \
0.02995627373456955, \
-0.03734304755926132, \
0.04552336409687996, \
-0.0011853281175717711, \
-0.01782475970685482, \
-0.08644048869609833, \
0.02683904953300953, \
-0.09225212782621384, \
0.011210145428776741, \
0.004422953352332115, \
0.006876644212752581, \
-0.04988512396812439, \
-0.007121718488633633, \
-0.0716414749622345, \
0.0019491189159452915, \
-0.06059468910098076, \
0.03575897216796875, \
-0.03041599504649639, \
0.027386782690882683, \
0.012214431539177895, \
0.025240175426006317, \
-0.026275889948010445, \
-0.051175396889448166, \
0.011502479203045368, \
-0.056572798639535904, \
0.0010768909705802798, \
-0.014220514334738255, \
-0.0322398878633976, \
-0.06350269168615341, \
0.02321050316095352, \
-0.013729466125369072, \
-0.03274296224117279, \
-0.033946018666028976, \
-0.03982200846076012, \
-0.009478405117988586, \
-0.05155268311500549, \
-0.030885502696037292, \
-0.0648028776049614, \
-0.027050234377384186, \
-0.013670019805431366, \
-0.02625328116118908, \
-0.03970105201005936, \
-0.05864301323890686, \
-0.03638329729437828, \
-0.02076764591038227, \
0.003563267644494772, \
-0.1022791713476181, \
0.00997487735003233, \
-0.08711535483598709, \
-0.10349420458078384, \
0.04014902561903, \
-0.045838046818971634, \
-0.09070584177970886, \
0.035772208124399185, \
-0.009041317738592625, \
-0.03878243640065193, \
-0.0523744598031044, \
0.027347955852746964, \
-0.031216304749250412, \
-0.03314124420285225, \
0.0006297188228927553, \
-0.009908754378557205, \
-0.05150463804602623, \
-0.003626458114013076, \
0.01127506885677576, \
-0.08031687885522842, \
0.03485743701457977, \
0.018150752410292625, \
-0.04461095109581947, \
-0.0701136589050293, \
-0.01944940723478794, \
-0.03927153721451759, \
-0.006507703568786383, \
-0.006366514600813389, \
0.01832710951566696, \
0.004055907484143972, \
-0.027724692597985268, \
-0.031384777277708054, \
-0.030745238065719604, \
-0.08522746711969376, \
0.007838178426027298, \
0.03805039823055267, \
0.024548709392547607, \
-0.03265978768467903, \
-0.013967453502118587, \
-0.0035671121440827847, \
-0.01990407519042492, \
0.05133215710520744, \
-0.015244214795529842, \
0.021059464663267136, \
-0.004509677179157734, \
0.029318291693925858, \
-0.03942466527223587, \
-0.02563040889799595, \
-0.011170316487550735, \
-0.06365546584129333, \
-0.04394516348838806, \
-0.03949224576354027, \
0.030548743903636932, \
-0.026702038943767548, \
0.0580969862639904, \
-0.023834411054849625, \
0.07206568866968155, \
-0.002718122210353613, \
-0.012159311212599277, \
-0.014407698065042496, \
-0.02677689492702484, \
-0.010251750238239765, \
-0.02785574644804001, \
0.014795791357755661, \
-0.08322232216596603, \
0.03348246589303017, \
0.0027056336402893066, \
-0.010497456416487694, \
0.0013256530510261655, \
0.021744152531027794, \
-0.025322170928120613, \
0.07772677391767502, \
-0.011109527200460434, \
-0.05163350701332092, \
-0.051096100360155106, \
0.05171538144350052, \
0.008229635655879974, \
-0.0006773594650439918, \
-0.03687438368797302, \
-0.00862562283873558, \
-0.018438752740621567, \
-0.005605005193501711, \
0.01621643453836441, \
-0.035831086337566376, \
0.012785002589225769, \
0.006113190669566393, \
-0.04259420558810234, \
-0.08312518894672394, \
0.00043114874279126525, \
-0.0055376687087118626, \
-0.07250714302062988, \
0.009901449084281921, \
-0.01654876209795475, \
0.007149816025048494, \
-0.0429314523935318, \
0.00019277777755632997, \
0.031173760071396828, \
-0.031238045543432236, \
0.023937880992889404, \
-0.01168589387089014, \
0.041803739964962006, \
-0.050824373960494995, \
-0.0065905507653951645, \
0.029365256428718567, \
0.00044566529686562717, \
0.043789710849523544, \
0.020997364073991776, \
0.047893136739730835, \
-0.006174943875521421, \
0.0522661991417408, \
0.006625545676797628, \
0.01406373642385006, \
0.017303137108683586, \
-0.058659907430410385, \
0.015357548370957375, \
-0.03211309015750885, \
0.05325951427221298, \
-0.007167666684836149, \
0.014485148712992668, \
0.0035968362353742123, \
0.04756002873182297, \
-0.01813865266740322, \
0.010205009020864964, \
0.005523222964257002, \
0.010156681761145592, \
-0.03899792954325676, \
-0.03335846588015556, \
0.017705591395497322, \
-0.05073496699333191, \
0.01095060259103775, \
-0.03536147251725197, \
-0.038077935576438904, \
0.007851404137909412, \
0.041229210793972015, \
-0.03326516970992088, \
0.09186661243438721, \
-0.010706596076488495, \
0.0058522820472717285, \
-0.024135375395417213, \
0.02474956586956978, \
0.05141361430287361, \
-0.03012525849044323, \
0.017811071127653122, \
-0.022696252912282944, \
-0.0316123403608799, \
-0.048594847321510315, \
-0.014581123366951942, \
-0.04893036559224129, \
0.05439646169543266, \
0.03632086515426636, \
-0.04900336638092995, \
-0.06344511359930038, \
9.68234016909264e-05, \
-0.009218679741024971, \
-0.037935104221105576, \
0.030706020072102547, \
-0.013688968494534492, \
0.01627800613641739, \
0.010631592012941837, \
0.001773386960849166, \
0.017245423048734665, \
-0.06213870272040367, \
-0.0051176659762859344, \
0.0025419220328330994, \
0.08337689936161041, \
-0.022215884178876877, \
-0.020402034744620323, \
0.03534631058573723, \
-0.004305195063352585, \
0.050333429127931595, \
0.04152551293373108, \
0.013190730474889278, \
-0.04368842765688896, \
0.03129417821764946, \
0.03334986791014671, \
0.018618300557136536, \
0.020273271948099136, \
-0.046967022120952606, \
0.016140688210725784, \
-0.0379624143242836, \
-0.01773557811975479, \
-0.010873263701796532, \
0.05880583077669144, \
-0.051664117723703384, \
0.017587609589099884, \
-0.041549887508153915, \
-0.015891242772340775, \
-0.030193155631422997, \
-0.04839063435792923, \
0.009813908487558365, \
-0.0238173920661211, \
0.031200287863612175, \
-0.050824910402297974, \
0.03309875726699829, \
-0.02366500347852707, \
-0.05048094689846039, \
0.02979731187224388, \
0.036395180970430374, \
0.004482032731175423, \
0.048051878809928894, \
-0.0170072540640831, \
-0.039774734526872635, \
0.006550858728587627, \
-0.010392479598522186, \
-0.0019585515838116407, \
0.012776893563568592, \
-0.018650170415639877, \
-0.023919573053717613, \
-0.00402770796790719, \
0.006045420188456774, \
0.023313002660870552, \
-0.023626167327165604, \
0.06587336212396622, \
0.011601593345403671, \
-0.02254573628306389, \
-0.01827218011021614, \
0.030509723350405693, \
-0.0447426475584507, \
-0.009025023318827152, \
0.0007701248396188021, \
-0.004852136131376028, \
-0.000869608367793262, \
-0.03923545405268669, \
-0.05377209559082985, \
0.042183101177215576, \
-0.03383324295282364, \
-0.03491954505443573, \
0.043770644813776016, \
0.0314701646566391, \
-0.020732784643769264, \
0.031951092183589935, \
0.04009642452001572, \
-0.004641178995370865, \
0.004712720867246389, \
0.030521195381879807, \
0.08940034359693527, \
-0.04222298040986061, \
-0.006570499390363693, \
0.0019886880181729794, \
0.02417968399822712, \
-0.032029762864112854, \
0.007314077112823725, \
0.03272879496216774, \
-0.03036528080701828, \
0.02430850826203823, \
-0.023386694490909576, \
0.06974482536315918, \
0.02143172174692154, \
0.004952495452016592, \
0.06220712512731552, \
-3.408576230867766e-05, \
-0.03017049841582775, \
0.028094962239265442, \
-0.004126532468944788, \
0.023041538894176483, \
-0.02296380139887333, \
0.011875267140567303, \
-0.012756263837218285, \
0.021584471687674522, \
0.031524572521448135, \
0.011580023914575577, \
0.014091956429183483, \
0.06382029503583908, \
-0.011283721774816513, \
0.01050000824034214, \
-0.03530488163232803, \
0.00312065496109426, \
-0.0382312647998333, \
0.03596366196870804, \
-0.024184642359614372, \
-0.025172092020511627, \
0.015410817228257656, \
0.03598586097359657, \
-0.03241628780961037, \
0.004135827533900738, \
0.009429305791854858, \
-0.05135050788521767, \
-0.015939783304929733, \
-0.02905210293829441, \
-0.014609206467866898, \
-0.015660010278224945, \
-0.006250894628465176, \
-0.03855381906032562, \
0.026529528200626373, \
0.01575341261923313, \
0.025825396180152893, \
0.007619001902639866, \
0.022070281207561493, \
-0.021173864603042603, \
-0.016993707045912743, \
-0.03957461193203926, \
-0.03408558666706085, \
-0.03608952462673187, \
5.579915523412637e-06, \
-0.022274240851402283, \
0.0848526656627655, \
-0.056630171835422516, \
0.028892774134874344, \
-0.03298850357532501, \
-0.021814338862895966, \
0.011393791064620018, \
-0.003564240876585245, \
0.020056666806340218, \
-0.014593956060707569, \
0.0003503875632304698, \
-0.03151257708668709, \
0.04926466569304466, \
0.008362170308828354, \
-0.027472814545035362, \
-0.0003923801123164594, \
0.06479178369045258, \
0.00399797223508358, \
0.007403689436614513, \
0.09314730763435364, \
-0.050348564982414246, \
-0.07199819386005402, \
-0.006264094728976488, \
-0.00044312994577921927, \
0.008887971751391888, \
-0.028651336207985878, \
0.021946966648101807, \
0.02154972031712532, \
0.011690264567732811, \
-0.033751655369997025, \
0.011249948292970657, \
0.012287670746445656, \
0.06943981349468231, \
0.0018793646013364196, \
-0.015342417173087597, \
0.0021521325688809156, \
-0.035770609974861145, \
0.006247949320822954, \
0.013830302283167839, \
-0.017981885001063347, \
-0.014702755026519299, \
0.021420728415250778, \
