#define features_1_bias {\
-5.0530371553669795e-11, \
-0.24126885831356049, \
-0.2094397246837616, \
-0.18165330588817596, \
-0.058725807815790176, \
0.4556822180747986, \
0.2163218855857849, \
-0.650334894657135, \
0.13175415992736816, \
0.2341645509004593, \
-0.8257667422294617, \
0.4282703399658203, \
0.17265069484710693, \
0.2369629293680191, \
-0.962418794631958, \
-0.029859323054552078, \
-0.1762559413909912, \
-7.352785602598999e-10, \
-0.0465979240834713, \
-0.06584861874580383, \
0.07371283322572708, \
-0.2534882724285126, \
0.022556260228157043, \
-0.14021068811416626, \
0.021328654140233994, \
-0.1415535807609558, \
-0.07522028684616089, \
-0.14534857869148254, \
-0.07709486037492752, \
-0.24516703188419342, \
-0.0797179788351059, \
-0.41011035442352295, \
0.06613253057003021, \
-0.2330365628004074, \
-0.03163718432188034, \
-0.030570754781365395, \
-0.02365311048924923, \
-9.716882160004658e-11, \
-4.155899235858129e-11, \
-0.03248836472630501, \
-0.1522395759820938, \
-0.016282914206385612, \
0.4855819344520569, \
-0.10848965495824814, \
-0.03651568293571472, \
-0.06972821056842804, \
0.1577356904745102, \
-0.07612857967615128, \
-0.04102671891450882, \
-0.07111336290836334, \
0.22458595037460327, \
0.013408069498836994, \
0.2940722405910492, \
-0.33124399185180664, \
-0.02084347978234291, \
-0.18120048940181732, \
-1.1635289398626014e-09, \
-0.06482504308223724, \
-0.2144675850868225, \
0.053078580647706985, \
-0.2193705439567566, \
0.32130348682403564, \
0.07323173433542252, \
-0.0005508559406735003, \
}
