#define features_0_weight {\
2.380529939838283e-10, 6.59721027806981e-11, 1.3599227299820882e-10, 2.072775423522799e-10, 3.531566358794258e-11, 1.0283495582852353e-10, 1.3902971829349298e-10, 2.8207455468609588e-11, 5.5457284597881795e-11, \
2.456118641802618e-10, 8.598368544943114e-11, 1.6978098094089233e-10, 1.948289168884898e-10, 1.1230985585974906e-10, 1.694735046742224e-10, 1.56761548186779e-10, 2.965066386861892e-11, 1.1358528700933235e-10, \
2.2385451825535085e-10, 7.544922325797287e-11, 1.3199587256540468e-10, 2.0206020190371987e-10, 7.043329808276155e-11, 1.2149925510129833e-10, 1.682717437612169e-10, 3.945041168740282e-11, 1.2876026633801274e-10, \
0.15681566298007965, -0.050639163702726364, -0.013083781115710735, 0.17005224525928497, 0.00046782332356087863, 0.09169580787420273, 0.1651185005903244, 0.047082047909498215, 0.17427219450473785, \
0.18020114302635193, -0.05666227266192436, -0.08511662483215332, 0.20751720666885376, -0.010306060314178467, -0.00764494901522994, 0.21785877645015717, 0.058875054121017456, 0.09875615686178207, \
0.09281938523054123, -0.0989179015159607, -0.13409674167633057, 0.13856706023216248, -0.05940094590187073, -0.0832444354891777, 0.1346106082201004, -0.01488744281232357, -0.016128208488225937, \
0.10975775122642517, 0.04879431053996086, -0.08408578485250473, 0.10018239915370941, 0.0547732412815094, -0.07500703632831573, 0.09449920058250427, 0.06493520736694336, -0.03483818098902702, \
0.04582789167761803, -0.06026981398463249, -0.17990170419216156, 0.03727755695581436, -0.08906027674674988, -0.22008644044399261, 0.05927886813879013, -0.040336716920137405, -0.15830634534358978, \
-0.024068059399724007, -0.08646385371685028, -0.11992772668600082, -0.02591302990913391, -0.12485164403915405, -0.17413513362407684, 0.02802291139960289, -0.059392049908638, -0.11015478521585464, \
-0.16453678905963898, -0.07593754678964615, -0.004843736533075571, -0.24251993000507355, -0.13357101380825043, -0.05791245028376579, -0.19021694362163544, -0.10300382226705551, -0.021353594958782196, \
0.0035518789663910866, 0.0644930973649025, 0.12148928642272949, -0.119947150349617, -0.028909429907798767, 0.03164694085717201, -0.19969095289707184, -0.10563118010759354, -0.024938732385635376, \
0.03581145778298378, 0.042639702558517456, 0.0774228572845459, -0.0064362757839262486, 0.02740798331797123, 0.07177398353815079, -0.15550261735916138, -0.09943406283855438, -0.012873099185526371, \
-0.018688563257455826, 0.000634324795100838, 0.014153838157653809, -0.014280193485319614, 0.006183446850627661, 0.0195282194763422, -0.018923047930002213, -0.0022322474978864193, 0.006294310092926025, \
-0.02254757098853588, -0.006602684501558542, 0.0007979579386301339, -0.01560891978442669, 0.0010212104534730315, 0.006258737295866013, -0.01973464898765087, -0.007607711479067802, -0.005912932567298412, \
-0.01667608879506588, -0.012295935302972794, -0.01245824247598648, -0.008194186724722385, -0.003911902196705341, -0.006243337877094746, -0.012067999690771103, -0.009838735684752464, -0.01472392026335001, \
-0.6631969809532166, 0.19754457473754883, 0.47565895318984985, -0.890746533870697, 0.30950748920440674, 0.7377504706382751, -0.7565421462059021, 0.24977728724479675, 0.5039724707603455, \
-0.0008588946657255292, -0.0579129233956337, -0.061723146587610245, -0.0434950515627861, -0.0500933863222599, -0.006122976541519165, 0.005909403786063194, 0.011747715063393116, 0.04874545335769653, \
0.8555706143379211, -0.18527892231941223, -0.5900946855545044, 1.0344924926757812, -0.272995263338089, -0.7534196376800537, 0.7436719536781311, -0.2892519235610962, -0.6482079029083252, \
0.03788858279585838, -0.3820282220840454, 0.1874948889017105, 0.028549786657094955, -0.4473223090171814, 0.39799293875694275, -0.11305650323629379, -0.22681167721748352, 0.4875700771808624, \
0.3390181064605713, -0.6795259714126587, 0.07084342837333679, 0.4445556402206421, -0.7083852291107178, 0.2730843126773834, 0.14938364923000336, -0.4574930667877197, 0.4060009717941284, \
0.3639138638973236, -0.5478072166442871, -0.002095089526847005, 0.46199461817741394, -0.6092372536659241, 0.16362857818603516, 0.21751606464385986, -0.3490974009037018, 0.3615962266921997, \
0.08821147680282593, 0.2716165781021118, 0.13076558709144592, -0.04160529002547264, 0.22380448877811432, -0.01377780269831419, 0.06364639848470688, 0.27598363161087036, 0.039044175297021866, \
-0.049056828022003174, 0.2676831781864166, 0.04739623889327049, -0.46706196665763855, -0.11428332328796387, -0.416498601436615, -0.30785396695137024, -0.021939856931567192, -0.2830280065536499, \
-0.014846581034362316, 0.22353225946426392, -0.010772318579256535, -0.26868417859077454, -0.009031959809362888, -0.2711098790168762, -0.0660364180803299, 0.1488664746284485, -0.04701671004295349, \
0.619789183139801, 0.7336606979370117, 0.5643011927604675, -0.6778013110160828, -0.716623067855835, -0.7384883761405945, 0.040346793830394745, -0.003170380601659417, -0.09735846519470215, \
-0.6055727005004883, -0.5436922907829285, -0.6358574628829956, -0.09050150215625763, -0.09269735217094421, -0.12888547778129578, 0.7259001135826111, 0.7110567688941956, 0.6343221664428711, \
-0.1742640882730484, -0.1399141252040863, -0.15164823830127716, 0.7297156453132629, 0.6980091333389282, 0.7466892004013062, -0.5131420493125916, -0.568740963935852, -0.5355429649353027, \
0.5833432674407959, -0.11842583119869232, -0.7291318774223328, 0.3458743095397949, -0.19355009496212006, -0.6482788324356079, 0.15928445756435394, 0.24393829703330994, 0.2755667567253113, \
0.3901911675930023, -0.1560152769088745, -0.6818179488182068, 0.42496004700660706, 0.47716280817985535, 0.5083112716674805, -0.650689959526062, 0.028671322390437126, 0.5698186755180359, \
0.20768800377845764, 0.19284698367118835, 0.03511539474129677, -0.6510760188102722, -0.050400398671627045, 0.4245280623435974, -1.0818382501602173, -0.22498850524425507, 0.39190465211868286, \
0.23812896013259888, 0.24645642936229706, 0.27764788269996643, -0.1361757516860962, -0.1559828817844391, -0.13975678384304047, -0.05925600975751877, -0.09813179820775986, -0.05214262008666992, \
0.14863842725753784, 0.13485729694366455, 0.18423521518707275, -0.2865437865257263, -0.32795462012290955, -0.2846772372722626, -0.21401910483837128, -0.2441016435623169, -0.15896672010421753, \
0.20576156675815582, 0.1331785023212433, 0.11465375125408173, 0.04887193813920021, -0.024252228438854218, -0.023693764582276344, 0.06458725780248642, 0.04625337943434715, 0.10098128765821457, \
-0.21786753833293915, -0.4013206958770752, -0.4645019471645355, -0.00679790461435914, -0.0047322968021035194, -0.037853553891181946, 0.11910431832075119, 0.4046230614185333, 0.39430752396583557, \
-0.27640777826309204, -0.4679785966873169, -0.5290931463241577, 0.05012466013431549, 0.06471492350101471, 0.040840912610292435, 0.22927629947662354, 0.4971885085105896, 0.5122316479682922, \
-0.2964208126068115, -0.44407621026039124, -0.5057946443557739, 0.038315512239933014, 0.03220570832490921, 0.018698800355196, 0.2071678787469864, 0.41004276275634766, 0.4344574213027954, \
0.0058142198249697685, -0.028319571167230606, 0.052855633199214935, 0.029415776953101158, -0.02307794615626335, 0.04137147217988968, 0.07405675947666168, 0.02700158581137657, 0.09677576273679733, \
-0.09556243568658829, -0.11283636838197708, -0.03921108320355415, -0.08583775907754898, -0.11984619498252869, -0.0509565994143486, 0.02349407784640789, -0.027617303654551506, 0.042854007333517075, \
-0.17463508248329163, -0.1746549755334854, -0.12446954101324081, -0.19373364746570587, -0.19931158423423767, -0.14647865295410156, -0.08544764667749405, -0.1025191992521286, -0.05244256928563118, \
-0.2647850513458252, 0.40748342871665955, -0.17864863574504852, -0.30477041006088257, 0.6653143167495728, -0.2804911434650421, -0.24046337604522705, 0.4488706588745117, -0.1655758023262024, \
-0.35662248730659485, 0.6245723962783813, -0.3529271185398102, -0.32848843932151794, 1.0207096338272095, -0.45300713181495667, -0.2752416431903839, 0.7380620837211609, -0.31312546133995056, \
-0.3184830844402313, 0.4214297831058502, -0.16147799789905548, -0.35466423630714417, 0.7025282979011536, -0.32769834995269775, -0.3458363711833954, 0.39450353384017944, -0.26920127868652344, \
-0.0053941733203828335, 0.07739664614200592, 0.01383277028799057, -0.2492373287677765, -0.11972140520811081, -0.19303211569786072, 0.15609115362167358, 0.14855557680130005, 0.12169165164232254, \
-0.14599035680294037, -0.037126995623111725, -0.08200064301490784, -0.38109007477760315, -0.2321966141462326, -0.29719316959381104, 0.27419203519821167, 0.3091878592967987, 0.27348923683166504, \
-0.110581174492836, -0.0215400829911232, -0.04975946620106697, -0.1920929104089737, -0.087628073990345, -0.12557968497276306, 0.25553062558174133, 0.275738924741745, 0.18857382237911224, \
-0.022529948502779007, -0.009946427308022976, -0.0028903824277222157, -0.015485774725675583, -0.005224211141467094, 0.003059250069782138, 0.002831954276189208, 0.009429201483726501, 0.017487430945038795, \
-0.018216153606772423, -0.007630153093487024, -0.002424943260848522, -0.020172709599137306, -0.009560317732393742, -0.0022151360753923655, -0.0017937589436769485, 0.006754074711352587, 0.015050970949232578, \
-0.004694356583058834, -0.0015160504262894392, 0.002028414513915777, -0.014074194245040417, -0.009574680589139462, -0.002528147539123893, -0.012803424149751663, -0.008324868977069855, 0.001369629753753543, \
0.0737767145037651, -0.006343058776110411, 0.009485889226198196, 0.07497278600931168, -0.02165507897734642, -0.005547594744712114, 0.06804756075143814, -0.020818261429667473, -0.003157760016620159, \
0.1084212139248848, 0.007740964647382498, 0.009289088658988476, 0.1075412780046463, -0.013425283133983612, -0.012235723435878754, 0.09040765464305878, -0.025757424533367157, -0.016557710245251656, \
0.10070562362670898, 0.0015890125650912523, 0.0035739056766033173, 0.09614942967891693, -0.01793638803064823, -0.014825072139501572, 0.07499207556247711, -0.03365575894713402, -0.019057976081967354, \
1.3441704693750722e-10, -7.044108074616418e-10, 1.152568231826967e-11, 4.965478028751136e-10, -3.890879285428639e-10, 3.517854341161808e-10, 1.0546530315735936e-09, 6.799451002237333e-10, 1.207661415314476e-09, \
5.818144854785601e-10, 3.822982555523602e-11, 5.528112412278574e-10, -4.0920397625932026e-10, -1.1172900382661055e-09, -4.1254089033770924e-10, 1.1385041520650674e-10, -3.2084146450728213e-10, 4.387858132393063e-10, \
7.445693506191731e-10, 7.458857420594711e-10, 9.857458183049062e-10, 3.866126863094621e-10, 1.8844162341657977e-10, 6.880583880430891e-10, -2.0223170360544884e-10, -2.643761043419346e-10, 3.8897471354992774e-10, \
-0.005869326181709766, 0.01420015748590231, 0.014637618325650692, -0.007754710968583822, 0.014364136382937431, 0.017621254548430443, -0.0091365622356534, 0.011397931724786758, 0.015029278583824635, \
7.78425601311028e-05, 0.01356619130820036, 0.0063833254389464855, -0.0018865284509956837, 0.012743961997330189, 0.00570874847471714, -0.000880005129147321, 0.01320566888898611, 0.007385484874248505, \
0.0020830018911510706, 0.004081093706190586, -0.009169806726276875, 0.00269162910990417, 0.005866628140211105, -0.0086669297888875, 0.003958334680646658, 0.006751158740371466, -0.006666818168014288, \
-0.01913999579846859, 0.0162009596824646, 0.01003943383693695, -0.013553452678024769, 0.022904183715581894, 0.019429489970207214, -0.011735145002603531, 0.019888268783688545, 0.01780133880674839, \
-0.004571897443383932, 0.02336222305893898, 0.0011081983102485538, -0.0018536115530878305, 0.02592291124165058, 0.0038847634568810463, 0.0026707337237894535, 0.024252353236079216, 0.005628947168588638, \
0.0035473741590976715, 0.015820804983377457, -0.0187545008957386, 0.004924444016069174, 0.01615355722606182, -0.019765272736549377, 0.007850797846913338, 0.012764985673129559, -0.018345074728131294, \
0.5238497257232666, 0.4255438446998596, 0.4546462893486023, 0.03377249836921692, -0.15396103262901306, 0.006436120718717575, -0.29038703441619873, -0.22612202167510986, -0.2944530248641968, \
0.5363925099372864, 0.32881900668144226, 0.4256553649902344, -1.1388587951660156, -1.1904783248901367, -0.9771618843078613, 0.22407266497612, 0.5103075504302979, 0.32337135076522827, \
-0.18072834610939026, -0.383094847202301, -0.28927499055862427, -0.10600879788398743, -0.018155351281166077, 0.04411701112985611, 0.39959603548049927, 0.7594861388206482, 0.49186086654663086, \
0.11689423024654388, -0.0004935846664011478, 0.02605876512825489, 0.17042872309684753, -0.03634057193994522, -0.015510117635130882, 0.0918051153421402, -0.11956093460321426, -0.07474178075790405, \
0.12783323228359222, -0.03407108783721924, -0.017121579498052597, 0.12216290831565857, -0.13198134303092957, -0.10855495929718018, 0.015650883316993713, -0.21940454840660095, -0.16708464920520782, \
-0.009833063930273056, -0.1263006329536438, -0.07477760314941406, -0.029399467632174492, -0.21740888059139252, -0.15750978887081146, -0.05860430374741554, -0.21651290357112885, -0.1477227509021759, \
0.33534595370292664, 0.2881343960762024, 0.16536839306354523, 0.5936185121536255, 0.5462615489959717, 0.3674481511116028, 0.4606621265411377, 0.3772342801094055, 0.21665425598621368, \
0.2385290265083313, 0.16154024004936218, 0.12967224419116974, 0.08119037747383118, 0.00768954586237669, -0.010024955496191978, -0.11145023256540298, -0.2294166535139084, -0.20835350453853607, \
-0.24959202110767365, -0.23143474757671356, -0.0794261023402214, -0.556394100189209, -0.5202324986457825, -0.3041674792766571, -0.4370541572570801, -0.42105022072792053, -0.22053702175617218, \
-0.05838419869542122, -0.02585754729807377, 0.005320587195456028, -0.04688183590769768, 0.0020600701682269573, 0.040717512369155884, -0.05378847196698189, -0.007362111005932093, 0.02202790603041649, \
-0.055651210248470306, -0.029049770906567574, -0.008174910210072994, -0.03872189670801163, 0.00628510070964694, 0.027268938720226288, -0.03691110759973526, 0.003088046330958605, 0.015424326993525028, \
-0.04166625067591667, -0.039850927889347076, -0.04029206186532974, -0.02251553162932396, -0.009986442513763905, -0.011453409679234028, -0.02965669520199299, -0.02147999033331871, -0.028976619243621826, \
-0.7161232829093933, -0.13653816282749176, 0.20132337510585785, -0.7018646597862244, -0.3610602617263794, -0.15297619998455048, 0.14809083938598633, 0.16833555698394775, 0.15436509251594543, \
-0.6151489615440369, -0.28281521797180176, -0.19328024983406067, 0.6316255331039429, 0.6033375263214111, 0.4640688896179199, 0.5513011813163757, 0.233489990234375, -0.01455472782254219, \
0.38678181171417236, 0.2857426106929779, 0.10645514726638794, 0.5491808652877808, 0.17543594539165497, -0.1639936864376068, 0.020137634128332138, -0.3746381998062134, -0.6232198476791382, \
0.09293031692504883, 0.05638270452618599, 0.061243072152137756, 0.08844231814146042, 0.037658050656318665, 0.03305145725607872, 0.0795389786362648, 0.016790494322776794, 0.0200362429022789, \
0.08018584549427032, 0.02040249854326248, 0.005634303204715252, 0.06454203277826309, -0.016196392476558685, -0.03986714407801628, 0.057766374200582504, -0.031082503497600555, -0.04141814261674881, \
0.04753069579601288, -0.00732463551685214, -0.0056871953420341015, 0.02819227986037731, -0.044065505266189575, -0.043275829404592514, 0.021549850702285767, -0.05772824212908745, -0.04427996277809143, \
-0.3651619553565979, -0.19999687373638153, -0.25122135877609253, -0.5972884297370911, -0.4054054021835327, -0.443338543176651, -0.3379570245742798, -0.17211081087589264, -0.281124472618103, \
0.5254524350166321, 0.5708560943603516, 0.5069836378097534, 0.8210779428482056, 0.9036149382591248, 0.7895987033843994, 0.4978362023830414, 0.49957138299942017, 0.3636639714241028, \
-0.10905911028385162, -0.36596474051475525, -0.3392460346221924, -0.2779468595981598, -0.5385971069335938, -0.563770592212677, -0.03255561739206314, -0.3237292170524597, -0.4039061963558197, \
0.05821964517235756, -0.012971080839633942, 0.0953579917550087, 0.07159680128097534, -0.01813213713467121, 0.09897554665803909, 0.05952352657914162, -0.01647251471877098, 0.08646269142627716, \
0.050771210342645645, -0.04959661513566971, 0.0666378065943718, 0.06472070515155792, -0.05810685455799103, 0.06514208018779755, 0.05421473830938339, -0.045962993055582047, 0.06557222455739975, \
0.037450872361660004, -0.03893085941672325, 0.06506722420454025, 0.044764768332242966, -0.044689908623695374, 0.06285686790943146, 0.034188151359558105, -0.03629358857870102, 0.06513043493032455, \
-0.006921328604221344, 0.014983410015702248, 0.028617870062589645, -0.025840183719992638, 0.0035557756200432777, 0.02076301909983158, -0.025042084977030754, 0.0005977799301035702, 0.01356443203985691, \
0.001626779092475772, 0.023348500952124596, 0.030000701546669006, -0.0034726064186543226, 0.026479292660951614, 0.03695441037416458, -0.01021622959524393, 0.013595875352621078, 0.023652736097574234, \
0.014562534168362617, 0.022235257551074028, 0.018119841814041138, 0.011833918280899525, 0.026352960616350174, 0.022776911035180092, 0.007336633279919624, 0.016618436202406883, 0.013055650517344475, \
0.0957588404417038, 0.03608337417244911, 0.06157885119318962, 0.1063610166311264, 0.04471256583929062, 0.06634246557950974, 0.09054547548294067, 0.020071115344762802, 0.05639428645372391, \
0.03311455622315407, -0.0695488229393959, -0.05192071199417114, 0.05686722695827484, -0.06427398324012756, -0.053729888051748276, 0.042145442217588425, -0.07237126678228378, -0.04557403549551964, \
0.025283966213464737, -0.08160044252872467, -0.049168869853019714, 0.05009603500366211, -0.07886028289794922, -0.052388545125722885, 0.035548124462366104, -0.08310218155384064, -0.04639780521392822, \
-0.043870195746421814, -0.030877919867634773, -0.018002912402153015, -0.059163399040699005, -0.04282260686159134, -0.02777942270040512, -0.014275762252509594, -0.009744410403072834, 0.008587395772337914, \
0.012632643803954124, 0.01727253384888172, 0.009566553868353367, -0.03499651700258255, -0.02081890031695366, -0.021232571452856064, -0.04264036566019058, -0.03515096753835678, -0.023135464638471603, \
0.03470011427998543, 0.02715003304183483, 0.003677224973216653, 0.011864523403346539, 0.009924693033099174, -0.010256679728627205, -0.024476030841469765, -0.029256977140903473, -0.029849711805582047, \
-0.15746815502643585, -0.09113657474517822, -0.02969440631568432, -0.21941359341144562, -0.13641242682933807, -0.0736357793211937, -0.15453819930553436, -0.08155475556850433, -0.005014943890273571, \
-0.17592893540859222, -0.04821294546127319, 0.11125575751066208, -0.18545246124267578, -0.03561123460531235, 0.12282509356737137, -0.1380973607301712, -0.004901735577732325, 0.15622910857200623, \
0.03854737803339958, 0.13541489839553833, 0.2350214123725891, 0.08812756836414337, 0.19646647572517395, 0.27839213609695435, 0.03899965435266495, 0.11974354833364487, 0.19967634975910187, \
0.3377523422241211, 0.18017451465129852, 0.0708027109503746, 0.4143103063106537, 0.23961462080478668, 0.025834139436483383, -0.24406392872333527, -0.27072763442993164, -0.49597829580307007, \
-0.42696815729141235, -0.3847074508666992, -0.21705254912376404, 0.5982544422149658, 0.49666017293930054, 0.4661964178085327, 0.46502360701560974, 0.32521986961364746, 0.11840465664863586, \
-0.4217597246170044, -0.19534187018871307, 0.020162401720881462, -0.5743681192398071, -0.5324417352676392, -0.30421870946884155, 0.2335289716720581, 0.14073586463928223, 0.14457489550113678, \
0.17830495536327362, 0.06979706138372421, 0.0339098796248436, 0.1474560648202896, 0.07274658232927322, 0.044225387275218964, 0.11124026030302048, 0.07827961444854736, 0.0856369212269783, \
0.05743139982223511, -0.07460063695907593, -0.13147418200969696, 0.03504535183310509, -0.0948241725564003, -0.15865013003349304, 0.07351818680763245, -0.018563933670520782, -0.053363289684057236, \
0.020238827913999557, -0.0638289600610733, -0.06937859207391739, 0.004793159663677216, -0.10355186462402344, -0.11536835879087448, 0.07816945761442184, -0.023224079981446266, -0.034277815371751785, \
-0.5460670590400696, -0.3215997815132141, -0.4864669144153595, 0.5080526471138, 0.5265044569969177, 0.5153132081031799, 0.009248790331184864, -0.10224545747041702, -0.13978582620620728, \
0.5680834054946899, 0.677223801612854, 0.609679639339447, -0.08224628865718842, -0.13062892854213715, 0.07113219052553177, -0.5943503379821777, -0.6562902927398682, -0.6247237920761108, \
0.008747633546590805, -0.01438653003424406, 0.05884329229593277, -0.7093701362609863, -0.7399579882621765, -0.5690515041351318, 0.40619096159935, 0.5145639777183533, 0.3972746431827545, \
-0.004201008006930351, -0.013061645440757275, 0.006157926749438047, 0.007586539722979069, -0.007925741374492645, 0.006584264803677797, 0.01574571244418621, -0.0028739836998283863, 0.00555739039555192, \
0.00616275891661644, -0.014468257315456867, -0.002048356458544731, 0.02170121856033802, -0.005884567741304636, 0.0009737646323628724, 0.02616708166897297, -0.0023522106930613518, 0.0003804461157415062, \
0.02344696968793869, -0.0026926242280751467, 0.0009974309941753745, 0.0328768827021122, 0.0022571973968297243, 0.0017816763138398528, 0.030250949785113335, 0.0018920073052868247, 0.0002688673266675323, \
-0.00012355127546470612, -0.004358991980552673, -0.008201229386031628, -0.00043497406295500696, -0.0042748176492750645, -0.008153029717504978, -0.0015424912562593818, -0.005611481610685587, -0.008659012615680695, \
0.003065146505832672, -0.003984619863331318, -0.01009364239871502, 0.003827992593869567, -0.0027270435821264982, -0.009887796826660633, 0.003283269703388214, -0.002482619835063815, -0.008805477060377598, \
0.002034989884123206, -0.005590515211224556, -0.012778553180396557, 0.0010727564804255962, -0.006485290825366974, -0.0145963029935956, 0.0004885760718025267, -0.005646437406539917, -0.012259732000529766, \
1.3566449352797605e-10, 3.5558223032694514e-11, 3.9827197095831934e-11, 1.4607885734374548e-10, 2.4973958664964435e-11, 5.7041395912227344e-11, 1.1672776634163995e-10, -1.6189383167386495e-11, 4.47931206015717e-11, \
1.4067484677138253e-10, 1.6022851448416198e-11, 9.170429693394766e-11, 1.3552538258299052e-10, -5.716403370624457e-13, 8.136880058629004e-11, 1.3900813833345183e-10, 3.088770558767884e-11, 3.405872459061321e-11, \
1.3391963926689954e-10, 5.437165041116687e-12, 4.125439920232843e-11, 1.101154167848506e-10, 2.2621940778955185e-11, 2.78968705774707e-11, 1.0308313924678458e-10, 2.2164887980569148e-11, 1.525327433804513e-11, \
1.0322125792994186e-10, -8.692015857070245e-12, 3.2959246443198253e-11, 1.0672614875195663e-10, -1.0893832710912044e-11, 4.217913518456129e-11, 8.937933032582279e-11, -1.7599054158434768e-11, 1.4520468161194344e-11, \
1.0556867185984586e-10, 2.8268425794619745e-11, 1.0968401881195078e-10, 1.509141422939564e-10, 3.852214727761982e-11, 9.339968382038322e-11, 1.3215376015729419e-10, 2.8468283286287033e-11, 5.795589702595194e-11, \
1.2738415877677767e-10, 2.763172503306155e-11, 1.16126178117959e-10, 1.5651994977883277e-10, 3.89620904983623e-11, 1.1236119673574407e-10, 1.3976451940234114e-10, 1.4240268035939363e-12, 9.11129990899262e-11, \
-0.006344112101942301, 0.0004429704276844859, -0.010155042633414268, -0.005840017460286617, 0.003831700421869755, -0.007113441359251738, -0.008054611273109913, -4.159428135608323e-05, -0.009692994877696037, \
-0.011347716674208641, -0.001604028046131134, -0.012200044468045235, -0.0020993894431740046, 0.0103643499314785, -0.0011685900390148163, -0.004036306403577328, 0.005699832458049059, -0.005072206724435091, \
-0.0049545601941645145, 0.006012973375618458, -0.006408822722733021, 0.010193168185651302, 0.022570984438061714, 0.008307094685733318, 0.004242035560309887, 0.012162653729319572, -0.0008918055100366473, \
0.12704163789749146, -0.036889564245939255, -0.09192453324794769, 0.14368994534015656, -0.051577161997556686, -0.11915536224842072, 0.13305968046188354, -0.041717030107975006, -0.09963898360729218, \
0.03187417611479759, -0.04810536652803421, -0.02857331559062004, 0.03843170776963234, -0.04335852712392807, -0.03292812779545784, 0.05525892227888107, -0.02115340530872345, -0.013795038685202599, \
-0.04863448813557625, 0.021420186385512352, 0.1148957908153534, -0.03661017492413521, 0.06287358701229095, 0.1606704443693161, -0.02362784743309021, 0.053373366594314575, 0.14534039795398712, \
-0.0008697248995304108, -0.0012795660877600312, -0.007744261063635349, 0.0014699287712574005, 0.001465856097638607, -0.005671715829521418, 0.003873964073136449, 0.003945110831409693, -0.0027965062763541937, \
-0.002677845535799861, -0.0035648627672344446, -0.011121021583676338, -0.0004433251160662621, -0.0011848699068650603, -0.009302167221903801, 0.0015687976265326142, 0.0011397839989513159, -0.006641784217208624, \
-0.002334070857614279, -0.0025404603220522404, -0.010226044803857803, 7.268664194270968e-05, -0.00015553139382973313, -0.008128166198730469, 0.002438388764858246, 0.001960932742804289, -0.005519728176295757, \
-0.7131457328796387, 0.13280299305915833, 0.5355252027511597, -0.06208860129117966, 0.0087262699380517, 0.0023364881053566933, 0.8049275279045105, -0.0815342590212822, -0.574816882610321, \
-0.835687518119812, 0.3094981908798218, 0.8864395022392273, -0.12982843816280365, -0.08256030827760696, -0.06379434466362, 1.1007506847381592, -0.13916762173175812, -0.8225114345550537, \
-0.6682208180427551, 0.27280840277671814, 0.706483781337738, -0.05844179540872574, -0.004944572690874338, 0.03507843613624573, 0.84247225522995, -0.0577831007540226, -0.6276903748512268, \
0.03537760674953461, -0.020464565604925156, 0.0073805395513772964, 0.03951538726687431, -0.03832562267780304, -0.010273817926645279, 0.014844747260212898, -0.05642184615135193, -0.023484474048018456, \
0.039928968995809555, -0.028088200837373734, -0.004467827267944813, 0.04709876328706741, -0.04214271530508995, -0.01908579096198082, 0.031803905963897705, -0.053686950355768204, -0.0256491769105196, \
0.07485591620206833, 0.02181101217865944, 0.0424952395260334, 0.0634816363453865, -0.0038464833050966263, 0.019516201689839363, 0.04375986382365227, -0.024377763271331787, 0.0031146425753831863, \
-0.28891807794570923, -0.29535993933677673, -0.20317873358726501, 0.6598142981529236, 0.7628657817840576, 0.7226719260215759, -0.5316640138626099, -0.41717106103897095, -0.29744115471839905, \
-0.5310556292533875, -0.5395217537879944, -0.5075874328613281, 1.0489205121994019, 1.121111273765564, 1.0187193155288696, -0.7171506285667419, -0.6160659790039062, -0.5387033224105835, \
-0.2689913511276245, -0.267465204000473, -0.31879010796546936, 0.631756603717804, 0.6551042199134827, 0.5482692718505859, -0.4169590473175049, -0.3056759238243103, -0.2645324766635895, \
0.001815781113691628, 0.09979766607284546, -0.027287069708108902, -0.006590277887880802, 0.09001706540584564, -0.07206827402114868, 0.017560001462697983, 0.09764517843723297, -0.06313732266426086, \
0.03204195573925972, 0.0754980817437172, -0.10004603117704391, -0.00560717610642314, 0.017120804637670517, -0.19139614701271057, 0.03781558945775032, 0.04746617376804352, -0.15090081095695496, \
-5.555681491387077e-05, 0.047345299273729324, -0.07240933924913406, -0.07550711929798126, -0.048574041575193405, -0.1870032697916031, -0.00933398213237524, 0.002530458150431514, -0.1271894872188568, \
-0.13741716742515564, 0.18111062049865723, -0.20862525701522827, -0.07496465742588043, 0.33187440037727356, -0.22946882247924805, -0.04237700253725052, 0.1565190553665161, -0.28633224964141846, \
-0.3026271164417267, 0.23996929824352264, -0.1326674520969391, -0.3230731189250946, 0.3392415940761566, -0.2261219024658203, -0.23367169499397278, 0.21398718655109406, -0.22577744722366333, \
-0.19042368233203888, 0.2743641138076782, 0.04751366004347801, -0.20607608556747437, 0.37610170245170593, 0.008563884533941746, -0.2178259640932083, 0.17114783823490143, -0.08663260191679001, \
0.03720108047127724, 0.01488211564719677, 0.012736673466861248, 0.031888797879219055, 0.0054768156260252, 0.002438015304505825, 0.0321398600935936, 0.002454782137647271, 0.0029400617349892855, \
0.02847524732351303, 0.00026582469581626356, -0.008042930625379086, 0.021561047062277794, -0.014085544273257256, -0.023191377520561218, 0.01869504526257515, -0.018936237320303917, -0.021955696865916252, \
0.015762560069561005, -0.008613704703748226, -0.0089308125898242, 0.005575469229370356, -0.02516990527510643, -0.02368129976093769, 0.0031257576774805784, -0.029388032853603363, -0.022538304328918457, \
-0.0035223111044615507, 0.007135577965527773, 0.014804542995989323, -0.012860281392931938, 0.001371397520415485, 0.010810401290655136, -0.012673654593527317, -0.0007505009998567402, 0.006287785246968269, \
0.0011298409663140774, 0.012088574469089508, 0.01720142737030983, -0.0014076350489631295, 0.013375100679695606, 0.020271480083465576, -0.005415510386228561, 0.005869204178452492, 0.0122933154925704, \
0.0072977724485099316, 0.010954800061881542, 0.010495833121240139, 0.005633489228785038, 0.012552286498248577, 0.01233008410781622, 0.0040697320364415646, 0.008121783845126629, 0.00763576477766037, \
-0.10960912704467773, -0.03572671115398407, -0.05380741134285927, -0.07577265053987503, 0.0032209844794124365, -0.015453645028173923, -0.09427975118160248, -0.020072463899850845, -0.03234893083572388, \
-0.09332957118749619, -0.0022203088738024235, -0.019998153671622276, -0.02768903784453869, 0.06676334887742996, 0.04394262284040451, -0.048349086195230484, 0.03610819950699806, 0.016497334465384483, \
-0.06959982216358185, 0.016789978370070457, -0.017658332362771034, 0.012757177464663982, 0.10005868226289749, 0.05757388472557068, -0.024725381284952164, 0.04261033982038498, 0.0017327438108623028, \
-0.27040550112724304, 0.030879149213433266, 0.29126012325286865, -0.33709558844566345, 0.06887207180261612, 0.3768857419490814, -0.22969187796115875, 0.07829469442367554, 0.27273043990135193, \
-0.3955167829990387, 0.06309951841831207, 0.3941318094730377, -0.4715217351913452, 0.08583828806877136, 0.4731258451938629, -0.36812204122543335, 0.07519863545894623, 0.3452734351158142, \
-0.3319898247718811, -0.023013705387711525, 0.16613008081912994, -0.46992066502571106, -0.0862838551402092, 0.18267445266246796, -0.3387138843536377, -0.04449568688869476, 0.1196979358792305, \
-0.2141256183385849, -0.25948435068130493, -0.3406676948070526, -0.19672313332557678, -0.31209132075309753, -0.17538368701934814, 0.6425426006317139, 0.6254600286483765, 0.5691444277763367, \
0.4813339114189148, 0.5348665118217468, 0.37121880054473877, -1.0410881042480469, -1.0889766216278076, -0.9116848707199097, 0.2593807280063629, 0.18300269544124603, 0.26180413365364075, \
0.3381612002849579, 0.3958451449871063, 0.22176454961299896, 0.1856776475906372, 0.17651379108428955, 0.19285477697849274, -0.28760579228401184, -0.41824865341186523, -0.35197314620018005, \
-0.17993679642677307, -0.21210834383964539, -0.3497049808502197, -0.41482746601104736, -0.4551237225532532, -0.6489192247390747, -0.15980350971221924, -0.21249602735042572, -0.41216787695884705, \
0.25385013222694397, 0.33774203062057495, 0.20815449953079224, -0.014315681532025337, 0.09509319812059402, -0.12333998084068298, -0.28390154242515564, -0.21588289737701416, -0.441351979970932, \
0.16368257999420166, 0.26414868235588074, 0.2740713357925415, 0.3783484697341919, 0.5385482907295227, 0.4608822464942932, 0.26437219977378845, 0.3898170292377472, 0.2805212438106537, \
-0.09902884066104889, -0.05017847195267677, 0.012048834934830666, -0.1565127819776535, -0.1104235053062439, -0.06419942528009415, -0.12818679213523865, -0.10871709883213043, -0.06726961582899094, \
-0.2089329957962036, -0.16777987778186798, -0.13111208379268646, -0.08710713684558868, -0.058111269026994705, -0.05860156938433647, 0.02173333615064621, 0.0075716436840593815, -0.004456716123968363, \
-0.13290978968143463, -0.13587169349193573, -0.16817700862884521, 0.13298524916172028, 0.11108201742172241, 0.027562005445361137, 0.1433933675289154, 0.09157241135835648, 0.008999880403280258, \
0.04066722095012665, -0.04706018045544624, 0.01829337328672409, 0.0030242253560572863, -0.06171833723783493, 0.037389155477285385, -0.007175615057349205, -0.06749872863292694, 0.02076883055269718, \
0.10321153700351715, 0.02999178320169449, 0.09763479232788086, 0.10654556006193161, 0.06150859594345093, 0.15362519025802612, 0.06574683636426926, -0.0005951026105321944, 0.08769229799509048, \
0.1008446142077446, 0.026753941550850868, 0.05087301880121231, 0.11643019318580627, 0.061409201472997665, 0.09812009334564209, 0.07938683778047562, 0.006011295132339001, 0.04364503547549248, \
-0.04123704880475998, -0.04374543949961662, -0.1070142313838005, 0.05440570414066315, 0.031488820910453796, -0.054631542414426804, 0.1449575424194336, 0.12623260915279388, 0.038099948316812515, \
-0.10687112808227539, -0.10104972124099731, -0.16161182522773743, -0.039354316890239716, -0.07516060024499893, -0.15811000764369965, 0.07593781501054764, 0.03246621415019035, -0.06541645526885986, \
-0.05348420888185501, -0.02169625833630562, -0.07269874960184097, -0.06294098496437073, -0.07249753177165985, -0.13808248937129974, -0.007913420908153057, -0.036658838391304016, -0.10356710106134415, \
1.2288098316659557e-09, 1.4804896197873063e-09, 1.6784010847814557e-09, -1.0674368056129424e-09, -9.975885673085827e-10, -9.378023912987032e-10, 8.226179737391703e-10, 5.284236936908826e-10, 4.744500348152769e-10, \
-6.818319242540838e-10, -6.495005089313111e-10, -6.942698638212619e-10, 7.979478883202162e-11, 2.0985725310285197e-11, -2.29438607002308e-10, 2.255099440517938e-09, 1.949125083555714e-09, 1.8029376880335235e-09, \
4.150955967840986e-10, 3.471853360359489e-10, 1.488034695462659e-10, 2.0934090017021845e-09, 1.970509311277624e-09, 1.8476294938452043e-09, -1.9701272557792748e-10, -3.378715085489148e-10, -1.0175801173906152e-10, \
0.2443642020225525, 0.19736969470977783, 0.1831386685371399, 0.5085583329200745, 0.47830119729042053, 0.45177116990089417, 0.1903347223997116, 0.14266784489154816, 0.09165863692760468, \
-0.46777036786079407, -0.49205660820007324, -0.41774609684944153, -0.7715506553649902, -0.7814767956733704, -0.6326903104782104, -0.4912146031856537, -0.49724632501602173, -0.4563954770565033, \
0.2927931249141693, 0.3025546669960022, 0.2447301149368286, 0.4641259014606476, 0.505025327205658, 0.4411076009273529, 0.2613060772418976, 0.32717078924179077, 0.25756335258483887, \
-0.015060937963426113, 0.039334505796432495, 0.07609185576438904, -0.06886995583772659, 0.005717700347304344, 0.052222445607185364, -0.06648030877113342, -0.002875837031751871, 0.033740632236003876, \
0.005419524386525154, 0.06297996640205383, 0.08528066426515579, -0.009163993410766125, 0.07031964510679245, 0.10294902324676514, -0.030699485912919044, 0.03207332640886307, 0.06453422456979752, \
0.04094703495502472, 0.06169353798031807, 0.05530539155006409, 0.030091747641563416, 0.06966474652290344, 0.06556599587202072, 0.01843866892158985, 0.04435063153505325, 0.04205834120512009, \
0.47885265946388245, 0.19831763207912445, -0.11412126570940018, 0.447681188583374, -0.14325790107250214, -0.7518777847290039, 0.5239262580871582, -0.040822241455316544, -0.6806365847587585, \
-0.4066757261753082, -0.056442100554704666, 0.3415868282318115, 0.39055514335632324, 0.4059421718120575, 0.4339120388031006, 0.18744775652885437, -0.1794034242630005, -0.5793588757514954, \
-0.8690875172615051, -0.24347612261772156, 0.44368794560432434, -0.5816479325294495, 0.01337000634521246, 0.6599804162979126, 0.018313251435756683, 0.18480803072452545, 0.3348470628261566, \
-0.04658361151814461, -0.020434146746993065, -0.09268499910831451, -0.021021004766225815, -0.016661491245031357, -0.09777488559484482, 0.002506602555513382, -0.017729729413986206, -0.08005554974079132, \
0.028177306056022644, 0.07479291409254074, -0.02103843167424202, 0.021149318665266037, 0.05085422843694687, -0.05579836294054985, -0.011548113077878952, -0.019751543179154396, -0.09894271939992905, \
0.1031387597322464, 0.16467534005641937, 0.07132547348737717, 0.09737911075353622, 0.1409846693277359, 0.030713224783539772, 0.011142571456730366, 0.007404808886349201, -0.07584773749113083, \
0.3237420916557312, 0.38782957196235657, 0.30032867193222046, -0.023094981908798218, -0.06673118472099304, -0.011631814762949944, -0.31579601764678955, -0.4054364562034607, -0.29905325174331665, \
0.4401480555534363, 0.477010041475296, 0.36841949820518494, 0.05981852859258652, 0.03168640658259392, 0.09054598957300186, -0.4416086971759796, -0.4977360665798187, -0.38083919882774353, \
0.4116518199443817, 0.39815106987953186, 0.26824790239334106, 0.06444251537322998, 0.03381723165512085, 0.04583674296736717, -0.41733595728874207, -0.46562671661376953, -0.4163086414337158, \
-0.09371615201234818, -0.26125821471214294, -0.28078770637512207, 0.833636999130249, 0.7217609286308289, 0.677946925163269, -0.5568417906761169, -0.35046401619911194, -0.4270913302898407, \
-0.43056172132492065, -0.46439245343208313, -0.45857447385787964, -0.2288123220205307, -0.4138065576553345, -0.23828041553497314, 0.6642977595329285, 0.6709237694740295, 0.6826133728027344, \
0.49740585684776306, 0.660496175289154, 0.46800747513771057, -0.5141605138778687, -0.5737518072128296, -0.4602276682853699, -0.14863136410713196, -0.24345403909683228, -0.12307687848806381, \
0.3199397623538971, 0.07133438438177109, 0.06755975633859634, -0.9010911583900452, -0.6859970092773438, -0.3795431852340698, 0.09194271266460419, 0.5354041457176208, 0.653205156326294, \
0.94807368516922, 0.42106011509895325, 0.2865891754627228, 0.06751894950866699, 0.08622249215841293, 0.21941795945167542, -1.0167949199676514, -0.5316262245178223, -0.2752329111099243, \
-0.11413797736167908, -0.6461310982704163, -0.7656496167182922, 0.8304864168167114, 0.4727514088153839, 0.40043148398399353, -0.08340342342853546, 0.02279641479253769, 0.12965524196624756, \
}
