#define features_6_bias {\
-0.007948038168251514, \
-0.014195467345416546, \
0.023794833570718765, \
-0.004849561955779791, \
-0.02084173634648323, \
-0.029452349990606308, \
-0.001353069324977696, \
0.017499981448054314, \
0.009313206188380718, \
0.02228803187608719, \
0.011755896732211113, \
-0.038877230137586594, \
-0.008801113814115524, \
0.03205389901995659, \
0.020159168168902397, \
-0.02095087245106697, \
-0.009460127912461758, \
-0.008901371620595455, \
0.030277399346232414, \
-0.007806356996297836, \
-0.025008240714669228, \
0.014209790155291557, \
0.008677717298269272, \
0.027398137375712395, \
0.01667500101029873, \
-0.026895303279161453, \
0.0350373275578022, \
-0.00520501472055912, \
-0.009297407232224941, \
0.0425843745470047, \
0.0014793169684708118, \
0.02125491388142109, \
0.007107894401997328, \
0.048007428646087646, \
-0.02565947361290455, \
-0.0017091506160795689, \
-0.023093033581972122, \
0.03465094789862633, \
0.012548687867820263, \
-0.04628881439566612, \
0.0028347244951874018, \
0.030182532966136932, \
0.027202220633625984, \
-0.0110723115503788, \
0.009892139583826065, \
-0.02435344085097313, \
-0.013294157572090626, \
-0.0186835378408432, \
0.021023886278271675, \
-0.006520676892250776, \
0.0016827412182465196, \
-0.03294089064002037, \
-0.020930200815200806, \
-0.01746145635843277, \
0.015970755368471146, \
0.025798015296459198, \
0.0044082473032176495, \
0.023333031684160233, \
-0.02485281601548195, \
-0.013173740357160568, \
-0.01805197075009346, \
-0.016808699816465378, \
0.02139493077993393, \
0.008202790282666683, \
0.011854065582156181, \
-0.019990332424640656, \
-0.012598778121173382, \
-0.018825912848114967, \
0.054517898708581924, \
-0.012397073209285736, \
0.00040957677992992103, \
0.002514134394004941, \
0.059155166149139404, \
-0.01463148184120655, \
-0.04296787828207016, \
0.023467157036066055, \
0.008016839623451233, \
-0.0029816324822604656, \
-0.028002679347991943, \
-0.0017973796930164099, \
-0.0029631326906383038, \
0.00527520477771759, \
0.02184622548520565, \
0.036630064249038696, \
-0.027106644585728645, \
0.041336532682180405, \
0.031550198793411255, \
-0.004743887577205896, \
0.021765083074569702, \
-0.01313968189060688, \
0.0554959699511528, \
-0.025128424167633057, \
-0.022728437557816505, \
-0.010347535833716393, \
-0.02551615983247757, \
-0.036092568188905716, \
0.046522874385118484, \
0.01420099288225174, \
-0.009804773144423962, \
-0.027524057775735855, \
-0.012010806240141392, \
0.003704856149852276, \
0.012072340585291386, \
-0.03910396993160248, \
-0.02542371302843094, \
0.009776978753507137, \
0.06703276187181473, \
0.010276797227561474, \
0.018562043085694313, \
0.06946489959955215, \
-0.00046182499499991536, \
0.011114710010588169, \
0.05781012773513794, \
0.05405336245894432, \
0.02328646555542946, \
0.010866128839552402, \
0.011245624162256718, \
0.015798553824424744, \
0.017502380535006523, \
-0.011863743886351585, \
0.03066224791109562, \
-0.014303335919976234, \
0.06515771895647049, \
0.10036391764879227, \
-0.011350773274898529, \
0.0032228901982307434, \
0.03142428398132324, \
0.04717565327882767, \
-0.025674164295196533, \
-0.024946430698037148, \
-0.0023222791496664286, \
-0.017082586884498596, \
0.08542286604642868, \
0.008691306225955486, \
0.010336067527532578, \
-0.005134518723934889, \
0.03256950527429581, \
0.0028503742069005966, \
-0.0019403359619900584, \
0.027572564780712128, \
0.022828659042716026, \
0.005117053631693125, \
0.017212778329849243, \
-0.011562126688659191, \
-0.002749559236690402, \
0.007150314282625914, \
0.06594083458185196, \
-0.01194384228438139, \
-0.017498906701803207, \
0.029356423765420914, \
-0.028515800833702087, \
0.11308879405260086, \
0.03144758567214012, \
0.006175405345857143, \
-0.007361180614680052, \
-0.023304123431444168, \
-0.02614470012485981, \
0.016598617658019066, \
0.02763928659260273, \
0.019002331420779228, \
-0.00563405267894268, \
-0.0014463338302448392, \
-0.028960250318050385, \
0.018407821655273438, \
-0.011481578461825848, \
0.0678689256310463, \
-0.018089791759848595, \
0.007830070331692696, \
-0.015172728337347507, \
4.8759586206870154e-05, \
0.019132554531097412, \
-0.00859083328396082, \
-0.02678685262799263, \
-0.017940839752554893, \
-0.02048569731414318, \
0.006191561464220285, \
0.03495558723807335, \
0.007437281310558319, \
0.03497745096683502, \
-0.018489209935069084, \
0.013582735322415829, \
-0.031858570873737335, \
0.03561782091856003, \
0.03474336117506027, \
0.03587847948074341, \
0.0016508898697793484, \
0.009687933139503002, \
0.006019374821335077, \
-0.006843341048806906, \
-0.015803378075361252, \
-0.029084952548146248, \
-0.02140185236930847, \
0.05118448659777641, \
0.035291220992803574, \
0.02172931656241417, \
-0.006515729706734419, \
0.003555099479854107, \
0.03931482881307602, \
-0.026528779417276382, \
-0.05089682713150978, \
0.022997481748461723, \
0.008151112124323845, \
0.0633702352643013, \
0.04407089948654175, \
-0.006324624642729759, \
0.003981000278145075, \
-0.02999088354408741, \
0.04999221861362457, \
-0.010424293577671051, \
-0.025195233523845673, \
-0.0015520809683948755, \
0.030453193932771683, \
0.018239479511976242, \
0.011745261959731579, \
-0.005484291817992926, \
-0.017128458246588707, \
0.0031143310479819775, \
-0.026612404733896255, \
-0.023007599636912346, \
0.003741522552445531, \
-0.011763734742999077, \
0.03678908944129944, \
0.01062092836946249, \
-0.009078094735741615, \
0.0010547307319939137, \
0.0381239615380764, \
-0.006496530957520008, \
0.011364075355231762, \
-0.03339967876672745, \
-0.012138815596699715, \
-0.00707047525793314, \
-0.02472926490008831, \
0.0021942704916000366, \
0.01923445239663124, \
0.004458977375179529, \
-0.000519893947057426, \
-0.00435936264693737, \
0.016373228281736374, \
-0.02314034104347229, \
-0.014982267282903194, \
-0.02792593650519848, \
-0.0007754160324111581, \
0.061590880155563354, \
-0.003807098837569356, \
0.007565143518149853, \
0.019504396244883537, \
-0.00495799258351326, \
0.03229245916008949, \
0.026844214648008347, \
0.11534827202558517, \
-0.011952945031225681, \
-0.004056929610669613, \
-0.022536763921380043, \
0.0592958964407444, \
-0.0061692181043326855, \
-0.01667940616607666, \
}
