#define features_3_bias {\
-0.005950625520199537, \
-0.0151396868750453, \
-0.1631862074136734, \
0.058831050992012024, \
-0.010211201384663582, \
-0.02150246687233448, \
0.014035598374903202, \
-0.023035621270537376, \
0.014324610121548176, \
-0.049535781145095825, \
0.042672790586948395, \
-0.00789674837142229, \
-0.007547303102910519, \
0.18106457591056824, \
-0.021221887320280075, \
0.09942866116762161, \
-0.048798125237226486, \
-0.004570011980831623, \
0.004581091925501823, \
0.01393681950867176, \
-0.01688566617667675, \
0.08126136660575867, \
0.031211432069540024, \
-0.05414828658103943, \
-0.02079242467880249, \
-0.009101645089685917, \
-0.006437213160097599, \
0.0038515361957252026, \
0.04964395612478256, \
0.027659790590405464, \
-0.014383709989488125, \
-0.009685700759291649, \
0.03540841117501259, \
-0.002196255838498473, \
-0.006231063976883888, \
-0.07104209810495377, \
0.020311404019594193, \
0.017025267705321312, \
-0.031688086688518524, \
-0.03419089317321777, \
0.05939266458153725, \
0.01535840705037117, \
-0.005406615324318409, \
0.05061300843954086, \
0.06574250757694244, \
-0.15401498973369598, \
-0.06699634343385696, \
0.04286738857626915, \
-0.021805573254823685, \
-0.017450837418437004, \
0.025386787950992584, \
0.005501887761056423, \
-0.020033538341522217, \
0.11305902153253555, \
-0.026042593643069267, \
-0.03653709217905998, \
0.06543951481580734, \
-0.023846900090575218, \
-0.00553163094446063, \
-0.04085655137896538, \
0.006258649285882711, \
-0.03426447883248329, \
0.025501031428575516, \
-0.09485728293657303, \
0.03893108665943146, \
0.0021772466134279966, \
-0.0014639166183769703, \
0.03986430913209915, \
0.016000622883439064, \
-0.11545811593532562, \
-0.03741282597184181, \
-0.030068373307585716, \
-0.08374349027872086, \
0.026469502598047256, \
0.00986595917493105, \
-0.007653740234673023, \
-0.06683861464262009, \
0.005845790728926659, \
0.03197898343205452, \
-0.010466682724654675, \
0.022073306143283844, \
-0.042612556368112564, \
0.05386221036314964, \
0.08899310976266861, \
0.03236155956983566, \
0.13909123837947845, \
-0.005499806255102158, \
0.08394237607717514, \
0.09282578527927399, \
0.014497822150588036, \
0.08390914648771286, \
0.046271324157714844, \
0.03204980120062828, \
0.08837902545928955, \
-0.004719818476587534, \
0.14184688031673431, \
-0.04285106435418129, \
0.015430251136422157, \
0.0429857075214386, \
0.017644820734858513, \
0.018084215000271797, \
-0.007211113814264536, \
0.010426819324493408, \
0.03603912144899368, \
0.0003131359990220517, \
0.05534118786454201, \
-0.021258533000946045, \
-0.029390724375844002, \
0.03972602263092995, \
-0.00828480627387762, \
0.00028977604233659804, \
-0.056974850594997406, \
0.11906731128692627, \
0.026196368038654327, \
-0.10218675434589386, \
0.16269533336162567, \
0.06271377205848694, \
0.16164270043373108, \
-0.09658680856227875, \
-0.07108385115861893, \
0.013600734993815422, \
-0.014373136684298515, \
0.03702332451939583, \
-0.07941874116659164, \
0.08570192009210587, \
-0.021261928603053093, \
-0.10770610719919205, \
0.004862811882048845, \
}
