#define features_8_bias {\
-3.287414074293338e-08, \
1.2933807802539832e-08, \
-2.160045475818606e-09, \
-2.3650029490340785e-08, \
-3.657662972500475e-08, \
1.382060133003904e-09, \
1.0715849541043099e-08, \
-4.9388932943372765e-09, \
-2.5203945597240818e-09, \
9.575018111718236e-09, \
-2.444446778326892e-08, \
-1.2168777985266388e-08, \
-9.992006333447989e-09, \
-6.216303916062316e-08, \
-1.298798313342786e-08, \
8.14875704691076e-08, \
-1.3744339888432933e-08, \
-7.879940255861584e-08, \
2.0671672373850924e-08, \
3.0178849641515626e-08, \
1.1339277961042171e-08, \
1.3606497262230732e-08, \
9.182347326941454e-09, \
1.4599461195530239e-08, \
-1.2807465088471304e-09, \
-2.4068624426831775e-08, \
2.281815625337913e-08, \
5.818026505011176e-09, \
-1.2903162094346499e-08, \
-1.5979452205883149e-09, \
9.741356166159676e-09, \
1.7237418603599508e-08, \
-3.8389192269505656e-08, \
1.053271336814987e-08, \
1.9223071134888414e-08, \
-4.1683129170522193e-10, \
-5.7605021197559836e-08, \
3.048942431860269e-08, \
1.0391778992868694e-08, \
-8.194874823175269e-08, \
2.44006894689619e-08, \
-4.614877013864316e-08, \
-4.285218846433736e-09, \
8.361800141187814e-09, \
-3.1191024874033246e-08, \
2.2937285848456668e-08, \
4.039491230400927e-08, \
-2.6875945025039982e-08, \
3.2914876157974504e-08, \
-3.9817451558121775e-09, \
2.7162403881675345e-08, \
8.571582554850465e-08, \
-5.115014545253871e-08, \
1.4151869009992879e-08, \
-1.7069144320203122e-08, \
5.737875730105202e-10, \
-1.0269256556227901e-08, \
3.0162063069383294e-08, \
-1.496927026778394e-08, \
-2.1066000499558868e-08, \
-3.6361000876894423e-09, \
7.258640355445323e-09, \
1.725139497921191e-08, \
-2.132067855598052e-08, \
-2.373413243716982e-09, \
-5.645070633164551e-09, \
-4.65982008535093e-09, \
-2.0709640224936265e-08, \
-1.5681184351024058e-08, \
-7.883087072002581e-09, \
6.944155472865532e-09, \
-3.585768482139429e-08, \
-4.0631423559034374e-08, \
-4.350121685092745e-08, \
-2.2072816907581227e-09, \
-8.543425522589132e-09, \
4.129139252739833e-09, \
3.699059547557226e-08, \
-2.6535357022794415e-08, \
2.0394168132042978e-08, \
2.913672147997204e-08, \
-1.122266168884778e-09, \
1.7837880506021975e-08, \
-1.574686869787456e-08, \
-6.6164980161431686e-09, \
4.0235953235878696e-08, \
-3.034179130168013e-08, \
1.1632874219458245e-08, \
1.0793324012325911e-09, \
3.0508445547638985e-08, \
4.798947905726436e-09, \
3.083554389604615e-08, \
-1.3062455117562877e-08, \
-2.32092034480047e-09, \
2.02586889486156e-08, \
1.682607475572695e-08, \
-9.739556716681363e-09, \
5.960392002180015e-08, \
-4.3687084172461255e-08, \
-2.2466183580149846e-08, \
-2.5372062228967707e-09, \
1.6617478948433018e-08, \
1.1286371837115894e-08, \
7.16774408715537e-08, \
-1.2260295556565382e-10, \
2.3669214144206308e-08, \
-2.6163519351030118e-08, \
3.4675597504474354e-08, \
7.49521973375522e-08, \
1.3863219905374535e-08, \
-4.267854732814547e-12, \
2.4151999511445865e-08, \
-3.219015098920863e-08, \
-3.080307209302191e-08, \
1.1362623730803989e-08, \
3.71663020359847e-08, \
3.033062867530134e-08, \
1.9831427167105176e-08, \
-3.412100468835888e-08, \
6.855525924720496e-08, \
-2.0681392598476123e-08, \
2.986331537613296e-08, \
-8.018028019307621e-09, \
5.089213495068634e-10, \
-1.4026604766570472e-08, \
-1.4725812791382964e-09, \
-3.9254640427088816e-08, \
3.612619536852435e-08, \
2.5662480140908883e-08, \
-1.9239358550748875e-08, \
3.846067997415048e-08, \
3.315772545420259e-08, \
6.325440615739808e-09, \
-6.044992950648975e-09, \
-2.2049446712912868e-08, \
-2.28307968086483e-08, \
2.050970593359125e-08, \
1.4395026504132602e-08, \
-2.0328274619174636e-09, \
3.497913780847739e-08, \
1.573691754686024e-08, \
-2.507489504921523e-08, \
-2.627328354876113e-09, \
4.6262183417411507e-08, \
-1.0508641956619158e-08, \
-4.033732992070327e-08, \
3.953023686165125e-09, \
3.885202826126033e-09, \
4.8588648660086164e-09, \
2.440557267391341e-08, \
-1.9542364171343252e-08, \
-9.413610335684552e-09, \
3.4007847649064615e-09, \
-9.953959434483295e-09, \
2.8545908747901194e-08, \
-2.6784800155610355e-08, \
-2.7381988232377807e-08, \
-3.9388691419617317e-08, \
-8.88010376343118e-09, \
3.113924407216473e-08, \
1.8126542045138194e-08, \
5.205466280244764e-09, \
7.00949920329208e-09, \
3.0710179288462314e-08, \
3.0018178165391873e-08, \
1.680321304320387e-08, \
-3.4469561427386e-08, \
1.7744229197091954e-08, \
2.8974017851624012e-08, \
1.7585405132081178e-08, \
1.9877226975495432e-08, \
-3.7009570963419947e-09, \
-3.859740260736544e-08, \
8.662591532981878e-09, \
-1.7845081856648903e-08, \
1.6294498195179585e-08, \
-2.418930122871643e-08, \
7.223784681542611e-09, \
-5.632313726522398e-09, \
2.312502411783157e-09, \
1.279537897858063e-08, \
-9.606506701231865e-09, \
-1.1660261201029698e-08, \
1.8703598669844723e-08, \
-2.1555662144123744e-08, \
3.799751269184526e-08, \
-1.1639144092967513e-09, \
-4.671728248695217e-08, \
-8.039635623902086e-09, \
2.9951345847933908e-09, \
2.4878511695192174e-08, \
8.003880225260218e-09, \
2.55900474144255e-08, \
8.946643426099854e-09, \
4.3585902886889016e-08, \
1.061641530242241e-08, \
4.942147135977848e-09, \
-8.306437315752646e-09, \
3.557422090239015e-08, \
-2.6171196765290006e-08, \
2.355544026499956e-08, \
-3.025625749941696e-09, \
2.29922232364288e-08, \
-6.721793344155458e-09, \
-1.2618785127926913e-08, \
-1.7812881836221095e-08, \
-4.75333656879684e-08, \
2.452893888005292e-08, \
-6.187837442439559e-08, \
1.4128485936737434e-08, \
-2.489878525580025e-08, \
2.2998820625730332e-08, \
-1.4981779372646997e-08, \
6.053144208095773e-09, \
-3.580732510499729e-08, \
-1.4068515796772374e-10, \
5.2441841980055415e-09, \
-2.8756872438862047e-08, \
-1.1306570263380777e-10, \
4.5306883578177803e-08, \
-3.6560681593300615e-08, \
2.9538476553625514e-08, \
9.386598165406213e-09, \
5.774117628476461e-09, \
-1.9966273967497727e-08, \
4.602450864865659e-09, \
-1.3417150057648541e-08, \
2.1419731766059158e-08, \
-1.3896841899452284e-08, \
-1.022803441941278e-08, \
1.797914528367528e-08, \
1.9547243823581084e-08, \
1.9242549775810858e-09, \
-3.6220928478769565e-08, \
-3.6949746373693415e-08, \
-2.3039454788431613e-08, \
9.295369807205134e-09, \
3.054812580671751e-08, \
9.481897045304777e-09, \
7.270801294367857e-09, \
-2.8532102902545375e-08, \
7.91203014216535e-09, \
1.6340960584670938e-08, \
-2.9236360887807677e-08, \
-2.5198096054168673e-08, \
-7.183633243812437e-09, \
-6.1526250760834955e-09, \
-1.0113089921048868e-08, \
-4.533304220899481e-08, \
4.368397910070598e-08, \
-9.192715033634613e-09, \
8.07824473980645e-09, \
1.6935059576894673e-08, \
3.900382683497128e-09, \
-4.14424796701951e-08, \
1.2202403532057815e-08, \
}
