#define features_11_bias {\
-1.2920724934417649e-08, \
7.656655753862651e-08, \
1.3976721113806434e-08, \
-1.1724572424043345e-08, \
1.49481280686814e-08, \
-9.803254208406997e-09, \
4.172375778210835e-09, \
4.5207805499103415e-08, \
5.953191006824454e-08, \
-3.487576893945743e-09, \
5.177230022468393e-08, \
7.478366370605727e-09, \
3.132287318408089e-08, \
7.713101268791434e-09, \
7.318411832102356e-08, \
4.242999906978184e-08, \
7.813138580559098e-08, \
-2.521137076882951e-08, \
4.739198899983421e-08, \
-3.208269561127963e-08, \
3.5705987500023184e-08, \
-5.505598821287094e-08, \
-5.092557842090173e-08, \
5.22068859254432e-08, \
-4.024240851663308e-08, \
7.568527138346326e-08, \
-3.2711334085888666e-08, \
2.332381466782496e-12, \
1.5077971093901965e-09, \
2.876616722602421e-09, \
1.6150259796177124e-08, \
-3.16122736876423e-08, \
2.686801359175206e-08, \
1.1368432417668828e-08, \
2.688557998453689e-08, \
3.9038123844648e-08, \
-1.5047113555155534e-09, \
2.1316639120527725e-08, \
1.7079788694474018e-09, \
-1.5050883206413346e-08, \
1.584529307763205e-08, \
4.1877044054672297e-08, \
1.7525882967106554e-08, \
5.739415698258199e-08, \
3.116743840791969e-08, \
-3.331834719233484e-08, \
2.1542058803447617e-08, \
1.9784994975680092e-08, \
-3.476605314745029e-08, \
-4.5669228398992345e-09, \
1.1493625606817659e-08, \
-3.087430044956818e-08, \
2.7110075961900293e-08, \
-8.471424117750814e-10, \
4.82826543191095e-08, \
-1.912424352212838e-08, \
1.1540814170984959e-07, \
3.629273992444837e-09, \
-2.665626830378187e-08, \
-1.1426698698357995e-08, \
-5.728883678557395e-08, \
-1.342464894804607e-08, \
9.230957331851641e-09, \
-4.0593803873889556e-08, \
2.4579859925211167e-08, \
-1.4343982002174016e-08, \
2.983289348890139e-08, \
1.040236607963152e-08, \
3.3351621908650486e-08, \
-2.0408011280892424e-08, \
-6.931315255087611e-08, \
5.2926928617580415e-08, \
-1.7276844843649997e-08, \
3.92289187800543e-08, \
3.805754644758963e-08, \
-1.0656211912873914e-08, \
-1.8482696262367426e-08, \
-6.15198914033499e-08, \
2.767873041875646e-08, \
-1.674177951827005e-08, \
-2.4796078079702966e-08, \
-3.821768501666156e-08, \
6.184333756209526e-08, \
-5.278299397559749e-08, \
1.194725651743056e-08, \
8.942858897853512e-09, \
-4.8375188299587535e-08, \
3.08673762106082e-08, \
-6.144928454965282e-10, \
1.952628725376826e-09, \
2.172647839415731e-09, \
6.55722853792895e-09, \
-2.141259081156477e-08, \
-8.921436922548764e-09, \
-2.74398060697012e-12, \
1.623121903548963e-08, \
1.7394086171407253e-08, \
2.582050662169877e-08, \
1.0744747314106462e-08, \
-5.1991314364840946e-08, \
-2.3779429980663735e-08, \
4.024470356966958e-08, \
-2.5720979124344012e-08, \
-3.264538506186909e-08, \
7.24149487041359e-08, \
-1.7403310792474258e-08, \
-2.8592143843514384e-12, \
-2.9858792771619846e-08, \
3.847389606903562e-08, \
-1.9461174893820044e-09, \
-1.4198073827742519e-08, \
1.4175228102430992e-08, \
-7.552884540018567e-09, \
-4.0461291206383976e-08, \
5.41118225783066e-08, \
1.1138076239092243e-08, \
-3.14011501245659e-08, \
2.765328410703205e-08, \
-4.023877764325334e-08, \
8.47248884383589e-08, \
4.213710980138785e-08, \
-2.5108377599281084e-08, \
-7.99464103806713e-08, \
3.222359268306718e-08, \
-4.863015323763875e-09, \
5.9334492874540956e-08, \
4.721754542913459e-09, \
-1.3558866918117474e-08, \
-2.539376353638545e-08, \
1.0085550172789226e-08, \
-2.7636598787239564e-08, \
2.5106325907131577e-09, \
-2.1141632444710012e-08, \
-1.2308934316251907e-08, \
-5.881725773093649e-09, \
-8.358782999096093e-09, \
-1.135253557826843e-09, \
-2.0161760261316886e-08, \
2.0039061965348992e-08, \
-3.6090938237975934e-08, \
-1.6008485648200121e-09, \
-2.8268230423122986e-08, \
-7.2321713062706294e-09, \
-3.073898824368371e-08, \
1.4106563139826278e-12, \
-4.41976233389596e-08, \
-1.9781261073603673e-08, \
-2.2512328001766946e-08, \
1.5854865864639578e-08, \
-4.4049581759963985e-08, \
-2.538177001909503e-09, \
-1.0122467308804062e-08, \
-1.5961951760345983e-08, \
-2.0650377408060194e-08, \
-7.765019738315004e-10, \
9.778799103798974e-09, \
2.9324896289040225e-08, \
-2.2746517558402957e-08, \
-1.898483370510462e-09, \
-4.254981789131307e-08, \
-7.451252947987541e-09, \
6.761244719655224e-08, \
-7.537285462433374e-09, \
9.500959130548381e-09, \
-1.437447494367916e-08, \
-2.1872448741078188e-08, \
1.0466020938793008e-08, \
8.12144101969281e-12, \
3.9283727382155575e-09, \
-4.41893366343038e-09, \
-1.6721712015055346e-08, \
-2.855486513908545e-08, \
6.292768262028403e-08, \
-5.7754712123880836e-09, \
2.6190811297510663e-08, \
1.2159077300566423e-08, \
-7.630260867586003e-09, \
1.5657606504751453e-12, \
-4.524271179917605e-09, \
3.276214854963655e-08, \
4.530233255195526e-08, \
2.85817289835677e-08, \
5.3654684251114304e-08, \
7.833813953084245e-08, \
1.147789774336161e-08, \
4.4647190833302375e-08, \
-6.079164904804202e-08, \
1.8309428639895486e-08, \
-4.075734949537946e-08, \
-7.286245562454496e-08, \
-3.90143597428505e-08, \
-4.022450994511928e-08, \
-3.054479691400047e-08, \
3.956660421522429e-08, \
7.056305406649699e-08, \
-1.2342641575457947e-08, \
-2.3757269929092217e-08, \
-2.1715893083751325e-08, \
1.3404889698254152e-10, \
1.614239053537858e-08, \
1.1717287584644964e-08, \
-3.6371663458822923e-09, \
4.885128301879149e-09, \
3.241677148935196e-08, \
4.210648540947659e-08, \
-1.5973855127526804e-08, \
-2.138809662710628e-08, \
-5.80768784175234e-08, \
2.503324658675865e-08, \
-7.757873987657149e-08, \
-1.1404663879943655e-08, \
-1.6262696078683803e-08, \
-1.6066902253086823e-09, \
3.222927702495326e-08, \
7.749135733092771e-08, \
4.544289922137068e-08, \
-1.0052533916393713e-08, \
-3.986938335032164e-09, \
4.799246866582507e-08, \
4.386296481584395e-08, \
3.408845117292003e-08, \
3.515175350798927e-08, \
4.205438219884172e-10, \
-4.00054567251118e-09, \
7.77107711513736e-09, \
7.802655943578429e-08, \
-3.055204700341818e-10, \
-4.949992860048269e-09, \
1.5815876386326977e-11, \
1.9813510832022985e-08, \
1.763156909362351e-08, \
2.337160154297635e-08, \
1.8190268846751678e-08, \
-4.3667657934065573e-08, \
1.4657858926625522e-08, \
5.4743185984307274e-08, \
4.632376970903351e-08, \
2.5340524345551785e-08, \
-3.478060861539234e-08, \
1.877496202951079e-08, \
-3.894740530085983e-08, \
-3.37825305507522e-08, \
-3.933755365892466e-08, \
8.617308822067571e-08, \
3.0319451838067835e-08, \
-2.4556414679466343e-09, \
6.304551902758249e-08, \
-7.318189609861747e-09, \
-6.620575021543118e-08, \
-1.6732228047544595e-08, \
-5.861742735646658e-08, \
-2.2730404225512757e-08, \
6.858954293420538e-08, \
5.13246192213046e-08, \
-4.526688801576029e-09, \
-3.022812933295427e-08, \
}
