#define features_0_bias {\
2.3503346838205097e-11, \
-4.869682967978406e-08, \
-1.658216497446574e-08, \
7.715700434118844e-08, \
3.24797388984166e-09, \
-4.748070381310754e-08, \
-7.193767714852584e-08, \
-3.924951386125031e-08, \
3.011415969922382e-07, \
-1.579908825988241e-07, \
-1.5086403237773993e-09, \
7.184143413496713e-08, \
-1.7315713307652913e-08, \
-7.401533963502516e-08, \
1.0748419931871922e-08, \
8.877448776090091e-10, \
-2.607394300468968e-09, \
1.1115621444124368e-11, \
-4.791345098453803e-09, \
-7.49706907665626e-10, \
-1.3465211168295355e-07, \
4.907890982508434e-08, \
2.7426654725104527e-08, \
8.442871290981202e-09, \
-5.2265551886421235e-08, \
4.349309801199297e-09, \
1.0017381590898822e-08, \
-8.788973104856268e-09, \
1.505999414064263e-08, \
-3.3404317090202085e-09, \
2.3756125955287644e-08, \
3.748257171309888e-08, \
-2.2071645844334853e-07, \
2.7556982473697644e-08, \
7.232622056818627e-09, \
2.489089823143331e-09, \
7.871446827678596e-10, \
-2.6285864110353607e-11, \
1.4329713630967245e-11, \
-1.4109522439298416e-09, \
5.2965849484110095e-09, \
8.723607947125345e-10, \
2.592759642539022e-07, \
-5.635191424602226e-09, \
-1.294907576721016e-07, \
-5.810613656898056e-10, \
6.159550736128949e-08, \
1.5256762520010625e-09, \
7.280811509247087e-10, \
-3.472000242865647e-09, \
1.0153557639114297e-07, \
1.3814918986554403e-07, \
6.289950249538379e-08, \
3.6379805834485524e-08, \
1.850060904473594e-08, \
-2.1904394742477962e-08, \
-1.2401456597754823e-11, \
-2.0373450482225053e-08, \
2.0612596351998747e-10, \
-1.560865996452776e-07, \
6.575526789731612e-09, \
6.552032250084494e-09, \
3.070944956107269e-07, \
1.0482950330015228e-07, \
}
