#define features_22_bias {\
1.0184837861970664e-08, \
-4.152337140794771e-09, \
-4.010565213263817e-09, \
-1.4798988701159033e-08, \
-2.9174291871214564e-09, \
1.3613619120889098e-09, \
-1.0802350125516114e-08, \
-9.864423944350165e-09, \
-4.303013223516672e-10, \
7.796059797726684e-09, \
-2.2552409717491173e-08, \
2.2460175941318994e-09, \
1.9114365645833686e-10, \
4.885641669005736e-09, \
1.4171465112511328e-09, \
-3.5190332869916574e-09, \
8.926326344749214e-09, \
-1.5298959876730578e-09, \
-9.28192078752943e-10, \
1.3858806546807045e-08, \
4.3803307647749534e-09, \
1.4927898916994309e-09, \
-1.6231364030616646e-09, \
-2.4452830871268816e-09, \
8.234547266283698e-09, \
4.278925302969583e-08, \
3.1483587958902604e-10, \
-9.170294745786123e-09, \
1.993081077955594e-08, \
-6.7533765246707844e-09, \
-1.6398676194739892e-08, \
2.469989723863364e-08, \
3.5210916848882334e-08, \
-6.313032763216597e-09, \
-3.006472226729784e-08, \
4.000998998776595e-08, \
-3.343185284165884e-08, \
5.074144215910792e-09, \
-4.325773628188756e-10, \
2.5599415920396495e-09, \
-4.301138556428441e-09, \
1.486969303243768e-08, \
-3.519244984317993e-08, \
-5.679669623503969e-09, \
-3.3738831728413743e-09, \
9.113557908335679e-09, \
-6.076909642160899e-09, \
-1.3554846134411491e-08, \
-8.274582796730101e-09, \
2.073189619977711e-08, \
6.325736823242778e-09, \
6.419569320570417e-10, \
-2.7771926980335593e-09, \
5.10705699952041e-09, \
7.985772931817792e-09, \
6.393812590488324e-09, \
3.19664472669956e-09, \
5.385070722674357e-10, \
-3.590527652974629e-09, \
-1.7714609779062584e-09, \
1.7992167755664923e-08, \
-1.1183152182070444e-08, \
1.8042756622094203e-08, \
-4.38857528095582e-09, \
1.4384644586584727e-08, \
-3.4109557400796575e-09, \
4.564737920986772e-09, \
3.6810798853537108e-09, \
6.361060567172672e-09, \
-1.2412805894257417e-08, \
-4.430214861628201e-09, \
9.353100516307222e-10, \
-9.273286999400554e-11, \
-6.427746335191387e-09, \
-7.888535158429022e-09, \
3.373603174594564e-09, \
-1.6320647056033977e-09, \
2.76623124406683e-09, \
-2.869845472375232e-09, \
-2.22664553461982e-08, \
-4.0726646943767264e-08, \
-1.640981928119345e-08, \
-7.648553790318147e-09, \
1.60994524378566e-08, \
1.4722198460326297e-10, \
7.316769967680159e-10, \
-7.88237919380208e-09, \
1.1045871772807914e-08, \
1.658205128762802e-08, \
-1.0784102499883375e-08, \
9.136937428877445e-09, \
-3.760451117162944e-10, \
-1.4970422679283502e-09, \
1.2570660068433881e-08, \
1.3274821242248436e-08, \
-8.856663180623059e-10, \
8.361059400385784e-09, \
-1.3779164476090955e-09, \
-8.261626938121935e-09, \
1.6762918164658913e-08, \
-4.839936895706387e-09, \
-4.174235623821687e-09, \
-5.906506839181702e-09, \
6.398872987034565e-09, \
2.6331841151971958e-09, \
1.0449504372900265e-08, \
-3.299837958437024e-09, \
-7.451956385295944e-09, \
1.8519465960764592e-09, \
-1.3250675001685863e-09, \
1.6227327037654504e-08, \
-2.6237696459929793e-09, \
-1.0615744727715537e-08, \
-1.5895517790909253e-08, \
1.7839145272091628e-08, \
1.5584820101111063e-09, \
1.1999638616089214e-08, \
-5.3172181935234875e-11, \
-5.16706188946614e-09, \
-5.31943267212398e-10, \
1.63870446101555e-08, \
1.295174967275159e-09, \
-1.1967088653364044e-08, \
4.929804564568485e-09, \
-3.8189851281345e-10, \
5.201937103294085e-09, \
-1.1364990060158675e-09, \
7.2590200517197445e-09, \
3.802168357935898e-09, \
4.826306465588459e-09, \
-3.796609249206995e-09, \
-4.2638093056268644e-09, \
5.737630459634602e-08, \
3.2327480692373456e-09, \
-4.548578402818748e-09, \
3.210565324707204e-08, \
-7.900043952346891e-10, \
6.9654673140462364e-09, \
-4.707162215566996e-09, \
2.0312374005015954e-09, \
-1.7930563700474522e-08, \
-1.7268669827430472e-09, \
1.7525633166926013e-09, \
-1.949820305213734e-09, \
-1.7325813006507929e-09, \
-3.6820548388050156e-08, \
2.033485047014949e-10, \
-3.5571394718658667e-09, \
5.8838094396662655e-09, \
1.210399691586872e-08, \
-2.0900392527778422e-08, \
3.692798955512444e-09, \
-2.4096844519760907e-09, \
-2.6533872876655096e-09, \
-2.6892759130703325e-09, \
-1.3254353170566446e-08, \
2.5455770824578394e-08, \
6.9460965868017865e-09, \
1.019950790492885e-08, \
-1.0522580140559512e-08, \
-9.73242819668485e-09, \
-6.680948239079498e-09, \
6.9648717904158275e-09, \
4.4076863048303494e-08, \
-8.295282682979632e-09, \
-2.555402822679298e-08, \
2.151350031454058e-08, \
-1.8202851448378965e-09, \
-6.421692066993501e-10, \
1.4968133399406724e-08, \
1.3014842537018012e-09, \
-1.345663758200999e-08, \
6.502677563080539e-11, \
1.988366582494905e-09, \
2.9920821376094864e-09, \
-6.70928734791687e-09, \
-1.0542618333886367e-08, \
4.706829148659608e-09, \
-5.284250370607424e-09, \
5.148076409611235e-10, \
-7.759490827652371e-09, \
-2.702540635723949e-09, \
5.243302680923989e-09, \
1.3972173418252964e-09, \
-1.72449698965238e-08, \
2.660440756585558e-08, \
-6.480418868193283e-09, \
-3.586767993724038e-09, \
2.5574237838554836e-08, \
1.9446031451764156e-09, \
5.785667944735451e-09, \
-5.6529021463802565e-09, \
-2.6051713564179124e-10, \
2.344141547538925e-09, \
2.4919403429635167e-08, \
-4.973526923635063e-09, \
-4.264944397647241e-09, \
3.410350757349079e-08, \
6.937841412479884e-09, \
5.530017332944226e-09, \
3.0211044776962126e-09, \
1.728225917929649e-08, \
-2.176753444160795e-09, \
-1.621877565582963e-08, \
-5.86454149131832e-11, \
-3.6477778575516595e-09, \
8.503099335754882e-10, \
2.7855643125462848e-08, \
1.4244756485481957e-08, \
-7.903629750671826e-09, \
-1.3969175816086477e-09, \
3.643057766566926e-08, \
5.018606419326943e-09, \
3.0892974844931587e-09, \
-7.284359782033789e-09, \
-3.365330236704267e-09, \
1.0702003727658393e-08, \
1.2613421418450343e-08, \
-1.2231710089238845e-10, \
-8.99238461471441e-09, \
-1.3420623501403384e-09, \
-2.158244427619138e-08, \
8.914403437643159e-09, \
-1.2153806849823923e-08, \
4.928314201180228e-09, \
-7.698557347168844e-10, \
-1.9322918376474263e-08, \
-2.273051302736917e-09, \
-5.756652377009175e-10, \
7.306073523949408e-09, \
7.455954964541434e-09, \
3.844503826400114e-09, \
3.670440396064123e-09, \
2.516004071750899e-09, \
-3.2630833146640725e-08, \
1.0871896272135473e-08, \
-4.054573121692329e-09, \
-1.7746791536321638e-10, \
-1.503970814553668e-08, \
1.9218715507918205e-09, \
2.137446664107756e-09, \
-4.8576560551794046e-09, \
-1.0976533459938764e-08, \
2.2504755392560583e-08, \
2.176768276740404e-08, \
1.154714190931827e-08, \
3.5891656313680187e-09, \
4.0020395886131155e-09, \
9.940179346301647e-09, \
-2.978230329020448e-09, \
-8.738389567497507e-09, \
-1.1155694146225414e-08, \
1.4056071584445107e-10, \
-7.481797403841028e-09, \
-4.245958695747731e-09, \
-7.856974626463398e-09, \
1.4309632367925929e-09, \
2.8241911032012013e-09, \
7.69427455082905e-09, \
-8.675224094645273e-09, \
-2.400366128085807e-08, \
-1.7826501164108777e-08, \
6.252867668088413e-10, \
1.2270844340633857e-09, \
-1.2849498354228217e-08, \
1.1436955382748693e-08, \
-3.776082557749305e-09, \
-2.175485791511278e-09, \
1.4142853554943713e-09, \
2.804969367886656e-09, \
-7.2200689871237955e-09, \
1.203990018794343e-09, \
2.651511232798498e-10, \
-2.004996613180765e-09, \
2.1782595727160015e-09, \
-9.204383033534214e-09, \
-1.702777252532428e-09, \
2.401313148325812e-09, \
4.036863288092718e-09, \
8.036821874668476e-09, \
6.350193704207641e-10, \
-7.221379494382063e-09, \
-4.998895963836958e-09, \
9.586605287381644e-09, \
-1.2470970922606739e-08, \
1.3635314211057903e-08, \
5.340831110700606e-10, \
2.373644614195314e-09, \
4.12215905853941e-09, \
-1.1053152171314196e-08, \
1.0641399761368575e-08, \
8.1569426768624e-09, \
-4.640060780047861e-09, \
8.807101714580767e-09, \
1.5031222488914864e-08, \
-7.458055506504024e-09, \
-8.461171319140703e-09, \
-2.2186084080999535e-09, \
-3.4271270266117426e-09, \
-2.4543822974010254e-08, \
-3.684032634510004e-09, \
-1.9558978436862162e-08, \
-6.105461469729789e-09, \
-3.4248972546890855e-09, \
-9.084994978536542e-09, \
-6.2364273745174614e-09, \
2.713306912482949e-09, \
7.870696094869345e-09, \
-8.165437215268412e-09, \
-5.598592256461643e-09, \
-6.779642180987366e-09, \
-2.0291304192454618e-09, \
1.236256608194708e-08, \
5.159317861824775e-09, \
1.8098766929597332e-08, \
1.228597312774582e-08, \
1.067888355521518e-08, \
-6.943879693466215e-09, \
-3.087155420189447e-09, \
2.4315264468555142e-08, \
4.2986845194548096e-09, \
5.716943807243524e-09, \
1.1116970677349514e-09, \
1.7864262957800747e-08, \
1.722067999310184e-08, \
2.9396569622974766e-09, \
7.23844939543028e-09, \
6.924322892842838e-09, \
7.925052836199598e-10, \
-6.126950502505224e-09, \
-8.213461022421598e-09, \
6.13211526001578e-09, \
1.767437307620412e-09, \
-2.6422814158877372e-08, \
-2.4313215885030104e-09, \
-3.2063167676454896e-09, \
-3.098391587741389e-08, \
1.0479805467866754e-08, \
1.3362963180441056e-08, \
2.5216977395103868e-09, \
-1.7236567728673435e-09, \
2.529767950676387e-09, \
-4.845938761377511e-09, \
2.5704618877853136e-08, \
-8.024633402214931e-09, \
2.8635742665983344e-08, \
-1.1167131219735893e-08, \
1.7383099404355562e-08, \
-9.258076083540345e-09, \
-7.1497638920448026e-09, \
8.848505927971928e-09, \
1.506697100417398e-09, \
3.548572768963254e-09, \
-4.348874149684434e-09, \
-6.619957360065598e-10, \
5.479542930508785e-10, \
-7.679832769724726e-09, \
2.329876958029331e-09, \
7.038646110402169e-09, \
6.924449902356855e-09, \
-1.3361244555198937e-08, \
6.652424833220039e-09, \
1.1094732244032457e-08, \
8.061462608566217e-09, \
-3.185882224698844e-09, \
-1.4305217455046204e-08, \
-5.68932145839085e-09, \
-2.3013733141397097e-09, \
-7.245547717360523e-09, \
1.6827662818741373e-08, \
-8.128475670332591e-10, \
-9.023915503725277e-10, \
2.4269533938081622e-08, \
1.107662495059003e-08, \
-1.1161347401866806e-08, \
-1.6525962820423956e-08, \
2.2152943923714474e-09, \
2.2636550411903045e-09, \
6.729451662579322e-09, \
1.7377251637640256e-08, \
-6.933208673842728e-09, \
3.1589280080623894e-09, \
2.7862883111851033e-09, \
4.879020742976081e-09, \
1.3532307718833181e-08, \
-1.765508628182033e-08, \
3.197871301097166e-09, \
2.25541918474903e-09, \
3.1154872015548563e-09, \
2.6402574349049246e-08, \
-7.934373158491326e-09, \
-7.441224081361497e-09, \
1.86583504202531e-09, \
1.2261661908041788e-08, \
2.582402380824078e-08, \
5.99006533263946e-09, \
6.4273262267988684e-09, \
-1.437586760744125e-08, \
-9.82039605190721e-09, \
-5.011365988849548e-09, \
9.807176182263788e-10, \
-9.148610757847564e-09, \
1.0401408623295083e-09, \
-3.5098723927262654e-09, \
-2.87987678149193e-08, \
6.090452586704487e-09, \
5.272223102537055e-09, \
-1.6056095120120517e-08, \
6.041517064403479e-09, \
-2.615080818557658e-09, \
1.64102633704033e-08, \
2.1671437977488495e-08, \
5.437885253201102e-09, \
-1.7719895550882825e-09, \
3.584487595631458e-09, \
-3.773503287618496e-09, \
-1.2749163502689953e-08, \
-7.093325926632588e-09, \
1.7640326532841755e-08, \
-8.062123413310474e-09, \
1.896833801140474e-09, \
3.04420000318828e-09, \
9.535864542442596e-09, \
6.6314345126272656e-09, \
5.139325853775745e-09, \
-1.498047019765636e-08, \
-1.4799448777580437e-08, \
3.1199256511627027e-09, \
1.2738702537262725e-08, \
9.111045806697859e-10, \
-7.046041972103012e-09, \
-3.637255607813472e-09, \
8.620893332533797e-09, \
1.1733152227577648e-08, \
-8.31652791077886e-09, \
-1.2527689996488789e-09, \
-1.3493799411179452e-09, \
4.933085495650857e-09, \
-4.674458597975217e-09, \
-3.5372251794285603e-09, \
9.385120458560436e-10, \
-5.798990443395269e-08, \
-1.5655700735806022e-08, \
5.201754760264521e-08, \
-5.065691865979716e-09, \
3.4097569212576673e-09, \
2.1229651370191505e-09, \
-9.039202275573643e-09, \
-7.531926193848903e-09, \
1.9935500361611957e-08, \
5.423018922812162e-09, \
-5.549590120779158e-09, \
1.3179384694694818e-08, \
-8.053231859150856e-09, \
-7.209650654260713e-09, \
-2.4112321028724182e-08, \
1.745802280517239e-09, \
7.071359942045774e-09, \
-7.790929679174496e-09, \
-6.2474807549506295e-09, \
1.7740576785385542e-09, \
-1.1155810497598395e-08, \
-1.2312701080929855e-08, \
1.4865975117572816e-09, \
-6.932806329018604e-09, \
-8.348301605565212e-09, \
-1.665186211141645e-08, \
4.101439188275435e-09, \
-1.091276069509206e-09, \
-1.0975853559358484e-09, \
-6.780532385564086e-11, \
-2.037795487908056e-09, \
-1.526711201904618e-08, \
-1.8491325803893233e-08, \
7.99558197428496e-09, \
-9.335736628202085e-09, \
7.045179550857483e-09, \
1.0070055012079138e-08, \
1.2429792306534182e-08, \
-1.0236139935670963e-08, \
3.446499752257637e-09, \
7.13303593968817e-09, \
2.1361827862165228e-08, \
5.812567760443699e-09, \
-3.280813842820862e-09, \
-3.2957407913869474e-09, \
6.844978361897347e-09, \
1.4478592547106928e-08, \
2.3345377186956284e-08, \
-4.431388145320625e-09, \
-6.972283639328225e-09, \
-1.7423218423573417e-09, \
-6.8038872313991305e-09, \
-5.587600937495552e-10, \
2.384401120991697e-09, \
4.995917901595703e-09, \
-2.6891791571337365e-10, \
4.901810513047167e-09, \
-2.278785160569896e-08, \
-6.516112538434982e-09, \
2.0630951169664513e-08, \
7.257439094132678e-09, \
2.3684899375098212e-08, \
1.0292745322715291e-08, \
1.5878514503242513e-08, \
-8.528365569304697e-09, \
-1.9523747951666337e-08, \
-7.962603021383075e-09, \
-1.3937453413603862e-09, \
-1.7174786037799095e-09, \
3.986326380100991e-09, \
-5.730406371640129e-09, \
}
