#define features_13_bias {\
-0.011564635671675205, \
-0.0005249170935712755, \
0.01331635657697916, \
-0.011266203597187996, \
0.020631633698940277, \
0.048312801867723465, \
-0.0223434716463089, \
0.01243352796882391, \
-0.013546384871006012, \
0.007552257739007473, \
0.014376319013535976, \
-0.008614731021225452, \
0.07240273058414459, \
0.0018363912822678685, \
-0.00919086579233408, \
-0.0029763502534478903, \
0.012904360890388489, \
0.0003249603323638439, \
0.013016450218856335, \
0.008403508923947811, \
0.0159277506172657, \
0.03784896060824394, \
0.00047408760292455554, \
0.05094815418124199, \
-0.014386620372533798, \
-0.010101868771016598, \
-0.02079438418149948, \
-0.0029556485824286938, \
0.007377865724265575, \
0.006876773200929165, \
0.006790922489017248, \
-0.009947022423148155, \
-0.008253014646470547, \
0.010181090794503689, \
0.004260311368852854, \
0.03459310159087181, \
0.028926633298397064, \
-0.0028270138427615166, \
-0.0033677788451313972, \
0.007998218759894371, \
0.009978062473237514, \
-0.0051659164018929005, \
0.04541096091270447, \
0.007597928401082754, \
-0.018270373344421387, \
-0.005829913076013327, \
0.013143566437065601, \
0.0035857087932527065, \
-0.026954805478453636, \
0.045209746807813644, \
0.05022696778178215, \
-0.01381050143390894, \
-0.006442950572818518, \
0.014704416505992413, \
-0.005304846912622452, \
-0.00044907780829817057, \
-0.0096635976806283, \
-0.014356120489537716, \
-0.013125565834343433, \
0.006511112675070763, \
-0.008480651304125786, \
-0.006786382757127285, \
-0.002482196083292365, \
-0.013222731649875641, \
0.01823841780424118, \
0.009041862562298775, \
0.02899925969541073, \
-0.0038113638292998075, \
-0.007680736482143402, \
-0.0007019498152658343, \
0.016478849574923515, \
0.03253360092639923, \
-0.011057664640247822, \
0.021383853629231453, \
-0.009036374278366566, \
0.04229968041181564, \
0.01594671979546547, \
-0.015726756304502487, \
-0.0010650352342054248, \
-0.022452518343925476, \
0.053046904504299164, \
-0.004503517411649227, \
-0.024728206917643547, \
0.015372620895504951, \
0.02342693693935871, \
0.034639421850442886, \
0.01403656043112278, \
0.003467988222837448, \
0.01794425956904888, \
0.020733321085572243, \
-0.0011035777861252427, \
-0.001566984341479838, \
0.011038358323276043, \
-0.01349318865686655, \
0.0002904530265368521, \
-0.0029073841869831085, \
0.0007142588146962225, \
-0.011097101494669914, \
-0.03177632391452789, \
-0.006082120817154646, \
-0.005283200182020664, \
0.028491538017988205, \
0.004923644009977579, \
-0.012192455120384693, \
-0.011033826507627964, \
-0.002649636473506689, \
-0.0029689976945519447, \
-0.01290581189095974, \
-0.011883409693837166, \
-0.015843480825424194, \
-0.010749207809567451, \
-0.008623406291007996, \
0.014828065410256386, \
0.004591791424900293, \
0.005162015091627836, \
0.003512533148750663, \
-0.025927623733878136, \
0.003540832782164216, \
0.034121789038181305, \
-0.00969499722123146, \
0.004065339453518391, \
0.005759628489613533, \
0.010080719366669655, \
0.032313793897628784, \
-0.0172836072742939, \
-0.011102344840765, \
-0.013627910986542702, \
0.004295942839235067, \
0.00040935276774689555, \
-0.03455233573913574, \
0.011357370764017105, \
-0.002454940462484956, \
-0.019267573952674866, \
0.00044250537757761776, \
0.00037789359339512885, \
0.0031447645742446184, \
0.009042949415743351, \
0.029617460444569588, \
0.0018661970971152186, \
-0.004204164259135723, \
-0.0060007874853909016, \
0.004693472757935524, \
-0.020567426458001137, \
0.02495555952191353, \
0.0017310804687440395, \
-0.006290200632065535, \
-0.005549148190766573, \
-0.03549642115831375, \
0.020261049270629883, \
-0.0022300181444734335, \
0.016324039548635483, \
0.011363196186721325, \
-6.855699029983953e-05, \
0.021950319409370422, \
0.05720510333776474, \
-0.0001446271489840001, \
-0.01309293694794178, \
0.008338483981788158, \
-9.422189759789035e-05, \
-0.0032793984282761812, \
0.033692892640829086, \
-0.0631442666053772, \
0.03512062877416611, \
0.009821576066315174, \
0.06727466732263565, \
-0.012121908366680145, \
-0.0007167640142142773, \
-0.0154725955799222, \
0.006142080295830965, \
0.017453178763389587, \
-0.014638276770710945, \
-0.005537581164389849, \
0.02185847796499729, \
-0.015361438505351543, \
0.023918185383081436, \
0.0154442572966218, \
0.033816538751125336, \
-0.01415996253490448, \
0.003758341073989868, \
-0.003414809936657548, \
-0.008020183071494102, \
0.019013436511158943, \
-0.0015180206391960382, \
-0.0032870860304683447, \
-0.013683744706213474, \
0.0023251757957041264, \
0.012606252916157246, \
0.012481413781642914, \
-0.005587980151176453, \
5.264594074105844e-05, \
0.010262222960591316, \
-0.020020242780447006, \
0.022905662655830383, \
-0.0036475437227636576, \
0.00464654853567481, \
0.003922224044799805, \
0.005155571736395359, \
-0.011183110065758228, \
0.009670572355389595, \
0.012588489800691605, \
0.0038244137540459633, \
-0.004445875994861126, \
0.006901265121996403, \
-0.008086555637419224, \
0.012168778106570244, \
-0.0034883306361734867, \
0.03488131985068321, \
0.017146069556474686, \
-0.0028541432693600655, \
0.01345257181674242, \
-0.003844844177365303, \
-0.049525368958711624, \
0.01654956117272377, \
0.009610895998775959, \
-0.01184000726789236, \
0.030973002314567566, \
0.0010871926788240671, \
0.022885022684931755, \
-0.0008039973909035325, \
-0.0002554105594754219, \
0.023811116814613342, \
-0.005838284268975258, \
0.016742335632443428, \
-0.020169228315353394, \
-0.01600443385541439, \
-0.015275143086910248, \
0.00996795017272234, \
0.02674882486462593, \
-0.0028495569713413715, \
-0.0009811522904783487, \
-0.012745454907417297, \
-0.007979563437402248, \
0.0478229895234108, \
-0.01829744130373001, \
0.001695461804047227, \
0.02279934287071228, \
0.0207194946706295, \
0.011683889664709568, \
-0.010344774462282658, \
-0.0006511013489216566, \
-7.250800263136625e-05, \
-0.020343562588095665, \
0.01070907898247242, \
-0.011416048742830753, \
0.013709028251469135, \
0.01724027842283249, \
-0.0184871144592762, \
-0.010449588298797607, \
0.018638301640748978, \
-0.00771691370755434, \
-0.010677756741642952, \
0.006940803956240416, \
-0.017355183139443398, \
-0.0256926529109478, \
0.01984737627208233, \
-0.013508149422705173, \
0.005597716197371483, \
-0.015467524528503418, \
-0.00974635686725378, \
-0.005344886798411608, \
0.0015570122050121427, \
0.01956724375486374, \
-0.0069060311652719975, \
0.01588594540953636, \
0.008037615567445755, \
-0.00451709283515811, \
-0.003864437574520707, \
0.011604896746575832, \
-0.010017622262239456, \
0.0049134171567857265, \
-0.012461723759770393, \
0.006877447012811899, \
0.04056181013584137, \
-0.01470464188605547, \
-0.02609986811876297, \
-0.0025512431748211384, \
0.006898312829434872, \
0.003956608008593321, \
0.0069244541227817535, \
-0.016937751322984695, \
0.003546005580574274, \
0.004183779936283827, \
0.014085311442613602, \
0.005955004133284092, \
0.010344757698476315, \
-0.010242044925689697, \
0.009942074306309223, \
-0.008666268549859524, \
0.00501928199082613, \
0.001658509485423565, \
-0.003990031313151121, \
0.017456483095884323, \
-0.001435180427506566, \
0.019015446305274963, \
0.012742133811116219, \
0.011483139358460903, \
-0.0002902493579313159, \
0.0024906471371650696, \
-0.005484827794134617, \
0.003663172945380211, \
-0.01747783273458481, \
0.002955593168735504, \
0.020124154165387154, \
0.0370505154132843, \
-0.00033563232864253223, \
-0.009800429455935955, \
-0.0059327417984604836, \
0.0035597614478319883, \
0.004777883179485798, \
-0.02027897909283638, \
-0.013794291764497757, \
0.0048835622146725655, \
0.013716498389840126, \
-0.010912972502410412, \
0.0069822100922465324, \
-0.00324650714173913, \
-0.018900154158473015, \
0.009067915380001068, \
0.026028070598840714, \
0.004947211127728224, \
-0.030075175687670708, \
-0.0053554014302790165, \
0.026890717446804047, \
-0.012039095163345337, \
-0.010991648770868778, \
0.02091865986585617, \
0.0009816245874390006, \
-0.03855311870574951, \
0.011382002383470535, \
-0.005084231961518526, \
-0.006407081615179777, \
-0.0035008746199309826, \
0.02887037955224514, \
-0.0009526117355562747, \
-0.03295609727501869, \
0.012831240892410278, \
0.0003742236294783652, \
0.014670689590275288, \
-0.006031621713191271, \
0.01904182881116867, \
0.0012896554544568062, \
0.0030464911833405495, \
0.006137491669505835, \
0.0002012528566410765, \
-0.004737159702926874, \
-0.002882762812077999, \
-0.012886811047792435, \
0.0225303303450346, \
0.011934234760701656, \
-0.0013806561473757029, \
0.001035855384543538, \
0.007939403876662254, \
0.01955684833228588, \
0.007605665363371372, \
0.007010185159742832, \
0.05740755423903465, \
-0.0063269538804888725, \
0.005956110078841448, \
0.005375876557081938, \
-0.008153505623340607, \
0.007178979925811291, \
0.00015839911065995693, \
0.012055746279656887, \
-0.006134777795523405, \
0.007446617819368839, \
0.024124931544065475, \
0.0014290439430624247, \
0.003745447611436248, \
0.019427241757512093, \
-0.006340080872178078, \
0.00022966484539210796, \
-0.02745838463306427, \
-0.03472636267542839, \
-0.010951757431030273, \
-0.009895467199385166, \
-0.0004753227112814784, \
0.0031312652863562107, \
-0.004619945771992207, \
-0.02019154466688633, \
0.01544212456792593, \
-0.008879401721060276, \
0.017723722383379936, \
0.01031459029763937, \
0.0009854772360995412, \
-0.0015560450265184045, \
0.007756756152957678, \
-0.002600416773930192, \
-0.02052564173936844, \
0.005099758505821228, \
-0.004772766958922148, \
0.004071492236107588, \
-0.016670018434524536, \
-0.007182984612882137, \
-0.008714873343706131, \
-0.01584305427968502, \
-0.024340558797121048, \
-0.012133351527154446, \
-0.018772581592202187, \
-0.011748507618904114, \
0.00028878485318273306, \
-0.0048089222982525826, \
0.02303415909409523, \
0.014501741155982018, \
-0.0031435061246156693, \
0.00296148844063282, \
-0.0020152684301137924, \
0.00964277982711792, \
-0.006343362387269735, \
0.005964723881334066, \
-0.00040326599264517426, \
-0.004556586500257254, \
0.006955596152693033, \
0.001845155144110322, \
0.0006026931805536151, \
-0.011147933080792427, \
-0.007305699400603771, \
-0.003672916442155838, \
0.0023067037109285593, \
0.009987781755626202, \
-0.002582244109362364, \
0.01321516465395689, \
-0.01592194475233555, \
-0.002860564971342683, \
0.005668342113494873, \
0.017215795814990997, \
-0.014467710629105568, \
-0.02074415050446987, \
0.002990656066685915, \
-0.0013051308924332261, \
0.007727349642664194, \
-0.010370251722633839, \
-0.009935149922966957, \
-0.007863524369895458, \
-0.00955306738615036, \
-0.0012180809862911701, \
-0.005748081021010876, \
0.0021311924792826176, \
-0.007171281147748232, \
0.007907401770353317, \
-0.010099663399159908, \
0.0022302402649074793, \
-0.012178066186606884, \
0.0001333863619947806, \
-0.0016982719535008073, \
-0.005720827728509903, \
-0.01229825895279646, \
0.010586723685264587, \
-0.008076505735516548, \
0.009593100287020206, \
0.02420687861740589, \
0.012316406704485416, \
-0.0034734432119876146, \
0.02549723908305168, \
-0.01630248874425888, \
-0.04661466181278229, \
0.000736241287086159, \
-0.009317259304225445, \
0.01863235980272293, \
0.004264676012098789, \
0.02899167314171791, \
-0.0062173097394406796, \
0.006516458932310343, \
-0.008175614289939404, \
-0.01626668870449066, \
-0.014102240093052387, \
-0.019063929095864296, \
0.01925005204975605, \
-0.001789219444617629, \
-0.0024977221619337797, \
0.00019367899221833795, \
0.00468073133379221, \
0.015730321407318115, \
-0.0029964593704789877, \
0.002579308347776532, \
-0.009858638048171997, \
0.015046731568872929, \
0.008660472929477692, \
0.013019146397709846, \
0.04256894439458847, \
-0.005390138830989599, \
-0.020184017717838287, \
0.005651718471199274, \
0.027532238513231277, \
0.016780206933617592, \
0.00830227043479681, \
0.031582996249198914, \
-0.010011994279921055, \
-0.00649294862523675, \
0.005879892501980066, \
-0.012743048369884491, \
0.006145143881440163, \
-0.006893351208418608, \
0.005064261145889759, \
0.0011904668062925339, \
0.025912325829267502, \
0.011163893155753613, \
-0.006318821106106043, \
0.010938410647213459, \
-0.006988395471125841, \
0.008531671017408371, \
0.0016816614661365747, \
-0.003360023722052574, \
0.03375563770532608, \
0.029416194185614586, \
-0.013484762981534004, \
0.012381804175674915, \
0.004232584498822689, \
-0.024882877245545387, \
0.004979981109499931, \
-0.010492129251360893, \
0.0017132339999079704, \
0.006448907777667046, \
}
