#define features_4_weight {\
3.998018929807223e-12, \
-0.041387736797332764, \
-0.020851705223321915, \
-0.04965320602059364, \
-0.0007535056211054325, \
0.023543929681181908, \
0.050123345106840134, \
-0.08034060895442963, \
0.008467676118016243, \
0.036096107214689255, \
-0.10524587333202362, \
-0.12051718682050705, \
-0.005728829652070999, \
-0.004960205871611834, \
-0.0675668865442276, \
-0.00484582781791687, \
-0.006090968381613493, \
3.859789918236878e-11, \
0.0031950692646205425, \
0.0024426954332739115, \
-0.0004999868106096983, \
-0.023650366812944412, \
0.008768205530941486, \
-0.007439593318849802, \
-0.07054924219846725, \
-0.005298650823533535, \
-0.058569036424160004, \
-0.0018178204772993922, \
0.0028892913833260536, \
-0.0012441009748727083, \
-0.012200805358588696, \
-0.02932099997997284, \
-0.0782037004828453, \
-0.01966954953968525, \
-0.002858090680092573, \
-0.0014683282934129238, \
-0.0016956868348643184, \
1.511396043041291e-11, \
4.1898037123067056e-11, \
-0.002113045658916235, \
-0.010752227157354355, \
-0.0023395053576678038, \
0.0007087940466590226, \
0.0005838290671817958, \
-0.1664007008075714, \
-0.023799944669008255, \
0.018673375248908997, \
-0.0015921310987323523, \
0.0015717062633484602, \
-0.018031872808933258, \
0.044665444642305374, \
-0.02147486060857773, \
0.08277349919080734, \
-0.040051743388175964, \
-0.004442127421498299, \
-0.03333117440342903, \
-4.5450268548741235e-11, \
0.058379337191581726, \
0.008126838132739067, \
0.007446549367159605, \
-0.008871705271303654, \
-0.013047130778431892, \
-0.07083278149366379, \
0.03709706291556358, \
-4.5741583264147234e-12, \
-0.04424355551600456, \
-0.018213022500276566, \
-0.04070459306240082, \
-0.0007663319702260196, \
0.011465802788734436, \
0.01814904808998108, \
-0.08531375974416733, \
-0.05456183850765228, \
-0.036974381655454636, \
-0.11183623969554901, \
-0.08557067811489105, \
0.0027517129201442003, \
-0.022091105580329895, \
-0.07381653040647507, \
-0.004606038797646761, \
-0.005988450720906258, \
3.466349776659605e-11, \
0.003021964803338051, \
0.0031686050351709127, \
-0.10780293494462967, \
-0.010135618969798088, \
0.008743891492486, \
-0.007983734831213951, \
-0.11468444764614105, \
-0.007132525555789471, \
-0.045398976653814316, \
0.0007823929190635681, \
0.006888861767947674, \
-0.00405978923663497, \
-0.0069318125024437904, \
0.02729710377752781, \
-0.018247799947857857, \
-0.008977324701845646, \
-0.04067084938287735, \
-0.002165905898436904, \
-0.0019221402471885085, \
2.2081624723169213e-11, \
4.377321075055285e-11, \
0.00023450690787285566, \
0.006457195617258549, \
-0.0023867383133620024, \
0.07058438658714294, \
-0.0019008268136531115, \
-0.24969933927059174, \
-0.03042750060558319, \
0.0014180925209075212, \
-0.0021303414832800627, \
0.003703285939991474, \
-0.013238335959613323, \
0.047813139855861664, \
-0.05834523215889931, \
0.1074141189455986, \
-0.04308439418673515, \
0.004333031363785267, \
-0.025134196504950523, \
1.2309786003028567e-11, \
0.16865772008895874, \
0.020283503457903862, \
0.058963850140571594, \
-0.007070664316415787, \
-0.10647199302911758, \
-0.053354114294052124, \
-0.0034065661020576954, \
-2.7047684838382713e-12, \
-0.05140288546681404, \
-0.010431154631078243, \
-0.03841141611337662, \
0.0008970678900368512, \
0.07490114867687225, \
0.00827140361070633, \
-0.047687750309705734, \
0.04622893035411835, \
0.040984585881233215, \
-0.06742984056472778, \
0.010150039568543434, \
0.022117722779512405, \
-0.01964503712952137, \
0.007817582227289677, \
-0.0018336434150114655, \
-0.010424655862152576, \
1.6533762206560887e-11, \
0.0014263830380514264, \
0.0006660036160610616, \
-0.06498350203037262, \
-0.010962228290736675, \
0.05858813598752022, \
-0.0035104649141430855, \
-0.04407280310988426, \
-0.005229058209806681, \
-0.056864183396101, \
-0.002202979288995266, \
0.004404095932841301, \
-0.00491007324308157, \
-0.00663510337471962, \
0.006100834347307682, \
0.014532346278429031, \
-0.010569311678409576, \
-0.09231705218553543, \
-0.0032711047679185867, \
-0.0025196336209774017, \
1.6552037518380303e-11, \
2.7050538892181564e-11, \
3.3414497011108324e-05, \
0.0014906480209901929, \
-0.0017089024186134338, \
0.001423095935024321, \
-0.005152963567525148, \
-0.1681419461965561, \
-0.02401636727154255, \
0.003504099790006876, \
-0.0015134232817217708, \
0.0023731181863695383, \
-0.013683103956282139, \
0.01586492545902729, \
0.06571424007415771, \
0.0930459275841713, \
-0.02642292156815529, \
0.0070054130628705025, \
-0.007609919644892216, \
-2.2759277101824793e-12, \
0.14798587560653687, \
0.013096661306917667, \
0.025380216538906097, \
-0.0070053753443062305, \
-0.049580167979002, \
0.020965207368135452, \
-0.029712378978729248, \
-3.143477882508461e-12, \
-0.029702074825763702, \
-0.009138450026512146, \
-0.0261329747736454, \
-0.0027608938980847597, \
0.029711566865444183, \
0.053530119359493256, \
-0.004130942281335592, \
0.02829010970890522, \
0.006855213548988104, \
-0.0679796114563942, \
0.020848974585533142, \
-0.00542072020471096, \
-0.023224329575896263, \
0.036647338420152664, \
-0.0033047578763216734, \
-0.0008561708964407444, \
4.903619871265974e-11, \
-0.00030426139710471034, \
-0.001375725376419723, \
0.09657366573810577, \
-0.0007959286449477077, \
-0.03624171018600464, \
-0.007037624716758728, \
-0.009959002025425434, \
-0.012479602359235287, \
-0.0028200417291373014, \
-0.00455947732552886, \
-0.0016534399474039674, \
0.0020046173594892025, \
-0.010065490379929543, \
-0.06382553279399872, \
-0.051575787365436554, \
-0.023106316104531288, \
-0.009768093004822731, \
-0.0016786151099950075, \
-0.0019709260668605566, \
2.676903490539395e-11, \
4.001918241236524e-11, \
-0.003401761408895254, \
-0.014943582937121391, \
-0.001859475625678897, \
-0.05777798220515251, \
0.0007821297040209174, \
0.06779126822948456, \
-0.026142118498682976, \
0.015480768866837025, \
-0.0035568256862461567, \
-0.0006846347241662443, \
-0.011591902002692223, \
0.0075694057159125805, \
0.049325376749038696, \
-0.10228219628334045, \
-0.039986442774534225, \
-0.016831882297992706, \
-0.02666127309203148, \
5.034259467628921e-12, \
-0.09351146966218948, \
-0.004269504453986883, \
-0.12003447115421295, \
-0.014168048277497292, \
0.10394918918609619, \
-0.0017139303963631392, \
0.05455643683671951, \
-3.061999221884437e-12, \
-0.035429809242486954, \
-0.014058509841561317, \
-0.03187569975852966, \
0.0018080660374835134, \
0.023589806631207466, \
-0.00980493612587452, \
-0.0033656321465969086, \
0.11210908740758896, \
-0.05650564283132553, \
-0.042445458471775055, \
0.09365390241146088, \
-0.0052252220921218395, \
-0.010867973789572716, \
0.0051634302362799644, \
-0.0017430585576221347, \
-0.002703300444409251, \
6.082007814045554e-11, \
0.004383808001875877, \
0.004215481225401163, \
-0.05570489913225174, \
-0.011495528742671013, \
0.016504444181919098, \
0.006549149751663208, \
0.10681482404470444, \
-0.011404822580516338, \
0.1504453867673874, \
-0.0017564359586685896, \
0.009405910968780518, \
-0.0043025994673371315, \
-0.006131384056061506, \
0.015538115985691547, \
0.10231036692857742, \
-0.029108386486768723, \
0.005063466262072325, \
-0.00362408347427845, \
-0.001492320909164846, \
3.2749178369151366e-11, \
4.69731371854909e-11, \
0.0003939249145332724, \
-0.006991487927734852, \
-0.0022828676737844944, \
0.05742940679192543, \
-0.0005430029123090208, \
0.11524975299835205, \
-0.022065263241529465, \
0.0269037913531065, \
-0.003377057844772935, \
0.004949848633259535, \
0.006409808527678251, \
0.07223480194807053, \
0.04395501688122749, \
0.0032544746063649654, \
-0.021707948297262192, \
0.011812152341008186, \
-0.017027825117111206, \
1.0743999440121499e-11, \
-0.021042179316282272, \
0.025644395500421524, \
0.0031570587307214737, \
-0.006455875001847744, \
0.018151376396417618, \
0.036806609481573105, \
0.02646184340119362, \
-1.1160667875986796e-11, \
-0.0377795435488224, \
-0.01963029056787491, \
-0.024839594960212708, \
0.0021039487328380346, \
0.058881670236587524, \
-0.002478142501786351, \
0.04893136024475098, \
0.015355401672422886, \
-0.026644039899110794, \
0.017037274315953255, \
0.04271971061825752, \
-0.0026208229828625917, \
-0.013640070334076881, \
-0.014541464857757092, \
-0.0025359520222991705, \
-0.008537689223885536, \
2.473253025991884e-11, \
0.0021039436105638742, \
0.0026110250037163496, \
-0.06551118940114975, \
-0.023550424724817276, \
0.07287323474884033, \
0.0035999405663460493, \
0.1074027568101883, \
-0.0089566670358181, \
0.25165605545043945, \
-0.005430541001260281, \
0.006075210869312286, \
-0.0014607504708692431, \
-0.004338075872510672, \
0.04343045875430107, \
0.025750387459993362, \
-0.026538509875535965, \
-0.04792609438300133, \
-0.0011918669333681464, \
-0.0018000331474468112, \
1.8205570731510967e-11, \
3.046290650288164e-11, \
0.0013955639442428946, \
-0.0006913915276527405, \
-0.0018429330084472895, \
0.017133988440036774, \
-0.0027171627152711153, \
0.009686564095318317, \
-0.014197144657373428, \
0.013922587968409061, \
-0.0028943957295268774, \
0.003256269497796893, \
0.016007205471396446, \
0.029590269550681114, \
0.0119170518592, \
0.07973654568195343, \
0.010624722577631474, \
0.01712931878864765, \
-0.01813942939043045, \
-2.3166751503267413e-11, \
0.042040660977363586, \
0.017075002193450928, \
0.012619470246136189, \
-0.006221116054803133, \
0.03171864151954651, \
-0.04503193125128746, \
0.06860276311635971, \
-5.538473325794602e-12, \
-0.016392897814512253, \
0.0043688309378921986, \
-0.024123206734657288, \
-0.0032429394777864218, \
-0.0072623733431100845, \
0.06551770865917206, \
-0.010135834105312824, \
-0.09175088256597519, \
0.018295785412192345, \
-0.031492363661527634, \
0.08131024986505508, \
0.037938542664051056, \
0.0004576256324071437, \
0.02793399803340435, \
-0.002213746774941683, \
0.0027786383870989084, \
4.414368870442331e-11, \
-0.0030311590526252985, \
-0.005904947407543659, \
0.04532239958643913, \
0.04017584025859833, \
-0.05111825838685036, \
-0.010025941766798496, \
-0.041571244597435, \
-0.011348283849656582, \
-0.12891751527786255, \
-0.0032456282060593367, \
-0.010781379416584969, \
0.00015042150334920734, \
-0.009584799408912659, \
-0.06433549523353577, \
-0.04060984030365944, \
-0.006434578914195299, \
-0.03772420063614845, \
-0.001712616067379713, \
-0.0025737055111676455, \
2.982056268585609e-11, \
5.054526588943453e-11, \
-0.003550186986103654, \
-0.007183948997408152, \
-0.0009545790962874889, \
-0.10709195584058762, \
-0.00012840083218179643, \
0.17814002931118011, \
-0.009628688916563988, \
0.025500694289803505, \
-0.0023408441338688135, \
-0.005442352034151554, \
-0.019759975373744965, \
-0.022860335186123848, \
0.043325282633304596, \
-0.18496839702129364, \
-0.040445707738399506, \
-0.05225805193185806, \
0.0015596641460433602, \
-2.3292508546934876e-11, \
-0.15550655126571655, \
-0.02935931459069252, \
-0.10165278613567352, \
-0.008823727257549763, \
0.12137003242969513, \
-0.020781587809324265, \
0.041883982717990875, \
-1.1954410985420827e-12, \
-0.030444005504250526, \
-0.0036434978246688843, \
-0.01404221635311842, \
0.0015825870214030147, \
-0.05772225931286812, \
-0.003419175511226058, \
0.01697416417300701, \
-0.06174267828464508, \
-0.030254850164055824, \
0.004611637443304062, \
0.09710264950990677, \
0.04131227731704712, \
-0.019941041246056557, \
-0.006563817150890827, \
0.0016796389827504754, \
0.002793424529954791, \
6.857461126719144e-11, \
0.0016791862435638905, \
-0.0027431363705545664, \
0.05701978877186775, \
0.01894952729344368, \
0.020320894196629524, \
0.0020608268678188324, \
-0.06467315554618835, \
-0.007744463626295328, \
-0.0560741052031517, \
0.001371361198835075, \
-0.0012826117454096675, \
0.004704593680799007, \
-0.00043757297680713236, \
-0.041968218982219696, \
0.029640866443514824, \
-0.017283419147133827, \
0.03821445256471634, \
-0.0035657580010592937, \
-0.0011830858420580626, \
3.461499142876079e-11, \
5.063551314354875e-11, \
-0.0013320724247023463, \
-0.004990708082914352, \
-0.0013240324333310127, \
0.09490842372179031, \
-0.00036390998866409063, \
0.22877006232738495, \
-0.012790465727448463, \
0.029221542179584503, \
-0.0009122315677814186, \
-0.0005015053902752697, \
-0.010054287500679493, \
0.055095598101615906, \
0.03985055536031723, \
-0.17026089131832123, \
-0.018563607707619667, \
-0.025397447869181633, \
0.009833360090851784, \
-5.72646374763508e-11, \
-0.10081320255994797, \
-0.0036962300073355436, \
-0.017413711175322533, \
-0.006799666211009026, \
0.02736995555460453, \
0.03420485556125641, \
-0.05806073918938637, \
-1.356878932129435e-11, \
-0.03558845818042755, \
0.0052146934904158115, \
-0.0352628119289875, \
0.0020568370819091797, \
0.014426946640014648, \
0.006274656858295202, \
0.02915412373840809, \
-0.08704321831464767, \
-0.05588456988334656, \
-0.01392612885683775, \
0.027795737609267235, \
0.042745716869831085, \
-0.030260777100920677, \
0.010348767973482609, \
-0.0007206444861367345, \
0.0006133620045147836, \
2.594288499302433e-11, \
0.0007828767993487418, \
-0.000781990063842386, \
-0.07976530492305756, \
0.03278040140867233, \
0.08104194700717926, \
0.0013930457644164562, \
-0.023205876350402832, \
-0.002518557943403721, \
-0.028783781453967094, \
0.0005248887464404106, \
-0.0007861790945753455, \
0.011063667014241219, \
-0.005527902860194445, \
-0.02302110567688942, \
-0.013841464184224606, \
-0.017739536240696907, \
-0.03124401718378067, \
-0.0002715883601922542, \
-0.0016951572615653276, \
1.773436605900791e-11, \
2.3780553914942715e-11, \
-4.85521049995441e-05, \
0.002018179977312684, \
-0.001010047853924334, \
0.018814725801348686, \
0.0009116468718275428, \
0.027438867837190628, \
0.0004499189672060311, \
0.007273721508681774, \
0.000604180502705276, \
-0.00017314772412646562, \
0.0027521916199475527, \
0.024570193141698837, \
-0.10980821400880814, \
-0.13717865943908691, \
0.01020666304975748, \
-0.02236160822212696, \
0.00826335046440363, \
-4.1265758171649125e-11, \
-0.06999794393777847, \
-0.0020351740531623363, \
-0.06341365724802017, \
-0.010662860237061977, \
0.03773536533117294, \
-0.09715145826339722, \
-0.10060814768075943, \
-1.4388849486901556e-11, \
-0.009972703643143177, \
-0.02204699069261551, \
0.07237228751182556, \
0.0023309781681746244, \
0.09202698618173599, \
0.06621496379375458, \
0.062370527535676956, \
-0.024920402094721794, \
0.07974454015493393, \
-0.0004453016154002398, \
-0.05846978351473808, \
0.06539693474769592, \
0.09799085557460785, \
-0.052739255130290985, \
0.004667586646974087, \
-0.004195227753371, \
6.65860491744219e-11, \
-0.003342107404023409, \
-0.0046434300020337105, \
0.07665662467479706, \
0.0235070139169693, \
-0.021689675748348236, \
-0.001981551293283701, \
-0.09154661744832993, \
-0.009015672840178013, \
-0.05937542766332626, \
0.0037780955899506807, \
-0.01042905542999506, \
-0.00769482646137476, \
0.009544534608721733, \
-0.0276089645922184, \
-0.060485489666461945, \
-0.008089341223239899, \
-0.0005952939973212779, \
-0.00028978718910366297, \
-0.0008562510483898222, \
2.453403626090367e-11, \
4.234143244352673e-11, \
-0.0021537935826927423, \
0.017781972885131836, \
-0.0016146623529493809, \
-0.03487551957368851, \
0.006302759982645512, \
-0.010845828801393509, \
-0.020831456407904625, \
0.018654894083738327, \
-0.002213644329458475, \
-0.005415169522166252, \
0.005827889312058687, \
0.03353317826986313, \
-0.015108378604054451, \
-0.0611039437353611, \
0.0002961460850201547, \
-0.05102691426873207, \
-0.004681643098592758, \
-1.1915973416321002e-11, \
-0.018704593181610107, \
-0.02862296998500824, \
-0.037358611822128296, \
-0.005442577414214611, \
0.09277208149433136, \
-0.06474991887807846, \
-0.019508110359311104, \
-1.544606456627129e-11, \
0.00021383636340033263, \
-0.030904479324817657, \
0.1097598746418953, \
0.005652510095387697, \
0.0009050430380739272, \
0.012286542914807796, \
0.11905588954687119, \
0.011643585748970509, \
0.10734725743532181, \
-0.05025576427578926, \
-0.10242561995983124, \
0.08275455981492996, \
0.027376728132367134, \
-0.06400451809167862, \
0.009181544184684753, \
0.0005921889678575099, \
8.633377346356497e-11, \
-0.001863116049207747, \
-0.0010723471641540527, \
0.03689155355095863, \
0.005772775504738092, \
0.05605493485927582, \
0.009167556650936604, \
0.0007746396004222333, \
0.005082758609205484, \
0.020578371360898018, \
0.0022849556989967823, \
-0.008385966531932354, \
0.004685207270085812, \
0.017138203606009483, \
-0.04819616302847862, \
-0.05377988517284393, \
-0.0036859032697975636, \
0.0995999127626419, \
-0.0029762238264083862, \
-0.00033321307273581624, \
3.2505963198925514e-11, \
4.6864286756820306e-11, \
-0.001805684994906187, \
0.020669585093855858, \
-0.0019354233518242836, \
-0.098127081990242, \
0.00120628927834332, \
-0.0985662192106247, \
-0.023645929992198944, \
-0.00205651274882257, \
0.002282556379213929, \
-0.004502402618527412, \
0.024223700165748596, \
0.09684260189533234, \
-0.042625926434993744, \
-0.021687395870685577, \
0.05979043245315552, \
-0.03779587149620056, \
-0.01669251173734665, \
-2.5367600381409616e-11, \
0.10696753114461899, \
-0.023871399462223053, \
-0.016987890005111694, \
-0.015506683848798275, \
-0.06137003004550934, \
0.007860367186367512, \
-0.00751916691660881, \
-1.649085902555303e-11, \
-0.001307613798417151, \
-0.01972402259707451, \
0.08674254268407822, \
0.002624214394018054, \
0.07366310060024261, \
0.0457473061978817, \
0.04381841793656349, \
-0.005843113176524639, \
-0.06157807260751724, \
-0.06501510739326477, \
0.08038059622049332, \
0.09573031216859818, \
0.03924574330449104, \
0.037553414702415466, \
0.010186556726694107, \
0.004756338428705931, \
6.544367825433994e-11, \
-0.0007065656245686114, \
-0.0011547737522050738, \
-0.028334030881524086, \
0.006761407013982534, \
0.03424905613064766, \
0.0006014403770677745, \
-0.0301956944167614, \
0.008211981505155563, \
0.015088442713022232, \
0.006929540075361729, \
-0.007633696310222149, \
0.007123314309865236, \
0.018826737999916077, \
-0.048915039747953415, \
0.09979351609945297, \
0.007086127530783415, \
0.006716003641486168, \
-0.0015856229001656175, \
-0.0005031825858168304, \
1.4948396687142207e-11, \
2.4430377859596675e-11, \
-0.0016323112649843097, \
0.018953338265419006, \
-0.0012062389869242907, \
0.16950082778930664, \
0.0039374325424432755, \
-0.0928577110171318, \
-0.01608365774154663, \
-0.002303384244441986, \
0.0036585822235792875, \
-0.004076072946190834, \
0.01326174195855856, \
0.10009372234344482, \
-0.010306483134627342, \
0.024460196495056152, \
0.0212806835770607, \
-0.04482892155647278, \
0.012464656494557858, \
6.126099627579151e-12, \
0.1005488857626915, \
-0.021920498460531235, \
0.11804337054491043, \
-0.0038063758984208107, \
-0.12618836760520935, \
0.10623324662446976, \
0.025460707023739815, \
-1.934450342966354e-11, \
-0.008666646666824818, \
-0.03359198197722435, \
0.08347935974597931, \
0.0008457335061393678, \
-0.029483556747436523, \
-0.030882658436894417, \
-0.04172489419579506, \
-0.003252039197832346, \
0.09306898713111877, \
-0.05103586986660957, \
-0.01896807737648487, \
0.07143863290548325, \
-0.0001880085765151307, \
-0.08137322217226028, \
0.004646935500204563, \
-0.013544895686209202, \
7.035054483406356e-11, \
-0.002581619890406728, \
-0.002644255990162492, \
0.0829329639673233, \
0.023449689149856567, \
-0.0316753089427948, \
0.0028869931120425463, \
-0.03240111842751503, \
-0.013577742502093315, \
0.017023248597979546, \
-0.005535914562642574, \
-0.0065678623504936695, \
-0.009089097380638123, \
0.020888902246952057, \
-0.0313936211168766, \
-0.011649752967059612, \
-0.025057025253772736, \
0.10112142562866211, \
-0.00218966300599277, \
-0.0010110011789947748, \
3.945316989772962e-11, \
4.650627105640126e-11, \
-0.0024302753154188395, \
0.01831841468811035, \
-0.0010383774060755968, \
-0.11466529965400696, \
-0.0028366076294332743, \
0.10335475206375122, \
-0.029985858127474785, \
-0.016455503180623055, \
-0.003957614302635193, \
-0.0035745403729379177, \
-0.008833234198391438, \
0.008351318538188934, \
-0.02956351451575756, \
-0.08698824793100357, \
0.03484578803181648, \
-0.02768227644264698, \
0.007822530344128609, \
1.6137379627023662e-11, \
-0.018362972885370255, \
-0.019066954031586647, \
-0.0025802154559642076, \
-0.00887567363679409, \
0.09949386864900589, \
0.041153840720653534, \
0.05902621150016785, \
-2.2515767028608025e-11, \
-0.052509915083646774, \
-0.07458548247814178, \
0.08953051269054413, \
-0.0021755420602858067, \
-0.028546292334794998, \
-0.1048683300614357, \
-0.0035032201558351517, \
0.051662642508745193, \
-0.004494101274758577, \
-0.05709484964609146, \
0.017127610743045807, \
0.06346996128559113, \
-0.08204308152198792, \
-0.09582550078630447, \
0.0053941342048347, \
-0.019147733226418495, \
3.396182987613905e-11, \
-0.0031772020738571882, \
-0.005964311771094799, \
0.1752249151468277, \
-0.042190250009298325, \
-0.12883268296718597, \
-0.005843397229909897, \
0.04028398171067238, \
-0.007974770851433277, \
-0.07905299216508865, \
-0.017633477225899696, \
-0.012944654561579227, \
-0.013475831598043442, \
0.020070545375347137, \
-0.10051926225423813, \
-0.1042179986834526, \
-0.03509083390235901, \
0.12731711566448212, \
-0.006148646119982004, \
-0.0017667401116341352, \
3.9899829967771083e-11, \
5.1081736063274263e-11, \
-0.0038771526888012886, \
-0.005312169436365366, \
-0.0023831380531191826, \
-0.0654713585972786, \
-0.01087410282343626, \
0.2293328493833542, \
-0.03621257469058037, \
-0.06050584465265274, \
-0.003593555185943842, \
-0.0067937541753053665, \
0.0061346846632659435, \
0.03280738741159439, \
0.03466958925127983, \
-0.10059837251901627, \
0.09984001517295837, \
-0.05190450698137283, \
-0.02991572581231594, \
-7.135875224051347e-11, \
-0.07358556985855103, \
-0.0359027273952961, \
-0.09006630629301071, \
-0.0308053158223629, \
0.006561290938407183, \
-0.025562623515725136, \
0.025453047826886177, \
-3.247031463149419e-11, \
-0.025024786591529846, \
-0.048520948737859726, \
0.08840228617191315, \
-0.00382464868016541, \
-0.02900017239153385, \
-0.10897447913885117, \
-0.028314918279647827, \
0.011250108480453491, \
-0.023412402719259262, \
-0.07005442678928375, \
0.06297668069601059, \
0.08038058876991272, \
-0.0318010151386261, \
-0.04047038033604622, \
0.007802913431078196, \
-0.012219006195664406, \
4.1376894965861055e-11, \
-0.00339648243971169, \
-0.004924124572426081, \
-0.04857741668820381, \
-0.01702266000211239, \
-0.09348617494106293, \
-0.008006376214325428, \
-0.022554658353328705, \
-0.008940750733017921, \
0.007443784270435572, \
-0.013105367310345173, \
-0.013294870965182781, \
-0.010186376050114632, \
0.02499191090464592, \
-0.08213751763105392, \
0.07393816858530045, \
-0.02965325489640236, \
-0.023663390427827835, \
-0.00458584213629365, \
-0.0020957679953426123, \
2.809175114748541e-11, \
3.0123063765596925e-11, \
-0.002392412628978491, \
-0.0009713411564007401, \
-0.0015953256515786052, \
0.11679170280694962, \
-0.010567119345068932, \
0.0891706794500351, \
-0.029602667316794395, \
-0.051673416048288345, \
-0.0036865961737930775, \
-0.007127706427127123, \
-0.0028242485132068396, \
0.03306155279278755, \
0.19918353855609894, \
-0.06599735468626022, \
0.04590722918510437, \
-0.05861619487404823, \
0.008170783519744873, \
-9.94582281116374e-12, \
-0.028417566791176796, \
-0.03779909014701843, \
0.017847562208771706, \
-0.014230553060770035, \
-0.015504319220781326, \
0.08106324076652527, \
0.06834108382463455, \
-2.527822395848034e-11, \
-0.011252319440245628, \
-0.023857058957219124, \
0.08254718780517578, \
0.004965292289853096, \
-0.018082691356539726, \
-0.007447336800396442, \
-0.019251812249422073, \
-0.07554910331964493, \
0.004494980443269014, \
0.06068458408117294, \
-0.06454247236251831, \
0.09653199464082718, \
-0.10225110501050949, \
-0.07320844382047653, \
0.0063788616098463535, \
-0.011477927677333355, \
9.935654382564607e-11, \
0.0007102562813088298, \
0.0021662230137735605, \
-0.015086903236806393, \
0.04019299894571304, \
0.039622481912374496, \
0.009720463305711746, \
-0.03230739384889603, \
-0.0011451889295130968, \
-0.008044473826885223, \
-0.007947040721774101, \
0.0013465520460158587, \
-0.003262393409386277, \
0.023040132597088814, \
0.03918983042240143, \
-0.010281293652951717, \
-0.015209684148430824, \
-0.017230631783604622, \
-0.001779493992216885, \
-6.900342850713059e-05, \
3.1557166602080855e-11, \
5.079187070933244e-11, \
0.0003974872233811766, \
0.009647278115153313, \
-0.0002895052602980286, \
-0.15196846425533295, \
-0.0048285964876413345, \
-0.08588378876447678, \
-0.02053109183907509, \
-0.05065632238984108, \
0.0004026020469609648, \
0.0005758157349191606, \
0.0032654032111167908, \
-0.012739918194711208, \
0.03788298740983009, \
0.12088070809841156, \
0.04324662685394287, \
-0.004263909999281168, \
0.015674689784646034, \
-4.38193856200364e-11, \
0.16140514612197876, \
0.003432774916291237, \
-0.027731478214263916, \
0.005633837077766657, \
0.003370934631675482, \
0.07264906913042068, \
0.07084240764379501, \
-2.4039060672609303e-11, \
-0.059071701020002365, \
-0.0566183403134346, \
0.04060635343194008, \
-0.0005643601180054247, \
-0.061806570738554, \
-0.03387879952788353, \
-0.0588015578687191, \
0.0015090482775121927, \
-0.03855067491531372, \
0.005160213448107243, \
0.015326909720897675, \
0.08803334832191467, \
-0.14131031930446625, \
-0.04204343259334564, \
0.00739044276997447, \
-0.016139047220349312, \
6.729596740973065e-11, \
-0.002584050875157118, \
-0.0024886743631213903, \
0.02888140268623829, \
-0.018527856096625328, \
-0.07346951961517334, \
-0.0027904168237000704, \
-0.07199733704328537, \
-0.014292697422206402, \
-0.09867879748344421, \
-0.01907641440629959, \
-0.0062380894087255, \
-0.021063312888145447, \
0.008143897168338299, \
0.004308880772441626, \
0.00651603564620018, \
-0.041607897728681564, \
0.011894594877958298, \
-0.003041754476726055, \
-0.0017105446895584464, \
3.804164622200901e-11, \
5.028562288789118e-11, \
-0.0013053471921011806, \
-0.015223988331854343, \
-0.0013488621916621923, \
-0.11514667421579361, \
-0.006477402523159981, \
0.14175701141357422, \
-0.0360516794025898, \
-0.0740739107131958, \
-0.004999420139938593, \
-0.003212521318346262, \
-0.005176948849111795, \
0.019620003178715706, \
0.059208691120147705, \
0.0764823853969574, \
0.046526551246643066, \
-0.03326652944087982, \
-0.006596506107598543, \
-4.057791949674261e-11, \
0.06158323958516121, \
-0.016014467924833298, \
0.032520607113838196, \
-0.013439822010695934, \
-0.038486298173666, \
0.11544685065746307, \
0.0918925330042839, \
-2.8113714481414753e-11, \
-0.03461087867617607, \
-0.04267539083957672, \
0.04617493972182274, \
-0.0018572144908830523, \
-0.012487074360251427, \
-0.052043117582798004, \
-0.04935481771826744, \
0.10707243531942368, \
0.028295589610934258, \
0.02843976952135563, \
-0.03518419340252876, \
0.08782753348350525, \
-0.11517393589019775, \
-0.06015810742974281, \
0.004401203244924545, \
-0.01064686756581068, \
4.5953383459584884e-11, \
-0.00330942589789629, \
-0.003396658692508936, \
0.09695030748844147, \
0.021541357040405273, \
-0.03275935351848602, \
-0.0017399366479367018, \
0.05658901855349541, \
-0.0110782440751791, \
-0.10282061994075775, \
-0.01822761632502079, \
-0.009950830601155758, \
-0.01754864677786827, \
0.010095836594700813, \
0.010500586591660976, \
-0.08857481926679611, \
-0.02353484369814396, \
0.06110697612166405, \
-0.0005426544812507927, \
-0.0016767953056842089, \
2.9869481887878635e-11, \
3.9306610050138246e-11, \
0.0015771564794704318, \
-0.017941806465387344, \
-0.0009403403964824975, \
-0.038308948278427124, \
-0.002739463932812214, \
-0.002662437967956066, \
-0.02755972556769848, \
-0.08449847251176834, \
-0.0032981564290821552, \
-0.005236311350017786, \
0.005629305262118578, \
0.0028331426437944174, \
-0.025776466354727745, \
0.04966530203819275, \
0.05471174791455269, \
-0.045880742371082306, \
-0.005483661312609911, \
-4.082960965851035e-12, \
0.06799637526273727, \
-0.027013948187232018, \
-0.05827467888593674, \
0.0023535604123026133, \
0.03368925303220749, \
-0.07226797193288803, \
-0.005900708492845297, \
1.8880873427218337e-12, \
-0.06084926053881645, \
-0.0191345252096653, \
-0.030520597472786903, \
-0.010609354823827744, \
-0.04359668120741844, \
-0.1821126490831375, \
0.03989853709936142, \
0.024942174553871155, \
0.044798508286476135, \
-0.0369115024805069, \
-0.04585900902748108, \
0.04240670055150986, \
0.33039137721061707, \
-0.11626840382814407, \
-0.0034778614062815905, \
-0.027218719944357872, \
-5.090788901540577e-11, \
-0.004281040746718645, \
-0.00530990632250905, \
0.05901046842336655, \
-0.02924858033657074, \
0.0388651117682457, \
-0.023311207070946693, \
-0.04023313149809837, \
-0.028397276997566223, \
0.03358153998851776, \
-0.01997312717139721, \
-0.011211548000574112, \
-0.024350471794605255, \
0.0004647101159207523, \
-0.032185666263103485, \
0.03463665023446083, \
-0.05616549775004387, \
0.03418927639722824, \
-0.012312500737607479, \
-0.0001492269802838564, \
6.763237539453293e-12, \
3.1336988125935106e-12, \
-0.0011167096672579646, \
-0.01096020545810461, \
-0.0008960216655395925, \
-0.07201007753610611, \
-0.02208837866783142, \
-0.08020875602960587, \
0.02018045261502266, \
0.15154077112674713, \
-0.013173884712159634, \
-0.006210085935890675, \
-0.01392306387424469, \
-0.014173286035656929, \
0.05265292897820473, \
0.030238350853323936, \
-0.058222148567438126, \
-0.05402107909321785, \
-0.020184002816677094, \
-6.9339438704685286e-12, \
-0.026350831612944603, \
-0.03151737526059151, \
0.05687619373202324, \
-0.017576798796653748, \
-0.024563364684581757, \
-0.003296344541013241, \
0.10663726180791855, \
-8.893263729603529e-12, \
-0.04447941854596138, \
-0.033485304564237595, \
-0.03179590776562691, \
-0.012976313941180706, \
-0.061869461089372635, \
0.01903432607650757, \
-0.01760800927877426, \
0.09033754467964172, \
-0.08941169083118439, \
0.0021229160483926535, \
-0.027025600895285606, \
0.02754877880215645, \
-0.14665500819683075, \
-0.1827513426542282, \
-0.0036415194626897573, \
-0.021754426881670952, \
-5.2334168249013047e-11, \
-0.005286165047436953, \
-0.008179418742656708, \
0.06615972518920898, \
-0.04675707593560219, \
-0.07046375423669815, \
-0.022162361070513725, \
0.028667934238910675, \
-0.028090206906199455, \
-0.10206209123134613, \
-0.008249242790043354, \
-0.01223672367632389, \
-0.023882560431957245, \
-0.002906802576035261, \
-0.05757071077823639, \
-0.03802531212568283, \
-0.054453007876873016, \
0.0552348792552948, \
-0.008852769620716572, \
-0.0011717547895386815, \
1.3725985625878678e-11, \
7.791477966284654e-14, \
-0.003777400590479374, \
-0.004002360161393881, \
-0.000894072582013905, \
0.03204420208930969, \
-0.015315257012844086, \
-0.14733873307704926, \
-0.022824222221970558, \
-0.0730249360203743, \
-0.012566202320158482, \
-0.006640255451202393, \
-0.021994590759277344, \
-0.07562238723039627, \
-0.03990419581532478, \
-0.043214499950408936, \
-0.04669683054089546, \
-0.03663591668009758, \
-0.026848390698432922, \
1.602884769358326e-10, \
-0.07076556235551834, \
-0.033708978444337845, \
0.03405693918466568, \
-0.03302823379635811, \
-0.10976754128932953, \
-0.10300194472074509, \
-0.07469649612903595, \
-5.915192923151846e-13, \
0.038719963282346725, \
-0.029681652784347534, \
-0.005768072325736284, \
-0.008083867840468884, \
0.0825306847691536, \
0.2302318811416626, \
-0.0650973990559578, \
0.008754778653383255, \
-0.07375004142522812, \
-0.06421559303998947, \
0.039712175726890564, \
-0.014812786132097244, \
-0.3065476715564728, \
-0.06367561966180801, \
-0.004320941865444183, \
0.000541954068467021, \
-5.8140263436978756e-11, \
-0.004041384439915419, \
-0.007705100812017918, \
-0.015840772539377213, \
-0.07029295712709427, \
-0.10646278411149979, \
-0.013896968215703964, \
0.050286468118429184, \
-0.010706051252782345, \
-0.041143886744976044, \
0.006318866275250912, \
-0.008252638392150402, \
-0.007970369420945644, \
-0.00681956484913826, \
-0.047816675156354904, \
-0.033142443746328354, \
-0.004243830218911171, \
0.015068870969116688, \
-0.003992536570876837, \
0.0014420733787119389, \
4.9633166500362425e-12, \
7.644928093353265e-12, \
-0.004131888505071402, \
0.01896727830171585, \
-2.030468749580905e-05, \
-0.02343490906059742, \
0.004535717889666557, \
-0.011540624313056469, \
-0.014692875556647778, \
-0.16443446278572083, \
-0.005396125838160515, \
-0.004674543626606464, \
-0.013084791600704193, \
-0.021170087158679962, \
-0.016184892505407333, \
0.035707902163267136, \
-0.04512275010347366, \
0.012592991814017296, \
-0.03893144801259041, \
1.2059600540403892e-10, \
-0.016751548275351524, \
-0.02301003970205784, \
0.04580066353082657, \
-0.024768654257059097, \
-0.0778031125664711, \
-0.06748602539300919, \
0.0418013371527195, \
4.069003380763325e-12, \
-0.08508024364709854, \
-0.013168388977646828, \
0.019927822053432465, \
-0.006262207869440317, \
-0.01835271343588829, \
-0.255076140165329, \
0.04126334935426712, \
0.03843625262379646, \
-0.04184681177139282, \
-0.05038027465343475, \
0.06275981664657593, \
0.07854148000478745, \
0.46550923585891724, \
-0.1075553223490715, \
0.003014966379851103, \
-0.031291164457798004, \
-5.1242336762680196e-11, \
-0.0027460705023258924, \
-0.004316489212214947, \
-0.013783729635179043, \
0.0008543357835151255, \
0.018716823309659958, \
-0.008506959304213524, \
-0.018290257081389427, \
-0.023118624463677406, \
-0.12756438553333282, \
-0.020228909328579903, \
-0.012538828887045383, \
-0.02006743848323822, \
0.015199078246951103, \
-0.00867496244609356, \
0.0037424268666654825, \
-0.043846454471349716, \
0.006943547632545233, \
-0.009285538457334042, \
-0.0008479562238790095, \
-1.8431027103832376e-12, \
-4.34741045246545e-12, \
9.280860831495374e-05, \
-0.0339217483997345, \
0.0013571374583989382, \
-0.03571012243628502, \
-0.021319888532161713, \
-0.019523922353982925, \
0.02543497271835804, \
0.23029346764087677, \
-0.010911366902291775, \
-0.006618382874876261, \
-0.009719393216073513, \
-0.008822843432426453, \
-0.06249192729592323, \
0.004145570565015078, \
-0.0007415757863782346, \
-0.07693538069725037, \
0.022751236334443092, \
1.5725599988858363e-10, \
0.05589177459478378, \
-0.034756291657686234, \
-0.018258726224303246, \
0.0010785083286464214, \
-0.021320249885320663, \
0.06953310966491699, \
0.05137663707137108, \
-1.7915838083915059e-12, \
-0.07743388414382935, \
-0.040004223585128784, \
-0.027768714353442192, \
-0.0073231179267168045, \
-0.11090757697820663, \
-0.029745809733867645, \
0.02198384888470173, \
0.06232509762048721, \
-0.05703481659293175, \
0.05989006161689758, \
0.018253516405820847, \
0.06330189108848572, \
-0.10828537493944168, \
-0.13315227627754211, \
0.0005235046846792102, \
-0.0256988313049078, \
-7.883864394653273e-11, \
-0.006741369143128395, \
-0.01155762653797865, \
-0.013089379295706749, \
-0.04501873254776001, \
-0.09660708904266357, \
-0.005130994599312544, \
-0.00891625415533781, \
-0.03245735913515091, \
-0.14319925010204315, \
-0.022147297859191895, \
-0.0166646558791399, \
-0.027530919760465622, \
4.184226781944744e-05, \
-0.0464128814637661, \
-0.02586348168551922, \
-0.05731161683797836, \
0.017318857833743095, \
-0.010427595116198063, \
-0.003462517634034157, \
-1.1089234999012154e-12, \
2.001461930217774e-12, \
-0.004060228820890188, \
-0.03556573763489723, \
0.00023780393530614674, \
-0.05030488967895508, \
-0.01767498068511486, \
-0.048785023391246796, \
-0.03247199207544327, \
-0.04489465057849884, \
-0.012533540837466717, \
-0.008842885494232178, \
-0.015569863840937614, \
-0.043376799672842026, \
0.015321043320000172, \
-0.1268436312675476, \
-0.03135181963443756, \
-0.06813853979110718, \
-0.0017524753930047154, \
1.9245671029066713e-11, \
-0.10694374144077301, \
-0.04574122279882431, \
-0.0747038945555687, \
-0.030732523649930954, \
-0.1328505128622055, \
-0.00247675902210176, \
-0.03341076150536537, \
5.1842021344186695e-14, \
0.0321173369884491, \
-0.019449101760983467, \
-0.022128941491246223, \
-0.004508906044065952, \
-0.060018688440322876, \
0.21790489554405212, \
-0.06886178255081177, \
-0.013029836118221283, \
0.052187398076057434, \
-0.006192479748278856, \
0.1194857656955719, \
0.026034459471702576, \
-0.4246888756752014, \
-0.021081704646348953, \
-0.00524195097386837, \
-0.00525994086638093, \
-1.280464623221178e-10, \
-0.005146654788404703, \
-0.009183340705931187, \
0.0002222550247097388, \
-0.0035601125564426184, \
0.019716627895832062, \
-0.006146198604255915, \
0.062053926289081573, \
-0.015167314559221268, \
0.06586012989282608, \
-0.007409786339849234, \
-0.00841599516570568, \
-0.00183214177377522, \
-0.007997246459126472, \
-0.03475175425410271, \
0.10942719131708145, \
-0.011673501692712307, \
0.0005910442559979856, \
-0.004733469802886248, \
-0.0003104946808889508, \
1.7196307312145054e-12, \
-6.924965700698393e-13, \
-0.004779428243637085, \
-0.005235916003584862, \
0.0007543643587268889, \
0.05826704949140549, \
-0.007068090606480837, \
0.06621995568275452, \
-0.024644389748573303, \
-0.20805971324443817, \
-0.004484885837882757, \
-0.004574309568852186, \
-0.020754756405949593, \
-0.010542395524680614, \
-0.0032378677278757095, \
-0.0904405489563942, \
-0.0555608831346035, \
0.007872957736253738, \
-0.009175672195851803, \
-9.06794847543857e-11, \
-0.024433979764580727, \
-0.022783339023590088, \
0.03553684055805206, \
-0.031204702332615852, \
-0.08771386742591858, \
-0.017824474722146988, \
-0.0734049454331398, \
7.934049250923891e-12, \
-0.05897534266114235, \
-0.006321169901639223, \
0.029230080544948578, \
-0.006677807308733463, \
0.12379922717809677, \
-0.18686215579509735, \
-0.017818406224250793, \
-0.042840536683797836, \
0.019398771226406097, \
-0.004168085288256407, \
0.01026326883584261, \
0.05431724339723587, \
0.41864660382270813, \
-0.06469656527042389, \
0.00441166665405035, \
-0.02337198331952095, \
1.5988077528561462e-10, \
-0.002833093050867319, \
-0.005411566235125065, \
-0.06169373542070389, \
-0.016918018460273743, \
-0.11417630314826965, \
-0.011185719631612301, \
0.05593792721629143, \
-0.022998306900262833, \
-0.08006961643695831, \
-0.016405552625656128, \
-0.007914228364825249, \
-0.020659063011407852, \
0.019862787798047066, \
0.028257153928279877, \
-0.0848197415471077, \
-0.026902183890342712, \
-0.030366811901330948, \
-0.0025022714398801327, \
-0.00045156030682846904, \
5.1681016237370425e-12, \
4.000127052511404e-12, \
0.0025547114200890064, \
-0.024043582379817963, \
0.0019266370218247175, \
-0.1046542078256607, \
-0.013512138277292252, \
-0.03636845573782921, \
0.038998931646347046, \
0.22109635174274445, \
-0.01023989450186491, \
-0.0039009898900985718, \
0.010364001616835594, \
-0.022732026875019073, \
0.0041334256529808044, \
0.023716501891613007, \
0.025647131726145744, \
-0.06430353969335556, \
0.022259825840592384, \
3.620473365550936e-11, \
-0.06953292340040207, \
-0.021904541179537773, \
0.002112907823175192, \
0.017355699092149734, \
-0.008678852580487728, \
0.029361145570874214, \
0.007660403847694397, \
-5.109073320658242e-12, \
-0.0813170075416565, \
-0.03021208383142948, \
-0.02330276556313038, \
-0.010727706365287304, \
-0.021938160061836243, \
-0.04891730844974518, \
-0.030167624354362488, \
-0.07645833492279053, \
-0.04885565862059593, \
0.10810285806655884, \
0.03625544160604477, \
0.059945300221443176, \
-0.010572605766355991, \
-0.06330876052379608, \
0.0005417797947302461, \
-0.02380981296300888, \
1.065026955515691e-10, \
-0.00866692140698433, \
-0.01486937701702118, \
-0.02714633196592331, \
-0.03095603547990322, \
-0.06423990428447723, \
-0.01157610397785902, \
-0.01741662435233593, \
-0.040312983095645905, \
-0.15861520171165466, \
-0.029927898198366165, \
-0.0176347978413105, \
-0.04108014702796936, \
-0.00012447313929442316, \
0.01191149652004242, \
0.013703366741538048, \
-0.045531053096055984, \
0.023564783856272697, \
-0.005874477326869965, \
-0.003940469119697809, \
9.725439203966957e-12, \
-3.406645191633695e-12, \
-0.000564532820135355, \
-0.02706597000360489, \
0.0007498328923247755, \
-0.11232561618089676, \
-0.00982452929019928, \
0.018855057656764984, \
-0.017719896510243416, \
0.006637738551944494, \
-0.015451748855412006, \
-0.009030178189277649, \
-0.0035709855146706104, \
-0.034507475793361664, \
0.03726903349161148, \
-0.06456620991230011, \
-0.004058413673192263, \
-0.07632219046354294, \
0.007015109062194824, \
-2.209097627048351e-10, \
-0.044551655650138855, \
-0.04799358919262886, \
-0.07846522331237793, \
-0.009167522192001343, \
-0.049012765288352966, \
-0.012098400853574276, \
-0.00088421133114025, \
-7.029435193650624e-12, \
-0.0015668674604967237, \
-0.02073226124048233, \
-0.023511942476034164, \
-0.006486432161182165, \
0.033205267041921616, \
0.13609805703163147, \
-0.09031736850738525, \
0.02845064364373684, \
0.053711991757154465, \
0.03489087522029877, \
0.0725538432598114, \
0.03746885806322098, \
-0.33095940947532654, \
-0.03140580654144287, \
-0.004231630824506283, \
-0.005835157819092274, \
4.2668264754741614e-11, \
-0.004916833713650703, \
-0.00724639929831028, \
-0.11506902426481247, \
0.00219621486030519, \
0.05614246800541878, \
-0.010266062803566456, \
0.01977512799203396, \
-0.02726065181195736, \
-0.06096388027071953, \
-0.018376857042312622, \
-0.007459941785782576, \
-0.030772192403674126, \
-0.006266093347221613, \
0.023519286885857582, \
0.010980256833136082, \
-0.015758778899908066, \
0.012667261064052582, \
-0.0001396111329086125, \
-0.0008342270157299936, \
7.705665099055903e-12, \
-2.071574465786763e-12, \
-0.001529370783828199, \
-0.007281550206243992, \
0.0010867679957300425, \
0.027766456827521324, \
-0.003782890271395445, \
0.06284631788730621, \
-0.02355828881263733, \
-0.1357329934835434, \
-0.008615099824965, \
-0.003845643950626254, \
-0.01418642234057188, \
0.024801569059491158, \
-0.0018264023819938302, \
-0.06981383264064789, \
-0.04124663025140762, \
-0.02332979626953602, \
-0.003623148426413536, \
-1.9200030454413763e-10, \
0.023495003581047058, \
-0.01997470296919346, \
-0.0686088278889656, \
-0.01738370768725872, \
-0.050440091639757156, \
0.041867971420288086, \
0.026002466678619385, \
-1.5187746893463583e-11, \
0.02503640204668045, \
0.022372357547283173, \
0.04386112838983536, \
0.0036658793687820435, \
-0.005620965734124184, \
-0.0893440917134285, \
0.04565087705850601, \
-0.1747315675020218, \
-0.12554028630256653, \
-0.060075219720602036, \
0.001158949569799006, \
0.024681393057107925, \
0.0925951898097992, \
-0.009671040810644627, \
0.005828625988215208, \
-0.010411991737782955, \
-1.2383478964483885e-10, \
0.0029225891921669245, \
0.0052126552909612656, \
-0.13122616708278656, \
0.022036556154489517, \
-0.0018300620140507817, \
0.008223184384405613, \
-0.08757613599300385, \
0.0037098792381584644, \
0.035130757838487625, \
-0.007172826211899519, \
0.0021117618307471275, \
0.013838711194694042, \
0.01155025977641344, \
-0.018361607566475868, \
0.08212204277515411, \
0.01408140268176794, \
-0.19656462967395782, \
-0.0020977663807570934, \
0.0028085496742278337, \
-1.3908791653138852e-11, \
-2.554933695164685e-12, \
-0.0027826842851936817, \
0.027139317244291306, \
0.0004359344602562487, \
-0.03213050588965416, \
-0.007883218117058277, \
-0.10138935595750809, \
0.03785961866378784, \
0.05221332982182503, \
0.001718993065878749, \
0.000818998203612864, \
-0.0010328300995752215, \
-0.026289276778697968, \
-0.011749816127121449, \
0.09295324236154556, \
0.018534673377871513, \
0.0251610167324543, \
0.022026266902685165, \
4.099676848001721e-11, \
0.041851550340652466, \
0.004960045218467712, \
0.08250284194946289, \
0.0010809639934450388, \
0.006517780013382435, \
0.052995625883340836, \
0.05833834409713745, \
-1.8309477198275026e-12, \
0.02737048640847206, \
0.011605394072830677, \
0.012280053459107876, \
0.0008452791371382773, \
-0.08364012837409973, \
-0.07634890079498291, \
0.06030808016657829, \
-0.17606383562088013, \
-0.15425437688827515, \
0.010898599401116371, \
0.043342240154743195, \
-0.0018242511432617903, \
0.19136233627796173, \
-0.016616329550743103, \
0.00593867152929306, \
-0.013333544135093689, \
-1.7437086496929766e-10, \
0.00321513251401484, \
0.0072245304472744465, \
-0.20772433280944824, \
-0.01286506000906229, \
-0.1088835746049881, \
0.0016706166788935661, \
-0.11549675464630127, \
-0.002644215477630496, \
-0.010740753263235092, \
-0.008675951510667801, \
0.0012344485148787498, \
0.005575731862336397, \
0.007556196302175522, \
-0.030530059710144997, \
0.0970015674829483, \
0.007838752120733261, \
-0.26627567410469055, \
0.0011568113695830107, \
0.002556724939495325, \
-1.4132314025624981e-12, \
5.372270336923002e-12, \
-0.0018828448373824358, \
0.030331971123814583, \
0.0010585846612229943, \
-0.13103549182415009, \
-0.009086917154490948, \
-0.09991759806871414, \
0.025088530033826828, \
0.05981007590889931, \
-0.0014613232342526317, \
0.0004386009240988642, \
-0.0036163681652396917, \
-0.013271927833557129, \
0.07742569595575333, \
0.05612347647547722, \
0.018809564411640167, \
0.015837661921977997, \
0.023369204252958298, \
-7.047358530076764e-11, \
-0.06192301958799362, \
0.002265053568407893, \
0.05394914373755455, \
-0.004635456949472427, \
-0.12589022517204285, \
-0.09008435159921646, \
0.006495341658592224, \
-6.772260703613586e-12, \
0.024895289912819862, \
0.008074656128883362, \
-0.012523441575467587, \
-0.0017570087220519781, \
0.026898818090558052, \
0.010457254014909267, \
-0.00778257055208087, \
0.08853466063737869, \
0.18737541139125824, \
-0.011643754318356514, \
-0.07757864147424698, \
-0.012284924276173115, \
0.06298065930604935, \
-0.13730917870998383, \
0.0005286950618028641, \
-0.010517779737710953, \
4.6157064281793225e-11, \
0.004789943341165781, \
0.008004440926015377, \
-0.030343689024448395, \
0.019553111866116524, \
0.059196069836616516, \
-0.001100615132600069, \
-0.014792557805776596, \
0.009471392259001732, \
-0.01246029045432806, \
0.0005339502822607756, \
0.004015919286757708, \
0.00044751306995749474, \
0.0027270158752799034, \
-0.044275783002376556, \
-0.12504637241363525, \
-0.012661663815379143, \
0.1222442165017128, \
0.004707165528088808, \
0.002689032582566142, \
-1.551661360163492e-12, \
-6.968975743704142e-12, \
-0.0018146982183679938, \
0.017342891544103622, \
0.0006207010592333972, \
0.0021966842468827963, \
0.0038189073093235493, \
-0.05645108222961426, \
0.004293845035135746, \
-0.007485037203878164, \
0.004479160066694021, \
0.0017733260756358504, \
-0.01291216816753149, \
0.033954959362745285, \
-0.09314795583486557, \
0.037709008902311325, \
-0.016472328454256058, \
0.019928859546780586, \
-0.01601369120180607, \
2.105579877120789e-10, \
-0.05164365842938423, \
0.009773566387593746, \
0.06662580370903015, \
-0.004842798225581646, \
0.05867161229252815, \
-0.10351778566837311, \
-0.016658198088407516, \
-6.153743747211449e-12, \
-0.009872383438050747, \
0.0042824880219995975, \
0.02115197852253914, \
0.0024695731699466705, \
-0.0015223666559904814, \
-0.09480497986078262, \
0.03429418057203293, \
-0.23956544697284698, \
-0.15150074660778046, \
-0.05153064429759979, \
0.005959479603916407, \
-0.026123622432351112, \
0.11834432184696198, \
-0.048245009034872055, \
0.0013903062790632248, \
-0.009341418743133545, \
-2.1242278769317835e-10, \
0.0006467295461334288, \
-2.5940404157154262e-05, \
-0.2712911367416382, \
-0.03527836874127388, \
-0.056528761982917786, \
0.0007298792479559779, \
-0.17290791869163513, \
0.0038633125368505716, \
0.025706451386213303, \
-0.010804932564496994, \
-0.0002460488467477262, \
-0.004270210396498442, \
0.004460672847926617, \
-0.01444332767277956, \
0.16677439212799072, \
0.019399147480726242, \
-0.27192506194114685, \
-0.002682608086615801, \
-0.0001211324124597013, \
-1.4372577780696894e-11, \
-3.992525060558805e-12, \
0.0017489505698904395, \
0.008749373257160187, \
-7.568907312816009e-05, \
-0.0354740209877491, \
-0.0032265749759972095, \
-0.08604221791028976, \
0.0201950091868639, \
0.051714200526475906, \
-0.0004877507744822651, \
-4.710958819487132e-05, \
0.00206158310174942, \
0.018577679991722107, \
0.17649735510349274, \
0.07581088691949844, \
0.019658563658595085, \
0.0054606846533715725, \
0.007393042091280222, \
-3.0818259055820363e-10, \
-0.05533486604690552, \
-0.0014398809289559722, \
0.04665650054812431, \
0.00329024251550436, \
-0.06542050093412399, \
0.1289549171924591, \
0.09947508573532104, \
-4.0304582588079896e-12, \
0.00234783161431551, \
-0.013228830881416798, \
0.005347044672816992, \
0.0008462307741865516, \
0.03963903337717056, \
-0.04347454383969307, \
-0.051336463540792465, \
0.10025697946548462, \
0.14447399973869324, \
-0.034810733050107956, \
0.010349980555474758, \
-0.03771984577178955, \
0.14259709417819977, \
-0.05501547455787659, \
0.0019149486906826496, \
-0.011879597790539265, \
-3.190750996751035e-10, \
0.0012845792807638645, \
0.003326776437461376, \
-0.04066774621605873, \
-0.025527942925691605, \
0.019791817292571068, \
-0.001143126399256289, \
-0.016997884958982468, \
-0.0014758092584088445, \
0.08749217540025711, \
-0.007160268723964691, \
0.000876185076776892, \
-0.01014847494661808, \
-0.0008865519776009023, \
-0.01482456736266613, \
0.022330671548843384, \
0.005460415035486221, \
-0.051065050065517426, \
0.0019130600849166512, \
0.0005921947304159403, \
-4.647858486972467e-12, \
-1.3585045631828163e-12, \
0.001809951732866466, \
0.0064552356489002705, \
7.497008482459933e-05, \
-0.11231952905654907, \
-0.0065079787746071815, \
0.001662285765632987, \
0.004353847820311785, \
0.03635904937982559, \
-0.001660446636378765, \
0.0005040357937105, \
0.0014496078947559, \
0.057747259736061096, \
-0.1282467097043991, \
-0.0030698224436491728, \
0.022845037281513214, \
0.015105986036360264, \
-0.017121510580182076, \
-1.3600282011694276e-10, \
-0.05298057943582535, \
0.001932558137923479, \
-0.06621009111404419, \
0.001963940914720297, \
-0.049398329108953476, \
-0.10328307747840881, \
-0.04821700230240822, \
-9.341556174435883e-12, \
0.023983754217624664, \
-0.028839629143476486, \
-0.015694454312324524, \
-0.0016658350359648466, \
0.07700178772211075, \
0.0771341398358345, \
-0.04935033246874809, \
0.4489002525806427, \
0.2549232840538025, \
-0.1285524219274521, \
-0.01306192483752966, \
-0.024660196155309677, \
-0.126290962100029, \
-0.14210543036460876, \
-0.0005390890291891992, \
-0.011390174739062786, \
2.700665559240978e-11, \
0.002840434666723013, \
0.0027540226001292467, \
0.428866446018219, \
-0.0058353859931230545, \
0.050442423671483994, \
-0.00125194585416466, \
0.2349603772163391, \
0.0009253653697669506, \
-0.013844235800206661, \
0.002217069501057267, \
-0.00023465987760573626, \
-0.02777787111699581, \
-0.007166133262217045, \
-0.07165902853012085, \
-0.16519631445407867, \
-0.014288553968071938, \
0.4680362343788147, \
0.004100113641470671, \
0.001252259942702949, \
4.0756593521103224e-13, \
-7.84778004300074e-13, \
-0.0009813212091103196, \
0.0022910614497959614, \
-0.0003799289697781205, \
0.14009667932987213, \
0.002996501512825489, \
-0.014376481994986534, \
-0.021326659247279167, \
-0.0941307470202446, \
-0.0001523998798802495, \
-8.07124306447804e-05, \
-0.006610604003071785, \
0.07265380769968033, \
-0.1857292801141739, \
-0.24264845252037048, \
0.021704552695155144, \
0.005202890373766422, \
-0.030688736587762833, \
5.877491826566938e-10, \
-0.0989016741514206, \
-0.0016661586705595255, \
-0.05479394271969795, \
-0.01470867171883583, \
0.11369383335113525, \
-0.1392485797405243, \
-0.1716528981924057, \
-4.408441927478135e-12, \
-0.032251790165901184, \
-0.025794928893446922, \
0.024195697158575058, \
0.00025631539756432176, \
-0.012265166267752647, \
-0.0633915364742279, \
-0.03386538475751877, \
-0.1250377595424652, \
-0.02831951528787613, \
0.010754535906016827, \
-0.037893254309892654, \
-0.05990275368094444, \
0.028014153242111206, \
-0.050593145191669464, \
-0.000593772972933948, \
-0.012925141490995884, \
-2.636860174654032e-11, \
-0.0010554571636021137, \
-0.0002953207294922322, \
-0.08825082331895828, \
-0.039035432040691376, \
-0.0206407830119133, \
-0.0024790822062641382, \
-0.06833800673484802, \
-0.007492776028811932, \
0.03275586664676666, \
-0.016063395887613297, \
0.004817280452698469, \
-0.013073423877358437, \
0.0077914404682815075, \
0.03706526383757591, \
0.07898960262537003, \
-0.013931634835898876, \
-0.21330636739730835, \
-0.004758351482450962, \
-0.0001344548654742539, \
-5.31247918919564e-12, \
7.033772002340566e-12, \
0.00022161140805110335, \
-0.006620360538363457, \
-0.000603250227868557, \
-0.016799254342913628, \
-0.001760920393280685, \
-0.0354585163295269, \
-0.013582916930317879, \
0.03722204640507698, \
-0.004009366501122713, \
0.00266455695964396, \
-6.258952635107562e-05, \
0.03133504092693329, \
0.1810215562582016, \
0.11650730669498444, \
-0.0058875796385109425, \
0.019387386739253998, \
-0.007640537340193987, \
-4.2738720895663107e-10, \
-0.0036685981322079897, \
0.013927499763667583, \
-0.02484705299139023, \
0.014821699820458889, \
-0.0011642292374745011, \
0.1946057230234146, \
0.004956704564392567, \
-8.13430312690544e-12, \
0.002494369400665164, \
-0.023989742621779442, \
0.018698308616876602, \
0.002621457912027836, \
0.061453964561223984, \
0.004243951756507158, \
-0.11166813969612122, \
0.08016357570886612, \
0.04915511608123779, \
-0.10527107864618301, \
-0.09062518179416656, \
-0.048415929079055786, \
-0.10710442811250687, \
-0.11513525247573853, \
0.001161010004580021, \
-0.01652717962861061, \
-9.98019861198074e-11, \
-0.0004168018058408052, \
-0.000430186337325722, \
0.05347023531794548, \
-0.014463183470070362, \
0.1077025905251503, \
0.004944957327097654, \
0.15917326509952545, \
-0.006216252688318491, \
-0.04162890091538429, \
-0.013273198157548904, \
0.0013423117343336344, \
-0.0157266017049551, \
0.0012408868642523885, \
0.03439812362194061, \
-0.10297379642724991, \
-0.018368126824498177, \
0.226893812417984, \
-0.0013003416825085878, \
-0.0008460363605991006, \
1.0919014173729757e-12, \
6.6268366662181055e-12, \
-0.0013095983304083347, \
0.00433517387136817, \
-0.0004670432535931468, \
0.0022034605499356985, \
-0.006868627853691578, \
0.054862119257450104, \
-0.02990056201815605, \
-0.02495104819536209, \
-0.004173595458269119, \
0.0006734125781804323, \
-0.0008445211569778621, \
0.05906469002366066, \
-0.0416593961417675, \
-0.0627564787864685, \
0.011215876787900925, \
-0.0042557017877697945, \
-0.013852403499186039, \
1.7045848066388203e-10, \
0.013008969835937023, \
0.003115643747150898, \
-0.14716126024723053, \
-0.00014310068218037486, \
0.049427784979343414, \
-0.009999185800552368, \
-0.07773909717798233, \
-1.0882393076949715e-11, \
-0.028163691982626915, \
-0.006433689501136541, \
-0.011436930857598782, \
-0.0018237967742606997, \
-0.004167132545262575, \
0.062167759984731674, \
-0.025490663945674896, \
0.10128676891326904, \
0.017570186406373978, \
0.018662910908460617, \
0.02045850269496441, \
-0.00983197521418333, \
-0.12204598635435104, \
-0.1925046741962433, \
0.002446182770654559, \
-0.021688658744096756, \
9.69138380657597e-11, \
-0.0019213557243347168, \
-0.006730522960424423, \
0.18956567347049713, \
-0.024038946256041527, \
-0.03602142259478569, \
-0.0025197267532348633, \
0.07933953404426575, \
-0.008358333259820938, \
-0.06707675009965897, \
-0.007430925965309143, \
-0.007679556962102652, \
-0.024530261754989624, \
-0.0024911093059927225, \
-0.020204052329063416, \
-0.09694457799196243, \
-0.03154660761356354, \
0.018660668283700943, \
-0.0021762775722891092, \
-0.0006788570899516344, \
2.9776070931825105e-12, \
-4.693110483566798e-12, \
-0.0045647453516721725, \
-0.004131503403186798, \
0.0002150265936506912, \
0.08001188188791275, \
-0.0016039063921198249, \
-0.10947538167238235, \
-0.015302895568311214, \
-0.09633450210094452, \
-0.004238879308104515, \
-0.003892672946676612, \
-0.008777642622590065, \
0.03011489473283291, \
-0.10917606204748154, \
-0.15769317746162415, \
0.010380678810179234, \
-0.04013902693986893, \
0.009585930034518242, \
2.1310403441887615e-10, \
-0.07904762774705887, \
-0.0216362364590168, \
-0.002485474804416299, \
-0.00400474201887846, \
-0.011188398115336895, \
-0.07400249689817429, \
-0.09150268882513046, \
1.2180110435869307e-12, \
-0.02355700545012951, \
-0.026006445288658142, \
-0.025147248059511185, \
-0.01209797989577055, \
0.002597787417471409, \
0.0022592884488403797, \
-0.10553944855928421, \
0.07231057435274124, \
0.05635060369968414, \
-0.18550680577754974, \
0.07191231846809387, \
-0.03477594628930092, \
-0.09162026643753052, \
-0.19215995073318481, \
-0.006421092431992292, \
-0.019087646156549454, \
1.543112998492191e-10, \
-0.005582505837082863, \
-0.010938246734440327, \
0.13702641427516937, \
-0.0411645770072937, \
-0.04140755161643028, \
-0.03491627797484398, \
-0.0432441346347332, \
-0.016425132751464844, \
-0.1480172872543335, \
-0.01024033222347498, \
-0.013604430481791496, \
-0.01650315709412098, \
-0.01600957289338112, \
-0.10537883639335632, \
-0.06001362204551697, \
0.0019798357971012592, \
0.02516256831586361, \
-0.007063365075737238, \
-0.0037902866024523973, \
-1.1095921056969438e-11, \
-6.075358098545092e-12, \
-0.011378129944205284, \
-0.016787555068731308, \
-0.002229423262178898, \
-0.05564677342772484, \
-0.01409507542848587, \
0.13692373037338257, \
-0.03265881910920143, \
-0.03573650121688843, \
-0.005877469200640917, \
-0.007115381769835949, \
-0.04931451380252838, \
-0.007450079545378685, \
0.06862087547779083, \
-0.09690648317337036, \
-0.1223270446062088, \
-0.05375025421380997, \
-0.057528793811798096, \
9.48733036576499e-11, \
-0.07434563338756561, \
-0.03788343444466591, \
-0.00698002427816391, \
-0.02944589965045452, \
0.12125271558761597, \
0.12150097638368607, \
0.1443006545305252, \
2.4818070775561862e-12, \
-0.004530498292297125, \
0.00446641119197011, \
-0.01387559249997139, \
0.0003085255157202482, \
-0.03816380351781845, \
-0.04543888568878174, \
-0.010174325667321682, \
-0.10751767456531525, \
-0.08671648800373077, \
-0.10659334808588028, \
0.03192951902747154, \
-0.01736338436603546, \
0.12069746106863022, \
-0.1308044046163559, \
-0.0023506726138293743, \
-5.994630555505864e-05, \
-2.4603676734846758e-11, \
-0.00266484497115016, \
-0.00505802733823657, \
0.009979506023228168, \
-0.0037327369209378958, \
-0.03316288813948631, \
-0.004181466531008482, \
-0.009129314683377743, \
-0.0029523009434342384, \
-0.024063285440206528, \
-0.00573867978528142, \
-0.0053635695949196815, \
-0.0004361583851277828, \
-0.00909907091408968, \
-0.02693374827504158, \
-0.0004597158113028854, \
-0.011770025826990604, \
-0.0589921809732914, \
-0.0015915827825665474, \
-0.002460616175085306, \
-4.910038087918567e-12, \
-7.339150988328047e-12, \
-0.0027639332693070173, \
0.005339787807315588, \
-0.0013079659547656775, \
0.07075335830450058, \
-0.007851626724004745, \
0.1421237289905548, \
0.012221341021358967, \
0.08125670999288559, \
-0.0024419929832220078, \
-0.0026354717556387186, \
-0.01520154532045126, \
0.020394979044795036, \
0.04303788021206856, \
-0.04611111432313919, \
-0.07794233411550522, \
-0.03584980219602585, \
-0.0218541007488966, \
-3.861095818069593e-11, \
0.08939887583255768, \
-0.0139395110309124, \
0.01469343900680542, \
-0.011185625568032265, \
-0.009987608529627323, \
-0.04140809550881386, \
-0.08319520950317383, \
-2.7560774842894098e-12, \
-0.0011175511172041297, \
0.03349558636546135, \
0.03125590831041336, \
0.0028247698210179806, \
0.016176024451851845, \
-0.030470862984657288, \
0.03473188355565071, \
-0.18820010125637054, \
-0.02118673361837864, \
-0.0002822360547725111, \
-0.09411145001649857, \
0.024882446974515915, \
0.15996474027633667, \
-0.020489778369665146, \
0.0050605302676558495, \
0.0027456909883767366, \
3.1191701999055965e-11, \
-0.0007192196208052337, \
-0.0010039769113063812, \
-0.13036608695983887, \
0.044482216238975525, \
0.1614346206188202, \
0.0017830439610406756, \
-0.019442884251475334, \
0.006736759562045336, \
0.03720282390713692, \
-0.0025667985901236534, \
-0.003274335293099284, \
0.014718904159963131, \
0.005347906611859798, \
0.01308474875986576, \
-0.08733005076646805, \
0.0012880349531769753, \
-0.0038410897832363844, \
0.0012170585105195642, \
8.925136353354901e-05, \
1.0827165986687648e-12, \
3.46851518860658e-12, \
6.422450678655878e-05, \
0.031074440106749535, \
0.0006390738417394459, \
-0.05465707182884216, \
-0.004361786413937807, \
-0.06610958278179169, \
0.0483979769051075, \
0.09975198656320572, \
0.0012804885627701879, \
-0.0014916823711246252, \
0.011309069581329823, \
0.024496160447597504, \
-0.1426844447851181, \
0.03251797333359718, \
0.028811706230044365, \
-0.019954271614551544, \
0.01759531907737255, \
-4.905464923155023e-11, \
0.24115100502967834, \
-0.00744348019361496, \
-0.07578709721565247, \
0.0016891261329874396, \
-0.03411950543522835, \
-0.12181437015533447, \
-0.06524132937192917, \
7.540616893918217e-13, \
-0.0092589370906353, \
-0.02663041651248932, \
-0.020104143768548965, \
-0.010363154113292694, \
-0.0815463587641716, \
0.053336504846811295, \
-0.17369797825813293, \
0.13805079460144043, \
0.151907280087471, \
-0.12902221083641052, \
0.15749767422676086, \
-0.03881840780377388, \
-0.2342742383480072, \
-0.17493930459022522, \
-0.005350178573280573, \
-0.022972721606492996, \
-2.782664029754578e-11, \
-0.008156083524227142, \
-0.010637897066771984, \
0.11858884245157242, \
-0.013591287657618523, \
-0.16599918901920319, \
-0.024645723402500153, \
-0.1136382445693016, \
-0.03441605344414711, \
-0.19876039028167725, \
-0.011321770958602428, \
-0.011036023497581482, \
-0.029233429580926895, \
-0.012744275853037834, \
-0.07925711572170258, \
-0.09029664099216461, \
-0.022979211062192917, \
0.06204128637909889, \
-0.005194070283323526, \
-0.0029332651756703854, \
-6.313284964254429e-12, \
4.88908880828115e-13, \
-0.008175961673259735, \
-0.01652483455836773, \
-0.0020038613583892584, \
-0.04414010047912598, \
-0.01447353232651949, \
0.30259251594543457, \
-0.05513762682676315, \
-0.08414611220359802, \
-0.010920158587396145, \
-0.0058014667592942715, \
-0.06630034744739532, \
-0.03755643218755722, \
0.19014741480350494, \
-0.09686462581157684, \
-0.1147865504026413, \
-0.023276185616850853, \
-0.0522824265062809, \
2.159492862308099e-10, \
-0.1830071210861206, \
-0.029631732031702995, \
-0.035154834389686584, \
-0.033339280635118484, \
0.24666985869407654, \
0.1586817502975464, \
0.13905365765094757, \
-3.4346976218041503e-12, \
0.023571042343974113, \
0.019745295867323875, \
-0.018016094341874123, \
0.0036925936583429575, \
-0.05069715902209282, \
-0.03737885504961014, \
-0.03856043145060539, \
0.07350006699562073, \
-0.00987438578158617, \
0.029510581865906715, \
0.01522078923881054, \
0.010415618307888508, \
0.023806069046258926, \
-0.11399157345294952, \
0.0010772933019325137, \
0.003071778453886509, \
-1.2439825558541173e-10, \
-0.0010818586451932788, \
-0.0015704684192314744, \
0.004123765043914318, \
0.03194519504904747, \
-0.060991037636995316, \
0.007480668369680643, \
0.013171274214982986, \
-0.004474484361708164, \
-0.02899046242237091, \
-0.002365686697885394, \
-0.0006803474389016628, \
0.007051954511553049, \
-0.006444015074521303, \
-0.01463242806494236, \
0.002698546042665839, \
-0.001470691990107298, \
-0.07202821224927902, \
0.0007511517032980919, \
-0.00022678874665871263, \
-7.864498115239815e-12, \
1.9174275882327674e-12, \
5.779906587122241e-06, \
0.006150559056550264, \
-0.00018845930753741413, \
0.10976710915565491, \
-0.002081347396597266, \
0.08024579286575317, \
0.004259695764631033, \
0.05569695681333542, \
-0.002333099488168955, \
-0.0001725950714899227, \
-0.020859498530626297, \
0.005055788438767195, \
0.08327412605285645, \
-0.009500992484390736, \
-0.02158745937049389, \
-0.008128800429403782, \
0.01026404183357954, \
-1.2798752335729802e-10, \
-0.012338616885244846, \
-0.0004705768369603902, \
0.04304792359471321, \
0.002146367449313402, \
0.02141030877828598, \
0.029751397669315338, \
-0.031748466193675995, \
8.818361839357802e-12, \
0.03897868096828461, \
0.06553571671247482, \
0.035362739115953445, \
0.008322909474372864, \
0.07104461640119553, \
-0.03744921460747719, \
-0.0013912324793636799, \
-0.13815291225910187, \
0.023520037531852722, \
-0.01172331441193819, \
-0.14942526817321777, \
0.03711187094449997, \
0.09511399269104004, \
-0.0049887229688465595, \
0.0052139307372272015, \
0.006883530877530575, \
-2.635110879500857e-11, \
0.0031159217469394207, \
0.003855931106954813, \
-0.16728197038173676, \
0.06910882145166397, \
0.08093783259391785, \
0.016209758818149567, \
0.02036765031516552, \
0.0063342987559735775, \
0.17033204436302185, \
0.006047133356332779, \
0.005299669690430164, \
0.025677140802145004, \
0.008211612701416016, \
0.020391467958688736, \
0.029326854273676872, \
0.018657229840755463, \
-0.0776563510298729, \
0.004093881696462631, \
0.002466109348461032, \
5.711692837445659e-12, \
8.193247295895656e-12, \
0.001650611637160182, \
0.030479997396469116, \
0.0019969225395470858, \
-0.046020906418561935, \
0.0057721263729035854, \
-0.12819615006446838, \
0.04450066760182381, \
0.0775170847773552, \
0.0036689615808427334, \
0.0029800713527947664, \
0.0076605468057096004, \
0.012734104879200459, \
-0.248481884598732, \
0.06543146073818207, \
0.04770693928003311, \
-0.0013198830420151353, \
0.04794284701347351, \
-7.687805253508984e-11, \
0.040097426623106, \
0.015425129793584347, \
0.03966294229030609, \
0.02041030302643776, \
-0.1354788839817047, \
-0.1393694132566452, \
-0.09800484776496887, \
-9.98328416462746e-12, \
0.018438445404171944, \
-0.02608659118413925, \
-0.0376901812851429, \
-0.007884730584919453, \
-0.08782754838466644, \
0.025654973462224007, \
-0.18084710836410522, \
0.05765867605805397, \
0.05931578576564789, \
-0.14525650441646576, \
0.003391125239431858, \
-0.036045219749212265, \
-0.16241909563541412, \
-0.1754453182220459, \
-0.00832447037100792, \
-0.01994451694190502, \
1.8255282008272644e-10, \
-0.002295795362442732, \
-0.0022901501506567, \
-0.0211483221501112, \
-0.01264048833400011, \
-0.062283389270305634, \
-0.022383535280823708, \
-0.14321044087409973, \
-0.029344355687499046, \
-0.10866791754961014, \
-0.0034328335896134377, \
-0.0024360050447285175, \
-0.02761996164917946, \
-0.018550723791122437, \
-0.010342766530811787, \
-0.07165274769067764, \
-0.01921621710062027, \
0.18045790493488312, \
-0.0039328825660049915, \
-0.0019179038936272264, \
1.7953975979534409e-12, \
3.240662512643544e-12, \
-0.006501493975520134, \
-0.00918271392583847, \
-0.0024431562051177025, \
-0.10324101895093918, \
-0.008284935727715492, \
-0.2090584933757782, \
-0.026481425389647484, \
-0.06453145295381546, \
-0.00961472187191248, \
-0.0013650648761540651, \
-0.052054841071367264, \
-0.015578016638755798, \
0.01859409734606743, \
-0.045150384306907654, \
-0.11018133163452148, \
-0.009569672867655754, \
-0.05582799017429352, \
1.5692114274656888e-10, \
0.0027517618145793676, \
-0.006986680906265974, \
-0.06180023401975632, \
-0.03022538498044014, \
0.1013455018401146, \
0.14553967118263245, \
0.10021830350160599, \
-6.531928860645242e-13, \
0.02754954807460308, \
-0.008534315973520279, \
-0.003999695647507906, \
0.0023937637452036142, \
-0.080452099442482, \
-0.03343712538480759, \
-0.07806772738695145, \
0.010055256076157093, \
-0.056322239339351654, \
0.014352397993206978, \
-0.1194615438580513, \
-0.028771905228495598, \
-0.02677108533680439, \
-0.13709990680217743, \
-0.0019571594893932343, \
-0.0037290570326149464, \
-1.514311454009487e-10, \
0.001799855032004416, \
0.004747967701405287, \
-0.0034843089524656534, \
-0.012972942553460598, \
0.023089095950126648, \
0.002170715481042862, \
-0.012105186469852924, \
-0.007932011969387531, \
-0.003450678661465645, \
-0.005684311967343092, \
0.005166290327906609, \
-0.0058677466586232185, \
-0.004114530514925718, \
0.039724040776491165, \
0.04187362268567085, \
0.002063344931229949, \
-0.1323918104171753, \
-2.1514289983315393e-05, \
-0.00026325194630771875, \
-1.5923179658497433e-12, \
-3.353945810316561e-12, \
0.001714271609671414, \
0.007179238833487034, \
-0.0006086021312512457, \
0.00511118583381176, \
0.0007960213697515428, \
0.002799204085022211, \
0.006739103700965643, \
0.01184336468577385, \
-0.002841729437932372, \
0.0024983820039778948, \
0.00387789448723197, \
0.012249205261468887, \
-0.03389189392328262, \
0.0595957487821579, \
-0.02683909982442856, \
0.019183462485671043, \
-0.016947155818343163, \
-1.1082992162902983e-10, \
0.08151572197675705, \
0.015117259696125984, \
0.0723629742860794, \
-0.0011182304006069899, \
-0.0194825641810894, \
0.02849944494664669, \
0.0018971508834511042, \
1.481877337852766e-12, \
0.021588200703263283, \
0.028056446462869644, \
0.03963259607553482, \
0.006507921032607555, \
-0.07210768014192581, \
0.011564509011805058, \
-0.014002339914441109, \
-0.09443241357803345, \
-0.0645671933889389, \
-0.006825219374150038, \
-0.14508596062660217, \
0.02779386006295681, \
0.019229115918278694, \
0.01576598361134529, \
0.002392360707744956, \
0.0018774971831589937, \
1.8622414374447338e-11, \
0.003863342572003603, \
0.00612838426604867, \
-0.11838451772928238, \
0.02667022868990898, \
0.03507783263921738, \
0.012324043549597263, \
0.00518663227558136, \
-0.0003059400478377938, \
0.0591912567615509, \
-0.0002416263014310971, \
0.0075147622264921665, \
0.007562408223748207, \
0.008300183340907097, \
0.05508718267083168, \
-0.025181416422128677, \
-0.0008517735404893756, \
-0.14419616758823395, \
0.003164441790431738, \
0.00036131282104179263, \
-6.606249401686082e-12, \
2.276912165755096e-12, \
0.0024906739126890898, \
0.02800171449780464, \
0.0010438442695885897, \
-0.009531768038868904, \
0.005097812972962856, \
-0.1909300982952118, \
0.019487112760543823, \
0.035804279148578644, \
0.0006098317680880427, \
0.0038545927964150906, \
0.027490850538015366, \
0.04227832704782486, \
-0.10729800909757614, \
0.12583160400390625, \
0.03554101288318634, \
0.015109728090465069, \
0.023112589493393898, \
-1.4668799508399388e-10, \
0.10981014370918274, \
0.021384499967098236, \
0.059794485569000244, \
0.021359192207455635, \
-0.13154208660125732, \
-0.07407104969024658, \
-0.08715290576219559, \
-2.4702119690023228e-12, \
-0.07547703385353088, \
-0.05044269934296608, \
0.018270498141646385, \
-0.012223109602928162, \
0.09060719609260559, \
0.12324069440364838, \
-0.04895690456032753, \
-0.10099149495363235, \
-0.07202058285474777, \
0.021177321672439575, \
0.015188680961728096, \
-0.0062412177212536335, \
-0.11553872376680374, \
-0.04780100658535957, \
0.002527443924918771, \
-0.026210177689790726, \
-8.24930679321767e-11, \
-0.006426715757697821, \
-0.008776686154305935, \
-0.04640238732099533, \
-0.07163255661725998, \
0.030117487534880638, \
-0.031928617507219315, \
-0.06676726788282394, \
-0.023011494427919388, \
-0.04112287238240242, \
-0.010611766017973423, \
-0.007309507112950087, \
-0.034865494817495346, \
-0.012445827014744282, \
-0.007334623485803604, \
-0.028345774859189987, \
-0.029568247497081757, \
0.0383061021566391, \
0.0021779118105769157, \
-0.003350607119500637, \
1.0488019307197671e-11, \
2.8637934038067137e-11, \
-0.004095698241144419, \
-0.0207940973341465, \
-0.00382602890022099, \
-0.05468747392296791, \
-0.007373411674052477, \
0.005644741002470255, \
-0.038682855665683746, \
-0.01933041401207447, \
-0.008592510595917702, \
-0.0036381285171955824, \
-0.008693809621036053, \
0.060791417956352234, \
-0.009849014692008495, \
0.026194844394922256, \
-0.05546681955456734, \
-0.02216249704360962, \
-0.0502837672829628, \
-1.2677026095531119e-10, \
0.12582440674304962, \
-0.019855836406350136, \
-0.0414288155734539, \
-0.04446584731340408, \
0.022081628441810608, \
0.03477203845977783, \
-0.07570751011371613, \
4.020600692655751e-12, \
-0.04935799166560173, \
-0.046257298439741135, \
-0.025778021663427353, \
-0.007346136029809713, \
-0.277185320854187, \
-0.25966110825538635, \
-0.023677535355091095, \
-0.03135809674859047, \
-0.1201510801911354, \
0.04405703768134117, \
0.08154557645320892, \
0.009195712395012379, \
0.1999337524175644, \
-0.0603732205927372, \
0.0004929841961711645, \
-0.021827008575201035, \
-1.9222777883354247e-11, \
-0.005466845817863941, \
-0.0060825529508292675, \
-0.10934030264616013, \
-0.07306674867868423, \
-0.02819519117474556, \
-0.01849827729165554, \
0.004381556063890457, \
-0.025658661499619484, \
-0.021910669282078743, \
-0.02108393982052803, \
-0.008610338903963566, \
-0.04595250263810158, \
-0.009142182767391205, \
-0.025245893746614456, \
0.1255282759666443, \
-0.028093485161662102, \
-0.08869754523038864, \
-0.0020223993342369795, \
-0.0018174080178141594, \
2.1078430667564874e-11, \
2.0799627645229357e-11, \
-0.0020652576349675655, \
0.0016595624620094895, \
-0.0022992773447185755, \
0.1422574818134308, \
-0.011882375925779343, \
-0.12437630444765091, \
-0.012889884412288666, \
0.10425373911857605, \
-0.010576711036264896, \
-0.00430321367457509, \
-0.0051569039933383465, \
-0.01515866070985794, \
-0.039129529148340225, \
-0.026301037520170212, \
-0.060227517038583755, \
-0.04207184165716171, \
-0.026722388342022896, \
-1.7331111545892952e-10, \
0.02977227233350277, \
-0.02307705208659172, \
0.2112664431333542, \
-0.007123186718672514, \
-0.09551291912794113, \
-0.022662390023469925, \
-0.13956503570079803, \
5.9648262891454085e-12, \
-0.05194154009222984, \
-0.022026274353265762, \
-0.005788444075733423, \
-0.003700575092807412, \
-0.018975354731082916, \
-0.30757343769073486, \
-0.009325748309493065, \
0.01769931986927986, \
-0.07856976240873337, \
0.04266945272684097, \
0.0724918320775032, \
-0.018462667241692543, \
0.3285203278064728, \
-0.0025075289886444807, \
-0.0017537412932142615, \
-0.016175489872694016, \
-9.433188952190363e-11, \
0.000411344226449728, \
0.0003354660584591329, \
0.025578921660780907, \
-0.04156753793358803, \
-0.07235624641180038, \
-0.010188001208007336, \
0.018588270992040634, \
-0.019742825999855995, \
0.017956523224711418, \
-0.016829533502459526, \
-0.0014628602657467127, \
-0.03783445060253143, \
0.003940835129469633, \
-0.08065994083881378, \
0.019147247076034546, \
-0.03340611234307289, \
-0.02733590267598629, \
-0.0028909966349601746, \
0.002046464942395687, \
8.881341300413792e-13, \
1.5562558186577036e-11, \
-0.00019986506958957762, \
-0.013303996995091438, \
-0.0011090083280578256, \
-0.09186920523643494, \
-0.014030486345291138, \
-0.008256067521870136, \
0.03428661823272705, \
0.10721184313297272, \
-0.009442407637834549, \
-0.0012469209032133222, \
-0.024134915322065353, \
-0.2533947229385376, \
0.040938131511211395, \
0.059378910809755325, \
-0.025821156799793243, \
-0.01569935493171215, \
-0.002196455607190728, \
-2.1919507875445277e-11, \
0.033571138978004456, \
-0.006902413442730904, \
0.04610587656497955, \
0.015432088635861874, \
0.037429939955472946, \
-0.0707121267914772, \
-0.06622198969125748, \
3.411171735703822e-12, \
-0.02636781707406044, \
-0.0475255586206913, \
0.07659506052732468, \
-0.006638927850872278, \
0.2897331118583679, \
0.43020203709602356, \
-0.11048763245344162, \
-0.06621959805488586, \
-0.017925426363945007, \
-0.063296839594841, \
-0.042530935257673264, \
0.013767197728157043, \
-0.33000490069389343, \
-0.01229996420443058, \
0.0032360884360969067, \
-0.005366581492125988, \
1.8128006040729616e-11, \
-0.0015640752390027046, \
-0.002134599955752492, \
-0.006480085197836161, \
-0.022363226860761642, \
-0.06024230271577835, \
-0.021151402965188026, \
-0.027579426765441895, \
-0.006970899645239115, \
0.01407550647854805, \
0.005312786903232336, \
-0.0001281574077438563, \
-0.0036325918044894934, \
0.003567707957699895, \
0.013970104046165943, \
-0.039296332746744156, \
-0.023736586794257164, \
0.010127863846719265, \
0.004323560744524002, \
-0.001515118288807571, \
1.7209568839438028e-11, \
3.56112118959917e-11, \
-0.005642876494675875, \
-0.0022164948750287294, \
-0.003474354511126876, \
-0.2430342584848404, \
0.004853161983191967, \
0.014130174182355404, \
-0.05630076676607132, \
-0.21266596019268036, \
-0.0011088029714301229, \
-0.00011817877384601161, \
-0.012795246206223965, \
0.04606670141220093, \
-0.004727392457425594, \
0.019357990473508835, \
-0.004658913239836693, \
0.02268632873892784, \
-0.046467725187540054, \
-5.8147400089358925e-11, \
0.021014204248785973, \
-0.0009051946108229458, \
-0.15919148921966553, \
-0.034907266497612, \
0.11313438415527344, \
-0.001554687973111868, \
0.19196467101573944, \
-1.7851868529435155e-13, \
-0.06829874962568283, \
-0.08931062370538712, \
0.07430511713027954, \
-0.003241076832637191, \
-0.07156391441822052, \
-0.026472680270671844, \
-0.10235782712697983, \
-0.08555293828248978, \
-0.036325566470623016, \
0.003714679041877389, \
0.07985147833824158, \
0.016377082094550133, \
-0.05795120820403099, \
-0.07550938427448273, \
0.009134341031312943, \
-0.018099678680300713, \
-1.057674781090867e-12, \
-0.0013899779878556728, \
-0.0026269713416695595, \
-0.1505681276321411, \
-0.08639278262853622, \
-0.1326388716697693, \
-0.004308649804443121, \
-0.028236299753189087, \
-0.02608621120452881, \
-0.05742499232292175, \
-0.022406453266739845, \
0.0034224719274789095, \
-0.03652235120534897, \
0.010014789178967476, \
0.02735152468085289, \
0.049683596938848495, \
-0.04436822980642319, \
-0.08131606131792068, \
-0.006192709319293499, \
-0.001767271663993597, \
2.0549759810473134e-11, \
2.94955865287605e-11, \
-0.0022709695622324944, \
-0.012637617066502571, \
-0.00293614505790174, \
0.0986819788813591, \
-0.017718428745865822, \
0.04431740194559097, \
-0.058116354048252106, \
-0.04107264056801796, \
-0.007531045004725456, \
0.0017753501888364553, \
0.0031041037291288376, \
0.1631884127855301, \
0.0755336582660675, \
-0.008021831512451172, \
-0.014447609893977642, \
-0.0085548534989357, \
-0.03571586310863495, \
-1.5715873047383866e-10, \
-0.030537182465195656, \
0.008970450609922409, \
0.0723058357834816, \
-0.027417615056037903, \
-0.0365072563290596, \
-0.0202941857278347, \
0.10788393020629883, \
2.5364937353869162e-15, \
-0.06489594280719757, \
-0.055995192378759384, \
0.01768118143081665, \
-0.003513451898470521, \
-0.3211175501346588, \
-0.3696534037590027, \
-0.021014070138335228, \
0.027362806722521782, \
-0.0006916843703947961, \
0.02619037590920925, \
0.09096731245517731, \
0.02162443846464157, \
0.3253532350063324, \
-0.03293194994330406, \
0.00330741167999804, \
-0.024823658168315887, \
-6.969760879549369e-11, \
-0.00027561260503716767, \
-0.002325481968000531, \
-0.018798446282744408, \
-0.0770178884267807, \
-0.012349492870271206, \
-0.005882997997105122, \
-0.008668801747262478, \
-0.02704286016523838, \
-0.04581331089138985, \
-0.027990642935037613, \
-0.002736427588388324, \
-0.044327713549137115, \
0.008482108823955059, \
-0.018368909135460854, \
0.07126107811927795, \
-0.036664750427007675, \
-0.0319550447165966, \
-0.006085382308810949, \
0.00021501317678485066, \
1.1495661193794415e-11, \
1.9386934765885933e-11, \
-0.0011050424072891474, \
-0.008154220879077911, \
-0.0018523165490478277, \
0.17496708035469055, \
-0.023461604490876198, \
-0.03819398209452629, \
0.012968109920620918, \
0.11187897622585297, \
-0.010615274310112, \
-0.0016533704474568367, \
-0.012553521431982517, \
-0.07271675020456314, \
-0.02765769325196743, \
0.04439638555049896, \
-0.0014258603332564235, \
-0.031006263568997383, \
-0.012194654904305935, \
-8.814351332153691e-11, \
-0.019778937101364136, \
-0.008975065313279629, \
0.17950795590877533, \
0.012863620184361935, \
-0.034075744450092316, \
0.024675248190760612, \
-0.24580161273479462, \
-9.712603984968204e-12, \
0.020934484899044037, \
-0.009349515661597252, \
0.03652212768793106, \
-0.009178023785352707, \
0.09913429617881775, \
0.362258642911911, \
-0.07430296391248703, \
-0.09893722832202911, \
0.08105577528476715, \
0.026093577966094017, \
-0.10282722860574722, \
0.04715666547417641, \
-0.2545885145664215, \
0.029060035943984985, \
0.0005182083114050329, \
0.00813415925949812, \
9.769136194437422e-11, \
-5.0453680159989744e-05, \
0.0019970627035945654, \
0.020375249907374382, \
0.05901697650551796, \
0.04813695698976517, \
-0.022958071902394295, \
-0.10618594288825989, \
0.009299268014729023, \
0.020969556644558907, \
0.009947306476533413, \
0.006836974062025547, \
0.002535321982577443, \
0.005145098082721233, \
-0.0034414702095091343, \
-0.0777367651462555, \
2.1196274246904068e-06, \
-0.001574582769535482, \
0.007802326697856188, \
0.00013810292875859886, \
3.507817300518745e-11, \
2.989562764010856e-11, \
-0.0030966640915721655, \
0.01956639066338539, \
-0.0023338752798736095, \
0.0018491648370400071, \
0.022250555455684662, \
-0.016825156286358833, \
-0.014297631569206715, \
-0.19872111082077026, \
0.004002647008746862, \
0.003614420536905527, \
-0.013966108672320843, \
-0.10324497520923615, \
-0.010276136919856071, \
-0.0020759920589625835, \
0.010519353672862053, \
0.02971821464598179, \
-0.008148250170052052, \
-9.202974493582872e-11, \
0.0684211403131485, \
0.01835295744240284, \
-0.02502397447824478, \
-0.009807993657886982, \
0.10836775600910187, \
0.10711669921875, \
0.15751466155052185, \
-1.838124054007184e-12, \
-0.019767850637435913, \
-0.04927877336740494, \
0.05129266902804375, \
-0.0011628672946244478, \
0.09753239899873734, \
0.1502668261528015, \
-0.11079948395490646, \
-0.08070728927850723, \
0.04512639716267586, \
-0.05988104268908501, \
0.023592639714479446, \
0.050591688603162766, \
-0.23712898790836334, \
-0.10248536616563797, \
0.008715003728866577, \
-0.012885551899671555, \
1.1500867619362865e-10, \
0.0016325833275914192, \
0.001195486867800355, \
-0.04228585958480835, \
-0.00364394998177886, \
-0.04585985094308853, \
-0.007507896050810814, \
-0.12605783343315125, \
-0.011260557919740677, \
-0.05037161707878113, \
-0.0028423978947103024, \
0.01090179942548275, \
-0.010911599732935429, \
0.007509093265980482, \
0.052506156265735626, \
0.015396837145090103, \
-0.02345876395702362, \
-0.013609989546239376, \
-0.0018400426488369703, \
-0.001571613596752286, \
3.3685079031675613e-11, \
3.1723002696937286e-11, \
-0.002495396416634321, \
-0.01659316197037697, \
-0.003069618484005332, \
-0.2451118528842926, \
-0.008482003584504128, \
0.05050114169716835, \
-0.04822429642081261, \
-0.15769080817699432, \
-0.0028381547890603542, \
0.005825927015393972, \
0.012966682203114033, \
0.09319665282964706, \
-0.010879267007112503, \
-0.012384899891912937, \
0.021323032677173615, \
0.017135675996541977, \
-0.024446187540888786, \
-1.7243756422757883e-10, \
-0.023533446714282036, \
0.030218224972486496, \
-0.16938751935958862, \
-0.02967735379934311, \
0.004830703139305115, \
0.03896860405802727, \
0.1593255251646042, \
-4.324466132410443e-12, \
-0.04309295862913132, \
-0.06231138855218887, \
0.028145214542746544, \
0.0008659817976877093, \
-0.19920828938484192, \
-0.1880226582288742, \
-0.07640691846609116, \
0.0065070767886936665, \
-0.01663033664226532, \
-0.03197382390499115, \
0.1676895171403885, \
0.03868338093161583, \
0.1362760066986084, \
0.03629549965262413, \
0.006386150605976582, \
-0.023234913125634193, \
-7.87740532526282e-12, \
0.0030732308514416218, \
0.003964281175285578, \
0.025605691596865654, \
-0.07262971252202988, \
-0.04239526018500328, \
0.004427507519721985, \
-0.01963888108730316, \
-0.033190272748470306, \
-0.04473394900560379, \
-0.016394170001149178, \
0.012471292167901993, \
-0.03972364589571953, \
0.0019170785089954734, \
0.08872368931770325, \
0.06868551671504974, \
-0.04607505351305008, \
-0.015843519940972328, \
-0.003809903748333454, \
-0.0007171326433308423, \
1.8646681421152778e-11, \
2.3102384588691294e-11, \
0.0017447967547923326, \
-0.0074814059771597385, \
-0.002403566613793373, \
0.07107533514499664, \
-0.022850146517157555, \
-0.037450846284627914, \
-0.02211681194603443, \
0.052953653037548065, \
-0.011238778941333294, \
0.006456526927649975, \
0.024173462763428688, \
0.04501951485872269, \
-0.007515306584537029, \
0.08073697239160538, \
0.024225004017353058, \
0.020808082073926926, \
-0.00031960991327650845, \
-1.114754191733347e-10, \
0.0010375728597864509, \
0.03358498588204384, \
0.16201169788837433, \
-0.01583476923406124, \
-0.02429688163101673, \
0.008172289468348026, \
-0.06744091957807541, \
4.294762896012161e-12, \
-0.06517343968153, \
-0.0011001229286193848, \
0.0010339458240196109, \
-0.00016956840408965945, \
0.05942167341709137, \
-0.05947887524962425, \
-0.07793410122394562, \
-0.004970388021320105, \
-0.11805249005556107, \
-0.18100863695144653, \
-0.20873765647411346, \
-0.02254464663565159, \
-0.11725180596113205, \
0.01750679686665535, \
-0.0003175588499289006, \
-0.008101755753159523, \
1.7588894229980667e-10, \
0.0005684836651198566, \
0.0020531832706183195, \
-0.05543823912739754, \
0.06255613267421722, \
-0.05927964672446251, \
0.0006581760244444013, \
0.10126018524169922, \
-0.0077529773116111755, \
-0.09799737483263016, \
-0.012333936057984829, \
0.004975539166480303, \
-0.010179519653320312, \
0.012969334609806538, \
-0.09011287242174149, \
-0.06001489609479904, \
-0.03934955596923828, \
0.01434546522796154, \
-0.002881038235500455, \
-0.001199658028781414, \
-4.600517015951322e-12, \
-1.5899612355874115e-12, \
-0.00033260867348872125, \
-0.010746828280389309, \
-7.37193477107212e-05, \
0.18731436133384705, \
-0.0014011668972671032, \
0.09328260272741318, \
0.006100637372583151, \
-0.006284130271524191, \
-0.0026337860617786646, \
0.0024902576114982367, \
-0.011352150700986385, \
-0.017411084845662117, \
0.1154547929763794, \
-0.0061391135677695274, \
-0.019184540957212448, \
0.01093294844031334, \
0.002745914738625288, \
-1.5331072522606348e-10, \
-0.1313641220331192, \
0.013605612330138683, \
0.05695095658302307, \
0.017057066783308983, \
0.32685586810112, \
-0.004871217533946037, \
0.017076482996344566, \
1.3764327351506456e-11, \
0.00614911736920476, \
0.03841915354132652, \
-0.04886127635836601, \
-0.0009487343486398458, \
0.0878714844584465, \
-0.032877784222364426, \
-0.007925477810204029, \
0.013679219409823418, \
-0.025386478751897812, \
-0.0938556045293808, \
0.247819721698761, \
-0.015561820939183235, \
-0.05782777816057205, \
-0.23791742324829102, \
-0.0007455425802618265, \
-0.016543878242373466, \
1.8121285721983682e-12, \
-0.002671266905963421, \
-0.0032038851641118526, \
-0.03324252367019653, \
0.021466175094246864, \
-0.09428418427705765, \
0.007716798689216375, \
-0.008824141696095467, \
-0.012880073860287666, \
-0.07790884375572205, \
-0.019521592184901237, \
-0.005654495675116777, \
0.00010315950203221291, \
-0.0044773416593670845, \
-0.05588280409574509, \
0.0077736168168485165, \
-0.00029161095153540373, \
-0.0055311755277216434, \
0.00044813717249780893, \
-0.0005720498156733811, \
2.950129073323038e-12, \
5.42633689717964e-12, \
-0.0003146419767290354, \
0.009238501079380512, \
0.0009245649562217295, \
-0.20684507489204407, \
-0.018888842314481735, \
-0.11635758727788925, \
0.013664057478308678, \
-0.01770946756005287, \
-0.005016785580664873, \
-0.0033839147072285414, \
-0.0021198869217187166, \
-0.0694204568862915, \
-0.004197701346129179, \
-0.09452717006206512, \
0.022290688008069992, \
-0.003177314531058073, \
0.02747141569852829, \
1.788230848120964e-11, \
-0.004301172681152821, \
-0.016964484006166458, \
-0.07677001506090164, \
-0.018044188618659973, \
-0.2914259433746338, \
0.09556826204061508, \
-0.010016183368861675, \
1.0442917364184012e-11, \
-0.006223057862371206, \
0.019094159826636314, \
-0.0018348336452618241, \
0.006767972372472286, \
0.10234157741069794, \
-0.008797794580459595, \
0.10604143142700195, \
-0.013169459998607635, \
0.08936021476984024, \
0.010223672725260258, \
-0.00455115782096982, \
0.04145072400569916, \
0.08057282865047455, \
0.0025083834771066904, \
0.0031992285512387753, \
-0.008175046183168888, \
1.3383315289328124e-11, \
0.007011271547526121, \
0.009632905013859272, \
-0.06948445737361908, \
0.03571328893303871, \
0.12429356575012207, \
0.017624368891119957, \
0.13049376010894775, \
0.012130255810916424, \
0.1245279535651207, \
-0.006549004931002855, \
0.011109719052910805, \
0.012177173979580402, \
0.0012005886528640985, \
0.03963170200586319, \
-0.002736260648816824, \
-0.005306333769112825, \
0.0022150424774736166, \
0.0035980225075036287, \
0.0018318371148779988, \
1.7280654338036605e-11, \
2.8057542400539148e-11, \
0.003678195644170046, \
0.042067427188158035, \
0.0012728057336062193, \
-0.08931483328342438, \
-0.002613301621749997, \
-0.020446887239813805, \
0.027039935812354088, \
0.07181788235902786, \
0.002968104323372245, \
0.005531490780413151, \
0.02012655884027481, \
0.07972133159637451, \
-0.06712491065263748, \
0.14811967313289642, \
0.05100245773792267, \
0.04496552050113678, \
0.037830863147974014, \
1.2959623651997987e-10, \
0.15651632845401764, \
0.030210403725504875, \
0.03918291628360748, \
-0.0030114466790109873, \
-0.023886846378445625, \
-0.0239932332187891, \
0.023414980620145798, \
8.53216195612072e-12, \
-0.043662603944540024, \
-0.014108180068433285, \
0.005153122823685408, \
0.002372979186475277, \
-0.10410945117473602, \
-0.09065844118595123, \
-0.21356076002120972, \
-0.07569349557161331, \
-0.09583806246519089, \
-0.2172122448682785, \
-0.18998953700065613, \
-0.044023022055625916, \
-0.10525550693273544, \
-0.004411354660987854, \
0.00021115777781233191, \
-0.014122150838375092, \
2.443507549076962e-11, \
0.0032674791291356087, \
0.0030930722132325172, \
-0.05610111355781555, \
0.0625985637307167, \
-0.05388309061527252, \
0.004287044517695904, \
-0.059777628630399704, \
-0.007213142700493336, \
-0.07157177478075027, \
-0.006781131960451603, \
0.008830226957798004, \
-0.023142466321587563, \
0.009486915543675423, \
-0.053702667355537415, \
-0.08949827402830124, \
-0.03569195047020912, \
0.11142140626907349, \
-0.004680029582232237, \
-0.0002846255956683308, \
-1.521933273851417e-11, \
-1.3203699418540271e-11, \
1.4677759281767067e-05, \
-0.014165420085191727, \
-0.000381380261387676, \
0.21429131925106049, \
0.002962816273793578, \
0.1972687691450119, \
0.012407026253640652, \
0.008869736455380917, \
-0.0024641535710543394, \
0.004495061002671719, \
-0.010765425860881805, \
0.01648705080151558, \
-0.024460289627313614, \
0.01452124398201704, \
-0.023876706138253212, \
0.025060104206204414, \
-0.00833421852439642, \
-2.0990456595093576e-10, \
-0.14169174432754517, \
0.02410338632762432, \
0.2001328319311142, \
0.0117112435400486, \
0.48487937450408936, \
-0.15122538805007935, \
-0.06789357960224152, \
4.673116277623124e-13, \
0.02664622850716114, \
0.029812056571245193, \
-0.028017479926347733, \
-0.00010382368782302365, \
-0.04369514435529709, \
-0.027564672753214836, \
-0.04899182915687561, \
0.014988314360380173, \
0.05758538097143173, \
-0.021101363003253937, \
0.33756616711616516, \
-0.006416320335119963, \
-0.10339625179767609, \
-0.25213685631752014, \
0.0027411398477852345, \
-0.018644722178578377, \
8.961360820070041e-11, \
-0.0022525466047227383, \
-0.004515911918133497, \
-0.020757414400577545, \
0.011883723549544811, \
-0.14859242737293243, \
0.009925379417836666, \
-0.06301412731409073, \
-0.0213325098156929, \
-0.11624856293201447, \
-0.014555133879184723, \
-0.005629115272313356, \
-0.01329819206148386, \
-0.004149949178099632, \
-0.054425835609436035, \
0.07555163651704788, \
0.007014075759798288, \
-0.11674877256155014, \
0.0016137222992256284, \
-0.0004655470547731966, \
-6.894348373448489e-12, \
-3.863929575603775e-12, \
-0.001267073443159461, \
-0.0049528577364981174, \
0.001567758503369987, \
-0.13711994886398315, \
-0.00730945635586977, \
0.001167472219094634, \
0.006472572218626738, \
-0.03810321167111397, \
-0.008606349118053913, \
-0.0033107066992670298, \
-0.005106637254357338, \
-0.0553036592900753, \
0.0452294684946537, \
-0.15445880591869354, \
0.038647036999464035, \
-0.003007389372214675, \
0.045599546283483505, \
-6.762297666274009e-11, \
-0.06417958438396454, \
-0.01626056246459484, \
-0.07917013764381409, \
-0.010549165308475494, \
-0.2508988678455353, \
0.1122123971581459, \
-0.03796844184398651, \
1.183129462456467e-11, \
0.023697959259152412, \
0.04425166919827461, \
0.055480681359767914, \
0.011564652435481548, \
0.0747281163930893, \
0.00021184798970352858, \
0.0399518720805645, \
-0.16902247071266174, \
0.01326841302216053, \
0.011617106385529041, \
-0.04169890657067299, \
0.027628619223833084, \
0.027016500011086464, \
-0.05105404555797577, \
0.003681486938148737, \
-0.006677774712443352, \
-3.7806261593553714e-11, \
0.009087425656616688, \
0.009878452867269516, \
-0.17610880732536316, \
0.025775881484150887, \
0.11657588928937912, \
0.020515350624918938, \
-0.018387556076049805, \
0.012727267108857632, \
0.12253454327583313, \
-0.002693780465051532, \
0.013578914105892181, \
0.02229645475745201, \
0.009906742721796036, \
0.01411016657948494, \
0.040802761912345886, \
0.023492414504289627, \
-0.01889152079820633, \
0.003038471331819892, \
0.0031451850663870573, \
8.591839913141275e-12, \
2.088145628631466e-11, \
0.00045556275290437043, \
0.015873674303293228, \
0.001370562007650733, \
-0.045976269990205765, \
-2.5364897737745196e-05, \
-0.10984425991773605, \
0.041679978370666504, \
0.03156692534685135, \
0.0046349773183465, \
0.006854985374957323, \
0.02002856321632862, \
0.08438480645418167, \
-0.13429789245128632, \
0.10983874648809433, \
0.06275232136249542, \
0.041777439415454865, \
0.029310142621397972, \
6.085053294579978e-11, \
0.0774267241358757, \
0.036572784185409546, \
0.07166992127895355, \
-0.0021385829895734787, \
-0.07599896192550659, \
-0.022364385426044464, \
0.01348623726516962, \
9.402580276873795e-12, \
-0.033162813633680344, \
-0.022662004455924034, \
-0.01879274845123291, \
0.001891543623059988, \
-0.02196676656603813, \
-0.03929411247372627, \
-0.14688807725906372, \
-0.017670033499598503, \
-0.04985044151544571, \
-0.12836085259914398, \
-0.17708705365657806, \
-0.047823209315538406, \
-0.04654949530959129, \
-0.031014882028102875, \
-0.002109851222485304, \
-0.02036021649837494, \
5.69392866189844e-11, \
-0.0014993208460509777, \
-0.0036515307147055864, \
0.055397726595401764, \
0.0313374362885952, \
0.034957900643348694, \
0.002842334331944585, \
-0.04023853316903114, \
0.0025118745397776365, \
-0.06782850623130798, \
-0.0038608696777373552, \
-0.0008959203842096031, \
-0.008015192113816738, \
-0.0003333060012664646, \
-0.004856333136558533, \
-0.039447586983442307, \
-0.017885567620396614, \
0.1954006403684616, \
-0.002995604183524847, \
-0.0025965264067053795, \
-2.98309185513268e-12, \
-7.402834421854632e-12, \
0.0006809148471802473, \
-0.0160137340426445, \
-0.0012282130774110556, \
0.047617409378290176, \
-0.0035220894496887922, \
0.05591331422328949, \
0.012228010222315788, \
0.03407196328043938, \
-0.0015362008707597852, \
-0.00030248009716160595, \
-0.0022335487883538008, \
0.021807247772812843, \
-0.041740234941244125, \
0.01985766366124153, \
-0.04518110677599907, \
-0.014706763438880444, \
-0.03262587636709213, \
-7.831749138098587e-11, \
-0.014419675804674625, \
-0.0021165774669498205, \
0.09796752780675888, \
0.006006291136145592, \
0.3207860291004181, \
-0.03287876397371292, \
-0.012332091107964516, \
-3.234206251336719e-14, \
0.019857769832015038, \
0.010445759631693363, \
-0.0393514484167099, \
-0.0019109385320916772, \
-0.09522659331560135, \
-0.029751097783446312, \
-0.08240506798028946, \
0.019476071000099182, \
0.08621133118867874, \
-0.008154625073075294, \
0.19067955017089844, \
-0.007497698999941349, \
-0.042881596833467484, \
-0.23923571407794952, \
-0.00011848341091535985, \
-0.023566918447613716, \
1.3832433809479738e-10, \
-0.004867109004408121, \
-0.006956480443477631, \
0.05174294114112854, \
-0.0032747979275882244, \
-0.08599895238876343, \
0.0016432495322078466, \
-0.009603507816791534, \
-0.018315596505999565, \
-0.09458833932876587, \
-0.007342809345573187, \
-0.004581203684210777, \
-0.01651836931705475, \
-0.008041716180741787, \
0.004185670055449009, \
0.04724281281232834, \
-0.005621132906526327, \
-0.11958681046962738, \
0.0036337031051516533, \
-0.0016333154635503888, \
1.7388025698103493e-12, \
-3.3732500299976653e-12, \
0.0015611679991707206, \
0.003542405553162098, \
0.0005666646175086498, \
-0.12355504184961319, \
-0.0038981984835118055, \
-0.09749974310398102, \
0.0015275879995897412, \
-0.017836794257164, \
-0.008367764763534069, \
-0.00239694700576365, \
0.002457867143675685, \
-0.05117218941450119, \
-0.006337729748338461, \
-0.0005492327618412673, \
0.015848468989133835, \
-0.014727608300745487, \
0.027384066954255104, \
-8.409978963230813e-11, \
-0.041654884815216064, \
-0.012101718224585056, \
-0.07110242545604706, \
0.0008092420175671577, \
-0.20315484702587128, \
0.08200779557228088, \
-0.0009065279737114906, \
1.1977884829816876e-11, \
-0.007617561612278223, \
0.009844579733908176, \
0.013577098026871681, \
0.003948981408029795, \
0.05806317552924156, \
-0.0008115535019896924, \
0.03641270846128464, \
-0.06787045300006866, \
-0.012799526564776897, \
0.04465523734688759, \
0.045860860496759415, \
0.010422012768685818, \
0.041429437696933746, \
-0.011243274435400963, \
2.8815136829507537e-05, \
-0.015493661165237427, \
-1.0912533029983074e-11, \
0.0023331751581281424, \
0.003015723777934909, \
-0.08371913433074951, \
-0.01579909771680832, \
0.024822432547807693, \
0.007122626528143883, \
-0.024992560967803, \
-0.004043716471642256, \
0.07661315053701401, \
-0.0035058632493019104, \
0.006720402278006077, \
0.00027933053206652403, \
-0.0024428267497569323, \
0.02253929153084755, \
0.04739154502749443, \
0.010228998027741909, \
-0.07399971038103104, \
0.0033050079364329576, \
0.0009769469033926725, \
8.278962584928884e-12, \
1.3543385163350408e-11, \
0.002544338582083583, \
0.018716290593147278, \
-7.313145761145279e-05, \
-0.10571473091840744, \
-0.0009825737215578556, \
-0.013847565278410912, \
0.02517748810350895, \
0.03179324045777321, \
-0.004360107239335775, \
0.003298737807199359, \
0.025208383798599243, \
0.042231347411870956, \
0.00473196292296052, \
0.11997084319591522, \
0.029596561565995216, \
0.02728280983865261, \
0.012613116763532162, \
5.951138193349692e-11, \
0.12706425786018372, \
0.018601786345243454, \
0.05620001256465912, \
0.0017204191535711288, \
-0.12942299246788025, \
0.0022600290831178427, \
0.027529090642929077, \
1.3700956601886416e-12, \
0.09974406659603119, \
0.05022847652435303, \
0.001030819839797914, \
0.004505367949604988, \
0.05197228863835335, \
0.0413719117641449, \
-0.021098220720887184, \
0.09572233259677887, \
0.013579750433564186, \
-0.033094629645347595, \
-0.017992112785577774, \
-0.04842474311590195, \
0.02962636761367321, \
0.011345060542225838, \
0.0014448161236941814, \
0.026693260297179222, \
-5.460711050009337e-11, \
0.006101582664996386, \
0.00834144651889801, \
0.06662023812532425, \
0.04742825776338577, \
-0.04150446876883507, \
0.01761193387210369, \
-0.018586670979857445, \
0.04028923064470291, \
-0.008395284414291382, \
0.019430559128522873, \
0.010742814280092716, \
0.03750433400273323, \
0.004763199016451836, \
0.02555154636502266, \
0.06849566847085953, \
0.04039420560002327, \
0.049614932388067245, \
0.005134062375873327, \
0.003918150439858437, \
1.0095342097005133e-11, \
-8.319167295149643e-13, \
0.0018342651892453432, \
0.02992846630513668, \
0.0016019849572330713, \
0.011346174404025078, \
0.024156730622053146, \
0.13815264403820038, \
0.04655395448207855, \
-0.01218652818351984, \
0.015229391865432262, \
0.005582989659160376, \
0.012608548626303673, \
-0.0004911218420602381, \
0.05126342922449112, \
0.08778009563684464, \
0.021897414699196815, \
0.047226179391145706, \
0.00366198574192822, \
3.4431447276661586e-11, \
-0.09275507926940918, \
0.02919646166265011, \
0.03068672865629196, \
0.005622391123324633, \
0.030857928097248077, \
0.08114635199308395, \
0.11414910852909088, \
