#define features_18_bias {\
7.156877313008181e-09, \
1.0691373120153003e-08, \
7.411684599389901e-10, \
-2.288935263550229e-09, \
-1.071548982878312e-08, \
5.0819290997594635e-09, \
-1.2233003054973324e-08, \
6.314097245052608e-09, \
2.3487684686074317e-08, \
9.57723145234013e-09, \
-2.9711712201674345e-08, \
1.608541033704114e-08, \
-5.4936117876991375e-09, \
-1.1031236368808095e-08, \
-1.6752446097001439e-09, \
3.9175834132265663e-08, \
-3.5512130125425756e-08, \
4.044167667416332e-09, \
1.1522342191483403e-08, \
4.1098857650467835e-08, \
9.99472860030437e-09, \
-1.1185725679041525e-09, \
1.8283346392422573e-08, \
6.475059421973128e-08, \
-5.617310172567613e-09, \
2.437580626235558e-08, \
1.051168663224189e-08, \
-9.303628090151506e-09, \
-9.724644201014598e-09, \
-3.3649044661743233e-10, \
7.443855754019069e-09, \
-3.5691205546584115e-09, \
-3.4475672094913534e-08, \
7.986286298944378e-09, \
-7.656945633094381e-10, \
-6.917515893434256e-09, \
3.1460796634519284e-08, \
1.2300167995249467e-08, \
4.6371983586368515e-08, \
-1.8884982466715883e-09, \
3.828512973313991e-08, \
-1.3965755663036816e-08, \
-3.453464714198162e-08, \
5.326307395137064e-09, \
-1.0276543171983121e-08, \
-2.6968573152430508e-08, \
1.6014271020381443e-09, \
-1.0901542779606643e-08, \
-4.901547168145726e-09, \
1.3506197049650837e-08, \
3.7759182447416606e-08, \
-1.6197914121107715e-08, \
3.115482272164627e-08, \
2.3897156253838148e-08, \
-1.824316520071534e-08, \
1.774456670489144e-08, \
-4.9767070464667995e-08, \
-1.0165444486176511e-08, \
3.083096444811417e-08, \
8.629395864545586e-09, \
4.518418972310201e-09, \
1.445767505714457e-08, \
3.735988229891518e-08, \
-6.347978143139699e-09, \
-2.3639076474069043e-08, \
3.378993440605882e-08, \
2.4710566037811077e-08, \
-3.18111070818361e-09, \
-4.507752393578812e-09, \
-3.543810134232217e-09, \
-1.9950080698549755e-08, \
4.1760648272770595e-09, \
-8.05840372208877e-08, \
-9.7989802938514e-09, \
1.824893658408655e-08, \
2.3812489757801814e-08, \
4.223430050132038e-09, \
-5.783867162989509e-09, \
-4.426332367302166e-08, \
2.768405771291782e-08, \
-3.444639062877286e-08, \
-3.396165793034811e-09, \
2.0198780426028407e-09, \
-9.062207873000716e-09, \
-2.0197395755872094e-08, \
9.992008109804829e-09, \
4.250728213861521e-09, \
-4.426035982163512e-09, \
-5.261239000020623e-09, \
-4.7802576119693185e-08, \
4.123787178400562e-08, \
1.697499918407175e-08, \
9.408741341587756e-09, \
-1.7926462092532347e-08, \
4.602163983236096e-09, \
-7.228087572919151e-10, \
-2.4292683420412686e-08, \
2.5480384024945124e-08, \
-4.042259860170816e-08, \
1.480349975935269e-08, \
-1.0646278525427988e-08, \
8.606290791135507e-09, \
-1.2379274494378478e-08, \
-1.7611544222972952e-08, \
1.4452802510334095e-08, \
3.173957807689476e-08, \
1.2736595778051196e-08, \
-2.7906095212415494e-09, \
1.6644266409571173e-08, \
-3.5142761589668225e-08, \
4.79401940367552e-09, \
1.2868945020727551e-08, \
3.1954829893265924e-08, \
-2.6152456200634333e-08, \
-2.3067814325372638e-08, \
1.6336645813908035e-08, \
-1.5072988190922842e-08, \
1.8667167367425463e-08, \
-2.6004325803796746e-08, \
-1.3812776700206086e-08, \
3.605664389283447e-08, \
2.8354921965956237e-08, \
1.8586847616575142e-08, \
-4.915372286973252e-08, \
1.4427333105970774e-08, \
-4.1028840769286035e-08, \
-2.452953040688044e-08, \
3.8853791295423434e-09, \
4.905181261172231e-10, \
1.1236146235660271e-08, \
-1.3074592519757289e-09, \
2.920345032464411e-08, \
4.8145736286642205e-09, \
-3.248986146786592e-08, \
-1.7952667130671784e-09, \
-4.001011522092313e-09, \
2.0025281433078135e-09, \
3.3912744612507595e-08, \
-1.998007270742619e-08, \
-4.882190651755991e-09, \
-1.910573921293235e-08, \
-2.560594403178129e-09, \
6.146373188187226e-09, \
-5.352684073756109e-09, \
-2.01426448853681e-08, \
-2.4345848004259096e-08, \
1.152623241296169e-08, \
5.443641981628389e-09, \
-7.854485062352978e-09, \
-7.575840754725505e-08, \
3.599602171888705e-09, \
1.8942616364370224e-08, \
3.3329707882501225e-09, \
1.2736087739995128e-09, \
-1.3013773170200693e-08, \
-1.7340290980882855e-08, \
4.878862203128165e-09, \
1.3958626476906488e-09, \
1.611416600155735e-08, \
4.9127756085454166e-08, \
-8.686591446149805e-10, \
1.7686678788209065e-08, \
3.5148861599054726e-08, \
4.642911388685889e-09, \
-1.673043215077996e-08, \
-3.7916073836186115e-08, \
-3.635479473018677e-09, \
-1.7329000456811627e-08, \
-9.710458215295148e-09, \
2.7685045367320527e-08, \
-6.618706027694543e-09, \
-1.9808098272733332e-08, \
5.961826587963515e-08, \
2.8608143409769582e-08, \
3.4746470589652745e-08, \
2.4522707420260303e-08, \
-1.6436665362107306e-08, \
7.367152443649161e-10, \
1.8492762876576307e-08, \
-5.051608020778531e-10, \
3.605597598266286e-08, \
-7.574126215104116e-09, \
-2.650468466924849e-08, \
-6.545571640259595e-09, \
2.280313360358832e-08, \
8.92458906776028e-09, \
1.3459918513092362e-08, \
-1.4396625225288062e-08, \
3.5550484778212876e-09, \
-2.4300353729245217e-08, \
1.795636350720997e-08, \
-3.583018681752037e-08, \
-3.7902420757518485e-08, \
-1.4119242663923615e-08, \
9.745286355666849e-09, \
-2.5340249898420097e-09, \
6.24280005467881e-09, \
-3.421738004050212e-09, \
3.1731421934466653e-09, \
1.0800549787859381e-08, \
3.4690909700429984e-08, \
-3.798783509978421e-09, \
-2.65548329991816e-08, \
9.871614636836057e-09, \
-9.478104523452657e-09, \
-8.375274695993085e-09, \
-9.572390657908159e-10, \
9.426682545665699e-09, \
1.7770142690665125e-08, \
-2.748428151733151e-08, \
2.9000936763168284e-08, \
-9.11044661933147e-09, \
5.349487963712818e-09, \
-3.1717821258325785e-08, \
3.934722414555836e-08, \
2.0074603312991712e-08, \
2.71126054940396e-08, \
-6.093949234120544e-10, \
5.135912584108837e-09, \
5.002781300333936e-09, \
2.2226544160730555e-08, \
6.048322398477524e-10, \
-1.0262809269079298e-08, \
-7.207942331888262e-08, \
1.0737338129729324e-08, \
-2.9216491448380566e-09, \
-3.1409879142074715e-09, \
1.3351996841493019e-08, \
1.4096459111101467e-08, \
6.336748348267918e-10, \
-1.139285998874584e-08, \
4.5323731434621095e-09, \
4.3073626443401736e-08, \
-3.987287300333264e-08, \
7.419122649565679e-09, \
-1.9170002474311332e-08, \
8.456962241609745e-09, \
-4.456989799450639e-08, \
1.187090070686736e-08, \
5.6548836724346074e-09, \
2.1155329932298628e-08, \
3.407660642551491e-08, \
1.3796492837059304e-08, \
-1.3952804245320749e-08, \
-3.2085287759997527e-09, \
-3.019495053990795e-08, \
1.3640815588189525e-08, \
9.247794530153897e-09, \
1.8776755705829373e-09, \
-2.4944798227011233e-08, \
-7.773421017986948e-09, \
-2.7812950165184702e-08, \
-3.735666886939271e-09, \
-3.8322760076425766e-08, \
-3.6841697692580055e-08, \
1.578804287305502e-08, \
-4.6878987802756455e-08, \
1.7641912930521642e-10, \
-1.6742184527629433e-08, \
-3.605825327213097e-08, \
-1.9988828370287592e-08, \
3.3294758061686025e-09, \
-2.847359237279079e-09, \
-7.222435982612296e-09, \
1.065672883271418e-09, \
-4.195464242684466e-08, \
-9.368373632412386e-09, \
-3.6161747374308106e-08, \
3.03412264202052e-08, \
8.903665360548985e-09, \
2.1015639228849636e-10, \
-4.4196220017056476e-09, \
8.980896915034009e-09, \
-1.3935140152909753e-08, \
-1.9825408870133288e-08, \
-1.0211078649291494e-09, \
-8.677848661875487e-09, \
-9.16814002493993e-09, \
-1.3379197305596335e-08, \
5.772324396247086e-09, \
-2.851577196594235e-09, \
1.2459458353930586e-08, \
-1.7537575836001906e-09, \
-1.8122685574439856e-08, \
-5.2151021279200904e-09, \
3.550923821649121e-08, \
2.588584280260875e-08, \
-1.1786009501690842e-08, \
3.327063424762855e-08, \
-3.23520268352695e-08, \
-1.5920036844363494e-08, \
1.3664482878539275e-08, \
2.6067615621627738e-08, \
3.047780250398091e-09, \
-1.8327064310597052e-08, \
1.5944946696322404e-08, \
6.573333433124162e-09, \
-2.2649468078839163e-08, \
1.6561127580416724e-08, \
-7.021428327647072e-09, \
1.1224999596493035e-08, \
7.095497078779545e-09, \
-1.091465917646417e-09, \
-3.959719663271244e-08, \
1.1127736954108514e-08, \
-2.4671111376051158e-08, \
-2.4429166245454326e-08, \
-8.784545313389458e-10, \
-3.7039462608134954e-09, \
-2.4098836703956295e-08, \
1.1251657383581914e-08, \
3.985718421972706e-09, \
6.442948397022974e-09, \
-1.8474427321280018e-08, \
-5.463882501999251e-08, \
-7.3939196987282685e-09, \
2.2572875124637903e-08, \
-2.2114443609666523e-09, \
9.73496061540402e-10, \
-9.325966665585383e-09, \
-2.0207526318927194e-08, \
4.0920231647589844e-09, \
-4.545635690078598e-08, \
-5.82913202151758e-08, \
4.084296012507593e-09, \
3.3474240268560607e-08, \
7.646121069626588e-09, \
-2.0998246696990464e-08, \
3.284885963239503e-08, \
-2.451311686968438e-08, \
1.2033424923174607e-08, \
-1.2427185946961572e-09, \
6.980949707191542e-10, \
7.90302490116801e-09, \
1.6486366050116885e-08, \
-1.1796139176567522e-08, \
1.5633320193941813e-09, \
4.069311998478042e-09, \
1.4731073250118243e-08, \
1.7883845515598296e-08, \
-1.4055967945125758e-08, \
4.571131029251774e-09, \
1.709571861852055e-08, \
-3.6984488804847615e-09, \
1.0698920860363614e-08, \
-2.385692532413941e-09, \
3.326294262251395e-08, \
2.8116799555277794e-08, \
-3.510039903176221e-08, \
-5.522156598658512e-08, \
-4.546872212074504e-09, \
-7.350027697583528e-09, \
1.7523579032285852e-08, \
4.9782293842781655e-08, \
1.965269724735208e-08, \
1.401177129878306e-08, \
-1.1151771728279414e-09, \
-2.7550650649743602e-09, \
1.0607837275244947e-08, \
-3.503454593101196e-08, \
-2.4924711183871295e-08, \
-4.449503165915303e-08, \
3.3195350912507138e-09, \
-3.029032313861535e-08, \
1.838719843050285e-09, \
-1.1319754911198743e-08, \
3.948385618457451e-09, \
-1.463437993010075e-08, \
4.216269111623205e-09, \
5.488762777616785e-09, \
7.177368921418292e-09, \
-1.7789536954637697e-08, \
-2.9991394256967396e-08, \
-2.0220202401333154e-08, \
-2.999769321831991e-08, \
3.833361006400082e-08, \
1.9655372440752217e-08, \
8.017472907795309e-09, \
-3.846669649476553e-09, \
-5.800793623222944e-09, \
4.083524185460874e-09, \
1.905307378535781e-08, \
-6.002709884711521e-09, \
1.2455054765325713e-08, \
-2.5393889657721047e-08, \
-5.460091045961235e-09, \
2.2208661576428312e-08, \
-8.76628192258977e-09, \
2.7668736635177993e-08, \
-1.2412543881623606e-08, \
-3.247280844220768e-08, \
-1.305640484616788e-08, \
1.984877506799876e-08, \
6.236048566421459e-09, \
5.230260224919903e-09, \
-7.800966983495528e-09, \
1.891346385063386e-10, \
3.4820605065988275e-08, \
3.6462961539029948e-09, \
4.149887100624028e-09, \
-4.105557138700533e-08, \
2.1127760874151136e-08, \
3.3929212772676465e-09, \
-1.1133161059717622e-09, \
-2.3828384598800767e-08, \
5.498274280313353e-09, \
-1.2673088356507378e-08, \
3.96293629023603e-08, \
2.8093490200831184e-08, \
9.379358623107237e-09, \
-1.3390065056739786e-08, \
-5.605229613792062e-09, \
2.20967377728698e-09, \
1.873864174939399e-09, \
-1.4687586258332885e-08, \
-1.632792390182658e-08, \
-1.353968492878721e-09, \
-2.144297717165955e-08, \
-2.6581892242916183e-09, \
1.551225259355249e-09, \
-2.658122078003089e-08, \
8.037465448751391e-08, \
-1.3472595483676741e-08, \
8.754304836600113e-09, \
8.110604632349805e-09, \
1.671328675456607e-08, \
-9.363462893929864e-09, \
6.294392562722351e-08, \
4.622201288384531e-09, \
-7.786872480153306e-09, \
6.455179946129874e-09, \
-1.7545985997458047e-08, \
2.5140449722016456e-08, \
8.692187414283126e-09, \
7.236458543502522e-09, \
-4.031469380549879e-09, \
6.838018595800577e-09, \
1.1837571811668113e-08, \
2.9289155545342282e-09, \
8.967864673081749e-09, \
-5.001194125497932e-09, \
-4.435857015039346e-09, \
1.7553343667486843e-08, \
2.130101511843563e-10, \
6.79291622951439e-10, \
-4.747593873588585e-09, \
-6.323308099354108e-08, \
3.157139616405402e-08, \
-2.6887200021974422e-08, \
-1.9862046229945918e-08, \
1.8970995441236482e-08, \
1.5969765954082504e-08, \
2.7864632823337843e-09, \
2.2560250556580286e-08, \
-1.9494571290579188e-08, \
-1.7770018345686367e-08, \
-2.1580472964188857e-09, \
-8.997473877059292e-09, \
1.56602713019538e-08, \
-1.7641978544702397e-08, \
1.1877425265538477e-08, \
2.570834212178852e-08, \
-2.1457266186075685e-08, \
4.389572083596249e-08, \
2.62706674192259e-08, \
-2.802605925111834e-09, \
1.765971191503013e-08, \
6.414092013073969e-08, \
-1.1343196382185283e-09, \
2.7206707997606827e-08, \
1.3419800382052927e-08, \
-5.56942083562717e-08, \
-5.089854232531721e-11, \
3.586085384199578e-08, \
6.842692101827197e-08, \
1.2192212572870176e-08, \
-9.287156821358167e-09, \
2.683996636054786e-10, \
1.3123477415888374e-08, \
-5.843748596134901e-09, \
-3.422876204695058e-09, \
2.708739232915036e-09, \
1.4804865111628374e-09, \
2.1172567699068168e-08, \
1.4790202840231359e-08, \
3.5038567602896364e-08, \
-1.5131154995629004e-08, \
6.011692033069949e-09, \
1.022044529008781e-07, \
2.729466253015289e-08, \
1.0243118353514546e-08, \
2.176966606981523e-09, \
6.925933160317754e-09, \
6.098068577875537e-11, \
2.2465409088567867e-08, \
-1.2757787715145241e-08, \
4.0266197487426325e-08, \
-9.218881769079701e-10, \
-6.6191314651575794e-09, \
-1.831889129277897e-08, \
-7.912952071364998e-09, \
2.05417816090403e-08, \
4.251540897115547e-09, \
1.2067000731974531e-08, \
4.382370466515795e-09, \
2.8239110605454698e-08, \
6.308194411275281e-09, \
-2.2941057054026714e-08, \
-2.0378470466653198e-08, \
1.2637411117566444e-08, \
2.3644957991564297e-08, \
-2.4349223082253957e-08, \
}
