#define features_15_bias {\
1.4265862935403106e-09, \
-3.3893350348535023e-09, \
4.478010406927524e-09, \
7.223720288607183e-09, \
6.472259617140708e-09, \
-7.923759426375909e-10, \
1.637771029905366e-09, \
1.3556975098083512e-08, \
1.589191001016843e-08, \
1.7238048766188285e-09, \
-9.670641176739991e-09, \
-1.0262085403667243e-08, \
-8.442102128469742e-09, \
-2.3674099125514658e-08, \
-4.63815723605876e-08, \
-3.029695161416157e-09, \
-2.1053687682126565e-09, \
1.896513168730962e-09, \
-3.1391274024628046e-09, \
7.3675505696257915e-09, \
-3.823067640240652e-09, \
-1.9242825999299384e-08, \
7.622602993251348e-09, \
-1.3224836337144552e-08, \
1.0748636647406329e-08, \
-1.8498750975481926e-08, \
5.28734889204685e-10, \
-1.7742161517730892e-08, \
-2.5250987079061815e-08, \
-1.635156188228848e-08, \
2.2170956626155203e-08, \
7.799668466645926e-09, \
1.705922869632559e-08, \
6.430335819374022e-09, \
-1.8943184798558832e-08, \
-2.8271404772794995e-08, \
2.7505775435088253e-08, \
-2.101505280904803e-08, \
-1.605913624302957e-08, \
-6.7428231886879075e-09, \
6.6157075373496355e-09, \
1.4836899708825513e-08, \
-3.1494344909788197e-08, \
-1.969383767175259e-08, \
1.2440330543483924e-08, \
9.551986757116993e-09, \
-5.062240848729971e-09, \
-1.6202081454252948e-08, \
8.748885171883103e-09, \
-3.801536585523735e-10, \
6.990080514412966e-09, \
8.782417459940461e-09, \
4.3276337180486735e-08, \
2.691901146434361e-09, \
1.2777873203972945e-09, \
-8.090989211950728e-09, \
1.0064192146330697e-08, \
7.386425693312049e-09, \
-3.4445251095860385e-09, \
-2.203404214640159e-08, \
1.6044100726794741e-12, \
-1.856712266573579e-12, \
7.562952930584288e-09, \
-1.4475427967397536e-08, \
-2.8560068088268054e-08, \
4.438633283143645e-08, \
5.047835927030064e-09, \
1.1208878269997058e-08, \
-1.4090697497692872e-09, \
-4.888617954890151e-09, \
1.2319984143971396e-08, \
2.4807610188304352e-08, \
1.549683759094478e-08, \
3.788480640309899e-09, \
-4.119507845956605e-09, \
9.441896153816742e-09, \
2.2424686108024616e-08, \
-1.766119517299103e-08, \
1.748659173017586e-08, \
-1.1632909746595033e-08, \
6.006480313125451e-10, \
9.329225392207263e-09, \
2.2709583546998147e-08, \
-3.391506453453985e-08, \
-9.66300195415215e-09, \
4.070586534510312e-09, \
2.9135870605045966e-08, \
-2.160359358072128e-08, \
1.3340543780770986e-08, \
-1.7444460098658965e-08, \
6.723432921518224e-10, \
-3.0578550802573545e-09, \
9.452089111405826e-10, \
-6.2280927082269955e-09, \
9.85736114955671e-09, \
2.0621378382656985e-08, \
3.227676348416253e-09, \
-1.7218196646240358e-08, \
-1.0118038851203437e-08, \
3.831587491731625e-09, \
1.0992829979628027e-09, \
-1.0350642565271073e-09, \
-2.217265038240157e-09, \
-8.797543943339647e-11, \
3.1437397129963074e-09, \
-7.902897003475573e-09, \
1.0206862910422387e-08, \
-1.3689704481123499e-08, \
2.912146435107843e-08, \
-5.398401370371175e-08, \
-1.4134929671172358e-08, \
-7.789028444449286e-08, \
9.179313309459758e-09, \
-1.3552077682277286e-08, \
1.6730147933685657e-08, \
2.8119278017157967e-09, \
4.40710472560113e-08, \
3.634125500528995e-10, \
1.8412869451367442e-08, \
-1.0814783735213496e-08, \
-1.6280395698231587e-08, \
1.0225686963849512e-08, \
-3.212826271692393e-08, \
1.1305065328315322e-08, \
1.2098229085211187e-08, \
2.9257926636994114e-10, \
1.693359008569928e-09, \
-1.8242793942135904e-08, \
-2.3186617070791726e-08, \
-8.125939032765928e-09, \
8.608530555065386e-10, \
-4.765265959605358e-09, \
-2.605294291413429e-08, \
2.639346696753364e-08, \
9.143047208226562e-09, \
-2.394329712274157e-08, \
6.083724635175258e-09, \
-2.2746709404941612e-08, \
4.272456521903223e-08, \
1.1278883604859402e-08, \
-1.3993062708550497e-08, \
-1.802818871965428e-08, \
-4.43608350053637e-09, \
8.97802188148944e-09, \
4.358825478334438e-08, \
1.2160933593463596e-08, \
-4.526021335493624e-09, \
4.206505366255442e-09, \
2.2675657185278197e-10, \
1.7033128685284282e-08, \
-2.9345088137233688e-08, \
3.261277470301138e-08, \
5.232738686800076e-09, \
-3.3100377549999394e-08, \
-3.694209738114296e-08, \
-4.592188318497392e-08, \
4.5676163296093364e-08, \
-6.916032635473357e-09, \
-5.2076116752175494e-09, \
-2.0111322385218955e-08, \
1.780167302456448e-08, \
1.8901909371038528e-08, \
-4.459990776695122e-08, \
2.4291706424151016e-08, \
1.00510455514069e-09, \
1.5979708667401837e-09, \
5.514837475573131e-10, \
-2.6097042749029242e-08, \
-3.2157206675265115e-08, \
4.827612531954628e-09, \
-2.5628235533758925e-08, \
-3.411507520922896e-08, \
-1.0072698231056165e-08, \
-2.769641227473585e-08, \
3.3749756322976054e-09, \
2.0968778713381653e-08, \
1.563349227851063e-09, \
-1.236925850633952e-08, \
-1.9823517050099326e-08, \
-2.1018672913264425e-12, \
7.752690045492727e-09, \
-2.243687369229974e-08, \
-4.5925538372237895e-10, \
3.6052216767501477e-09, \
-2.971602164336673e-08, \
3.8464786911163173e-08, \
9.589071758853152e-09, \
-2.157833378646501e-08, \
3.0220242974721145e-10, \
5.003558456451174e-09, \
1.4482873567089882e-08, \
-3.0736108103113224e-10, \
2.604436311059999e-08, \
3.764022693530933e-08, \
-3.2981546382870874e-08, \
-5.255391233305318e-09, \
-1.7627410642262475e-08, \
-1.995584586467203e-09, \
-3.47125919120117e-08, \
2.080055772069045e-08, \
-2.8831143202012743e-12, \
-3.1605328132400246e-08, \
1.107849101344982e-08, \
2.8314788735883667e-08, \
-2.8019970343962086e-08, \
9.44427291926786e-09, \
-4.325703795160507e-09, \
-2.0187227445234157e-09, \
8.67212168742526e-09, \
2.367119122936856e-08, \
-6.290102882999804e-10, \
7.761438713949076e-10, \
-1.5475354331329072e-08, \
1.0785176307592792e-08, \
-6.03387251274512e-09, \
1.8965032211326616e-08, \
3.478519472466246e-09, \
1.513165786247439e-12, \
2.739193050160793e-08, \
5.771025435308275e-09, \
1.140543104405367e-09, \
-1.3397535303383279e-09, \
7.973789628579198e-09, \
1.6068327113316627e-08, \
-1.493316581502313e-08, \
3.299630080277893e-08, \
-8.78256845027181e-09, \
1.0399130445648552e-08, \
6.040263428319648e-11, \
1.0797390537220508e-08, \
2.9814581914422433e-09, \
-4.6697370414960915e-09, \
4.161370803501541e-09, \
1.4917691526505905e-09, \
1.8773251397874446e-08, \
-3.0308669352052675e-08, \
-1.6931894775140677e-09, \
-1.96166527466346e-09, \
1.8440474036651722e-08, \
-4.6254157837211096e-08, \
2.704593349278639e-08, \
1.0814661388636182e-09, \
1.0663698368773566e-08, \
-1.6063747665384653e-08, \
-6.134479146879812e-09, \
-7.532835688550676e-09, \
6.781546346701361e-08, \
7.844654703603737e-09, \
-2.2761739160159777e-09, \
2.317962044529054e-09, \
1.04191908434359e-08, \
1.1622219631135522e-08, \
7.088192699455931e-09, \
1.044211561662678e-08, \
-3.386791957993296e-09, \
1.75133063606836e-09, \
1.1141265687797386e-09, \
3.675759074894813e-08, \
-1.4510713519655383e-08, \
8.30349211611292e-09, \
2.032349222247376e-08, \
4.34216218536676e-09, \
2.539675669765984e-08, \
-2.7584645678757624e-09, \
6.197417690145812e-08, \
1.4598606767890487e-08, \
-3.746938403992317e-08, \
-3.920054947315066e-09, \
1.274457961386588e-08, \
8.313580934782294e-09, \
4.146546661587536e-09, \
4.569952416488832e-09, \
9.705719783426048e-09, \
2.1337875466542755e-08, \
-1.8930609968492718e-08, \
-6.226205329085133e-09, \
-1.8748220753650457e-09, \
8.646401816747584e-09, \
-7.092071374614761e-09, \
6.684731101991304e-10, \
-2.177846347706236e-08, \
-3.901812650752845e-09, \
1.6457769591582405e-09, \
1.4274633697297645e-09, \
8.09640088306196e-09, \
-7.822052450201511e-10, \
-1.391714299359137e-08, \
9.930021249715537e-09, \
1.8781461719186154e-08, \
1.6204786845719354e-08, \
1.5183820423203542e-08, \
1.1717171233271984e-08, \
-6.251990924965867e-09, \
-1.3178184765649803e-08, \
-1.1214544848314745e-08, \
-1.4628477096323422e-08, \
-3.629827105555705e-08, \
-3.7493862237170106e-08, \
-1.1982830727674809e-08, \
2.8375099603294984e-08, \
1.0785157655845978e-08, \
3.8244838407308634e-09, \
-1.2609455701806382e-08, \
-1.8244987742832564e-08, \
-7.576430149924818e-09, \
-2.6158839538936718e-09, \
-1.5356693694457135e-08, \
7.0609504909668885e-09, \
-4.507550954713224e-08, \
2.1163153007819346e-08, \
3.089281008783473e-08, \
3.937095982564642e-08, \
-3.2235579539019454e-08, \
-1.063821652991237e-08, \
-3.1185318771775883e-09, \
-7.342592756032218e-09, \
-9.552728386097442e-09, \
-1.0346789203197204e-08, \
-1.2807527483005288e-08, \
-1.5911034267901414e-08, \
4.109801921003964e-08, \
2.54216327988388e-08, \
-2.092498441186308e-08, \
-2.0570176673118112e-08, \
-2.602540405405307e-08, \
-1.1188231674452709e-08, \
6.247824035909844e-09, \
-3.068832654662401e-08, \
-1.0447393172796637e-08, \
2.287818589088997e-12, \
8.573276311096834e-09, \
2.5646807344514855e-08, \
-3.4986410213377894e-08, \
-9.910722909012293e-09, \
-2.6913227202385315e-08, \
1.8169657778344117e-08, \
1.2041660113482067e-08, \
-9.538220213656246e-10, \
-1.3166038037581984e-08, \
4.112863827288038e-09, \
1.544512434614731e-10, \
-1.9253720395795426e-08, \
-5.147796411364425e-09, \
-2.1972447472595746e-10, \
2.799863629832089e-08, \
-5.29123023174094e-10, \
4.548197196641013e-08, \
-1.5932303254473368e-09, \
1.2572376029140742e-08, \
-2.047898917112434e-08, \
1.0655586635266445e-08, \
2.7813237934992685e-08, \
-7.306162341791378e-09, \
3.5953302557345523e-08, \
-1.3178157232118792e-08, \
1.2350279687822763e-09, \
-1.1722141479708625e-08, \
-1.7811977448545235e-09, \
4.8721929601924785e-08, \
1.1457506055023714e-08, \
1.752022193990399e-09, \
-1.035248864411642e-08, \
-1.6234279198723556e-10, \
1.581926234450748e-08, \
1.582924191723123e-08, \
-1.2254567138825223e-08, \
-5.039179029608931e-08, \
-3.42861561364316e-08, \
-2.3965794682112573e-08, \
1.792343518047801e-08, \
9.316538651660267e-09, \
2.11797601679109e-08, \
9.3755563312925e-09, \
5.2100045166980635e-08, \
-7.140634750157915e-09, \
6.97043311959078e-09, \
-4.1140470585787625e-08, \
-2.8221798231697903e-09, \
4.222699523381834e-09, \
-7.652441347261174e-09, \
-3.7881985548438024e-08, \
1.3714507307582835e-09, \
1.4529075720304263e-09, \
-2.4493994388308238e-08, \
1.967801699365168e-09, \
9.159660585567053e-09, \
-7.213998287625145e-09, \
-8.066543877305321e-09, \
-5.0317439104219375e-09, \
-3.508138490815327e-08, \
-1.8727311257293877e-08, \
-2.9407035029294093e-08, \
-7.278571079183394e-10, \
2.4993269676087948e-08, \
5.442278627754149e-09, \
-4.9487830722227955e-08, \
-3.155031080837034e-08, \
-7.643071953111757e-09, \
-8.93261464796069e-10, \
-1.879275934868474e-08, \
-5.100133293467479e-08, \
-2.575572422003347e-09, \
-1.3721490610407727e-08, \
9.677175505373725e-09, \
1.742420319139626e-09, \
-4.4477392435737784e-08, \
-1.314484343595268e-08, \
7.351039332803566e-09, \
-3.268313264470635e-08, \
-5.988413320778818e-09, \
-4.448669699286256e-08, \
-1.6149213521998718e-08, \
4.747794335457911e-08, \
-4.121643470966774e-08, \
-9.83695169765042e-09, \
-3.1512745746198334e-09, \
-6.987427525473322e-09, \
-9.673583711844458e-09, \
1.9021639818816993e-09, \
-9.473931861236906e-09, \
3.983778196214871e-09, \
2.986133296190019e-08, \
-7.723293116157492e-09, \
-3.864939035480575e-09, \
-6.991234258180157e-09, \
-1.9145296459299743e-10, \
-1.276506345071482e-09, \
-1.4418882976485747e-08, \
-5.087334633419038e-13, \
8.159916298211556e-09, \
-9.297957369314158e-13, \
9.467205686064517e-09, \
-4.2910430764209195e-09, \
2.4837815360001514e-08, \
2.0946060885762563e-08, \
-7.312544347826133e-09, \
-4.181920143508933e-09, \
-2.7740622243754842e-08, \
-8.00615573837149e-09, \
1.421744233454092e-08, \
-1.5209126402737638e-08, \
-2.4936964493349478e-08, \
1.2689392647757813e-08, \
-6.74320022042707e-09, \
1.4588098729007015e-08, \
3.7248468753858788e-09, \
-1.0556989060717115e-08, \
-1.0587587473409599e-09, \
1.897221491020673e-09, \
9.449271587413932e-09, \
9.052996574610006e-09, \
-3.0081530155712244e-08, \
-2.9875761864417427e-09, \
-2.338742310925568e-09, \
2.436230239766246e-08, \
-1.8284341152252637e-08, \
1.6495755872369955e-08, \
1.445770525521084e-08, \
2.1412816408883373e-08, \
-3.0681121643283404e-08, \
-4.0090917252655345e-09, \
-5.879719822132756e-08, \
-3.0770152648074145e-08, \
-2.9343611984700146e-08, \
-5.893210808238791e-09, \
-7.338003982226837e-09, \
-3.4189742148527102e-09, \
2.643057861462239e-08, \
-3.8591192463854895e-09, \
-2.6972433175842525e-08, \
2.912625918227718e-09, \
1.3274264354379284e-08, \
-2.035986312876048e-08, \
1.2127399084960189e-09, \
-3.737240739098979e-09, \
4.54762449919599e-08, \
-4.599560199380903e-08, \
6.958867260209445e-09, \
3.848795770977631e-08, \
-2.0262904243395496e-08, \
-2.5960055438645213e-08, \
-2.2862382209609677e-08, \
1.9488359814801015e-09, \
-5.652524226462674e-09, \
1.5842054779113823e-08, \
4.666820263565796e-09, \
1.8143419211469336e-08, \
2.2583861891689594e-08, \
-1.944516103691285e-09, \
7.188064188312637e-08, \
-6.9956720416541884e-09, \
7.97087995607626e-09, \
-1.584348829908322e-08, \
1.1794675458531856e-08, \
-4.854399993092784e-09, \
1.6381454415181906e-08, \
9.677649792649845e-09, \
-2.54318806014453e-08, \
-1.1274907230074405e-08, \
-1.2270969129701825e-08, \
-1.1779331288153116e-08, \
-4.845769296935032e-08, \
8.421312536199821e-09, \
-6.9971677341129634e-09, \
5.829220661723866e-09, \
-1.798832194310762e-08, \
3.960662020574546e-09, \
-3.850010088513045e-08, \
6.1293272679563415e-09, \
1.0915127468535957e-08, \
-1.4387055102815793e-08, \
-1.5954833898490506e-08, \
}
