#define features_25_bias {\
-4.814402765340731e-10, \
1.5687257715057967e-08, \
-1.4362778744114735e-09, \
-1.583311703967638e-09, \
-1.4396132286265129e-08, \
4.044739654318619e-09, \
1.7486624127871497e-12, \
4.963424961833274e-13, \
1.9089997138621584e-08, \
6.1313740751245405e-09, \
8.901339734745939e-12, \
-1.5462964242374255e-09, \
-4.160763111826782e-08, \
-8.409545060317214e-09, \
-1.5381662166191745e-08, \
6.080528969221177e-09, \
1.3342924987114202e-08, \
1.0544573027237991e-12, \
-4.228160044306151e-09, \
-8.996332567789977e-09, \
4.775726342165498e-11, \
-3.662184866470852e-08, \
2.158090595116846e-08, \
1.528745879886273e-12, \
4.9362807175157286e-08, \
4.72737937684542e-09, \
2.6929960483812465e-09, \
5.90660320654024e-09, \
-1.2018573913863406e-09, \
7.596553608379963e-09, \
-3.9298505782880966e-08, \
3.215453148186498e-08, \
4.814825871335415e-08, \
8.052698952099036e-09, \
5.62508761792202e-10, \
-7.175752880783648e-09, \
5.647013079368435e-09, \
3.620622468503143e-09, \
-1.8845440763470833e-09, \
-3.3694530499062125e-10, \
8.512866518477213e-13, \
-1.4100853817922143e-08, \
5.130297298094888e-10, \
1.526155979370003e-09, \
5.8720419637836585e-09, \
2.9832858405853813e-09, \
-8.589825739591106e-09, \
5.2464201871771365e-09, \
3.8736795993088435e-09, \
-1.7734749224729285e-09, \
1.3933424192202892e-08, \
6.427120613494708e-09, \
-2.906494316057273e-11, \
2.172674662404006e-08, \
-1.3879633119912027e-12, \
1.6282833414926756e-10, \
2.02608177631014e-12, \
1.0771057823433239e-08, \
1.8423516934262807e-08, \
2.226524387083373e-08, \
7.165237292383608e-09, \
-1.793902693059124e-09, \
1.8096554255109254e-09, \
-2.1139721917418086e-12, \
-1.7888018177814047e-08, \
1.5540983777651007e-10, \
8.791297467780623e-09, \
-1.9973447808879774e-12, \
8.330419909441389e-09, \
-1.4090401734279112e-08, \
3.5257993746817817e-10, \
4.42992220683891e-09, \
5.559878779592964e-09, \
3.210406163134394e-09, \
-7.994036543834682e-09, \
-2.6479458625772168e-09, \
4.671794062716117e-09, \
-1.1335540506252073e-08, \
2.0007894008244875e-08, \
-3.1041246018048696e-08, \
1.7012886655010107e-09, \
-4.25297519424106e-10, \
-1.4058580077858096e-08, \
-3.0796780237096755e-08, \
-2.354806571958079e-09, \
-3.8056672480024645e-08, \
-2.4610496751620303e-08, \
5.404879966980011e-14, \
-1.2936014925912787e-08, \
2.970725176965061e-08, \
-9.069076156720257e-09, \
-1.8125655056738799e-12, \
-3.2223934631758766e-09, \
3.943167570241712e-09, \
3.81658571413368e-09, \
-1.9985952892653813e-09, \
3.316516128393232e-08, \
-6.494540460977305e-09, \
-1.2542530347658953e-09, \
-1.2252123759992628e-08, \
-2.9655961242269768e-08, \
6.790132258543968e-12, \
-4.737578773728046e-09, \
-8.805715601134523e-10, \
-2.0760490215820937e-08, \
6.573471211801518e-10, \
-5.399110936110674e-09, \
-4.455316116036556e-09, \
-4.0955985824986385e-10, \
-6.182167222590351e-09, \
-6.658360529598895e-10, \
3.722065156086529e-10, \
-1.3925978592510546e-08, \
1.8168156756814824e-08, \
1.3036627333207207e-09, \
1.0307336317794125e-08, \
-2.76129190042787e-13, \
-3.578667806536373e-09, \
6.2856200244709726e-09, \
-1.1436476654580474e-08, \
-4.086843929940187e-08, \
1.8543595478592856e-12, \
-9.354319619250817e-13, \
-1.3922647035258251e-08, \
-6.0332130402684925e-09, \
5.926668183997563e-11, \
-7.60186757986503e-09, \
3.544832694046818e-08, \
8.016201924476718e-09, \
3.182033481152757e-08, \
1.856937892341648e-08, \
-6.67282895605581e-10, \
1.9115287130944125e-08, \
-1.611428324110875e-08, \
-1.85224600102174e-08, \
1.7887171743780073e-09, \
-3.5084177785194015e-09, \
7.8432824679453e-09, \
2.188073278119873e-09, \
6.48747677800543e-09, \
2.4469919424063846e-09, \
-7.176473304504327e-10, \
2.1378426140472584e-08, \
2.2932911125650435e-10, \
-3.889547350865996e-09, \
-5.486004983623616e-10, \
5.036131511815256e-09, \
4.896822058952921e-09, \
-9.826662150658194e-09, \
3.998640529800923e-09, \
-7.351777606828813e-13, \
-1.9100600212595964e-08, \
-9.603405182190272e-09, \
8.050773381285126e-09, \
-4.9421480241562676e-08, \
-3.546271543086732e-08, \
-1.51984761581625e-12, \
7.605621021866682e-09, \
6.6315442026620985e-09, \
3.406023241225853e-09, \
-8.948156104970906e-10, \
-4.3572461194685275e-09, \
-1.4642577816914581e-08, \
7.811745028618589e-09, \
-3.2756142243073327e-10, \
2.4774600149157777e-08, \
4.6810391118867756e-09, \
-8.66741611815769e-09, \
3.214638299477157e-13, \
-9.7668054199751e-13, \
-1.752817802014306e-08, \
1.8419587632934054e-08, \
1.1744850425543518e-08, \
-2.545602306724959e-08, \
3.35031167253419e-08, \
1.0113258971586325e-12, \
3.508300139287712e-08, \
1.6485540044186564e-08, \
1.1566522850614547e-08, \
-1.6266503118436693e-12, \
-9.958943003596232e-09, \
1.4493029887319153e-08, \
3.15224013558435e-10, \
-1.433437635256496e-08, \
4.8482879932976175e-09, \
-1.4947818982591343e-08, \
-2.3976873819719913e-09, \
8.245458538169714e-09, \
-3.2433604690851325e-09, \
2.6371383299306217e-08, \
-1.3253301451091049e-12, \
6.13564088425278e-09, \
-8.198301593154156e-09, \
-1.3758543104813725e-07, \
4.360300120964666e-09, \
2.6721744816882165e-09, \
-7.358242903876544e-09, \
-1.0818223487168988e-13, \
-7.82341964648825e-13, \
6.199752267121994e-09, \
2.5341149623159254e-08, \
1.5464856062408217e-08, \
5.999237218112796e-10, \
-1.0624641166856463e-09, \
-2.0262463706899325e-08, \
6.365966864763095e-09, \
3.226071498829697e-08, \
-2.5246249535371135e-09, \
-3.044324570211643e-09, \
-8.032799980739469e-10, \
-3.545703286533808e-09, \
2.8812188745952483e-10, \
1.1852443471127572e-08, \
-1.6596458365589206e-12, \
3.1439340020256168e-09, \
-2.791994413442467e-09, \
4.9551713843243306e-09, \
5.961986460079061e-09, \
-8.925895504489911e-13, \
-2.433031331960933e-09, \
-1.7341890146127525e-09, \
-2.87461943138112e-09, \
5.061921437565786e-10, \
6.931533125253964e-09, \
-3.0961313512989364e-08, \
-3.0777076442944917e-09, \
3.1250360077450523e-09, \
-1.4043954443820894e-08, \
8.354207625162202e-13, \
-1.953635475615556e-08, \
3.593284114700168e-09, \
-6.815730646536622e-09, \
-1.785545933330468e-08, \
1.996066506526617e-12, \
-1.9269770223928617e-09, \
-1.0661714566762015e-12, \
4.218304638925474e-08, \
-4.891652860550266e-09, \
4.63695393193575e-09, \
1.8590478489954876e-08, \
1.837016938566194e-08, \
5.441555206431303e-09, \
1.833447349497419e-08, \
-3.8651646327991784e-09, \
-2.122382564834213e-12, \
5.724158924635958e-09, \
3.4723727365681967e-11, \
-2.0568190706171663e-08, \
1.953988437719545e-08, \
-2.4209867888203007e-08, \
1.483904288335225e-08, \
-9.260660016607858e-10, \
-2.1088477643836645e-13, \
1.1186681581065727e-09, \
-7.479453167924532e-10, \
5.765177224503759e-09, \
-3.5283063137825366e-09, \
8.218934972707703e-13, \
1.4279199156419509e-08, \
-9.238048193083159e-08, \
2.847104596526151e-08, \
2.8150973108154176e-08, \
-1.944850680501986e-08, \
-1.6115398793203894e-08, \
-5.497679200772154e-09, \
-1.850006903225676e-08, \
1.5721705621390969e-12, \
2.349479055752113e-09, \
1.4053937569258323e-08, \
-9.361386332784605e-09, \
4.662153774148692e-09, \
3.893626754347679e-09, \
-1.174243896562288e-10, \
-4.734006076034802e-09, \
1.8367247278661125e-08, \
-8.359241299160658e-09, \
-9.955792634741556e-09, \
4.2933741006834225e-09, \
1.833364793313308e-09, \
-4.4791118036791033e-10, \
2.5427919769782648e-09, \
-1.6141570302607988e-09, \
-5.234514488527964e-10, \
9.146166601858852e-10, \
1.5046158763354356e-09, \
-2.197131365733185e-09, \
-2.532187437509492e-08, \
-1.4288775241136364e-12, \
-7.519911093822884e-08, \
6.117197415278497e-09, \
1.3906315210476805e-08, \
8.150827568442764e-09, \
-1.5309661094420335e-08, \
-2.648940622407281e-09, \
2.321125158744053e-08, \
5.648967404958682e-10, \
1.0333492958883306e-12, \
9.721847327170963e-09, \
2.5188255037278395e-08, \
-4.133359876590248e-09, \
-7.317377814786141e-09, \
4.570609135612358e-08, \
-1.2598537324493009e-08, \
-1.0098519354073687e-08, \
-5.132168579002894e-10, \
3.2634454166791116e-11, \
1.3929384312660886e-09, \
1.4163457962013126e-08, \
-5.511918477196787e-09, \
-3.3502207230640124e-08, \
-6.517881789847024e-09, \
-1.250910153238749e-09, \
4.4368121621118917e-08, \
-2.666874721057866e-09, \
1.2034272245387001e-08, \
7.635692078622469e-09, \
3.286257932444414e-09, \
6.445706191016143e-09, \
1.1911065911363039e-08, \
9.1099385812754e-09, \
5.827680116254896e-09, \
7.516841424477783e-13, \
5.5649254093737e-09, \
3.517635960292864e-09, \
-2.4546018551063753e-08, \
8.677615848107223e-10, \
-2.7388596279820376e-08, \
1.0676477479876212e-08, \
-1.9708334519918935e-08, \
1.4588281693761473e-09, \
5.514016798713328e-09, \
-5.0612616320222514e-09, \
1.1542667266439821e-08, \
-9.173573567444748e-10, \
-4.133135611539274e-09, \
-3.6831110383772625e-10, \
8.729150735575786e-09, \
-1.7950365638341736e-09, \
2.1779326786486308e-08, \
-3.3272224975178233e-09, \
-1.222343226636724e-09, \
1.8086078412693496e-08, \
-6.801997116598346e-13, \
-5.9548992403790635e-09, \
-1.7988723843842536e-09, \
3.044774432581221e-09, \
1.1081312756289208e-08, \
-1.608554001802931e-12, \
1.745202737879481e-08, \
-9.651763832607685e-09, \
4.08469080781515e-09, \
-1.0011140361143589e-08, \
3.1986544524187366e-09, \
2.1355285161756e-12, \
-1.1270785194028576e-08, \
1.0533685035341023e-09, \
1.9763930492189274e-09, \
6.1676415086253655e-09, \
-5.152618332004977e-09, \
-8.50783266059807e-09, \
-1.1753722439777903e-08, \
-1.0639451097915753e-08, \
2.7121707102395476e-09, \
2.1727617482980577e-09, \
-5.9713256561622075e-09, \
6.778182015665379e-09, \
-1.4854437679900911e-08, \
2.498677709183994e-08, \
-1.3666812570534148e-08, \
-1.756149359266601e-08, \
-1.026965513496736e-12, \
-1.1265749444433482e-09, \
1.2432210209217809e-12, \
6.283043529897725e-11, \
4.785545471008845e-08, \
-6.1668769049672e-13, \
-6.914147587799846e-10, \
-1.0299306296701616e-08, \
8.219897651429164e-09, \
1.2973578877861769e-09, \
3.418270555499703e-09, \
-5.9518692197002565e-09, \
-2.3151917716290882e-08, \
-4.8816972686438476e-09, \
1.984392251214162e-12, \
-1.4645056722883965e-08, \
-1.0326152377615472e-08, \
-1.0340148293153106e-08, \
-1.775019953242918e-08, \
-1.3022908307291914e-09, \
-5.056386420676517e-10, \
1.974717481548205e-12, \
-1.7244502714675036e-08, \
-1.2328275067474692e-09, \
-3.0631739367237287e-09, \
-1.2244568026176239e-08, \
-3.754153876656119e-09, \
-4.314739232569309e-09, \
2.0669941452888807e-12, \
7.420441150429724e-09, \
-2.44710895991318e-09, \
-2.1207089417885072e-08, \
-2.7748248143666387e-09, \
-2.5573181350324603e-09, \
-3.3529456988645734e-09, \
4.004207521113301e-10, \
1.3569309231797888e-08, \
-1.075582822807064e-08, \
-1.4883051457914576e-09, \
6.506236882586336e-09, \
-5.996947383124507e-10, \
-7.043421401675687e-10, \
2.2180803201099497e-12, \
-1.4998965625068195e-08, \
-9.564971037434589e-09, \
-3.8152812464886665e-08, \
-8.546559016053834e-10, \
3.2046463260826386e-09, \
1.3525660591540145e-09, \
-7.873096705829363e-13, \
4.387040952735788e-09, \
8.566782838670406e-09, \
2.1265904592837614e-09, \
-7.392495504632279e-09, \
-2.8430314102934062e-08, \
2.917655450573875e-08, \
-2.149812229276793e-12, \
-3.814323079609494e-08, \
-1.0504024317015137e-08, \
-1.0502779979049137e-08, \
5.9366986882025685e-09, \
8.78416983596253e-09, \
-3.311694696250811e-09, \
-2.954793520970611e-09, \
-9.803925449247686e-10, \
-2.3699247009290048e-09, \
3.226183320492737e-09, \
-1.6551430448430438e-08, \
1.0986365595044845e-08, \
5.651117351845869e-09, \
1.848432431422742e-12, \
-1.004546312799448e-08, \
1.580320940774982e-08, \
-1.1473286765095736e-09, \
4.1310186382759184e-09, \
3.419662553127978e-09, \
3.3090843398753123e-09, \
-4.322360247499546e-09, \
-3.0365119307873556e-09, \
7.447598648901987e-10, \
-9.456159411058707e-09, \
-2.3566153473097984e-09, \
-1.7956567344157293e-09, \
4.644649109764032e-08, \
7.88564058495922e-09, \
1.532999327480411e-08, \
1.9905989745439e-08, \
3.0743194656679407e-09, \
-3.322018571338958e-08, \
6.88981183216697e-09, \
-1.6766090737974082e-08, \
5.8597029450879745e-09, \
1.733822085903114e-09, \
-8.840416731992207e-10, \
6.720471076339385e-13, \
8.713461063791783e-09, \
-9.200881834203756e-09, \
7.071356389332095e-09, \
-8.789752037330345e-09, \
8.465264933477101e-09, \
-1.2445148911410797e-08, \
5.8890691434498876e-08, \
-3.1500013708551933e-10, \
-1.6265798387024577e-12, \
-5.974877925751798e-09, \
7.577481420106835e-10, \
-6.280455266960416e-09, \
-1.9241987558871188e-08, \
3.748266141911927e-09, \
-2.8633733606397982e-08, \
-3.188668173947917e-08, \
-1.7380458183779979e-09, \
3.9897924963838705e-09, \
1.69662595084219e-08, \
8.32375413040154e-09, \
8.259114503417209e-10, \
2.7336530816768345e-09, \
-2.8487587400150005e-08, \
6.236605898379821e-09, \
-9.226344688251231e-10, \
-1.011447725574044e-08, \
-4.004144571467805e-09, \
-1.490058743058853e-09, \
6.0871241380766605e-09, \
-7.73950237231702e-09, \
-3.9924166195248745e-09, \
-8.55892068329922e-09, \
3.134611858968128e-08, \
1.4247424573454737e-08, \
4.432040068280685e-09, \
-1.1224306817325669e-08, \
-3.0689737418043705e-09, \
-3.065235532062616e-08, \
1.2798776483080587e-09, \
2.7538577640484618e-08, \
4.82748818697587e-09, \
-7.353489372974309e-09, \
-4.123288377400058e-09, \
-5.69937042005364e-10, \
-4.438009959528699e-09, \
-2.370741825075129e-08, \
3.0609792478486497e-09, \
}
